117 100
</s> -0.099536 0.33465 -0.24501 -0.16587 0.10388 0.1069 0.051614 0.03318 0.30139 0.24645 -0.04055 0.10323 0.15127 0.26255 -0.014456 -0.042143 0.012142 0.12693 0.014888 -0.1737 -0.033363 0.12433 0.12013 -0.0015407 0.12295 -0.14002 0.068088 -0.047765 -0.14929 0.096071 -0.13885 -0.059619 -0.11975 -0.14383 -0.21701 0.0041133 0.0073655 -0.22965 -0.064482 -0.1294 0.23089 0.2657 0.024375 -0.024703 -0.05989 -0.0089483 -0.13044 -0.025116 -0.18276 0.10735 -0.31939 0.24581 -0.19305 0.10479 -0.061263 -0.096427 -0.0013316 0.017861 0.14132 0.046512 -0.045338 0.074933 0.27604 0.15311 -0.11796 0.054167 -0.20276 0.084494 0.20547 0.097869 -0.099142 0.12282 -0.0077846 -0.062518 -0.00783 -0.06172 0.37305 0.26606 0.013044 -0.15762 -0.14512 0.10771 0.22756 -0.11594 -0.058376 -0.079557 0.063719 -0.015728 -0.19072 -0.041978 0.22777 0.23798 0.2605 -0.23981 0.011827 -0.21137 0.13381 0.27006 -0.14351 0.04706 
po -0.0056312 0.090529 -0.039477 -0.079485 0.044753 0.029609 -0.022457 0.0036478 0.083488 0.055178 -0.0024765 0.0075407 0.0074423 0.063944 -0.018978 -0.025858 0.0091911 0.045721 -0.036086 -0.010563 -0.0014606 0.049896 0.023004 0.027218 -0.003016 -0.041382 -0.014433 -0.016109 -0.062175 0.0018386 -0.032693 -0.010522 -0.0057695 -0.040286 -0.085138 -0.0038894 -0.010143 -0.039943 -0.013278 -0.023758 0.018828 0.10977 -0.015099 -0.010868 0.028811 0.027736 0.0039035 -0.0097548 -0.037725 0.048692 -0.057099 0.049397 0.001417 0.041661 -0.039754 0.0008656 -0.038669 0.005616 0.070409 -0.012332 -0.00074325 0.020085 0.085473 0.04939 -0.02252 -0.012837 -0.040088 -0.0055057 0.034853 -0.031588 -0.021901 0.05521 0.00054368 -0.042332 0.0057722 0.0080927 0.055311 0.061841 0.01127 -0.027286 -0.043445 -0.0020261 0.061032 -0.012856 -0.0029787 0.0088083 0.0063731 -0.027726 -0.045907 0.00083414 0.047788 0.043441 0.037479 -0.040371 0.019072 -0.064506 0.035815 0.058031 -0.031945 -0.0041009 
i 0.013703 0.021435 -0.016139 -0.026197 0.012342 0.0023518 -0.019262 -0.0070381 0.037912 0.034704 -0.015093 0.0041491 0.0025115 0.012743 -0.0027286 -0.00049392 0.0069887 0.0052688 -0.017156 -0.0010593 0.010047 -0.0016991 -0.00072845 0.0097511 0.0044262 -0.0108 0.0040181 -0.016965 -0.030826 0.0052723 -0.0069263 0.0077237 -0.011538 -0.0076081 -0.040166 -0.01081 -0.01315 -0.0036283 -0.00033378 0.0075117 0.0032 0.03388 0.0049905 -0.012635 0.018481 0.0056685 0.0045874 0.0070237 -0.0048841 0.022865 -0.019016 0.017921 0.0055972 0.0041501 -0.01381 0.010615 -0.0093498 -0.0086173 0.0075869 -0.0094221 0.013186 0.011519 0.037299 0.026509 -0.017369 0.0016189 -0.016905 -0.0031687 0.021174 -0.019283 -0.0045689 0.023435 0.0048344 -0.022089 -0.013566 0.0014824 0.030443 0.0070362 0.012179 -0.021774 -0.001382 0.00025389 0.0084418 -0.0057401 -0.002489 -0.0024852 -0.00065057 0.007958 -0.0066704 -0.0076376 0.0098258 0.014499 0.027581 -0.020859 0.010815 -0.022166 0.0056653 0.022426 -0.008093 0.011829 
sir -0.011241 0.070253 -0.044636 -0.039389 0.020996 0.023332 -0.0056217 0.0048543 0.061454 0.04933 -0.0099549 0.022268 0.011804 0.05322 -0.00086042 -0.015205 -0.0035002 0.017393 0.0011204 -0.017241 0.0040684 0.03224 0.015593 0.0067644 0.0087399 -0.020971 0.015084 -0.010909 -0.041127 0.0062747 -0.016471 -0.0022364 -0.014521 -0.013558 -0.045945 0.010942 0.0052295 -0.045218 -0.014885 -0.01567 0.03402 0.053782 -0.0051498 -0.017563 -0.0022566 -1.6126e-05 -0.0074264 -0.0052749 -0.023404 0.02958 -0.061165 0.035862 -0.017625 0.014558 -0.014983 -0.014145 -0.0076645 0.0083007 0.041567 0.0017815 -0.014258 0.013277 0.052973 0.021264 -0.028251 0.0022022 -0.02955 0.001723 0.033493 -0.00061535 -0.0062749 0.028529 -0.0045284 -0.013109 0.0014323 0.0075544 0.062441 0.05196 0.0087424 -0.0358 -0.027529 0.015088 0.048025 -0.0096798 0.0019614 -0.0064575 0.011418 0.0016102 -0.040286 -0.015525 0.036318 0.030389 0.036075 -0.035453 -0.000587 -0.043052 0.023056 0.048359 -0.024271 0.010489 
is 0.013563 -0.040886 0.032988 0.030296 -0.0068571 -0.00082076 -0.0061715 -0.011267 -0.040108 -0.02602 -0.00095899 -0.015533 -0.020909 -0.034719 0.013843 0.011428 0.0042272 -0.026104 -0.0017516 0.026746 0.012111 -0.027356 -0.017865 -0.013408 -0.0096109 0.024443 0.0015934 0.0091106 0.026612 -0.0025445 0.022833 0.00053899 0.003669 0.016973 0.029855 0.0038557 -0.013091 0.041655 0.011322 0.021933 -0.029464 -0.049271 0.0096434 0.010514 0.016359 -0.017133 0.013017 0.013058 0.020575 -0.020044 0.036807 -0.028517 0.021872 -0.01581 0.024512 0.018299 -0.0029427 -0.00045378 -0.041281 0.0041336 0.011665 -0.0099763 -0.039835 -0.021959 0.022516 0.0035368 0.020776 -0.018713 -0.033046 -0.0019114 0.004948 -0.016668 -0.0035014 0.018703 -0.0094801 -0.0036851 -0.054662 -0.053608 0.0030905 0.016626 0.017394 -0.0068516 -0.032946 0.022438 0.0084292 0.005954 -0.0063865 0.013003 0.019933 0.011173 -0.021104 -0.029809 -0.016905 0.027213 0.0036852 0.040955 -0.020309 -0.046094 0.00747 -0.011528 
that 0.019088 0.0011423 0.010791 0.0038072 0.0018372 0.006398 -0.018833 -0.00028048 -0.018688 0.0088673 -0.0072859 0.0050552 -0.0048318 -0.0071894 -0.004499 0.010318 -0.0016405 -0.017561 0.011337 -0.0074497 -0.0073587 -0.0091094 0.007839 -0.0063675 0.0022047 0.01068 -0.00035928 -0.0072403 -0.010183 -0.0048533 -0.0059548 0.010017 -0.0052684 0.00061554 0.00456 0.0036397 -0.010851 0.0003425 -0.01255 0.016847 -0.0071382 -0.016093 -0.000427 -0.0012866 0.0181 -0.011584 -0.0021393 -0.0079389 -0.0040549 0.0052843 -0.00058967 -0.014725 -0.012609 0.0033132 0.012202 0.0049025 0.0013384 -0.0043628 -0.01399 -0.0038871 -0.0032498 -0.00769 0.0073281 -0.0051073 0.0068547 0.006092 -0.0063402 -0.0093346 -0.0093325 0.0099271 -0.0048444 0.0081141 0.013211 -0.0073569 -0.0097436 -0.0072401 -0.003457 -0.023995 -0.0055569 -0.0037347 0.013692 0.0087013 -0.0045514 0.018494 0.01011 0.00045457 -0.010425 0.0066348 -0.0072134 0.0089881 -0.00073379 -0.0051212 -0.004516 0.0021421 0.0063758 0.0091845 -0.012181 -0.0073319 -0.0098389 -0.0080142 
am 0.018624 -0.037139 0.03657 0.0038087 -0.012154 -0.0040903 -0.0058699 -0.0044093 -0.027945 -0.026657 0.0058129 -0.0086337 -0.031241 -0.035095 -0.0056158 0.01513 -0.0014653 -0.017633 -0.0050927 0.029572 0.015065 0.00021219 -0.016179 -0.0028719 -0.012554 0.016221 -0.020329 0.0032913 0.0085738 -0.0041491 0.0089111 -0.0018549 0.0083033 0.018019 0.01847 0.0057873 0.0049591 0.02578 0.0088586 0.016867 -0.029612 -0.015598 0.0016059 -0.0020923 0.019508 0.001803 0.029698 -0.006422 0.019649 -0.013838 0.038921 -0.019215 0.02026 -0.0049223 0.011361 0.0052677 -0.0066555 0.0026927 -0.0019304 -0.012965 0.005969 -0.001987 -0.031903 -0.028299 0.00062979 -0.0062875 0.010091 -0.0077437 -0.024965 -0.0065981 -0.00087225 -0.0053866 -0.010331 0.0025593 0.0059536 0.010531 -0.042492 -0.035249 -0.010231 0.013519 0.020054 -0.0072246 -0.018095 0.0093358 0.016331 0.007033 0.0019504 0.006902 0.027401 0.0011445 -0.025248 -0.03592 -0.035082 0.021742 -0.0087007 0.0094143 -0.016914 -0.034585 0.024249 -0.016201 
present -0.0026249 -0.015637 0.0079084 -0.021665 0.015678 0.00064139 -0.025316 4.4893e-05 8.6653e-05 -0.024679 0.0099274 -0.027025 -0.025819 0.0084853 -0.0063112 0.004366 -0.0017819 -0.0032317 -0.017105 0.036074 0.012162 0.011237 -0.026332 0.011319 -0.023551 -0.01479 -0.031495 0.0049189 -0.026 -0.013205 0.0080061 0.012598 0.028845 0.010975 -0.027019 0.0082505 0.013343 -0.0067076 0.019232 0.010646 -0.014075 0.022551 -0.011198 0.011108 0.026758 0.035607 0.039015 0.0038213 0.015592 0.019514 0.0076417 -0.012523 0.03772 0.025816 -0.0034007 0.0017679 -0.020969 0.0059838 0.026965 -0.029517 0.0057622 -0.011511 0.01852 -0.024877 -0.016268 -0.034114 0.010838 -0.019036 -0.029158 -0.034659 -0.0066876 0.020078 -0.026921 -0.0047121 0.02702 0.031063 -0.035824 0.0024637 -0.0074914 0.0042726 -0.0066048 -0.023598 0.0092859 0.023493 0.012356 0.027559 -0.0004895 -0.0015016 0.0021168 -0.0083162 0.00024276 -0.03302 -0.044075 0.0022417 -0.012795 -0.01458 -0.0053117 -0.025824 0.020377 -0.01318 
a 0.014116 -0.037582 0.032252 0.016962 -0.0038737 -0.020472 -0.003931 -3.202e-05 -0.040582 -0.026995 -0.0075203 -0.0134 -0.016452 -0.015441 0.0050951 -0.0045825 -0.001585 -0.0070315 0.0088761 0.013028 -0.0088387 -0.015745 -0.0074597 -0.0084555 -0.011157 0.0098093 0.0070626 -0.0051657 0.027428 -0.0027612 0.015054 0.015648 0.018135 0.011032 0.015858 0.003404 0.0074534 0.02646 0.0077507 0.020302 -0.028103 -0.037832 0.0079026 0.0094373 0.010501 -0.010714 0.014603 0.0073529 0.01393 -0.0032067 0.027387 -0.018914 0.010312 -0.0043107 0.0062004 0.018451 0.0012012 -0.010409 -0.016762 0.003666 0.00021795 -0.0065423 -0.023223 -0.0033453 0.0091869 -0.012638 0.028441 -0.011059 -0.025719 -0.0084965 0.015392 -0.024198 0.0034289 0.016791 0.010269 0.013604 -0.040539 -0.021657 0.0088408 0.023522 0.012964 -0.012388 -0.022384 0.0026341 0.012949 0.014445 -0.00092456 0.005897 0.019362 0.0064414 -0.022723 -0.026849 -0.013555 0.027943 -0.0071745 0.021286 -0.016611 -0.014462 0.02043 -0.0082435 
test 0.0036108 -0.055453 0.039981 0.038723 -0.019199 -0.0083481 0.0080768 -0.0045254 -0.055534 -0.045198 -0.004526 -0.023791 -0.015293 -0.054108 -0.003344 -0.0055031 -0.012859 -0.031157 0.0020564 0.018635 -0.003583 -0.024927 -0.019256 -0.0074187 -0.024633 0.021131 0.0043382 -0.0037428 0.038456 -0.021817 0.02529 0.0031436 0.026145 0.014436 0.031158 -0.00202 -0.012339 0.04868 0.01476 0.017652 -0.025719 -0.033674 -0.0036684 0.010381 0.0012218 -0.0040125 0.021142 0.00097704 0.027198 -0.023557 0.050897 -0.04442 0.030111 -0.021197 0.018483 0.023835 0.0055046 0.0067846 -0.0099744 0.0048215 0.00066493 -0.010564 -0.045865 -0.014992 0.012391 -0.017711 0.026875 0.002509 -0.038717 -0.004453 0.023729 -0.031555 0.0044718 0.02167 0.0037599 0.014341 -0.054867 -0.041365 0.0093362 0.021821 0.034584 -0.023769 -0.026392 0.005253 -0.0011333 0.016486 -0.023142 0.012682 0.030213 0.005487 -0.033137 -0.027265 -0.020666 0.028171 -0.019485 0.033139 -0.035083 -0.035642 0.016169 -0.018718 
mam 0.0061318 0.019368 -0.014125 -0.0059308 0.016541 0.0027973 -0.006697 -0.0014568 0.015803 0.0084245 0.0086234 0.0030582 0.0018692 0.012898 -0.0059115 -0.0079582 0.00053225 0.0028023 0.0015627 0.0064531 0.0028004 0.0069825 0.013864 -0.005097 -0.0056714 -0.013446 0.0072215 -0.0057097 -0.014732 0.0032283 0.0046566 -0.0096421 -0.0003001 -0.0090002 -0.0076326 -0.0072666 0.00061277 -0.0088916 -0.004706 -0.013276 -0.0024274 0.018111 -0.012483 -0.0071908 0.011598 0.015627 -0.0022144 0.0041914 -0.01199 0.0095985 -0.01843 0.0041665 0.0095864 0.0052053 -0.0039 -0.005343 -0.0044433 0.010832 0.021247 -0.001232 0.0053679 0.0087889 0.016881 0.015233 -0.0065708 0.006913 0.00068712 -0.0010266 0.0030259 0.0020132 0.0061479 0.018297 0.0053336 -0.015654 -0.00088466 0.0030899 0.0084966 0.017667 0.0051677 -0.011204 -0.012671 0.0055795 0.0074059 -0.0058586 0.0078351 -0.00478 -0.0021026 -0.004736 -0.01356 -0.0020179 0.0019166 0.010322 0.010077 -0.013495 -0.0060707 -0.021208 0.013723 0.0072839 -0.0088976 0.0045097 
the 0.01357 0.011914 -0.0073574 0.009445 -0.0036789 0.0095058 0.0038563 0.0031316 -0.0071366 0.0014614 -0.012631 0.0043146 0.010574 0.0019849 0.0073064 0.0015643 0.0033856 -0.010321 0.0023723 -0.0019174 0.0023786 0.0014139 0.00397 0.0048285 -0.0041781 0.0054823 -0.0022793 0.0030748 -0.01444 0.0064288 0.0012348 0.010011 -0.0050419 -0.011699 -0.004093 -0.00088125 -0.0023876 -0.0045192 -0.0054643 0.0044069 0.0076864 0.0018408 0.0098259 0.0034242 0.010682 -0.0046471 -0.0033283 0.002328 -0.01007 0.0088507 -0.010423 0.002481 -0.00087369 -0.0079067 0.012739 0.0050828 0.0015729 -0.005269 0.00211 -0.010287 0.0083466 0.0013806 0.013382 0.012409 0.0064238 -0.0015658 -0.0058724 0.0039485 -0.004285 0.0044214 -0.0088518 0.0047684 0.011175 0.004333 -0.011066 -0.00088178 0.0025753 -0.0073346 0.0084151 -0.013156 0.0088007 0.0080385 -0.0058208 0.0088481 0.0070438 0.005744 0.0097767 0.0047372 -0.0013968 -0.010672 0.0023819 0.012166 0.0083041 0.0040181 0.0097532 -7.3316e-05 -0.0087897 -0.00034728 -0.015227 -0.0047609 
in 0.0089652 -0.019142 0.002353 0.0045274 0.0040073 -0.00061449 -0.016151 -0.0029436 -0.011102 -0.011534 -0.0049033 0.0067781 0.0063041 -0.0027598 0.0045339 0.0042122 0.0015018 -0.012214 0.010353 -0.00089493 0.0092207 -0.0093664 0.0026641 -0.00066617 -0.0068077 -0.0012223 0.004169 0.009707 0.011132 -0.005709 0.0059981 0.005912 0.0098882 0.0067309 -0.0016475 0.0019772 0.0067069 0.0029541 -0.0065818 0.0058019 -0.00046708 -0.022406 0.010979 -0.0077761 0.013992 -0.011788 0.0034324 0.010054 0.0072864 -0.0036375 0.016185 -0.020455 0.0015185 -0.0097924 0.0026329 -0.002909 -0.007451 -0.0065588 -0.020817 -0.0061669 0.0073215 0.0023973 -0.0034952 -0.0074602 -0.003351 0.0082257 -0.0015105 -0.0036865 -0.0041413 -0.0055151 0.0054322 0.0035557 0.0079091 -0.00096803 -0.0044079 -0.0094837 -0.011144 -0.0067679 0.00046057 0.012046 0.0099953 0.0011451 -0.0073385 0.0031442 0.0087877 0.0034515 -0.0016978 0.00083052 0.00065937 0.0020223 -0.0041894 -0.017778 -0.0072534 -0.0017034 -0.00090843 0.0045165 -9.8495e-06 -0.020555 0.0018906 -0.0093593 
agree -0.0017316 0.045385 -0.026772 -0.018089 0.0087544 0.019291 0.0054652 -0.0010008 0.051034 0.04225 -0.0059818 0.018529 0.0098886 0.04195 -0.0027964 -0.0018701 0.0077496 0.024894 -0.011298 -0.024456 -0.0067129 0.007089 0.0090335 0.0039251 0.022545 -0.014111 0.018695 -0.003616 -0.015462 0.012633 -0.013596 -0.0037262 -0.018702 -0.022441 -0.027168 0.0077657 -0.0095407 -0.03988 -0.0094161 -0.016908 0.037897 0.039274 0.002239 -0.0083507 0.0051951 -0.01156 -0.026397 -0.00081104 -0.018942 0.012843 -0.042627 0.042949 -0.028503 0.016375 -0.014751 -0.0080112 -0.0103 0.0070716 0.012837 0.0079702 -0.012994 0.0025313 0.04251 0.039028 -0.019833 -0.0012692 -0.030745 0.0094117 0.036987 0.0041561 -0.022985 0.025275 0.0046485 -0.012759 -0.010699 -0.014949 0.060013 0.020502 -0.0032446 -0.026835 -0.012952 0.01724 0.021192 -0.005128 -0.0087046 0.00087609 0.016491 -0.0078276 -0.027064 -0.0010187 0.02277 0.038325 0.043993 -0.040663 0.003615 -0.027235 0.01208 0.034266 -0.01272 0.0057833 
have 0.0018148 0.0025685 -0.0034556 0.0035577 0.0085571 -0.0089715 0.0017253 -0.0025586 0.010103 0.012168 -0.0064821 0.011346 -0.005639 0.0052999 -0.0061428 -0.0049805 0.00026718 0.012837 -0.0057903 0.0059815 -0.0086596 0.008595 0.0042399 -0.0060147 0.0049885 0.0015867 0.011108 -0.010983 0.0023267 0.0075324 -0.0086555 0.0071782 -0.01027 -0.0092867 0.0028651 -0.0031884 0.0020246 -0.0023612 -0.010316 -0.012205 -0.0023974 0.012687 -0.0051856 -0.0050694 -0.0018157 -0.0031082 0.0065078 -0.0057864 0.0045059 0.005964 -0.015934 0.013652 -0.0059018 1.9522e-05 -0.0069703 -0.0058236 0.00016336 -0.0011548 0.0097315 0.0051817 -0.0087063 0.0036361 -0.0033761 0.013731 0.0064547 -0.006924 -0.0041803 0.001086 0.0054228 0.0042335 -0.0097364 0.00022894 0.0037978 -0.012807 -0.010746 0.0097045 0.018014 0.012495 -0.0031786 0.0026928 0.00030862 -0.0054227 0.0043967 0.0058461 -0.0038091 -0.0061158 0.0087251 0.001627 -0.0072388 -0.0094548 0.013366 0.0097942 0.00077947 -0.0021914 -0.0051001 -0.013905 0.00020294 0.0081751 -0.0027517 0.0015221 
same -0.0025778 0.05877 -0.038397 -0.035408 0.018722 0.020533 -0.0043252 -0.0021539 0.042136 0.049471 -0.0034137 0.005987 0.021603 0.041871 0.0058991 0.0014907 -0.00011629 0.018302 -0.0093476 -0.029855 0.0048149 0.0030606 0.0053714 0.012322 0.018831 -0.015598 0.0061479 -0.00010434 -0.033242 0.0064797 -0.016758 0.0035744 -0.0080584 -0.02522 -0.044403 -0.0052832 -0.010975 -0.03842 -0.013808 -0.0046059 0.031145 0.045734 0.013061 -0.0074895 -0.0052075 -0.014636 -0.015512 0.0079328 -0.022888 0.025466 -0.048901 0.047687 -0.020634 0.0097674 -9.2075e-05 0.0015971 -0.0060616 -0.0038762 0.031542 6.2703e-05 -1.6961e-05 0.0019247 0.036004 0.035719 -0.012852 -0.0015868 -0.018741 0.010808 0.028321 0.014046 -0.0076625 0.028801 -0.0096124 -0.019617 0.0017406 -0.011443 0.052541 0.022686 0.0059613 -0.02475 -0.01894 0.023754 0.034367 -0.010051 -0.0092491 -0.014185 0.014131 -0.0090351 -0.024342 -0.016829 0.022002 0.040944 0.047008 -0.040474 0.0045544 -0.025007 0.010837 0.036224 -0.018032 0.01221 
no 0.0012288 0.010385 -0.010088 -0.0078301 0.0089912 0.006135 -0.0051541 -0.0069112 0.01828 0.0091394 0.010641 0.010946 -0.0019822 0.0041576 0.0041311 -0.01187 0.0010356 0.011926 -0.010643 -0.004931 -0.00038259 0.010377 0.017966 0.010973 -0.002539 0.003971 0.0071263 -0.001342 -0.0051943 0.0076169 0.0079756 -0.0065468 -0.00036999 -0.015454 -0.012715 -0.011307 -0.0056372 0.00023582 0.010539 -0.004189 -0.0076316 0.022599 0.0036376 0.010822 0.0046977 0.013694 -0.0034328 0.0054883 0.0037286 0.0043629 0.00613 0.0044543 0.0016213 -0.0060158 -0.010641 -0.0005783 0.0068446 -0.0060968 -0.00098462 0.0039723 0.0047158 -0.0048559 0.013647 0.0061057 0.0080658 0.010303 0.0090834 0.0032369 0.008185 -0.0092154 -0.0050665 0.0077808 0.016357 0.0010558 0.0063827 -0.0008315 0.0031705 0.0067861 0.0091672 0.0074973 -0.010639 0.0014713 0.0064789 0.0022295 -0.0023333 0.0051922 -0.014375 -0.015942 0.0043105 0.010447 0.011373 0.014936 0.011787 0.014156 0.0040933 -0.01734 0.0073789 0.011427 0.0052337 -0.0044546 
mathematics 0.013338 -0.0178 0.0087281 0.0105 -0.0053547 -0.0097355 -0.013833 0.0061857 -0.0071723 -0.015694 -0.0047753 0.00099308 -0.0092278 -0.0091961 -0.0085962 0.014372 0.0095604 -0.0072048 0.0013288 -0.0061635 0.0050726 -0.0080156 -0.01078 -0.0065067 -0.0086756 0.012522 0.00054046 -0.0065718 0.00075553 0.003558 -0.00061392 -0.0012502 0.0034754 0.00034251 0.0064873 -0.0049261 0.005038 0.0090121 0.0023824 -3.3553e-06 0.0020516 -0.012349 -0.0014707 0.0035759 0.0088356 -0.010392 0.0089552 -0.0038278 -0.00086874 -0.0085239 0.0018539 -0.0063686 -0.0032266 -0.0076206 0.012933 -0.0045172 0.0045528 -0.00050684 -0.013242 -0.0025343 -0.0057024 -0.0096291 0.00072771 0.0036344 0.00056447 0.0084924 0.011452 0.0064124 -0.0096503 0.0071998 -0.0059472 0.0036477 0.003051 0.0040529 -0.0016839 -0.010165 -0.014261 -0.0055777 0.0069083 0.012308 0.017168 -0.0027828 -0.010535 -0.0031527 0.0067803 0.0015045 -0.00074506 0.0007879 0.011765 -0.0077284 0.0041199 -0.013879 0.0021304 0.0089975 0.0025434 0.0057875 -0.0069957 -0.011628 -0.0031509 0.0040694 
ok 0.00037693 0.071163 -0.048297 -0.040363 0.019509 0.0094207 -0.001156 0.014619 0.054723 0.055679 -0.016964 0.015373 0.027913 0.055839 0.0066706 -0.0040815 -0.0019792 0.018081 0.00038951 -0.031164 -0.0025767 0.015377 0.017134 0.0067496 0.01965 -0.025261 0.020862 -0.02063 -0.026998 0.0053826 -0.028869 -0.012737 -0.014849 -0.027145 -0.048911 -0.0043525 8.5938e-05 -0.047877 -0.026554 -0.012392 0.043608 0.048259 0.0050476 -0.021028 0.00081562 -0.017479 -0.030183 0.0066982 -0.030551 0.01651 -0.062545 0.055148 -0.033456 0.021577 -0.013956 -0.0079456 -0.0096053 0.012466 0.03706 0.013212 0.0032869 0.0087431 0.059585 0.046548 -0.023448 0.0078148 -0.02697 0.0072406 0.03441 0.011214 -0.021943 0.023652 0.0038252 -0.016925 -0.0076962 -0.0072699 0.074052 0.03786 0.0054171 -0.035226 -0.018072 0.0072937 0.042291 -0.01472 -2.6921e-05 0.0017548 0.012004 0.006597 -0.025433 -0.0087494 0.038972 0.050797 0.059692 -0.053141 0.00018647 -0.039237 0.012508 0.050515 -0.031883 0.015729 
of 0.0094957 -0.024075 0.021668 0.019205 0.0014589 0.0040004 -0.00071377 -0.0020922 -0.020187 -0.0095193 -0.0079682 -0.015474 -0.0045958 -0.012998 0.0034889 0.0034889 -0.0061324 -0.015442 -0.0077994 -0.0023513 0.006027 -0.0059345 0.0017764 0.0025987 -0.01122 0.00084169 -0.0053751 0.0080947 0.012566 -0.0020829 0.011674 0.0032854 0.012736 0.014009 0.0090311 -0.0013466 -0.01108 0.022098 0.0011403 -0.00093586 -0.012163 -0.013176 -0.007412 0.010069 0.0082385 0.0066393 0.0060973 -0.0072604 0.010197 -0.016564 0.014276 -0.0095338 0.011194 -0.0066494 0.00074536 0.011468 0.007624 -0.004553 -0.0052031 -0.0090431 -0.0058098 -0.0041774 -0.024983 -0.0065497 0.010579 -0.0057285 0.015465 0.0045836 -0.010067 0.0065411 -0.0017978 -0.010316 -0.003135 -0.00026301 -0.0053759 -0.00018264 -0.01318 -0.011726 0.0062884 0.0067742 0.019132 -0.0027478 -0.012258 0.0073512 -0.0061117 0.010933 -0.012499 0.0022887 0.016672 -0.0074703 -0.0061804 -0.014576 -0.0042995 0.0037368 -0.0061734 0.014773 -0.015062 -0.0066953 0.0093147 0.0032219 
me 0.0096213 -0.028367 0.018389 0.019919 -0.014201 -0.0027067 0.0020301 0.0024755 -0.007584 -0.014263 -0.0028309 -0.0026538 -0.0023652 -0.0090382 0.0060726 0.010624 0.0035699 -0.01395 0.0085762 0.003923 -0.0069525 -0.011359 0.00067083 0.00021087 -0.00081076 0.0040396 -0.0068564 0.0054525 0.0038557 -0.010776 0.0053397 0.00067191 -0.0014981 0.011758 0.0035586 -0.0063866 0.0086194 0.017939 0.0089578 0.018027 -0.019652 -0.016786 0.0014813 0.0084201 0.0099496 0.0043767 0.00099512 0.0027718 0.013634 0.0020838 0.021176 -0.019709 -0.0014929 -0.0059085 5.7563e-05 -0.00017695 0.0093587 -0.004322 -0.017149 0.0035094 -0.0064464 -0.0022431 -0.019133 -0.0034974 -0.002275 -0.0037353 0.013352 -0.0018579 -0.011861 -0.010087 -0.0067587 0.0026524 0.0078714 0.013436 -0.0090146 0.0075239 -0.013694 -0.017117 -0.0017304 0.00050263 0.016143 0.0038415 -0.018856 -0.00047822 0.0084383 0.0041692 -0.0061304 0.011243 0.0089709 -0.0077226 -0.006554 -0.0036638 -0.0067626 0.014071 -0.0078437 0.0067695 -0.01083 -0.025798 -0.00088951 -0.0060033 
news 0.0070876 0.0010878 0.0020106 -0.0025522 -0.00043239 0.0051368 -0.013828 0.0028155 -0.015118 -0.0099675 -0.0033313 0.007549 -0.0034743 0.001982 -0.0035174 0.0082791 0.0063803 -0.0033762 0.011458 -0.0035654 0.0088998 -0.01375 0.0085633 -0.0018709 -0.0025058 -0.0012813 0.0044862 -0.002985 -0.0056165 0.00084067 0.011956 0.0091731 0.0023767 0.010945 0.0045867 -0.010377 -0.0058007 0.0025234 -0.0087986 0.0085552 0.0016395 -0.00060977 -0.0018437 -0.00053752 0.006962 -0.010114 0.0069003 0.003939 0.0031037 -0.011384 0.0044587 0.00045115 0.0049024 -0.0082469 -0.0021813 -0.0021766 -0.002441 -0.0092345 -0.0080494 -0.0017782 -0.0038163 -0.0025538 -0.00052416 -0.0025983 -0.0062105 -0.0090815 0.0095277 -0.0019591 0.0010305 0.0034677 -0.008888 -0.0022051 0.0012194 0.0028052 -0.0062611 0.004047 -0.017543 -0.0065122 0.00084279 0.0056164 0.0050971 -0.0050057 -0.0034941 -0.0029765 0.0055143 0.010157 -0.0011706 0.0019317 -0.0010798 -0.006333 0.004532 -0.0096144 -0.0097347 -0.0014683 0.010671 -0.003584 -0.0014392 -0.005147 0.0092191 -0.0072508 
goodmorning 0.0019004 -0.010544 0.023547 0.013457 -0.012459 -0.00060928 -0.0070116 0.0012994 -0.0072072 -0.011522 0.0029211 -0.012691 -0.011299 -0.0082727 -0.011388 0.011062 0.0066486 0.002901 -0.011083 0.021092 2.4469e-05 0.0083639 -0.0177 -0.0010244 -0.0093917 0.008495 -0.00069134 0.011578 -0.0035579 -0.010713 0.014236 0.0024616 0.020973 0.011594 0.013782 0.010318 0.011551 0.017303 -0.0024117 0.010572 -0.024985 -0.01045 -0.014702 0.0031869 0.011949 0.0063676 0.022676 -0.0041546 0.0045875 -0.011997 0.026574 -0.0055415 0.0204 0.0066979 -0.001364 -0.0029823 -0.0073395 0.0098995 0.0088974 -0.0039781 -0.0020564 -0.0043927 -0.020702 -0.0051477 0.010095 -0.018224 0.022682 -0.0078833 -0.006809 -0.0073069 0.01052 -0.0079146 -0.012261 -0.0066118 0.0060032 0.0066093 -0.025494 -0.022958 -0.004299 0.0072635 0.00057928 -0.0048272 -0.012591 0.010196 -0.0051407 0.0060358 0.0088963 -0.0048849 0.0099428 -0.005371 -0.017643 -0.026339 -0.024785 0.0063122 0.0056975 0.013575 -0.0046564 -0.015447 0.015778 -0.013256 
sorry -0.0022046 -0.00044334 0.0031691 0.0090277 -0.002174 0.0096453 -0.011876 -0.005302 -0.00069332 -0.012671 -0.0013938 -0.0098068 -0.0019787 0.0065089 -0.0098502 0.010778 0.0090056 -0.0118 -0.010149 0.010225 0.00014358 0.002309 -0.009891 0.0011546 -0.013185 -0.0048235 -0.014727 0.0036513 -0.00080414 -0.0069742 0.0082154 -0.0079608 0.011307 0.0085942 0.0064514 -0.0092261 0.0079819 0.010251 -0.0036629 0.006269 -0.013091 -0.01073 -0.0036269 0.0054938 0.0088438 0.011713 0.012639 0.0028653 0.010737 -0.0096702 0.014668 -0.00029567 0.0023795 -0.0022051 -0.0064225 -0.0040631 -0.0077398 0.0041906 -0.00266 0.0029603 0.010332 0.007106 -0.004621 -0.0087922 -0.0046112 -0.0066478 -0.0037394 -0.0059668 -0.01324 -0.014609 0.0041784 0.0065796 -0.0047353 0.0016114 0.0027168 0.0019361 -0.010658 -0.015143 -0.0048509 0.0084864 0.0020224 -0.0085537 -0.0080008 0.012865 0.0095589 0.012895 0.0002204 0.0074278 -0.0039988 0.0082077 -0.0055821 -0.011564 0.0016348 6.5926e-05 0.0038059 0.0080742 0.0080925 -0.0004707 0.0082412 0.0050818 
yes -0.00021564 0.060567 -0.047257 -0.027843 0.021321 0.017181 -0.0023338 0.00061763 0.053148 0.054642 -0.017678 0.018641 0.020435 0.044884 0.0021422 -0.0015463 -0.00070503 0.024829 0.0020413 -0.023982 -0.0011361 0.014265 0.01688 -0.00033188 0.027433 -0.021938 0.018346 -0.013623 -0.032671 0.022293 -0.025114 -0.0053015 -0.015602 -0.013199 -0.045325 0.0055961 0.0003013 -0.036869 -0.019571 -0.013019 0.032713 0.037775 0.006907 -0.022082 -0.0048955 -0.016773 -0.026872 -0.0053781 -0.033932 0.019749 -0.041641 0.037682 -0.017265 0.0062617 -0.0017115 0.0017068 0.0059383 -0.0005167 0.035677 0.00048597 -0.0010934 0.0056253 0.044007 0.042876 -0.024997 0.0073273 -0.023966 0.0074406 0.047437 0.017454 -0.022764 0.028228 -0.0025891 -0.010181 -0.014461 -0.018156 0.055874 0.040518 0.00419 -0.025877 -0.025109 0.012606 0.026538 -0.020424 -0.0096007 -9.7274e-05 0.013872 0.0047891 -0.03288 -0.0034218 0.044684 0.040698 0.04628 -0.043974 0.012871 -0.043228 0.013297 0.034805 -0.02614 0.015832 
here 0.0054606 -0.0082993 0.0087922 -0.00012429 -0.0028352 -0.0065917 -0.016774 -0.0027491 0.0097458 -0.012679 -0.0027955 0.0013853 -0.018039 -0.0071764 -0.014175 0.01075 0.0042828 -0.0084882 -0.016346 0.019664 0.0059832 0.0087099 -0.0082293 0.00051088 -0.0040708 -0.0029443 -0.0077943 -0.010204 -0.017123 -0.0059878 0.011392 -0.0021477 -0.00037231 -0.0039968 -0.018869 -0.0029686 -0.005931 -0.0097113 0.0076703 0.0043333 -0.014012 0.013557 -0.0017202 0.00073567 -0.00015718 0.019899 0.0086155 -0.010002 -0.0022253 -0.001332 -0.00046046 -0.0071057 0.021591 0.016634 6.6297e-05 0.0091449 -0.016076 0.0020381 0.011022 -0.0079215 0.0092787 -0.010491 0.0061208 -0.0036714 -0.014729 -0.020939 0.010166 -0.0032217 -0.0051528 -0.016565 -0.0092947 0.011318 -0.0077064 0.004443 0.011237 0.011938 -0.010287 0.0049714 -0.003728 0.0017899 -0.006867 -0.015264 0.0015451 0.0059012 -0.0011585 0.01295 -0.0036342 -0.0047087 -0.0079257 -0.011062 -0.011176 -0.018414 -0.021896 0.0051996 -0.00047628 -0.014441 -0.0051366 -0.0054784 -0.0024883 -0.0054475 
current 0.0037973 -0.015301 0.012044 0.017275 -0.0010137 0.00039573 0.00024649 -0.0077141 -0.013168 -0.0075459 0.004114 -0.0039549 -0.0087166 -0.015452 0.0022162 -0.007122 -0.0075247 0.0040311 0.0021053 0.0022341 -0.0023331 -0.0097825 -0.0121 0.0078891 -0.011608 -0.0001126 -0.006435 -0.0088093 0.00743 -0.011037 -0.0032366 0.0034081 0.012983 0.011493 0.0037019 0.00082098 -0.0014561 0.0091367 0.0033361 0.010885 -0.0093705 -0.0036797 -0.00456 0.0080846 -0.0089874 -0.0026688 0.0053453 0.006008 0.017266 0.0031657 0.0043009 -0.0064646 0.0085129 0.0013701 0.0097155 -0.0028548 0.00095783 -0.0086549 0.0014154 -0.00076665 0.0075386 -0.0082045 -0.0030873 -0.0062402 0.011694 -0.0056404 0.0065458 0.0066644 -0.014673 -0.00082447 -0.0040676 -0.016446 0.0090646 0.003624 0.0021435 0.0052867 -0.0051444 -0.020466 0.01052 0.0090121 0.0051758 -0.0026984 6.2299e-05 0.0056929 0.0047217 0.0034987 0.0046283 0.0079812 0.0031167 -0.00081785 -0.005016 -0.018132 0.0011242 0.0168 -0.0035389 0.00090381 -0.0058265 -0.008167 0.0011591 0.0044054 
this -0.0032441 -0.020577 0.0062124 0.0081509 0.0048601 0.0046314 0.0083836 -0.00041263 -0.009442 0.00095297 -0.0026654 0.0010691 -0.01232 -0.011887 -0.0083348 -0.0082675 -0.0013312 -0.013741 0.00086383 -3.1147e-05 -0.00268 -0.0012492 -0.00076436 -0.00091282 0.00081658 0.010391 -0.0037985 0.0025529 0.0049212 0.005491 0.0037676 0.010309 -0.0042905 -0.00075744 0.016117 -0.0044208 -0.0085571 0.0030785 0.0098864 -0.0037138 -0.014915 -0.0095777 -0.0030692 0.0090312 0.0013384 -0.0031704 -0.0024435 -0.0054845 0.013456 1.2985e-05 0.020408 -0.015231 0.0083703 0.00030556 -0.005759 -0.003468 -0.0078031 0.00061829 -0.011311 0.0094094 0.010903 0.0059583 -0.013299 -0.013352 0.0021957 0.00069838 0.0052861 -0.0079998 -0.016982 0.0066782 0.01396 -0.01177 -0.0080657 0.0015672 -0.002623 0.011599 -0.0030884 -0.015781 -0.008709 0.01194 0.014752 0.0050948 0.00072031 0.012331 0.0052988 0.0032846 -0.011233 -0.0006101 0.016156 -0.0066521 -0.012704 -0.009152 -0.0040234 0.016512 0.003562 0.010146 -0.015551 -0.0051446 0.0077047 -0.0086763 
run -0.00023942 -0.0021917 0.016408 0.01225 -0.0071653 -0.009336 -0.0013227 0.0054277 -0.015717 -0.0063302 -0.0011823 -0.0011576 -0.0034968 -0.014121 0.0060589 0.0044403 0.0053301 -0.0061246 -0.00030028 0.0056747 0.002238 -0.00075726 -0.009185 -0.0024384 -0.0027471 -0.00071173 0.0043798 0.0037244 0.0070898 0.00056658 0.0050977 0.0030388 0.013741 0.0087013 0.011384 -0.0069524 -0.0036984 0.0037752 0.0037872 -0.0059178 0.0014997 -0.0022296 -0.0018775 -0.0015947 -0.0040066 -0.00099974 0.01126 -0.00017309 0.010214 -0.0022235 0.01913 -0.015308 0.015352 0.0022685 -0.0015732 0.011284 -0.0051075 -0.0087983 -0.0016589 0.00076437 0.005718 -0.0007417 -0.019644 0.0050054 0.011568 -0.0097643 0.0012202 0.0037214 -0.01308 -0.0083179 0.0090814 0.0041081 -0.0077572 0.0081502 -0.0037844 0.00072003 -0.0022503 -0.0020108 -0.0057568 0.010922 -0.0014536 -0.010155 -0.0075404 0.0073644 0.0048948 0.0025811 -0.00018251 0.0020523 -0.0019358 0.010739 -0.0080287 -0.0078866 0.0016791 0.011644 -0.010416 0.01502 -0.015018 -0.017599 0.011373 -0.011143 
currently -3.7694e-05 -0.0011307 3.6568e-05 -0.0015008 -0.0065663 0.0039455 0.0025367 0.00013418 -0.0094641 -0.0039678 0.0045348 0.0036059 -0.011959 -0.0050914 0.007856 -0.0057135 -0.0057221 -0.0046269 0.0036824 0.0034761 -0.0076546 -0.0018483 0.00047273 0.005008 -0.0026988 0.0014236 0.0085163 0.00095443 0.0060269 0.0049704 -0.0030916 0.011855 0.0045278 -0.0019228 0.015013 0.0022325 -0.0042578 0.0073395 0.0066357 4.8375e-05 -0.00021397 -0.0025231 0.0017792 0.0094197 0.0019976 -0.0061443 -0.0017548 0.0051794 0.0010192 -0.0072423 0.0139 -0.0024046 0.00058743 -0.0054792 -0.0047506 0.0032811 -0.0081913 0.001936 -0.0073559 0.0067923 0.0042962 -0.009348 -0.0042676 -0.0044266 -0.0064029 0.0036629 0.010752 -0.0087284 -0.0074203 0.0021624 0.0073156 -0.013859 -0.0051834 0.0053021 0.0044025 -0.0030684 -0.014763 0.0012586 -0.0073677 -0.0046512 0.00020583 0.0014791 -0.0043576 0.0042025 0.0076763 0.0025126 0.0071643 0.0073438 0.010183 -0.0087034 0.0023401 -0.0070347 -0.0072054 0.012844 -0.0067421 0.016152 0.0010755 -0.016091 0.0094474 0.0024098 
running -0.0017118 -0.019891 0.013987 0.00086207 -0.0091968 -0.011869 -0.0053161 -0.0045764 -0.017904 -0.0021744 0.0026501 -0.012271 0.0044576 -0.0055123 0.0067374 -0.0092204 -0.0072992 0.0016832 -0.0086022 0.012441 8.5423e-05 0.0034119 -0.0087258 -0.0076429 -0.00012663 0.0052881 -0.0037061 0.0034716 0.013066 -0.0029053 -0.0049511 0.0085873 0.0077098 0.011158 0.016283 0.00065999 0.0010616 0.012319 0.010285 0.0114 -0.0090518 -0.0058337 -0.0079651 -0.0026039 -0.00047568 -0.0057447 0.0056862 0.0046877 0.014331 -0.0080038 0.017294 -0.01216 0.0055419 -0.0076247 -0.0025609 0.0080004 -0.0026936 0.0019714 0.0037696 0.005553 0.0088256 -0.00057753 -0.011097 -0.0079965 0.0090472 0.003785 0.013565 -0.00094046 -0.013523 -0.006692 0.007543 -0.0064909 0.0059382 0.0033608 0.0013835 0.0017421 -0.0069228 -0.015415 0.010086 -0.0046889 -0.0022225 -0.01014 -0.0022058 -0.0011186 0.0090999 0.0002515 -0.01098 0.0034202 -0.00044619 -0.0052643 -0.010983 -0.012863 0.00067293 -0.0020194 -0.0062609 0.016103 -0.0088153 -0.014958 -0.00064073 -0.011475 
mic -0.0025267 -0.027556 0.0085502 0.0084738 -0.014934 -0.0121 0.0063954 0.0021501 -0.0084667 -0.01672 -0.0025237 -0.0065762 -0.012641 -0.020885 -0.0038699 -0.0054509 -0.011741 -0.0071141 -0.0070274 0.0030969 -0.0068646 -0.014371 -0.014688 0.004245 -0.0053595 0.0020356 0.0047132 -0.0010222 0.0086696 0.0039642 0.015532 -0.0012029 0.0065006 0.00042222 0.0075954 0.0021323 -0.0083337 0.0063754 0.008863 0.014695 -0.0083108 -0.017721 0.0089907 -0.0041363 0.0042926 -0.0037703 0.0089908 -0.0084238 0.0050221 -0.015579 0.02635 -0.010781 0.0089193 -0.014796 0.0024557 0.0049531 0.00044139 0.0033605 -0.00038581 -0.0012067 -0.0079495 -0.0049903 -0.020284 -0.0036103 -0.0039818 -0.0005225 0.0049764 0.0051571 -0.020899 -0.010899 0.0051322 0.00098375 0.0094798 0.0050957 0.0039677 -0.0038014 -0.018491 -0.015576 0.0028947 0.00039791 0.016878 -0.002281 -0.017537 0.013114 0.0058224 0.010854 -0.0093817 0.0080472 0.00057956 0.0083508 -0.0068398 -0.017712 -0.011627 0.0012009 -0.0074309 0.020207 -0.013127 -0.0027294 -0.0022589 0.0063417 
hello? 0.010207 -0.022205 0.0053086 0.017155 0.0019301 -0.0016842 0.0043266 -0.0075824 -0.024065 -0.018856 0.0018576 -0.00019097 -0.015782 -0.018093 -0.006865 0.0068491 -0.011971 -0.0031581 0.005413 0.016858 0.0037432 0.00082892 -0.01101 -0.010025 -0.01211 0.010522 0.0078247 0.0065308 0.020236 -0.0032524 0.016572 0.0094806 0.008371 0.00238 0.011934 0.0038105 0.0017287 0.0135 0.0076479 -0.00089405 -0.0080583 -0.0099361 -0.0016366 0.0086938 -0.0077815 -0.0095603 0.0020221 -0.0037413 0.0056199 -0.016118 0.017796 -0.011261 0.0033716 -0.0097538 0.010629 -0.0034788 -0.0025117 0.0091253 -0.0076587 0.0024492 0.0085896 -0.0085731 -0.011523 -0.0083078 0.010322 -0.00073897 0.0039298 -0.0012104 -0.0040255 -0.0060553 0.014458 -0.0051441 0.0094203 0.010311 -0.0084073 -0.0061016 -0.0081786 -0.0098905 0.0079077 0.01329 0.0057338 -0.0050016 -0.0048811 0.011981 -0.0037379 0.0097074 -0.0024087 0.0012641 0.017207 0.0029838 -0.021507 -0.020719 -0.01703 0.0021409 -0.00010574 0.0073881 -0.008642 -0.017897 0.011001 -0.0052491 
end 0.0028338 -0.017176 0.014128 0.0090747 0.00047346 -0.0024475 0.007388 -0.0093042 -0.020323 -0.006709 0.008463 -0.005535 -0.0093391 -0.010542 0.0107 0.00029218 -0.010243 -0.010979 -0.006519 0.0010491 0.0068426 -0.0013559 -0.0089445 -0.0064231 0.00067071 0.010616 -0.0049349 -0.0070205 0.013628 -0.00021138 0.013104 0.0065838 -0.0020274 0.010488 0.0033479 -0.0081902 -0.0090148 0.020461 0.0065212 -0.0052916 -0.012937 -0.016853 0.0011345 0.0051242 -0.0043486 0.0013249 0.0086306 0.0078984 0.0077722 -0.0057222 0.02351 -0.012624 0.004154 -0.0052712 -0.0037637 0.011777 -0.0039943 -0.0048094 0.001739 0.0084855 -0.0072003 -0.006627 -0.012673 -0.0022518 0.00016408 -0.0040345 0.013325 -0.00019705 -0.018722 0.0010516 -0.001619 -0.010948 0.010198 0.0069846 -0.0059768 -0.0038381 -0.011019 -0.01935 0.010549 -0.0039036 0.0080229 -0.011154 -0.01054 -0.0054868 -0.0046376 -0.0036887 -0.0070144 0.0039536 0.015764 -0.003397 -0.016396 -0.013736 -0.00052491 0.011737 -0.0067349 0.0044802 -0.011957 -0.00074151 -0.0021692 -0.0059816 
from 0.013925 -0.025563 0.011885 0.0039714 0.0024025 -0.0096691 -0.00092123 0.005977 -0.015138 -0.015546 0.01295 0.0035854 0.00014979 -0.018382 0.0040475 0.010941 0.008099 -0.011801 0.0065703 0.0044233 0.0056113 -0.0079687 -0.0051582 0.0023324 -0.012729 0.0095593 -0.0051144 0.0018705 0.017869 -0.0010628 0.0020566 0.00637 -0.0067288 0.01663 0.013442 3.4446e-05 0.0043335 0.0053656 -0.0041665 0.017018 -0.0076988 -0.013529 0.0075669 -0.0077385 -0.0049359 0.0058709 0.011798 0.0023974 0.0039717 0.00045625 0.016509 -0.014609 0.0038887 -0.0042417 -0.0044628 -0.00087093 0.0059607 0.0075632 -0.0071166 0.00418 -0.00043071 0.0011191 -0.018567 -0.009104 0.010263 0.00019938 0.003148 0.0042991 0.00031169 -0.0051487 -0.0040716 -0.016621 0.0045765 0.00019766 -0.0030378 -0.0089265 -0.026469 -0.0036077 0.0057559 0.01215 0.0081883 -0.012987 -0.018506 0.0022727 0.0091808 0.0081486 -0.0031599 0.0049733 0.0071239 0.00107 -0.022464 -0.016344 -0.011946 0.011377 0.0023111 0.0054974 -0.013189 -0.013011 0.00030009 -0.0020805 
pretty 0.0097361 -0.010137 0.0081712 0.0021093 0.0012656 0.0086812 -0.0047944 0.0040313 -0.0069483 0.00046648 -0.0070915 0.00020428 0.0024942 0.0038969 0.0053474 0.010974 0.0065814 -0.011619 -0.002781 0.0078792 -0.0010189 -0.012786 -0.0051031 0.003413 0.0052882 -0.0023195 -0.0073481 -0.0025805 0.005211 -0.0016044 0.0070941 -0.0061667 0.0036215 0.0099545 -0.003107 -0.0070303 0.0069781 0.0060061 -0.0053895 -0.0055018 -0.010838 0.0012685 -0.0034971 -0.0055991 0.0092861 -0.010005 -0.0068924 -0.0042585 0.010682 0.0048101 0.010021 0.0043223 0.0028295 -0.0047586 -0.0057882 0.0064389 -0.0069379 0.0039996 -0.012667 -0.0015732 0.00082328 -0.0057416 0.0012603 -0.0044243 -0.0042746 -0.0081298 0.010833 0.0066347 -0.0075199 -0.0037925 -0.0047441 -0.010524 0.0040433 -1.6097e-05 0.0086433 0.009223 0.00094798 -0.0099691 0.0047557 0.0035574 0.0086099 -0.007911 -0.01037 0.0073879 -0.0054134 0.0056298 0.0077939 0.0047955 0.0052476 -0.00075039 -0.0075537 -0.0059251 0.0073685 0.00074363 0.0065555 0.010169 -0.0082527 0.0012783 -0.0061447 -0.0084177 
late 0.0058719 -0.0092377 0.010127 -0.008252 0.0099113 0.0098774 -0.0079633 0.0065362 0.0058827 0.0074446 0.0064848 -0.0053751 -0.0035177 -0.0016859 -0.0067589 0.005642 0.0070112 -0.0096154 -0.011584 0.011654 -0.003663 -0.0026462 0.0032813 -0.0047491 -0.0034391 -0.0070193 -0.0024443 -0.001816 -0.012117 0.0008143 0.0061911 0.0033325 -0.0024266 -0.0012676 -0.0024521 0.0033089 -0.0064184 -0.0087502 -0.0029216 0.0030591 -0.0045072 -0.0035114 -0.0037047 -0.0052839 0.0012049 0.014546 0.0089461 -0.002078 0.0089878 0.011109 0.011443 0.0062357 -0.00038052 0.01023 0.00075405 -0.0025344 -0.010475 0.0009709 0.00088548 -0.013396 0.0050157 0.0025114 0.01113 -0.012057 0.0058655 -0.012348 -0.0080344 0.0017367 -0.0029033 -0.013701 0.0019151 0.00068278 -0.011566 0.0047046 0.0039802 0.010884 -0.0066896 -0.0074735 0.0031853 0.0099539 0.007095 0.0049377 0.00027893 -0.0066107 -0.0024908 -0.0056047 0.0095863 -0.0091692 -0.0024087 -0.0041395 0.00017583 -0.012823 -0.0098974 0.0040745 0.0021349 -0.0039715 0.0078078 -0.0061311 -0.0073021 0.0042728 
im 0.002458 0.0024153 0.0091594 -0.0068915 -0.0035665 0.010732 -0.0030874 0.0027587 -0.0031736 -0.0032824 0.0012643 0.0016618 -0.016974 0.0036711 -0.013191 0.0077757 0.008403 -0.0044502 -0.0090643 0.0024067 0.010541 0.010211 -0.010635 0.004767 0.0034267 -0.0030756 -0.016169 -0.0047053 -0.0064992 -0.011551 0.0028309 -0.0048734 0.0054302 -0.0023972 -0.010977 -0.00066622 0.0078081 0.0050783 -0.0037063 0.0015574 0.00068455 0.012345 -0.0047821 0.0092586 0.011513 0.015061 0.00038762 -0.0073685 -0.0060991 0.0039656 0.0084849 -0.012674 0.002095 0.0062767 -0.00057278 -0.0031463 -0.012489 0.0037104 0.01218 -0.0018171 0.0072192 0.0083136 0.0064958 -0.003417 0.0027571 -0.0074623 0.0058841 -0.0082191 0.00069758 -0.012297 -0.00064894 -0.00065753 -0.012209 0.0045014 0.004368 0.013074 -0.0017638 -0.0071957 0.0037706 0.0027895 -0.010611 -0.013279 -0.0051848 -0.0022042 0.0085872 0.0037791 0.008822 -0.0062164 -0.0059716 0.0026357 -0.010135 -0.0079386 -0.0078655 0.00060512 0.0022454 -0.0065574 -0.0026976 0.0051362 0.01115 2.8096e-06 
difficult 0.0033956 -0.0036672 -0.0044472 -0.0045234 -0.00098002 0.0019927 -0.0034586 -0.0034958 -0.0016163 -0.0080216 0.0041333 0.0066507 -0.0020278 0.0011368 -0.0085752 -0.003403 -0.0076665 -0.01266 0.0010703 0.0079885 0.0081488 -0.0028487 0.0077797 -0.0046387 -0.0033235 -0.0075524 -0.0028795 0.0018266 0.00034523 0.0054859 -0.0057997 0.0089862 -0.0074276 0.0053824 -0.00028732 -0.0054613 0.0019561 0.0056085 -0.0078988 0.0081202 -0.0034756 -0.015465 0.0060345 -0.0024734 0.00043032 -0.0069624 0.0056728 -0.00049818 0.002639 0.0069975 0.00021132 -0.0095151 0.0098172 -0.011601 -0.0073847 -0.0040412 0.0019688 0.0043739 -0.014702 -0.0033818 0.006079 0.0032513 -0.0037863 -0.006687 -0.0018885 0.009429 0.00086121 -0.0026198 0.00036296 -0.0014487 0.0057651 0.0086682 0.00046326 0.0066303 -0.0061543 -0.0033718 -0.0028035 -0.0098505 -0.005044 -0.0078763 0.010213 0.0032478 0.00040259 -0.0026157 0.0060385 0.0028186 0.00043769 -0.0077566 4.8467e-05 0.0031767 0.0029127 -0.0068958 0.0076338 0.0015293 -0.0017267 0.0055194 -0.0094839 -0.0018456 -0.0022862 -0.0094379 
hello -6.9979e-06 -0.016776 0.013997 -0.00041672 0.0027803 0.000126 -0.0054041 -0.0035706 -0.010328 -0.00081531 0.011535 0.0051959 -0.013705 -0.014812 0.0094816 -0.0029605 -0.0010967 -0.0017111 -0.0049169 0.0014481 0.011443 -0.010134 -0.0034745 -0.0073409 -0.0026072 0.011426 0.003099 0.012082 0.0039951 0.0058776 0.0090653 0.012627 -0.0032884 0.016167 0.012856 0.00084586 0.0095763 0.01481 -0.0048356 -0.0035074 -0.012888 -0.0045565 -0.0072179 -0.001664 0.0087643 -0.00068015 0.0064792 0.0053802 0.0085615 -0.0047031 0.0061466 -0.0039293 0.0047491 -0.008162 0.0067764 0.0067505 0.011228 -0.0058698 0.0024505 -0.00442 -0.0084543 0.0024957 -0.0073028 -0.0035697 0.011622 -0.0071373 0.0058643 0.002548 0.0018285 -0.012032 0.0032493 -0.011284 -0.0037667 1.8684e-05 -0.0063607 -0.008238 -0.023311 -0.0051749 -0.00095439 0.011911 0.0092595 0.0015486 -0.013858 -0.0037104 0.010802 -0.0040263 0.0060262 0.0064567 0.00083215 0.0039861 -0.019 -0.0066566 -0.01349 0.017395 -0.0052335 -0.0015697 -0.0081655 -0.013121 0.014941 0.0026704 
my 0.014074 -0.016912 0.0096814 0.011245 -0.003283 -0.00071713 0.0019263 0.0025923 -0.0040905 -0.012823 0.0068429 0.0027765 -0.012855 -0.0053957 -0.0047216 0.0066655 -0.0030826 0.0001879 0.0015333 0.016452 0.0047847 0.00046843 -0.00445 -0.0030852 -0.011739 0.013083 -0.013305 0.0044088 0.0092367 -0.00071634 -0.0016542 0.011805 -0.00036635 0.006887 0.0078982 -0.0056674 0.0037211 -0.00079769 0.0018939 0.013255 -0.015448 -0.019336 0.0088671 0.0034724 -0.0086349 -0.0038138 -0.001426 0.0018739 -7.696e-05 -0.0022618 0.017538 -0.017219 0.012613 -0.0017633 0.0026632 -0.0073336 -0.0022139 0.0027335 -0.012236 0.00064242 0.0034199 0.00080364 -0.016694 -0.01426 -0.0036197 -0.0037046 0.0035052 0.0012048 0.00033228 0.0031733 0.0043529 0.00038534 0.0031208 0.0072812 -0.010874 -0.008326 -0.0045038 -0.0012582 -0.00036893 0.0085644 -0.0032775 -0.0090074 -0.016798 0.007461 0.0010009 0.011648 0.0040183 -0.0068547 0.0097983 -0.004924 -0.011201 -0.016796 -0.014057 0.0044196 0.0046784 6.3168e-05 -0.011615 -0.012142 0.0087706 0.0068475 
name 0.0046879 -0.014916 0.0090824 0.0026837 0.003252 -0.012017 0.0023795 0.006426 -0.017695 -0.012753 -0.0062812 0.0049927 -0.0043298 -0.020506 0.01127 -0.0070389 -0.0060921 -0.01502 0.0062816 0.012521 0.0097408 -0.0048111 -0.0021996 0.0092137 -0.001761 0.0027593 -0.00073566 -0.0009547 0.013631 -0.012155 0.015372 0.0076698 0.0022458 0.010914 0.0056208 -0.0030541 0.000316 0.004837 0.0035033 0.0084846 -0.0078354 -0.015222 -0.0015315 -0.0064617 0.004827 0.00090617 0.0065264 -0.0054438 0.017936 0.0033494 0.0044908 -0.0077977 0.0023014 -0.012129 0.0090012 -0.0074379 0.0033177 0.0069236 -0.0077709 -0.0028037 0.0016509 -0.010589 -0.002111 -0.013565 0.0051183 0.002755 0.010403 -0.01028 0.00083733 -0.010952 -0.0043896 -0.013564 -9.898e-06 0.010446 -0.011034 0.0018191 -0.016439 -0.0045017 -0.0074432 0.012828 0.011821 -0.010209 -0.014496 0.003886 -0.0028841 -0.005079 -0.0073476 -0.001934 0.00087051 0.0063263 -0.0086308 -0.016617 -0.0033707 0.002193 -0.0043796 0.010859 -0.0092569 -0.020157 -0.0031133 -0.0020692 
for -0.0059087 -0.0039028 0.011231 0.0062937 0.00023633 0.0083271 -0.0078145 -0.0034519 0.0038017 -0.0037385 0.0034027 -0.0014942 0.0044712 -0.0050422 -0.0090446 0.0081843 -0.00078832 -0.012774 0.0078198 0.0019741 -0.0021227 0.0054502 0.0062172 -0.0059266 -0.010038 0.01041 0.0072161 0.0033415 -0.0083041 -0.0027222 0.0092919 0.0066364 -0.0048807 -0.0067433 0.0035972 -0.00076387 0.006192 0.0023461 0.0036027 -0.0049107 -0.0034079 -0.01107 -0.0042393 -0.0061673 0.0077606 -0.0091626 0.011584 0.0051468 -0.0065482 -0.0034849 -0.0010627 -0.0094437 -0.00060824 0.0072652 0.0022765 0.0032117 -0.00831 -0.0097483 0.0022077 -0.010568 -0.0073678 -0.0052107 -0.0083606 0.0014489 -0.0064205 0.00079113 -0.00041787 -0.003992 0.00127 -0.0060806 0.0090768 -0.00021736 0.0045877 0.0043638 -0.0094792 -0.0097156 -0.0078547 -0.015125 0.006587 0.0047787 0.011263 0.0088255 0.0024368 -0.0045669 -0.0058702 0.0027651 -0.0092444 0.0034279 0.0022246 0.010273 0.0021035 -0.0094176 -0.0050168 -0.0069723 0.0047456 0.0073252 -0.0029058 0.0020065 0.0078397 0.0026612 
you 0.0020289 -0.015716 0.011586 0.0083435 -0.0044434 0.00072263 -0.0057248 -0.010825 -0.019457 -0.0097696 0.0038444 -0.012372 -0.0066744 -0.018276 0.0014951 -0.0077796 -0.0071177 -0.0040477 0.0050279 0.0096684 0.0012312 -0.0098316 0.00047673 0.0012881 0.0045785 -0.00020812 -0.0090773 -0.0066831 0.013458 -0.013287 0.0014225 -0.0043876 -0.0063967 0.00083148 0.0015743 0.00018649 0.0024657 0.00031502 -0.0029889 0.00636 -0.015271 -0.015237 -0.009949 0.0095599 -0.0024908 -0.0088391 0.013878 0.00041042 0.010661 -0.0023987 0.019866 -0.01543 0.015533 -0.0067346 -0.0048219 -0.0046169 0.0052829 0.0075532 -0.015465 -0.0041376 -0.0087275 -0.00045583 -0.012004 -6.693e-05 -0.0031833 0.0087731 -0.00097295 0.0035221 -0.011508 0.0010949 -0.0003228 -0.0085403 0.0028401 -0.0042454 -0.0020157 -0.0066917 -0.0071254 -0.0030871 -0.0065716 0.01423 0.0043824 -0.009933 -0.013852 -0.0058135 -0.0037742 -0.0066511 -0.012094 0.0051103 0.017557 -0.0057821 -0.0039019 -0.01738 -0.00030003 0.0035441 0.0061512 0.00050225 -0.012927 -0.020778 9.6946e-05 -0.0054286 
can -0.0016331 -0.023443 0.011684 0.0006143 -0.010937 -0.011118 -4.146e-05 -0.0086505 -0.0085147 -0.0010195 0.0058862 -0.0074447 0.0024651 -0.0039573 -0.0047988 6.8663e-05 0.0052563 -0.0091671 0.0057497 0.00027177 0.01254 -0.0034542 -0.0073136 0.0051481 -0.010118 0.011986 -0.0026576 0.0040187 -0.0010762 -0.0063503 0.012872 -0.0040636 -0.0052145 0.011589 0.017887 -0.0091453 0.0027064 0.012475 -0.0077962 -0.0017085 -0.018937 -0.013705 0.0059414 0.0027556 -0.0084137 -0.0081644 -0.0010311 0.0025556 0.016155 -0.00029362 0.0054184 -0.0035674 0.0059901 0.004712 0.0076426 -0.0060073 -0.005003 -0.00011585 -0.0074169 -0.010441 9.6586e-05 0.00076783 -0.014935 -0.00085284 -7.7586e-05 -0.0013869 0.01708 -0.0035269 -0.0010495 -0.0090348 -0.0069212 0.00040934 0.003868 -0.001386 -0.010038 -0.0025103 -0.018411 -0.0065854 -0.0053663 -4.5557e-07 0.0066641 0.0029167 -0.014752 0.0073553 0.0015358 -0.0037881 -0.0052636 -0.0054518 0.014687 -0.0016096 -0.0058893 -0.0012597 -0.0060075 0.019214 4.4998e-05 0.0045837 -0.0061854 -0.0030408 0.0091222 0.0029027 
call 0.0060288 -0.02105 0.0046857 0.0089461 -0.012132 -0.011454 -0.0014409 0.00019142 -0.0059125 -0.0062139 0.012313 -0.0036272 -0.011273 -0.0027827 0.009016 -0.0040036 -0.0038066 -0.012247 -0.0057842 -0.0026548 -0.00065212 -0.0010491 -0.013377 0.001749 -0.0071954 0.0011781 -0.0075653 -0.0041231 0.0050121 0.0056806 0.012144 0.012724 -0.0064132 0.0032371 0.0060985 -0.0010246 -0.0025457 0.0030406 0.0071134 0.0074916 -0.013415 -0.020152 -0.0039817 0.001634 0.0076009 0.0054696 -0.0025067 -0.0036588 0.011137 -0.01256 0.0026403 -0.0015645 -0.0005437 -0.0095576 0.011962 -0.0050969 -0.005741 -0.00077627 -0.0054166 -0.0038127 0.0055781 -0.0055245 -0.0039453 0.00369 0.011919 0.0038948 0.012453 -0.0042304 -0.005052 -0.003527 0.0017789 0.0026837 -0.0053467 0.0029386 -0.0096852 0.0051388 -0.0083343 -0.0033499 0.0054775 0.0073278 0.0024122 -0.0021896 -0.0052719 0.011281 0.01168 -0.0079732 -0.0055618 -0.0057617 0.0058527 -0.0033311 -0.0092772 -0.0093212 -0.0065894 0.014788 0.0080101 0.0072414 -0.015023 -0.0069277 0.0030509 -0.00072716 
good 0.011812 -0.020808 0.0074199 0.008424 -0.009897 -0.017314 -0.011926 0.003606 -0.018973 -0.016448 -0.0067125 -0.0084477 0.00074647 -0.003903 -0.010785 0.006807 -0.0036164 -0.010333 0.0012509 0.014245 -0.0019863 0.0037119 0.0059037 0.0067598 -0.016223 0.0077046 0.0065091 0.0093045 0.012758 0.0049572 -0.00038919 -0.0018932 0.006803 0.011198 0.010849 0.011887 -0.0013213 -4.5357e-06 -0.0035165 -0.00051594 -0.021596 -0.02163 -0.00032582 0.00076909 -0.0051458 -0.0078054 0.0076808 0.0059561 0.016256 0.0029724 0.012346 -0.019471 0.0052584 0.0008415 0.0077383 0.014134 0.011337 0.0055815 -0.00163 -0.0052636 -0.00048646 -0.0032678 -0.018993 -0.0081135 0.015992 0.00057318 0.019457 -0.0032921 -0.0079585 0.0065308 0.0042532 0.0011636 -0.0076558 0.007313 -0.003441 0.0068892 -0.01575 -0.019356 0.0054582 -0.0020563 0.0020109 0.00049389 -0.0094437 0.001954 0.010575 0.0084866 0.0028044 0.0028943 0.011451 0.011713 -0.011848 -0.01406 -0.02546 0.019172 0.0039995 0.015299 -0.014146 -0.012541 0.0051065 0.00058587 
morning -0.0026411 -0.0061685 0.017816 0.0048322 -0.012665 -0.015463 -0.0082525 -0.0096326 -0.01343 -0.011196 0.0058748 0.0021567 -0.004152 -0.00064691 -0.0027534 -0.002529 -0.0069168 0.0017232 -0.00057618 -0.0016846 -0.0033547 -0.013789 -0.00071541 -0.0039031 -0.014965 0.0069879 0.0033425 -0.0054905 0.017347 0.0038751 -0.00145 0.0059854 0.0014911 0.012434 0.01927 0.0063835 0.010606 0.0016 -0.00057317 -0.00075694 -0.018111 -0.017989 -0.001824 -0.0032351 -0.0073129 0.00047281 0.00089576 0.010718 0.012213 -0.014345 0.010791 -0.01132 0.00071976 -0.014551 0.0041804 0.012523 0.0081302 0.0096845 0.0066214 0.0047431 -0.0077683 -0.0034797 -0.022809 -0.01426 0.01744 -0.0045148 0.010569 -0.012881 -5.8026e-05 -0.0032039 0.012115 -0.015557 0.0047265 0.0058591 0.0011849 0.015194 -0.020854 -0.015431 -0.0087405 0.003931 -0.0027322 -0.0045695 -0.002588 -0.002936 0.0023327 -0.004641 0.0024717 -0.0084646 0.009405 0.0076502 -0.0079773 -0.0065206 -0.022998 0.015448 0.010202 0.018222 0.0029294 -0.010543 0.013946 0.0041382 
goodafternoon -0.003756 0.00015193 0.0027963 0.0125 0.0017054 -0.012128 0.0021936 -0.008041 -0.010873 -0.0048643 -0.0031279 -0.0064637 0.0016758 -0.012541 -0.0065575 0.0046901 0.0011106 -0.00462 -0.0039762 -0.0013873 -0.0095343 0.0011059 -0.0048144 -0.0030719 0.0017625 -0.0033199 0.00064191 0.011023 0.0036335 0.0061761 -0.0050218 -0.0047333 0.0074558 0.0065908 -0.00085553 -0.00538 0.011427 -0.002112 0.0040814 0.0038559 -0.011981 -0.005834 0.004636 0.0061888 0.0018445 0.0062326 0.011479 -0.004942 0.0035054 -0.0084021 0.011984 -0.0090506 0.0072899 -0.01072 -0.0043 0.008008 -0.0055934 0.0069642 0.0068031 0.0057836 0.0011498 0.0015702 -0.019961 -0.014446 -0.0038331 -0.0011971 0.00032021 0.0025812 -0.014942 -0.009944 -0.0046687 -0.013616 0.0030706 -0.00544 -0.007838 0.0083916 -0.022496 -0.0072013 0.0079958 0.0074389 -0.0028664 -0.0073649 -0.011307 0.0030026 -0.0076959 -0.001205 0.0054948 0.00053683 0.016423 0.011663 -0.00058246 -0.0045951 -0.0084681 0.0044145 0.0096601 0.016087 -0.00022087 -0.016678 0.0032421 0.0023283 
nice 0.0041557 -0.011728 0.010555 0.0039611 -0.0021724 -0.0095314 -0.0048285 0.0081622 -0.0083163 -0.0061153 -0.0058214 -0.0032558 -0.0058754 -0.0029814 -0.0099315 0.0054951 -0.0032746 0.0053587 -0.0023835 -0.0034765 0.0040659 -0.0083571 0.00068904 0.0043077 -0.0068712 -0.0033323 -0.00451 0.011406 0.012173 -0.0050957 0.010269 -0.0041542 0.0031701 0.0022922 0.012032 0.0094335 0.011659 -0.0015576 -0.00069264 -0.0013458 0.0011582 -0.0037074 -0.0048822 -0.0091346 -0.0003458 0.0024736 0.010922 -0.00040015 0.010502 -0.0077384 -0.0021052 -0.012422 0.0078693 -0.0082021 0.0012905 0.002786 0.0074372 -0.0061269 0.0083627 -0.0099523 0.0016302 -0.0039285 -0.00068225 0.0064176 0.0060115 0.004554 0.00011185 -0.0091458 -0.00020848 0.0052066 0.0070123 -0.0056922 -0.0080712 0.0047864 -0.0033713 0.006045 -0.016732 -0.012731 -0.010129 -0.00065288 0.011002 -0.00072412 0.001963 0.0085802 -0.0081708 -0.0049355 -0.0025766 0.00059755 0.011441 0.011105 -0.013799 -0.00082392 -0.0031218 0.015893 0.0089616 -0.0038729 -0.0057465 -0.0055396 -0.0024301 -0.0069653 
day! 0.0031659 -0.013298 0.0095817 0.012277 0.0024782 0.0023315 -0.0065509 -0.0046373 -0.0047629 -0.00089418 0.003102 -0.007507 0.0027745 -0.0016262 -0.0032357 -0.0034038 0.0095401 0.00090339 -0.0054292 -0.0060667 -0.0046326 -0.0072471 0.0080822 -0.0065893 -0.00585 0.0055846 -0.0075768 -0.0015849 0.0081227 0.0066832 0.0075174 -0.0082772 0.0085503 0.0069872 0.0008361 0.0073896 0.0013603 -0.005333 0.0088316 0.0034531 -0.0024781 -0.010102 0.0034242 0.0089348 0.0059744 -0.0098487 -0.0064551 -5.5141e-05 -0.0021491 0.005146 0.0088901 -0.014434 0.0025074 0.0058301 -0.006169 0.011464 -0.0029182 -0.0080968 -0.0024468 0.0068822 0.0091272 -0.0080773 -0.015265 -0.0018098 0.0055587 -0.0044513 -0.0040228 -0.00072272 -0.011791 -0.010912 0.0024501 -0.0017696 -0.0056376 0.0065459 -0.0050333 0.011723 -0.005558 -0.012994 -0.0018866 -0.0047219 0.00082936 -0.0023468 -0.0012642 -0.0071575 -0.0085958 -0.0037176 -0.0080327 0.0054392 0.002766 0.0018499 -0.0086411 -0.0064068 -0.014881 0.00089567 0.0026206 0.0066477 -0.0069398 -0.013138 0.013843 -0.001374 
okay -0.0061487 0.036013 -0.01878 -0.024052 -0.00087832 0.01607 0.0056728 0.010989 0.032818 0.020529 0.0012872 0.0048782 0.010791 0.020874 0.0087046 -0.009888 -0.0062309 0.0027133 0.00040044 -0.009855 -0.010083 -0.0017542 0.01429 0.011467 0.01614 -0.016065 7.2192e-06 0.0030774 -0.0056301 0.0088846 -0.016126 -0.005376 -0.010155 -0.0024197 -0.027108 0.0022541 0.0029869 -0.014059 -0.0010844 -0.01547 0.021382 0.032831 -0.0033904 -0.01063 0.002155 -0.011743 -0.016143 0.0019857 -0.0084901 0.017714 -0.028543 0.024796 -0.010046 0.010686 0.0014152 0.0028106 -0.010819 -0.0058013 0.0072935 -0.007718 -0.00044695 -0.0033755 0.033951 0.010914 -0.014467 0.00073616 -0.021549 0.009426 0.016075 -0.0033444 -0.0031556 0.020178 0.0071506 -0.001028 -0.012686 0.0048934 0.032925 0.023291 0.00092109 -0.024008 -0.013284 0.0063827 0.020739 -0.002277 -0.0093166 0.0041007 0.014801 -0.0022335 -0.016539 0.0051109 0.012559 0.017053 0.023059 -0.013432 0.0044928 -0.01226 0.0068955 0.032287 -0.020391 0.013611 
oki -0.0007532 0.034889 -0.02718 -0.020357 0.0098296 0.0079616 0.0074615 0.0091939 0.030239 0.025682 -0.011767 0.0080577 0.018169 0.029367 0.0078623 -0.0047866 -0.00033502 0.00070574 -0.0058291 -0.012771 -0.0058737 0.0077051 0.016029 0.0057144 0.012954 -0.0067233 0.0076726 0.0033385 -0.017048 -0.00063853 -0.008429 -0.0067128 -0.0060866 -0.0010523 -0.030011 -0.00090666 0.0070914 -0.011361 -0.015257 -0.010987 0.019955 0.016383 0.0086926 -0.016325 0.0089816 -0.010692 -0.017705 0.0059553 -0.020714 0.0044348 -0.025914 0.01738 -0.005411 0.011874 0.0064476 -0.010491 0.00093138 -0.0049031 0.0087624 0.0065008 0.0068127 -0.00020125 0.029478 0.011109 -0.0088763 0.0033141 -0.022037 0.011115 0.028999 -0.0026094 -0.0029593 0.0038416 0.0015166 -0.017203 -0.012844 -0.0054601 0.039285 0.014542 0.0086314 -0.019415 -0.011514 0.0057014 0.017948 -0.0136 -0.0074832 0.0028067 0.0012471 -0.0046183 -0.023092 -0.0065549 0.016425 0.017901 0.026264 -0.0203 -0.002043 -0.027949 0.0066796 0.029442 -0.018227 0.0066543 
tama -0.006891 0.041009 -0.020593 -0.018961 -7.6984e-05 0.00057514 -0.0011295 0.0090101 0.033342 0.024858 -0.0014091 0.014612 0.014251 0.025763 0.0074363 -0.01133 0.01124 0.010132 -0.010982 -0.011947 -0.0065183 0.0052392 0.0051272 0.0081903 0.0099971 -0.0076802 0.011949 -0.0011051 -0.01572 0.0096253 -0.014718 0.0056339 -0.016376 -0.020126 -0.028291 -0.0078801 0.0045012 -0.020964 -0.0018524 -0.0037955 0.011554 0.021563 -8.4333e-05 -0.017793 -0.00070958 0.0041127 -0.0041169 -0.010813 -0.021515 0.0067715 -0.027353 0.020946 -0.0042443 0.001413 0.004467 -0.0082495 0.0038578 -0.0011405 0.022941 -0.0074759 0.0051955 0.0091804 0.031305 0.018391 -0.0071504 0.011286 -0.026014 0.015476 0.029914 0.0044948 -0.012133 0.021301 0.0097449 -0.0074644 0.0048294 -0.0011945 0.034451 0.013654 -0.0028608 -0.02466 -0.020381 0.010951 0.011482 0.001711 -0.012634 -0.0066995 0.0051786 -0.0056457 -0.01187 0.0015934 0.025222 0.017957 0.019961 -0.023171 0.0084034 -0.010568 0.0079636 0.014405 -0.016299 0.0084129 
do -0.0025933 0.013744 -0.01184 -0.0089555 0.0069789 0.0066285 -0.0083961 -0.0025962 0.015996 0.017801 0.0045896 0.010762 0.012799 0.0060255 -0.0050693 -0.0099851 0.0098001 0.0095945 -0.0081288 -0.013462 -0.002096 0.00096036 -0.0056364 -0.0063428 0.014919 -0.013968 0.012266 -0.0021085 -0.00048884 0.0040668 -0.0058396 0.0058616 0.0005726 -0.0018111 -0.0030276 0.000777 0.0067597 -0.0059601 0.0049699 0.0048248 0.012242 0.021025 0.0077823 -0.011586 0.00071058 -0.0029112 -0.0086372 -0.0023178 0.0027069 0.014836 -0.0089058 0.0079722 -0.0074911 0.007297 0.0049126 0.0079057 -0.0008796 -0.0084235 0.015936 0.0096692 0.0030293 0.0058495 0.015553 0.016929 -0.0054767 -0.00027058 -0.0019537 0.0003507 0.017722 -0.00075265 0.0035582 -0.0015185 -0.0090382 0.0022264 -0.010627 -0.0019302 0.010861 -0.00061779 -0.0075185 -0.0058126 -0.0029323 0.001761 0.018529 0.0051334 -0.0089959 -0.0022782 0.0034554 0.0077947 -0.016999 0.0047521 0.014182 0.0022623 0.004695 -0.013291 -0.0027821 -0.014776 0.0052546 0.01255 -0.0027634 -0.0032857 
on -0.0088858 0.018736 -0.010685 -0.00051168 0.0031463 -0.0046376 -0.0081195 0.0074896 0.0099719 0.0037432 0.0069352 0.012666 0.00046433 0.02044 -0.0098115 -0.0097158 0.0012883 0.0096249 -0.0010246 0.0012024 -0.0062155 -0.0053454 0.0025966 0.0085209 0.0045859 -0.014765 0.0031534 -0.0098283 -0.010055 0.0028963 -0.0065431 -0.011021 0.0020245 -0.0046305 -0.014413 0.0080133 -0.0058045 -0.0022333 -0.0039073 -2.1208e-06 -0.00056575 0.016701 0.0072454 -0.010462 0.0012829 -0.010268 0.0011964 -0.0061499 -0.015216 0.013574 -0.011681 0.0069634 -0.0029659 0.0066988 0.00081748 0.0038658 -0.010753 0.0098812 0.005871 -0.00012788 4.8965e-05 0.00065307 0.01224 0.0085415 -0.0032982 0.0052604 -0.004978 0.0063156 0.015925 0.00073351 0.0024558 0.011485 0.0090279 -0.0050117 0.0022324 -0.00062949 0.020664 0.0022441 0.002857 -0.013149 -0.0042276 0.010273 0.017135 0.0036992 0.0054908 -0.0024612 -0.0041462 -0.001604 -0.0017717 -0.0061198 0.018341 0.0041719 0.021018 -0.01053 -0.006458 -0.0039356 0.0066878 0.014347 -0.013083 -0.0064704 
notion 0.0035625 0.017277 -0.014701 -0.014852 -0.0010354 0.0084926 -5.5992e-05 0.0012182 0.0067583 0.010793 -0.00017713 0.01215 0.0084713 0.014192 0.0018269 -0.0087827 -0.00040179 0.0072487 0.0090277 -0.0098756 -0.0037598 -0.0059165 0.011321 -0.0020465 0.0023979 -0.015496 0.0014313 -0.0057614 0.001808 0.010217 -0.00080029 0.0030449 -0.0057528 -0.0047767 -0.0062651 0.0055728 0.0043794 -0.0016646 -0.014282 -0.012485 0.012052 0.020957 -0.0078304 0.001633 0.0025952 0.004086 0.00049578 0.0027825 -0.00055205 0.014065 -0.017115 0.004631 -0.0057469 0.013314 -0.0032835 0.0013085 0.0041605 0.0091858 0.013536 0.004609 0.004827 0.0089949 0.019121 0.0078035 -0.003422 0.0038072 -0.0080859 0.0032687 0.0021309 -0.0050823 -0.0022322 0.0021144 -0.00223 -0.0090986 -0.008723 -0.0027675 0.023534 0.0073434 -0.0085349 -0.016391 -0.0023127 0.0051118 0.010873 -0.011367 -0.011136 -0.0032615 0.0079444 0.0063611 0.00061819 -0.0012884 0.0063323 0.010407 0.021136 -0.019261 -0.0015191 -0.017107 0.0089764 0.0060397 -0.0027213 0.0075423 
opinion 0.0077024 0.01273 -0.0070283 -0.00089194 0.010565 0.0010213 0.0050466 0.0089862 0.016772 0.016283 -0.0071887 0.014815 0.012341 0.0073746 0.0086213 -0.0013963 -0.004916 0.01417 -0.0021451 -0.0050208 0.0058777 -0.0045266 0.011617 0.0012495 0.0096408 -0.011717 0.008881 0.0018454 -0.0037382 -0.003078 -0.006787 -0.0021385 -0.00047353 0.003266 -0.0079864 0.0064213 0.00093098 -0.014531 -0.011396 -0.010965 0.010653 0.021943 0.0040863 -0.013126 0.0066345 -0.0075622 0.0021723 0.0059705 -0.0035703 0.007498 -0.016081 0.016784 -0.0051106 0.010213 0.0036354 -0.010331 0.0080265 -0.0029399 0.0058685 -0.005455 -0.0030413 -0.0054408 0.022081 0.0112 -0.01046 0.0097723 -0.016006 0.0038374 0.013246 -0.0063911 0.00055485 0.0023874 -0.00036451 -0.012694 0.0038833 -0.00585 0.020194 0.013453 0.0032829 -0.016421 0.0013988 -0.0044314 0.013173 -0.010018 0.0048123 -0.0094736 0.0044282 -0.0028416 -0.012375 -0.0085427 0.0088694 0.0048779 0.019705 -0.0087746 0.011916 -0.0050695 -0.00097073 0.0078666 -0.0067073 0.0028349 
yup -0.0055277 0.043208 -0.027092 -0.019987 0.0048148 0.014972 -0.0047152 0.012839 0.034489 0.019776 -0.0024821 0.00471 0.0046237 0.026875 -0.0029827 -0.011946 0.010685 0.0034467 0.0016125 -0.0061867 -0.0057424 0.0010828 0.0015978 0.0090055 0.018773 -0.0051957 0.010525 -0.016008 -0.010785 0.004264 -0.0051421 -0.010012 -0.021422 -0.014384 -0.031631 2.0589e-05 -0.0032011 -0.018745 -0.016123 -0.0016739 0.026652 0.018279 -0.0055984 -0.017037 0.0069588 0.0052991 -0.0048043 -0.0068158 -0.020337 0.0082823 -0.037643 0.025216 -0.018346 0.0186 -0.0093329 -0.0050443 0.0047204 0.0047884 0.011091 -0.0061605 0.0037337 0.00053532 0.020328 0.022244 -0.012406 -0.0043862 -0.016866 0.0021074 0.025481 0.0020054 -0.015208 0.006392 0.0050113 -0.015874 -0.013368 -0.0048874 0.04522 0.015484 -0.0068562 -0.012842 -0.0039194 -0.00057525 0.018684 -0.0081709 -0.00066722 0.000398 0.014279 0.0016398 -0.023683 -0.0048798 0.025793 0.033009 0.02586 -0.027121 0.008851 -0.019765 0.008945 0.035565 -0.023272 0.0044847 
kinda -0.0013087 0.043994 -0.014922 -0.011276 0.018113 0.00078521 0.0013099 -0.0020033 0.037585 0.029032 -0.0094395 0.015526 0.0037728 0.036304 -0.0027111 -0.0011638 -0.00042699 0.01387 0.0075533 -0.016222 -0.010904 -0.0015756 0.01046 -0.0069229 0.0077648 -0.0061651 0.0026598 0.0025255 -0.011453 0.0017183 -0.022688 0.0063148 -0.016821 -0.0041826 -0.023053 0.00090467 -0.004615 -0.030738 -0.01836 -0.0029723 0.021185 0.033548 -0.004642 -0.01412 -0.0064319 -0.0053453 -0.012615 0.0035599 -0.0066839 0.01371 -0.031576 0.022804 -0.014367 0.018232 0.0035899 -0.0028604 -0.0048952 0.0076691 0.0063542 0.0071046 0.0022444 0.015288 0.022294 0.023284 -0.015899 0.012502 -0.021962 0.0024724 0.031491 0.0048888 -0.001789 0.011198 -0.0012989 -0.0026244 -0.00017564 0.0034905 0.046157 0.016 0.00072094 -0.018124 -0.013016 0.0019352 0.018134 -0.0072899 -0.0045848 0.004604 0.0051851 0.002286 -0.027213 -0.0055155 0.012652 0.032557 0.028644 -0.015718 0.0055757 -0.0184 0.013854 0.016504 -0.0084988 -0.0018553 
true -0.00069635 0.029003 -0.020354 -0.024399 0.00054565 0.017802 0.0089234 0.0079376 0.038457 0.026462 -0.0159 0.0038776 0.012621 0.025046 -0.0013842 -0.011078 0.01045 0.0096537 0.0024528 -0.010823 -0.012324 0.010323 0.019621 -0.0027356 0.0099265 -0.01925 0.00065778 -0.0023702 -0.019799 0.013932 -0.0074788 0.002029 -0.0055542 -0.0088223 -0.031281 0.0091075 -0.0042858 -0.014161 -0.011913 -0.017591 0.027683 0.030289 0.0014959 0.0001871 0.0055903 -0.0070456 -0.013432 -0.0069427 -0.010516 0.0031982 -0.034128 0.034418 -0.006546 -7.9581e-05 0.0045581 0.0029765 -0.002378 0.00068891 0.017343 0.0060256 -0.0042085 -0.0030006 0.019477 0.018163 -0.014263 0.0017885 -0.018628 0.0032293 0.031184 -0.00096197 -0.018012 0.017774 -0.0083052 -0.0056031 0.0049754 0.0009421 0.040284 0.018287 0.0048704 -0.019861 -0.017347 0.0071329 0.016285 -0.0013221 0.0042892 -0.0072242 0.0019649 0.0051011 -0.014078 0.0038754 0.027363 0.030877 0.031441 -0.032132 -0.0016131 -0.014577 0.0059369 0.017706 -0.016286 0.01185 
opo 0.0019649 0.043977 -0.033358 -0.027382 0.014934 0.012396 -0.0038905 0.0042623 0.043482 0.048527 -0.0026437 0.020116 0.02379 0.033817 -0.0078217 -0.016085 0.012228 0.020824 -0.00936 -0.02567 0.0024918 0.0013247 0.0070594 0.0078677 0.019075 -0.011344 0.0063089 -0.0094766 -0.026749 0.01243 -0.029196 -0.0097241 -0.021215 -0.025845 -0.028424 -4.0505e-05 -0.0054017 -0.041867 -0.021013 -0.012332 0.023525 0.047716 0.0031943 -0.02238 0.0018118 0.00012294 -0.025417 0.0047601 -0.022072 0.0091466 -0.041331 0.044939 -0.02387 0.012833 -0.0011583 0.0041198 -0.012991 0.010628 0.030019 0.008728 -0.0091205 0.0016196 0.049617 0.033272 -0.025716 -0.0047267 -0.02533 0.01205 0.038156 -0.0008371 -0.011471 0.016835 -0.006571 -0.011613 0.0010038 -0.0098701 0.060051 0.031464 0.0060719 -0.027328 -0.018963 0.022977 0.035521 -0.015949 -0.01312 -0.0038267 0.0061928 0.0066558 -0.017309 -0.0093085 0.035608 0.042778 0.047083 -0.042555 0.012735 -0.034313 0.020689 0.047401 -0.025554 0.013942 
disagree 0.0022781 0.013549 -0.014115 -0.0016253 0.01273 -0.0004449 0.0060632 -0.0057571 0.0048902 -0.0023007 0.012046 0.0089269 0.0030113 0.0018888 0.0094944 -0.00027975 0.00354 0.011885 0.002496 -0.001064 0.0032681 0.0053584 0.0039781 0.012352 -0.010369 0.005548 -0.0024257 0.00070148 -0.0090966 0.0030098 -0.0038165 -0.0075099 0.0050429 -0.012428 0.0052944 0.0035307 -0.0036048 0.01195 0.0016606 -0.00042627 -0.007327 0.013253 -0.0031367 0.010133 -0.0042004 0.0035491 -0.0092693 0.0040905 -0.0059923 -0.0024524 -0.0025788 0.0050961 -0.0046127 0.01015 -0.0061559 -0.004563 0.0075254 -0.0072698 -0.0051474 0.010154 -0.0040913 0.0062156 0.008713 -0.003943 0.008908 0.013464 -0.0086302 0.0071121 0.0051406 0.0044247 -0.0011574 -0.0035491 0.014767 0.00034734 -0.009085 0.0039929 -0.0045519 0.010949 0.00091068 0.005591 -0.0013004 0.0026468 0.005683 -0.01208 -0.010711 0.0044833 -0.002796 -0.014152 -0.0075713 -0.0054587 -0.0050671 0.0052699 -0.005678 0.011511 -0.005032 -0.01408 0.015053 0.0016843 -0.010701 -0.0054464 
nah -0.010144 0.01648 -0.0095262 -0.018988 0.014021 -0.0097227 -0.0011387 0.00075368 0.013353 0.0094382 0.00050367 0.0084126 0.001434 -0.010135 -0.0061941 -0.0064133 -0.0063199 0.013541 -0.0046233 -0.007286 0.0015239 -0.0020745 0.011527 -0.0043729 -0.010197 0.003587 0.0042701 0.0041022 -0.0044348 0.0011517 -0.0080662 -0.011099 -0.0089057 -0.0051007 -0.001466 -0.0030009 -0.000562 0.010728 -0.0020667 -0.0031999 -0.0031584 0.018337 0.0021504 0.0077458 0.0051548 0.0092148 -0.0077933 0.0088217 -0.01141 0.0092957 0.0056267 -0.0015215 -0.0040727 -0.0063896 -0.017545 -0.002477 -0.010319 -0.0073003 0.003693 0.010919 0.0020823 0.0062096 -0.0014384 0.0047202 0.015368 0.0033806 -0.0034674 0.011329 -0.0050731 -0.010107 -0.0079998 0.0019437 0.0099978 -0.011129 0.0013432 0.0029652 -0.00084177 0.019163 -0.0071894 -0.0010816 -0.010819 -0.0025361 0.014329 -0.016056 -0.0094565 -0.007132 -0.0091061 -0.010888 -0.0079581 0.013534 0.0029109 0.012282 0.0067485 0.01425 -0.0055739 -0.0097581 0.012478 0.012293 0.0016405 0.005461 
nope -0.0017256 0.0022128 -0.00815 -0.019166 -0.00086663 -0.0054888 0.0088512 -0.0085147 0.020496 -0.0051121 0.006341 0.011563 0.0064639 -0.0069356 -0.0008524 -0.0092545 -0.01004 0.015946 -0.0095716 -0.00066626 -0.0026359 -0.001643 0.017263 0.014468 -0.0041583 0.0076412 0.008626 -0.0031384 0.0052445 0.012697 0.0049072 -0.0065304 0.0036508 -0.017173 0.0055299 -0.01038 -0.014319 0.011121 0.0014349 -0.008384 0.0086326 0.024172 -0.0067962 0.0088909 -0.0076728 0.0002729 0.0013495 -0.0066579 0.00025585 0.012068 -0.0033782 0.0018226 -0.002212 0.0076954 -0.019536 0.003485 -0.012602 -0.0022479 0.0023322 0.012616 0.0078526 0.014533 -0.0017343 -0.0037625 0.0085487 0.016193 0.0086468 -0.0057798 0.012905 -0.013209 -0.00088741 0.01045 0.0088791 -0.0045428 0.0039264 -0.0071466 0.0045538 0.018467 -0.00049282 0.01146 0.00082102 -0.001715 -0.0029255 -0.013159 -0.013067 -0.0012634 -0.0062684 -0.0081255 0.00060518 0.0094714 0.011855 0.012716 0.00026116 0.00081374 -0.0031723 -0.014 0.0058467 -0.002178 0.0080898 -0.010007 
mali -0.0069036 0.0084394 -0.011542 -0.014534 -0.00053218 0.004255 0.0012383 -0.0066186 0.012889 0.0050032 0.0055815 0.014096 0.012963 0.0039466 0.0087308 0.001202 0.007611 -0.0026091 -0.006843 -0.004055 0.0099495 0.010419 0.0066823 0.0063062 -0.0056466 0.0097992 -0.0053351 0.0076559 -0.00027901 0.0056106 -0.0073471 -0.0121 -0.0046492 -0.0061592 -0.0045108 -0.0056759 -0.010076 0.0024344 0.0053141 0.0063191 -0.0030168 0.01972 -0.009031 0.011019 0.0028546 0.0015194 -0.0072934 -0.0049938 -0.0017571 0.0096835 -0.005551 0.0020524 -0.001083 0.0024048 -0.016444 0.0063487 -0.0031487 -0.0054214 -0.0086016 -0.004471 0.0037151 0.0067209 0.0064561 0.010633 0.011338 0.012337 0.0053738 0.0089666 -0.0044329 -0.0039575 0.0070673 0.0033218 0.0091046 -0.012811 -0.0062324 0.0073136 0.001634 0.0094505 0.00032495 -0.0091334 0.0004882 0.0014815 0.010879 -0.0089458 -0.0038865 0.0046268 0.0012513 0.0047539 -0.010855 0.011766 -0.0014845 0.016621 0.00061409 0.00085919 -0.0059212 -0.0051025 0.01609 0.0038045 0.0032173 -0.0049884 
HAHAHAHAH -0.018314 0.018533 -0.017616 0.0032559 -0.0020176 0.01267 0.018446 0.0028442 0.013057 0.0042773 0.0021499 0.010573 0.0084369 0.02264 -0.00090147 0.011019 -0.0063019 -0.0017181 0.017422 -0.018562 -0.0058194 0.0063144 0.0070051 -0.0050963 0.018265 -0.0082727 0.011117 0.007175 -0.0072957 0.0017206 -0.010955 -0.0096308 -0.0068688 -0.010561 0.0037514 0.00065277 0.00019817 -0.016389 0.0037498 -0.012746 0.030434 0.018639 0.012828 0.016618 -0.024869 -0.0029573 -0.015541 -0.0016733 -0.012056 0.0085436 -0.034187 0.022737 -0.029069 0.01285 -0.0085542 -0.025904 0.0073093 0.00053362 0.012174 0.017543 -0.0087342 -0.0032745 0.016215 -0.0057171 -0.016156 0.0031265 -0.02467 0.0091313 0.0091114 0.026626 -0.0053003 0.0077258 -0.0065093 -0.0044219 0.010417 -0.0022298 0.040678 0.021084 0.0047468 -0.015223 -0.01303 0.020015 0.019092 -0.018572 -0.010986 -0.0054668 0.016886 0.0075034 -0.022571 -0.00073311 0.016284 0.024996 0.022264 -0.023984 -0.013685 -0.0098821 0.0025567 0.017627 0.00051534 0.0095004 
hahahah -0.021018 0.011381 -0.021892 0.0023056 0.0051735 0.015116 0.0047838 0.0073146 0.017148 0.0013826 -0.009108 0.0029909 0.014907 0.021738 0.0077209 0.010512 0.0047453 0.015051 0.0022211 -0.024702 -0.0076076 0.0069164 0.0077041 -0.014896 0.012415 -0.01818 0.0087275 -0.0017865 -0.012623 0.0014523 -0.0041509 -0.0086291 -0.0060097 -0.0015145 -0.0019161 0.0072743 -0.0015218 -0.022594 0.0053496 -0.015235 0.019651 0.0046314 0.0032226 0.016054 -0.018279 0.005912 -0.0045258 -0.0076008 -0.013094 0.00031237 -0.035871 0.015629 -0.035874 0.013953 -0.0047491 -0.021909 0.01524 0.0074087 -0.00052084 0.012769 -0.00015533 0.00014167 0.0106 -0.0018502 -0.015933 0.0066436 -0.026686 0.0064799 0.01229 0.026392 -0.0022407 0.0004405 -0.0078374 0.0030992 0.0037303 -0.015672 0.032594 0.033178 0.0040854 -0.010788 -0.01099 0.0044205 0.015546 -0.0035162 -0.011595 -0.017259 0.0099351 -0.0020081 -0.014319 0.0024683 0.021248 0.027602 0.014799 -0.022607 -0.0097846 -0.0014422 0.0029143 0.014435 -0.0052872 -0.0030906 
haha -0.015065 0.026074 -0.011445 -0.0081407 -0.0029044 0.013804 0.020703 0.0018369 0.0071573 0.0063903 0.0062029 0.017044 0.021227 0.022498 -0.002394 -0.0060229 0.00058464 0.0011129 0.017428 -0.016574 -0.0091812 0.01611 0.0066421 -0.0090473 0.013838 -0.019159 0.0020962 -0.007775 -0.0096394 0.0062934 -0.013875 -0.0064773 -0.015959 -0.011454 -6.6926e-06 -0.0058318 -0.0010565 -0.029025 0.0090714 -0.0082861 0.013653 0.010947 0.010492 0.0075359 -0.017831 -0.0057288 -0.013248 -0.0044332 -0.025014 -0.0059631 -0.038417 0.027399 -0.026555 0.01277 -0.011764 -0.017094 0.0033923 -0.0041545 0.0077186 0.010342 0.0023184 0.010674 0.016312 -0.0065946 -0.013523 0.017315 -0.015782 0.010033 0.016544 0.03032 0.0030435 0.011887 0.0050382 0.004017 0.010577 -0.013512 0.042527 0.029125 -0.0066291 -0.014199 0.00014906 0.0094019 0.017419 -0.011606 0.0043897 -0.017495 0.016365 -0.0062553 -0.024162 -0.001629 0.011541 0.017312 0.024925 -0.015516 -0.0079048 -0.019663 0.0018918 0.025931 -0.012469 0.011763 
so -0.014615 0.014492 -0.014597 0.0033187 0.01021 0.011673 0.012003 -0.003791 0.012792 0.0081591 -0.0019933 0.0024517 0.0034918 0.0020593 -0.0026558 0.0093427 -0.00012479 0.0038675 0.013534 -0.016557 -0.005142 -0.0016325 0.0039031 -0.012037 0.0024583 -0.0032455 -0.00027925 0.00028014 0.000631 0.014449 -0.0022717 -0.0036409 -0.0032358 -0.0068276 0.0052184 -0.0013195 0.0030245 -0.021126 0.0010775 -0.017132 0.004161 0.0077681 0.0016009 0.010905 -0.002244 0.0003475 -0.0030335 -0.0071846 -0.014146 -0.0046402 -0.025575 0.002482 -0.020963 0.0027684 0.0002989 -0.01309 0.0025426 0.004625 0.0011656 0.014318 -0.0047882 0.0079411 0.0092226 0.0023384 -0.013526 0.0069735 -0.017402 0.012165 0.0080789 0.01859 -0.012512 0.008357 0.0053614 -0.0050072 -0.0080655 -0.0066334 0.011349 0.019377 0.004053 -0.0097606 -0.013536 0.014126 0.015994 -0.0026612 -0.00040304 -0.008921 0.013956 0.0021418 -0.0037231 -0.010889 0.00028937 0.0079496 0.010832 -0.0076814 0.0011358 -0.0077944 0.012264 0.009687 -0.011935 0.004166 
funny -0.0045871 0.010855 -0.02145 -0.0084173 0.0095276 0.003497 0.00052916 -0.0044912 0.011133 0.0019083 0.0090656 0.01037 0.0015847 0.0038899 -0.008008 -0.0065416 0.00067025 0.0039478 -0.0019367 -0.0082537 -0.0054539 0.0054427 0.0012309 0.00078184 0.0099 -0.015416 -8.4195e-05 -0.0036043 -0.00065085 0.0038089 0.0025251 -0.011614 -0.0082468 -0.00068961 -0.006275 0.0016318 -0.0022749 -0.016357 -0.0090947 -0.012946 0.016024 0.01456 0.0007024 0.0076598 -0.00029734 0.0035652 -0.009801 0.0021506 -0.00031693 -0.005756 -0.020991 0.0016835 -0.0047678 0.010794 -0.00035439 -0.0086765 -0.0015626 0.0046189 0.0054559 0.0076774 -0.0030342 0.0071647 0.016225 0.008747 -0.0086462 -0.0038931 -0.014413 0.0018957 -0.001726 0.016215 -0.0014406 0.0020544 0.00010068 0.0028454 0.0080918 -0.0095251 0.011382 0.018571 0.004865 0.0018134 1.3586e-05 0.0043122 0.012685 -0.010943 -0.010254 -0.011174 -0.00024106 0.0075624 -0.015366 -0.0010841 0.01708 0.0092611 0.0076479 -0.020639 -0.0067462 -0.015005 -0.003886 0.0079539 -0.0089566 0.00016567 
that's -0.018477 0.014886 -0.023326 -0.0036214 0.0094003 0.016658 0.0085739 -0.0010719 0.012269 0.00051609 -0.0053211 -0.0021858 0.020787 0.017954 -0.0020045 -0.0043086 -0.0035388 -0.0012269 0.010474 -0.0076296 -0.0024013 0.019165 0.0064174 -0.00099797 0.013477 -0.010711 0.00056985 -0.001828 0.0015585 0.014449 -0.013563 -0.00050992 -0.0053063 -0.012912 -0.0060405 0.011017 0.01023 -0.024477 -0.0099057 -0.0027254 0.018599 0.0056208 -0.004845 0.012651 -0.020031 -0.0007226 -0.014284 0.0007553 -0.020453 -0.0062786 -0.017458 0.015497 -0.025086 0.0063274 0.0020596 -0.012032 0.011388 0.0037274 -0.0005192 -0.0013082 -0.014763 0.014022 0.012935 0.012059 -0.015794 0.015213 -0.0085843 0.015754 0.010008 0.0058458 -0.0039823 0.002666 0.0011574 0.0072496 -0.0051957 -0.0131 0.033362 0.019096 -0.0091143 0.00035772 -0.0033721 0.0060234 0.013935 -0.0063823 0.0051059 -0.0046753 0.0093684 -0.0065071 -0.015646 -0.0048697 0.0091988 0.012667 0.018228 -0.015559 -0.0077936 -0.0056527 0.014535 0.0092933 -0.0027211 0.0048943 
hilarious -0.018936 0.0072512 -0.014817 -7.8963e-05 0.0092826 0.0096127 0.010936 0.011235 0.0071022 0.0031233 0.0019609 0.0019209 0.0018424 0.020894 -0.0063612 0.0022684 0.0049986 -0.0018465 -0.00089281 -0.012051 0.00099289 0.018693 0.00073234 0.0039669 0.0087984 -0.01554 0.015144 0.0069507 0.0041018 0.0028264 -0.011097 -0.011661 -0.0067329 -0.01434 -0.013459 0.0094153 0.0052879 -0.024644 0.00374 -0.017999 0.027191 0.018552 -0.0014338 0.0017147 -0.018469 -0.0079277 -0.014341 0.0016859 -0.0070782 0.010094 -0.032492 0.016093 -0.02325 -0.0024206 0.0047144 -0.018756 -0.0012207 0.0037716 0.006863 0.0080608 0.0026859 0.014764 0.018286 -0.0029481 -0.0081685 0.0089044 -0.022145 0.01179 0.0082873 0.014923 0.00022192 -0.0030234 -0.0050123 0.0034865 -0.0014618 0.0016084 0.032528 0.024934 -0.0027403 -0.0072855 -0.0049757 0.0172 0.020002 -0.015868 0.0040821 -0.012576 0.0103 0.00026355 -0.014406 -0.0031689 0.0074368 0.021498 0.024455 -0.024812 -0.0022292 -0.015275 0.0036753 0.02401 0.00022542 0.0019716 
LMAO -0.015738 0.026626 -0.028227 -0.013445 0.0048956 0.002213 0.023047 0.010348 0.019239 0.018157 -0.0053157 0.0021968 0.0087279 0.016368 0.0016765 0.0047381 -0.0086673 0.016999 0.018994 -0.019955 0.0017964 0.009696 0.017492 3.651e-05 0.010731 -0.011788 0.016162 0.0013547 0.00066343 0.0046552 -0.010834 -0.008302 -0.021211 -0.016821 -0.00017269 0.0010519 0.013727 -0.020232 0.0030964 -0.02284 0.019811 0.0049575 0.0040108 0.0035442 -0.026079 -0.0054164 -0.023469 0.0033073 -0.010728 0.0069962 -0.041315 0.020953 -0.037148 -0.00063048 -0.00016959 -0.023899 0.0088051 0.012572 0.010334 0.0047441 -0.0093227 0.014691 0.023766 -0.0012677 -0.0018296 0.018984 -0.024437 0.021396 0.0049682 0.026906 0.0030871 0.0016121 -0.0098144 0.011065 -0.0063283 -0.0036183 0.044164 0.038493 0.0019597 -0.014452 -0.0019619 0.0096469 0.0097812 -0.016273 -0.0019142 -0.016984 0.0030037 0.007053 -0.020654 -0.0053524 0.027143 0.01872 0.014751 -0.023845 -0.0066424 -0.016098 0.017112 0.031611 -0.0093018 -0.0046159 
LOL -0.024723 0.024982 -0.029551 -0.012074 -0.0015523 0.015919 0.012434 -0.00082289 0.027644 0.017439 -0.0062808 0.017567 0.020782 0.031259 -0.0013914 0.0021648 0.0039102 0.00060813 0.019418 -0.029328 -0.012279 0.019523 0.015447 0.0011953 0.010584 -0.0051797 0.0072598 0.0040489 -0.0086287 0.014383 -0.0039321 -0.011285 -0.0048192 -0.004417 -0.0036932 0.0074049 0.0073636 -0.01592 -0.0041209 -0.015791 0.022409 0.007826 -0.0045157 0.01615 -0.025317 -0.0066649 -0.0083726 0.0051748 -0.022274 0.0014402 -0.042628 0.01328 -0.038483 0.012438 -0.0093739 -0.016164 0.01756 -0.0046219 0.0020431 0.0073034 -0.0053857 0.0025118 0.012962 0.007029 -0.0024319 0.0053029 -0.027899 0.016399 0.011 0.032597 -0.0040149 -0.0035546 0.001963 -0.0016338 0.0014747 -0.011693 0.047411 0.036297 -0.0013493 -0.0050858 -0.0026638 0.0088419 0.011099 -0.014148 -0.0044247 -0.013761 -0.00061026 0.00057195 -0.025619 -0.0044863 0.02994 0.021551 0.02598 -0.022032 -0.0095253 -0.0086664 0.011557 0.01937 -0.013135 0.011216 
addition 0.0072122 -0.006559 0.011447 0.014147 0.00048902 -0.0096102 -0.0090114 0.0071469 -0.00037644 0.00057637 -0.0042685 -0.0085166 -0.0091038 -0.0073237 -0.0084429 0.0040728 -0.0029515 0.0061609 0.0075722 0.010533 -0.0011913 -0.0062651 0.0063102 0.0087105 0.0010032 0.0052084 0.00095581 0.0021816 -0.0016051 -0.0073735 -0.00040203 0.0020286 -0.0067408 0.0063313 -0.0040541 -0.0058612 -0.0038217 0.0094574 -0.0053156 0.0014639 -0.01229 -0.016571 -0.0090957 0.00087319 0.0072836 0.0051768 0.011157 -0.0026143 0.0041682 -0.011313 0.011445 -0.0039526 0.0081748 0.0021683 -0.00093517 0.0071049 -0.0058182 0.0071829 -0.014406 0.0032636 0.0060877 0.0074853 -0.0095905 0.0021019 0.0079091 -0.00080499 0.0043287 0.0075946 -0.0092554 0.0014241 0.0027881 -0.0062582 -0.004462 0.0095047 -0.0021607 0.0022189 -0.0055283 -0.013586 -0.0076046 -0.0074141 -0.0024602 -0.0037426 0.0021607 -0.0019677 0.0084614 -0.0038467 -0.0056829 0.0001884 0.0016691 -0.0059731 0.0056349 -0.011133 0.0014416 -0.0019941 -0.0085284 0.013376 0.0052816 -0.0027292 0.0044297 -0.00080421 
one 0.0037041 -0.012176 -0.001851 -0.005573 -0.0059769 -0.0091378 -0.0086604 0.0065938 -0.0099426 -0.010887 0.0087909 0.0060937 -0.0093133 -0.012655 -0.008392 0.0056673 -0.0032583 -0.0038372 0.0084179 0.00094558 0.003233 0.0011314 -0.0012979 -0.0076084 0.002089 0.010863 0.0062079 0.006184 0.011327 -0.0011858 0.0041723 -0.0053276 0.00034728 0.0015448 0.0055103 -0.00019527 -0.0025118 0.0054825 0.0035016 0.0080768 0.00015075 -0.012377 -0.0069513 0.0035496 0.005498 0.0074159 0.0031163 0.007716 0.012148 0.0072851 -0.0013376 0.0048694 -0.0075215 0.0026437 -0.0053732 0.0059816 -0.0022145 -0.0090233 0.0013842 -0.004073 0.009877 -9.3072e-05 0.0043868 -0.011312 -0.0051955 0.010269 -0.00059828 0.0036069 -0.012621 0.0014362 -0.0081982 -0.0096952 -0.0081081 -0.0039417 -0.0060646 0.0026834 -0.011291 -0.0082057 -0.00048028 -0.0066342 -0.0057951 0.0082762 -0.011352 0.0029724 0.0095304 -0.0077909 -0.0050726 -0.0019871 0.0080898 -0.002578 -0.010084 -0.0025253 -0.00077682 -0.0056215 0.0052832 0.0095976 0.0067879 -0.0051672 -0.005337 0.0066158 
basic 0.0027118 0.0010295 -0.0017775 0.0049852 -0.0085805 0.0054842 -0.0095664 -0.0052364 -0.0086602 0.0056246 -0.0046993 -0.0042727 -0.010362 -0.01032 -0.0025936 0.0057318 0.0048916 -0.0072032 -0.0039999 -0.0039593 -0.0059235 -0.0028745 0.0049959 0.0066426 0.0053866 -0.00010512 -0.0032654 0.0048438 -0.0045976 -0.0050207 -0.00018118 0.0044413 -0.0023179 -0.0024699 -0.0021388 0.0080879 0.0009802 0.0079123 -0.0056255 0.01041 0.0023755 0.0012114 0.0067484 0.0092219 0.0054109 0.0038841 -0.0038201 0.0072931 -0.0048328 -0.0027183 0.0067753 -0.0012757 0.0026444 -0.0074992 -0.0073717 0.0015366 -0.0012845 -0.00054738 -0.01104 0.0088941 0.0026587 -0.011348 -0.0062562 -0.0073637 6.5537e-05 0.0052477 0.0035377 0.0081723 -0.0062722 0.0027851 -0.0054323 -0.0050707 0.0027977 0.0098886 -0.0038979 -0.0031306 -0.0074627 -0.0061528 -0.0050146 0.0058334 0.0088564 0.0072102 -0.0068324 0.0010135 -0.0049443 0.0047223 -0.0089456 0.0016936 0.0057724 0.00081982 -0.0012448 0.00086568 0.0065224 0.0070232 0.0056911 0.0056589 0.0064859 0.0032409 0.0059976 0.0018199 
operations 0.0016561 0.0007161 -0.0013501 0.007177 -0.0066315 0.0038149 -0.0099384 0.0045519 -0.010754 -0.0019073 -0.0045168 0.0060956 0.0039418 -0.00015683 -0.00593 0.0055726 0.0051587 -0.0065478 0.009489 0.00046133 0.0060415 -0.0010154 0.0013961 -0.010677 -0.010825 0.0076799 -0.010003 -0.0033363 0.0092337 -0.0066633 -0.0015382 -0.00092943 0.010908 0.0043287 0.00047031 -0.0029556 0.0069292 -0.0052399 0.0035407 -0.0044945 0.0052573 -0.0077496 0.0056166 0.0043483 0.010684 0.0024798 0.0077817 0.0096414 0.0059704 0.0053221 0.0047613 -0.014729 0.0061207 0.0050493 0.0075275 0.00032125 -0.0057356 -0.0028012 -0.0041309 0.0047036 0.011606 -0.0016633 0.00042858 -0.0076988 0.0056474 0.0077917 0.006824 -0.0012964 -0.01379 0.0069257 0.0043758 0.00074246 0.000547 0.0096057 0.0051004 0.001695 0.0032555 -0.010748 -0.010029 -0.0070117 -5.8544e-05 0.00080939 -0.0050344 -0.0043515 -0.0012704 0.00082893 -0.0017114 -0.00083373 0.0098214 -0.0051832 -0.0030237 -0.0042886 -0.0041134 -0.0055823 -0.0088263 -0.0041004 -0.010425 -0.0014966 0.0031524 -0.0042414 
subtraction -8.0161e-06 -0.0031898 0.009592 0.01212 0.0053444 -0.004679 -0.011016 -0.0034064 0.0029721 -0.0084902 0.0050743 0.0089023 -0.0082474 -0.0090611 0.0070006 0.0088397 0.010193 0.0045073 0.0062226 0.0033189 -0.0063869 -0.012216 0.0024841 0.0010658 0.0046714 0.0060852 -0.0084809 0.0088828 -0.00042681 0.00070915 0.0032551 0.010642 0.0077437 0.00094424 0.013202 -0.0020152 -0.00091028 0.0037477 0.00017479 0.010967 -0.012056 -0.011594 -0.004141 -0.0083284 0.00078792 -0.0073143 0.0059799 0.0079742 -0.0012256 -0.0061891 0.011676 -0.0011379 0.0051858 -0.0049684 -0.0059407 -0.0015734 0.0042375 -0.0070197 -0.010262 0.0073861 0.011552 -0.00045535 -0.0075974 0.0031121 -0.0041472 0.0022407 0.0076622 0.0017381 0.0057554 0.0065168 -0.0052255 -0.0038715 0.0084818 0.0014287 -0.0037667 -0.0047112 -0.0066756 -0.012706 -0.001388 0.0058392 -0.00074304 -0.009323 0.0013821 0.001815 -0.0072802 -0.0079269 0.0052769 0.0056982 -0.0041874 -0.0077919 0.0055971 -0.013751 0.00034719 0.0059918 0.0081132 0.012278 0.0024856 0.0015182 0.0084438 -0.0022116 
another 0.004983 0.0043038 -0.0042128 0.010691 -0.011612 -0.003563 -0.010765 0.0033799 -0.0091802 -0.0078059 -0.01001 0.0083545 -0.0018593 0.0019036 0.0047247 -0.0054906 -0.0047456 -0.002402 0.0028277 0.010008 -0.00066892 0.00019838 0.0031569 0.0044499 -0.0076083 0.0025916 0.00036885 -0.0035278 0.001526 0.0086498 0.00074443 0.0076044 0.010574 -0.0047708 0.0087473 0.0065817 -0.0064063 0.00074278 -0.0040914 0.0097827 -0.00087376 -0.008173 0.0050135 -0.0070139 0.0085771 -0.0069018 -0.0046614 -0.0025335 0.0024453 0.0031965 0.014595 0.0022082 0.0022545 -0.011573 -0.0006653 -0.0084952 0.005839 -0.0095484 -0.0086507 -0.00084829 0.0017421 -0.0027759 -0.012062 -0.0022774 -0.0038632 -0.0026943 -0.0022979 -0.0029741 -0.0068996 -0.0008368 0.0012262 -0.003335 -0.004863 -0.0062277 0.0021628 -0.0098112 -0.015712 -0.0023386 -0.0084676 0.0063205 0.0030833 -0.00051201 -0.0039609 0.013312 0.0040359 0.0066195 -0.0057409 -0.002213 0.011121 0.0097987 0.0041227 -0.0033401 -0.00049242 0.011469 0.00012352 0.00030853 -0.0067297 -0.010306 -0.0069305 0.0032383 
operation 0.00315 -0.011232 0.00041141 0.011674 -0.0032203 0.0031049 0.0023543 -0.0094426 -0.013685 -0.0044718 0.0019778 -0.0032083 -0.0044093 -0.012077 0.0083977 -0.0017564 0.0050085 0.0020066 0.0068572 0.0090026 0.0092271 -0.012834 -8.419e-05 -0.0029572 -0.0062744 0.0073774 -0.0037031 -0.0077627 -0.0012357 -0.0014019 -0.0049308 0.010512 0.010513 -0.0029192 -0.0017407 -0.01029 -0.00083185 -0.0020481 0.00026385 0.011908 -0.006378 -0.008418 -0.0021812 -0.00031416 -0.00012468 0.0044336 -0.0054634 -0.0082523 0.0048805 -0.0045442 0.011514 -0.00629 -0.003194 0.0012009 0.0062634 -0.0061199 0.001823 -0.0097599 -0.0064957 -0.0078127 0.00091158 -0.0057134 0.0012396 -0.0018503 -0.0057083 0.0077672 0.01301 0.0070437 0.0033154 0.0069668 -0.0076896 -0.0048084 0.0071355 0.0080155 -0.0074005 -0.0033992 -0.015142 -0.012489 0.004516 0.0099164 0.0073464 -0.00056923 0.0043928 -0.0032639 -8.0575e-05 0.0033319 0.0083436 -0.0061478 0.0010407 -0.0048944 0.0039093 0.0020287 -0.0020642 0.00183 0.0093268 0.001403 -0.0075674 -0.0038715 -0.0033034 -0.0044043 
well 0.0097204 -0.0041031 0.012481 0.010449 -0.0074293 0.0035469 -0.0086196 0.0028694 -0.011487 0.0034983 -0.01069 -0.006914 0.0031681 -0.0043158 -0.0040647 0.0041398 0.0064182 -0.0012778 0.006925 -0.0067155 -0.0082709 0.0028303 -0.0081903 0.0038499 -0.00079332 0.010031 -0.0034404 0.0040908 -0.007893 -0.0028916 -0.0074532 -0.0025347 0.0028922 -0.0066609 -0.0046681 -0.004174 -0.0034185 0.0004882 -0.00094734 0.010733 -0.0074916 -0.013341 0.0081554 0.0039046 0.0082806 0.0038876 0.0070735 -0.008389 0.0027473 0.0048002 0.011068 0.004459 -0.0084641 0.00017515 -0.0005105 0.0018417 -0.00046904 -0.010939 -0.0044718 5.3185e-05 0.010778 0.0038045 -0.013085 -0.006948 0.010357 0.00011997 -0.0044871 -0.0064327 -0.003827 0.0050611 -0.0090696 -0.0095035 0.0065432 0.0056847 -0.0058701 -0.0046012 0.003401 -0.011684 0.0082122 -0.0078019 0.0077223 -0.0041444 -0.0026181 0.0099798 7.0773e-05 0.0063357 -0.00036728 -0.0034898 0.0070569 -0.0094797 -0.011814 0.00080231 -0.003559 0.0012756 0.008015 0.0049286 0.0046846 -0.00783 -0.0082889 -0.0066539 
it 0.011161 -0.006075 -0.0043661 0.0096559 -0.0051116 -0.005602 -0.005538 -0.0041325 0.0022117 -0.0122 -0.0016991 -0.006489 0.006634 -0.0017392 -0.00091283 -0.0020981 0.0096027 0.00033804 -0.0065589 0.0048366 -0.00079975 -0.0066815 0.00084426 -0.0090725 -0.0071659 0.0019033 0.0025345 0.0037206 0.0086278 -0.0073253 0.0063274 0.008846 0.010676 -0.0066577 -0.0067795 -0.0049746 -0.0066878 0.010251 -0.0079912 -0.0033029 0.0059755 -0.015381 0.0094635 -0.00080568 0.0040046 -0.0080428 0.0049078 0.0091259 -0.0071976 -0.0025339 0.0042193 -0.0036246 0.0015723 -0.00068703 0.0010123 -0.0074968 -0.0059395 -0.007713 -0.010906 -0.00048659 -0.0035879 -0.003773 0.00040453 -0.003337 -0.0046951 -0.0033796 0.0024195 -0.0088626 -0.0010539 -0.0085914 -0.0071459 -0.0087544 0.0084687 -0.004672 0.0017172 -0.0046234 -0.0082353 -0.012086 -0.0082975 0.00491 0.01152 0.0062001 0.0041597 -0.0010897 -0.0023919 -0.0076528 -0.0064861 0.0045005 -0.0052657 0.0088934 -0.0065114 0.0055346 0.0028086 0.00123 -0.0044146 0.01038 0.004098 0.002067 -0.00068814 -0.0065564 
does -0.0057207 -0.013128 -0.0061239 0.0091946 -0.011145 0.0070041 -0.0036581 0.0052239 -0.01452 0.00073767 0.0011993 -0.0074739 -0.011184 -0.012717 -0.00011197 -0.0022331 0.010162 -0.00070323 0.0083505 -0.0065489 -0.0089307 -0.0093593 0.00012118 0.00068625 -0.0028681 -0.0075495 -0.00036733 0.0062467 -0.0045894 -0.0013408 0.0086555 -0.00088236 0.0090847 0.00014212 0.0021617 0.00074486 0.0092814 0.002749 0.00059477 -0.0040422 -0.0061424 0.0022813 -0.0046634 -0.0046962 -0.0025859 0.0010507 0.0074126 0.006398 -0.0049224 -0.0082544 -0.0033628 -0.01229 0.0084245 0.0042057 0.010235 0.007791 0.00042234 -0.0026733 -0.0067817 0.0020455 -0.00045041 0.0055363 -0.0013104 0.0035424 -0.0030196 -0.0066243 0.01064 -0.0021357 -0.0091751 -0.0051685 0.0054318 0.0054555 -0.00221 -0.0068289 -0.0079748 0.008045 0.0046527 -0.0012137 -0.006882 0.0070501 0.0076044 -0.0090917 -0.00847 0.012178 0.010068 -0.0017887 -0.01056 0.0013659 0.0049408 -0.0086089 -0.011425 -0.001149 -0.0031011 0.00010305 0.0041388 0.0095362 -0.0017186 -0.011201 -0.0047678 0.0010287 
make -0.005638 -0.0072061 -0.0037751 -0.005044 0.004423 -0.0069751 0.0027381 0.0047508 -0.011038 -0.0090876 -0.00068208 -0.0073414 0.00069108 -0.0033611 -0.0057438 -0.0065191 0.0040796 -0.011308 0.0022665 0.0080661 0.0053721 0.0024455 0.0021914 -0.0042058 0.007621 0.0036964 -0.0090093 -0.0079843 0.0023651 0.0070679 0.00073404 0.0079254 -0.0075222 0.0029243 0.0020004 -0.0053863 -0.0099851 0.001892 0.0066078 0.011969 -0.005567 -0.009126 0.0011332 -0.002581 -0.0076222 -0.0098502 -0.00074593 0.0028117 -0.005088 0.0005873 0.0095823 -0.0055421 0.00021418 -0.0049945 0.012011 -0.0027309 0.0012031 -0.0014185 -0.0033838 0.0053741 0.010393 0.0026904 -0.011629 -0.0031949 -0.0025237 -0.003393 0.0085658 -0.0088342 -0.009492 -0.002974 -0.0069898 0.0027133 0.00020329 0.0025292 -0.0025623 0.0064347 -0.010825 -0.010728 0.0002381 0.0026455 -0.0019411 -0.0020993 -0.0073718 -0.0065843 -0.0039429 -0.0023583 0.0047938 -0.0087169 0.0043747 0.00034893 -0.0012395 0.0035103 0.0074745 0.011413 0.0012533 0.0053807 -0.0014154 -0.0072559 0.00048403 -0.002815 
sense 0.0049777 0.0036282 0.01227 -0.0042536 -0.010091 0.0083726 0.0014261 0.0096135 -0.0080847 -0.0043103 0.0056855 -0.0044006 0.0015628 -0.013212 -0.0059976 0.010615 -0.0049977 0.0025182 -9.2213e-05 0.0082998 -0.0026027 -0.012405 0.0082489 0.004156 0.0067184 0.0078415 -0.0099144 0.0018706 -0.0062288 0.0033198 -0.0058733 -0.00026676 -0.0069613 0.00012167 0.0050908 0.0086301 0.0079462 -0.0013813 0.0096319 0.011852 -0.0068923 -0.0046753 0.002681 0.0089162 0.0054201 0.0055562 -0.0013569 0.0023475 0.0054451 0.0038004 0.0081532 0.00049706 0.010779 0.0053603 0.011364 -0.0035961 -0.0044734 0.0051709 -0.004219 0.0041417 0.0038215 -0.011381 -0.0028592 -0.011364 0.0019037 -0.0049187 -0.0034336 0.0050163 -0.0066333 -0.0078993 0.0019364 -0.010734 -0.0040029 0.0010232 -0.010815 -0.0051681 -0.012066 -0.0060787 0.0060264 0.0081011 0.005498 0.00022627 0.0024427 0.010986 0.0079485 0.0053727 0.0046144 0.0064563 0.010104 0.0035971 0.0014192 0.0055902 0.00090136 -0.0070124 -0.0052512 0.0037306 -0.0072733 -0.0089329 0.0056025 -0.0035375 
scientifically -0.0036192 -0.0056165 0.0071936 0.0040255 0.0061399 0.00029173 -0.01209 0.0065438 0.0015444 -0.0053477 -0.0013093 0.00047052 0.0043478 0.0054973 -0.0068513 -0.0051798 0.00078272 -0.0067962 0.0012389 -0.0082003 -0.0071751 -0.0040908 -0.003337 0.0072902 -0.010492 0.00027024 -0.010234 0.0015937 -0.0067444 0.0082849 0.0035535 0.003627 0.010513 -0.0022665 0.0024103 -0.0043544 -8.3063e-05 -0.0024868 -0.008542 0.012676 -0.007906 -0.010761 0.0090335 0.0013734 0.0038928 -0.0013654 -0.0037251 -0.0022676 0.00081373 -0.010248 0.0034923 -0.0027695 -0.0068624 -0.0085144 0.011264 -0.0035714 0.0030291 0.0052547 0.00025096 -0.0067329 0.0093594 -0.00036243 0.0036691 0.0016389 0.0094114 0.0042248 5.6904e-05 -0.003393 -0.011506 -0.0084619 0.0075726 0.0083803 0.0023018 0.011366 0.002152 -0.0038186 -0.010524 -0.0069494 0.0027043 -0.0070657 4.5591e-05 0.0071619 -0.012027 0.0067829 -0.0044756 -0.0010541 -0.0041721 0.0071562 -0.0031951 0.0011416 0.0031084 -0.0096551 0.0026612 0.0056338 -0.0069777 -0.0056602 0.0035383 -0.010787 0.0063994 0.00024194 
speaking -0.0052455 0.0021605 0.0031097 0.00055046 -0.01155 0.0065736 -0.0033144 0.0037644 -0.0020663 0.0066448 -0.010895 -0.0073435 0.0012824 -0.013784 0.0096316 0.0093798 0.010527 -0.01104 -0.00043367 0.0078055 0.0084575 -0.012865 -0.001343 -0.0040445 -0.010554 -0.0010972 0.0082481 -0.0023392 0.0023403 -0.00081679 0.01087 0.0037601 -0.0052057 0.0033941 0.0054929 -0.010553 0.0055365 0.010876 -0.0013326 -0.0027248 -0.0064751 -0.015541 -0.0020521 -0.0060791 -0.0048215 0.0064488 -0.00083753 -0.0050092 -0.0048083 0.0049601 -0.0051225 -0.0049283 0.0024129 0.0049824 -0.0044273 -0.0062995 -0.0029158 -0.00030142 -0.010994 0.0036636 -0.0055789 -0.005102 0.0005383 -0.011264 0.00085698 0.0028984 0.0076159 -0.0084688 -0.011853 -0.0018177 0.00069424 0.0081415 0.0066981 -0.0011834 0.0026426 0.002417 0.00057817 -0.0096658 -0.00066973 -0.0066219 0.0035591 0.0045488 -0.0085341 -0.0034933 0.0056378 0.0015327 0.0015104 -0.0084994 -0.0060963 0.0063851 -0.011737 0.0020159 -0.0083638 0.010509 0.0083667 0.011374 -0.0015919 -0.0025992 -0.0036435 0.0062141 
science -0.0059593 -0.002658 0.0061483 0.014068 0.0051829 0.003156 -0.012687 0.0062613 -0.0081987 0.00078686 -0.0094969 -0.0077163 0.0083679 -0.0026316 -0.0085306 -0.0074695 0.0041909 0.0029968 -0.0041367 0.0040166 -0.0085374 -0.010386 0.0082722 -0.0073426 -0.0036041 0.0074528 0.0018427 -0.0066143 -0.004869 0.0085387 0.0018705 -0.0029258 0.010277 -0.0060501 0.0081834 0.0015874 -0.002714 0.0025136 -0.0023748 -0.0017002 0.0015127 -0.0041915 -0.0056505 -0.0021134 0.0069639 -0.0025137 0.006117 0.0006646 0.0029991 -0.0089249 -0.0011233 -0.0047726 -0.006875 0.0030841 -0.0047309 0.00092358 0.0031111 0.005784 -0.012974 -0.0051363 -0.0046466 -0.0057887 0.0010736 -0.0014201 0.010786 0.0042456 0.0061667 -0.0092977 0.00090448 -0.0018562 0.0076184 -0.0004479 -0.0031998 -0.0046339 -0.0057683 0.0092514 -0.0091797 -0.010384 -0.0073711 0.0043379 -0.0052442 0.0060104 0.0040748 0.0097147 0.0098941 -0.008824 0.0064338 0.0039749 0.002568 -0.0048379 0.0024523 0.0054751 0.00038529 -0.00027752 -0.0030363 0.0041302 0.0075097 -0.012338 -0.00019915 0.0083631 
says -0.0053648 -0.014498 -0.0043084 0.0095924 0.0040309 0.0073682 -0.0099473 0.0077477 -0.0082792 -0.002708 -0.0017813 0.0065838 -0.0067752 -0.0075402 -0.00030649 0.0040476 0.0070529 0.0027145 -0.00025998 -0.0079048 -0.0093384 -0.0042756 0.0059718 0.0051564 -0.0095957 -0.0067031 -0.0048068 0.0089017 -0.0020163 0.00044691 -0.0011828 0.0078707 -0.0020885 0.0015492 0.00023703 0.0061918 0.0029702 0.0027439 -0.0011657 0.010858 0.0013953 -0.0064132 0.00030972 -0.003626 0.0072351 -0.0078823 0.0049087 -0.0062906 0.0069141 0.0076189 0.011686 0.0048644 -0.0025992 0.0051775 -0.00041628 -0.0084095 -0.002362 -0.010227 -0.0099418 -0.0060711 -0.0019085 -0.0039205 -0.001328 -0.0070698 0.0057465 -0.0064896 0.0095527 0.00067145 -0.011012 -0.0044328 0.007832 -0.0039628 -0.0032722 0.006912 0.0048638 -0.0066554 -0.0014671 -0.013897 0.0034844 0.008517 -0.0044066 0.0056386 -0.008642 0.0057338 0.00096652 -0.003244 -0.010914 -0.0058815 -0.00052042 0.0032137 0.0012404 -0.013097 0.0040242 0.011421 0.010707 0.0041549 -0.0098894 -0.013535 0.0073612 0.0075978 
it's 0.010705 -0.0094515 0.012713 0.0087605 -0.0075096 -0.0057613 -0.011597 0.0051847 -0.0090149 -0.0078415 0.0062706 0.0017518 -0.010236 -0.013643 0.0071069 0.0084208 -0.0019839 -0.0092374 0.0070641 -0.0062298 0.0075684 0.00023297 0.0004207 -0.0008266 -0.0035549 -0.00040586 0.0079561 -0.0017604 -0.0075059 0.0064636 -0.0078653 0.0021139 -0.0085836 -0.00787 -0.006117 -0.009791 -0.0075796 0.0063783 0.00096215 0.0085278 -0.0023469 -0.0078172 0.0062596 -0.0077233 -0.0019665 -0.0016719 0.0053698 0.0033265 0.0087154 -0.0022327 0.00029515 -0.0057179 -0.00069367 0.0060363 0.0015859 -0.0041271 -0.0020018 -0.010978 -0.010037 -0.0035387 0.011207 -0.0052184 0.00020074 -0.00085999 -0.0070469 0.0062664 0.0083935 -0.0053406 0.00049781 -0.0015748 0.0078372 0.00682 0.0049522 -0.0022792 -0.0063524 -0.0029965 -0.015313 -0.013121 0.0048274 -0.0059743 -0.0037317 -0.0073825 -0.011673 0.010351 0.0060205 -0.0039974 -0.005714 0.009306 0.010906 -0.0030781 -0.0082802 -0.00054441 -0.012043 0.0058484 0.0057386 -0.0016497 -0.00262 -0.0021209 -0.0078175 -0.0025187 
not 0.0028172 -0.00081414 0.0092064 0.00090097 -0.0028626 -0.0041637 -0.010254 0.0096377 -0.0094884 -0.0069453 -0.008889 0.0017681 -2.5904e-05 -0.006429 -0.0077862 0.0026049 0.010766 -0.0098634 -0.0029424 -0.00039721 0.0082195 -0.012046 -0.0084296 -0.0012933 0.0068063 -0.00093438 -0.005033 -0.0059005 0.0097103 0.0081462 -0.0030902 0.00094671 0.0051266 -0.0010021 0.0082678 -0.0039301 -0.0050205 0.0033154 -0.00030555 -0.0052368 -0.0047518 -0.014265 0.0013375 -0.0023957 0.012215 0.0014562 0.01118 0.00052563 0.010452 -0.0084053 0.01072 -0.0023611 -0.0080156 -0.0050206 0.0010735 0.0056293 0.0046504 0.0016662 -0.010226 -0.0038699 0.00044238 -0.0045351 0.0024728 0.0011826 0.0090821 0.0032237 0.0048815 -0.0081693 -0.003084 0.0065111 0.00081608 0.0054125 0.00021888 0.0014909 -0.0024722 0.0078702 -0.005761 0.00015352 -0.0049413 0.00076565 0.0073154 -0.0057583 -0.00046512 0.0072073 -0.0046392 0.010906 0.0010392 0.00438 -0.0041385 0.0033948 0.0033359 -0.0065636 0.0053415 -0.0066097 0.0085436 0.013193 0.006134 -0.011375 0.0015123 0.0045446 
possible 0.0060774 -0.0036554 7.5766e-05 0.0090178 -0.0026508 0.0081173 -0.01202 0.00062051 -0.01561 0.0037165 -0.0086076 -0.007755 -0.0056959 -0.0017905 0.0045095 0.0001282 0.0023495 -0.0021532 -0.00852 0.0089305 -0.0060411 -0.0071882 -0.0081078 -0.0040831 -0.00085982 -0.0031045 0.0087702 -0.0072384 -0.0079835 -0.0017759 0.0045079 -0.00067299 -0.0026781 0.0011809 0.0073679 0.0058905 -0.00037009 -0.00092374 0.0092238 -0.00074497 -0.00090143 0.00062296 -0.0023335 -0.007868 0.0023639 0.0033692 -0.0018993 0.00901 0.009231 -0.00039218 0.013854 -0.012373 0.0019251 0.0078899 0.0076735 -0.0009967 4.7072e-05 -0.003171 -0.00085591 -0.00015649 0.0050109 -0.0035957 -0.013111 -0.0087836 0.004012 -0.0089538 -0.0034532 0.007701 -0.00097842 0.0049812 0.0025018 0.0082347 0.0017371 -0.0021985 -0.011114 -0.0022073 -0.010206 -0.012713 0.0071649 0.0073606 0.0097991 0.0051621 -0.0095375 -0.00048247 -0.0023617 0.0090089 -0.010394 0.0069731 0.00064678 -0.0045739 -0.0035519 0.004273 0.00098515 -0.0055702 -0.0047362 0.0033594 0.0012788 -0.011484 -0.0071118 -0.0016484 
most 0.00048217 -0.009491 -0.00039778 0.005858 -0.0029858 -0.0002399 0.0072228 -0.00071319 -0.013636 -0.00021091 -0.0030557 0.0038701 0.00077574 -0.010779 0.0058053 -0.006427 0.0019889 -0.0045652 -0.0076564 -0.0077201 -0.0061962 -0.0078255 -0.0025697 0.0034091 -0.0082702 -0.0010255 -0.00089616 -0.0074719 -0.0050797 -0.0033622 -0.0051669 -0.0048927 -0.0050808 -0.0038404 0.011909 -0.0044374 -0.0092334 0.0038657 0.0022645 0.0019963 -0.0024563 0.0021198 -0.0066721 -0.00082134 -0.0073124 0.0076641 0.00048487 0.0020006 0.0064455 -0.00072887 0.0017428 -0.0031371 0.00013979 0.0025018 -0.0033111 0.00038423 -0.0015718 0.00095807 -0.0061613 0.0093273 -0.0078046 0.003575 -0.0082817 -0.0079466 -0.0025248 0.0021529 0.007714 -0.0016023 0.0027135 -0.0047574 0.0092302 -0.0047285 0.008424 -0.00011953 -0.0061108 0.0010955 -0.0097373 -0.0063759 0.0069535 0.010404 -0.00023917 0.0098586 -0.01152 0.01202 0.0068754 -0.0047416 -0.0037767 0.0058745 -0.0048626 -0.0031009 0.00625 -0.0025103 0.0065423 -0.005709 0.0021112 0.00044138 -0.004192 -0.0074361 -0.00048178 -0.0033786 
scientists -0.0028162 0.0067778 0.011731 0.0018776 0.0085494 -0.00025413 0.0054937 0.00078545 -0.0016913 -0.011992 -0.0068929 -0.0029335 0.0052231 -0.012077 -0.0059534 0.0044473 0.0069544 0.0076158 0.0050904 -0.0068458 0.0043822 0.00078163 -0.0043997 -0.0035901 0.0070147 0.0026901 0.0068614 -0.0034995 0.0099631 -0.00047805 0.0029668 -0.002599 0.0031223 0.0052107 0.003336 0.0054808 0.0018829 0.012055 -0.002079 -0.0041487 -0.0037903 -0.011697 0.009018 -0.0011948 0.0038877 -0.00098667 -0.0081663 0.0071152 0.0078315 0.0033536 0.011356 -0.0037976 0.0077685 -0.0020377 0.0051702 -0.0063508 -0.0016152 0.0045532 0.0036363 0.0017877 0.0061336 0.0071895 -0.0085017 -0.0086119 -0.0044935 -0.0041958 0.011011 -0.00043597 -0.0064352 -0.0055033 -0.0032527 0.0073914 -0.0056146 0.0002971 -0.0069992 0.0065833 0.0013582 -0.0034631 0.0097692 -0.0075747 0.0084437 -0.00039697 -0.011188 0.010865 0.0010785 -0.0059511 -0.0041026 0.0052428 0.0067557 0.0029463 -0.0066524 0.002937 -0.0055929 0.0066254 0.0094059 0.0011696 0.006804 0.0025706 -0.0011031 -0.008867 
conclude 0.0038788 0.0049985 0.0063814 0.0019882 -0.010771 -0.0059098 -0.0071443 0.0042858 -0.0011189 0.0012558 -0.0036914 -0.0080488 0.0010829 -0.0038341 0.00025084 -0.00038182 -0.0078652 -0.0044093 0.0073823 0.00944 0.0063457 -0.0021021 -0.0069563 -0.007821 -0.0082834 0.0043144 0.0073061 -0.001554 0.0017273 0.003958 0.007631 0.0061948 0.0016875 -0.00066729 0.0076736 -0.0089376 -0.010306 0.001879 0.0022853 -0.0055166 -0.0043 -0.0053454 -0.0093262 -0.0064582 0.0073709 0.0075064 0.0012298 -0.0070135 0.0074359 0.0013537 0.00047017 0.0025888 -0.0027891 -0.0095176 0.0091391 0.0082761 -0.0076542 0.0076621 -0.0072391 0.0012387 -0.0070088 0.0088347 0.0003563 0.0071645 0.00063449 0.0067023 0.0055879 -0.01046 -0.0038136 0.0053638 0.0066606 0.0056675 0.0085873 0.0090516 -0.0064366 0.0089853 0.0045151 -0.011329 0.0057963 0.0023998 -0.0011108 -0.0091574 0.0032654 0.0062523 -0.00046189 0.0052854 -0.0077215 -0.0062617 -0.0032152 0.0027292 -0.01026 -0.0072657 0.0042043 -9.6433e-05 0.0026234 0.0015287 -0.0077727 -0.0089289 -0.0045979 -0.0076269 
