360 100
</s> -0.0080265 0.0090746 -0.0081231 -0.0018729 0.0057603 0.0015144 0.005318 -0.00088255 0.011206 0.011446 -0.0025645 0.0033739 0.0090022 0.0078073 -0.0033179 -0.0016227 -0.00027029 0.0062519 0.0014314 -0.0086121 -0.001773 0.0080888 0.0050826 -0.0067582 0.0054527 -0.0075749 0.0032514 -0.0044983 -0.0033129 0.0089834 -0.0068815 -0.0024588 -0.0082359 -0.0071396 -0.011444 -0.00039556 0.0037309 -0.0084098 -0.0030963 -0.00664 0.010592 0.0083579 0.0031949 0.002276 -0.0038006 0.00092702 -0.0034035 -0.0041255 -0.0088502 0.0049302 -0.0089118 0.0092474 -0.0098965 0.0052354 -0.0010861 -0.0068458 0.00081091 0.001058 0.0049168 0.0034182 -0.0076663 0.005975 0.0086571 0.0057908 -0.0044847 0.0011173 -0.0074553 0.0063301 0.0083679 0.0052202 -0.010197 0.0002467 -0.0038844 0.00047933 -0.0010721 -0.0045507 0.011811 0.010438 -9.2105e-05 -0.0062819 -0.0095692 0.0061545 0.012164 -0.0094244 -0.0056664 -0.008421 0.00049624 0.0016584 -0.0056248 -0.0049952 0.010526 0.0058913 0.010212 -0.0098714 0.002125 -0.010311 0.0069924 0.010526 -0.0061517 -0.0021116 
that 0.0024353 0.0060621 0.0074048 -0.0096886 0.0077678 0.0083943 -0.0070719 0.00094764 -0.0023522 -0.00058781 -0.001243 -0.006024 -0.0048735 0.0032133 -0.0059649 -0.0069037 0.0028895 0.0064082 -0.0069667 -0.0012506 -0.0050769 0.010762 0.0039709 0.006823 -0.00867 -0.00708 -0.0089195 -0.0017729 -0.0031631 -0.0072008 -0.0053607 -0.00085094 0.0038198 -0.0064109 -0.007957 -0.0020625 -0.0068539 0.0038632 -0.0010238 -0.0028221 -0.0093376 0.010548 -0.0050942 0.003654 0.009426 0.0010631 0.0086345 -0.0032895 -0.0046614 0.0049123 -0.0027539 -0.0013017 0.0015908 0.0054598 -0.0094705 0.0030152 -0.010211 0.0005798 0.0097361 -0.0021217 -0.00079625 0.0041478 0.0071574 0.0084138 0.0040663 -0.0034827 -0.0078005 -0.0048088 -0.0056341 -0.0057557 0.00055753 0.0052883 0.0055474 -0.0077849 -0.0031834 -0.0031912 -0.0025042 0.0038268 0.0072637 0.0042695 0.00027727 -0.00574 0.0043505 0.0024247 0.0045114 0.003179 -0.002044 -0.0092841 -0.0058603 0.0065259 0.0037769 0.0032652 0.0035157 0.00096015 0.0095415 0.0010179 -0.00054748 0.003216 -0.0071759 -0.0072839 
the 0.0073581 -0.0078217 -0.0013967 -0.0034098 0.00076157 -0.0072645 -0.0089638 -0.0096338 0.0099665 0.0096301 -0.010236 -0.0025554 -0.002157 -0.0056761 -0.0025906 0.0049145 0.0022047 -0.0026104 -0.0075717 0.0033991 0.0071939 -0.0061696 -0.0065977 0.0027312 -0.00057689 -0.0015842 0.0055623 -0.0095321 -0.0089745 0.0018949 0.0030282 0.0073885 -0.0042041 0.0028933 -0.009015 -0.0070367 -0.007278 0.0090277 0.0085576 0.0084659 -0.0077561 0.0050709 0.0046887 0.00017816 0.0040593 0.004176 0.0088681 0.0078511 0.0058755 0.0081039 -0.0021647 -0.00020642 0.0055296 -0.0057792 -0.0097629 0.0077373 0.001573 -0.0085716 -0.0064348 -0.0042847 0.0095462 0.0088226 0.0072555 0.0066271 -0.0066231 0.0031537 -0.0056545 -0.0020948 0.0037936 -0.0092123 0.0069891 0.0035056 0.0033201 -0.0099668 -0.009439 0.0031238 0.0092311 -0.0034677 0.0094807 -0.0084405 0.008514 -0.0026138 -0.0064381 -0.0050864 -0.0021474 -0.0069071 -0.0023398 0.0097637 0.0061442 -0.0041497 -0.0060347 -0.00038561 0.0070621 -0.0031006 0.0033255 -0.0016319 -0.0021716 0.0053394 0.0058211 0.0087076 
is 0.00056789 0.0092973 -0.0069464 -0.0029254 0.0013324 0.0079401 -0.0064604 -0.0010477 0.0062323 0.006891 -0.0045911 0.0083641 -0.0082168 0.0045036 0.0061615 -0.0050837 -0.0073551 -0.0072746 0.0081557 0.0041889 0.008927 0.009124 -0.00099001 0.0016087 -0.0076073 0.0047805 0.0086016 -0.0021488 -0.010366 -0.0058379 0.0070075 0.0063602 0.0003276 0.0085237 -0.0020501 0.0081225 0.0025424 -0.0034776 -0.0018088 0.0045616 0.0016879 -7.1796e-06 -0.0042751 -0.0063319 -0.00043575 -0.0051277 0.0089018 -0.00075869 0.0044062 0.0077839 -0.0098819 -0.0057014 0.0023267 -0.0076445 -0.0019516 -0.0056014 -0.00096734 0.0021031 0.004503 0.00022631 -0.00845 0.0031809 0.0034029 -0.0087385 -0.0074554 0.0024601 0.00099976 -0.0053256 -0.0022901 -0.0049849 0.0085651 0.0025386 0.00045397 0.0038798 -0.00038664 0.0082915 0.005064 0.0098758 0.0073336 -0.0085511 0.00076754 0.0028484 0.0085782 0.00581 0.0097672 0.000154 -0.001136 0.0079755 -0.0095534 -0.0099434 0.0012353 -0.0059576 0.0007639 0.0037157 -0.0061509 -0.0039173 0.00029514 0.003932 -0.0020934 0.0021889 
to -0.0042653 0.0051322 -0.0001673 0.0015722 0.0098445 0.0093248 0.0043096 -0.0096168 0.0056641 0.0046988 -0.00059358 -0.0048569 -0.0050359 0.0029371 0.0089994 0.0010207 0.0025672 -0.0020411 -0.00575 0.0091974 0.0084601 -0.0026147 -0.0046378 -0.0092252 0.0028466 0.0036366 0.0095969 0.0035644 0.0067816 0.0068443 0.0054273 -0.0085865 -0.0077488 -0.0019403 0.00060795 0.007108 -0.0089514 0.0093167 0.0057183 0.00080443 -0.003748 -0.0020166 0.0075108 0.0096939 0.0048507 -0.010336 -0.00026786 0.0087853 -0.0021307 -0.0024827 -0.0056057 0.0055583 0.0043683 0.0001717 0.0093585 0.0070835 -0.0054488 0.0048815 -0.009326 0.0091727 0.0028024 0.002081 -0.0039945 -0.0011914 0.0070619 0.005345 -0.0046404 -0.0087031 -0.0059443 0.0039675 -0.0044524 -0.00089603 -0.0075306 0.0068661 -0.0051044 -0.0043755 -0.0064855 -0.0093303 0.0048796 -0.0029447 -0.0079376 0.0019306 0.0011804 0.0034524 -0.0006657 -0.0031091 0.0025937 0.0057114 -0.0047587 0.0069972 0.0058455 0.00091532 0.0092606 -0.00057658 0.0022769 0.0073877 -0.00047693 -0.0087291 -0.0063338 -0.0060901 
i 0.0094241 0.0055284 0.0056285 -0.0046058 0.0056277 0.0038054 -0.0082214 -0.003043 -0.0080298 0.010154 -0.00024737 0.0040978 -0.0053685 -0.0010812 -0.0061501 0.004194 -0.0067598 -0.0081408 0.007409 -0.0067752 -0.0072025 0.0023759 0.0062747 -0.0030342 0.0024956 0.0060225 0.00052461 -0.006814 -0.0088906 -0.0066848 -0.0070259 0.0067819 -0.0045742 -0.0014283 0.0031878 0.0062896 -0.0071298 -0.0052532 -0.0085503 0.0090041 -0.0059633 0.00015101 -0.0044075 0.0035563 0.0081897 -0.0035927 -0.0026318 -0.0098642 -0.0055296 0.0088468 -0.0066267 -0.0082975 -0.010068 0.0067476 0.003947 0.0022649 0.0014919 -0.00067864 0.00085619 -0.0021447 -0.0086654 -0.0034762 0.0092528 -0.0034285 0.0045784 0.0026894 -0.0099898 -0.0061107 -0.0052753 0.0075329 -0.0024177 0.006733 0.0096238 -0.010142 -0.0036668 -0.0027374 0.003764 -0.0072817 -0.0056734 -0.0041318 0.0051255 0.0051655 0.0033772 0.0099634 0.0065324 -0.0014518 -0.0092489 0.0017397 -0.0095047 0.009185 -0.00078489 -0.001304 -0.0077431 0.0015972 0.00041988 -0.00043832 -0.008497 -0.00035331 -0.0060944 -0.0077924 
you 0.0072299 -0.00060037 0.0086466 -0.0084056 -0.0037092 0.0039659 0.0044506 -0.0016558 0.0010269 0.00067119 0.00065423 0.0060422 -0.0098412 -0.0094566 -0.0052008 0.0083726 -0.0016772 -0.0023197 0.00049066 0.0049095 0.0076102 0.0093626 0.0019212 -0.0047981 0.0021751 0.0053851 -0.0056928 -0.00080853 0.00043782 0.0095249 -0.0065777 -0.010123 -0.0062959 0.001698 0.003711 0.0059887 0.0043695 0.0033826 -4.3747e-05 0.0010172 -0.0038946 0.0067626 0.005317 -0.0047718 0.0075891 -0.0060971 0.0094291 -0.0078204 -0.00027661 -0.0061426 0.0050805 0.0065833 -0.005987 0.00034173 0.004802 -0.0035142 -0.001299 0.0032159 0.0080752 -0.0018152 -0.00047839 0.0064355 -0.0091493 -0.0090874 -0.0060188 0.0058747 -0.0099333 0.0041063 -0.00094075 0.010096 -0.0081196 0.0022049 -0.0053724 -0.0028891 0.0015939 0.00082126 -3.4639e-05 -0.0078869 -0.0078622 -0.002997 0.0064993 0.0078728 0.0041591 -0.0065545 0.0069823 -0.005361 0.0078841 0.005282 0.0089822 0.00026789 -0.0014241 -0.0046666 -0.0028412 -0.0011587 -0.0066856 -0.0081539 -0.0019183 -0.0038599 0.008154 -0.0093258 
in -0.0065002 -0.0032699 -0.0088852 -0.006592 0.0092486 -0.002626 -0.004529 0.0007774 0.0014176 -0.0060602 0.003169 -0.008874 -0.00030217 0.0097546 0.0066935 -0.00093876 -0.0056751 0.0013643 0.0022528 0.0052195 0.0015879 -0.0031132 -0.0069835 0.0028189 -0.0058544 -0.0060966 -0.0041137 0.00504 -0.0054577 0.0019331 -0.00074153 0.0079557 0.0096176 0.0040407 -0.010013 0.0051574 0.0082946 -0.0088828 0.0079662 0.0025128 0.0050662 0.0062293 8.1048e-05 0.0070673 0.0053058 0.0048126 0.0085999 0.0079263 0.005868 0.010656 -0.0071799 -0.00023097 0.0056536 0.0081816 0.0022879 -0.0020179 8.7012e-06 0.00075167 0.006162 -0.0073805 -0.0014113 -0.0075802 0.0099577 -0.0088852 -0.006876 -0.0073545 0.0027249 -0.0023676 -0.0089931 -0.0052361 -0.0064999 0.0058187 -0.0088986 0.00088358 0.0079693 0.0083363 -0.0056451 0.0072605 -0.0039236 -0.0037566 -0.0025134 -0.0042562 0.0083989 0.0080723 0.0008259 0.00903 -0.00088007 0.0047295 0.00037451 -0.0039059 0.0098898 -0.0031861 -0.0088574 -0.004488 -0.0098625 -0.0062707 -0.0033516 -0.0096404 0.0070237 -0.0029026 
a 0.0060698 -0.0054954 0.0083165 -0.0035729 0.0074765 -0.0097804 -0.0019815 0.0026155 -0.0083494 -0.0034187 -0.0087446 -0.002682 -0.0040675 0.0098301 0.0041983 -0.0068753 0.0014724 0.0052101 0.008428 -0.00066427 -0.0086892 -0.0026598 0.003376 -0.0059499 -0.00034419 -0.0035375 0.0091482 -0.0090703 0.0086515 0.0052558 0.0018866 0.009829 0.0049648 -0.0023209 -0.0070939 0.0024793 0.0086334 0.0040463 0.0016141 0.0096344 -0.0084483 -0.0095036 0.0095598 0.0071855 0.0075254 -0.0081028 0.0038891 0.0051514 -0.0030714 0.010043 -0.0037308 0.0048171 -0.0065259 0.0073295 -0.0016783 0.0071774 -0.00091522 -0.0092591 -0.0041732 0.0050379 -0.0027591 0.0016295 0.0061611 0.009861 -0.00271 -0.0068416 0.008687 -0.0045939 -0.0049473 -0.0034072 0.0033944 -0.0088072 0.0021323 0.0083348 0.0092596 0.0073398 -0.0063644 0.0061776 0.0085928 0.0094495 -0.0015908 -0.0030384 -0.0017847 -0.0076946 0.008857 0.006811 0.0052511 0.0024307 0.0002218 0.0020941 -0.0011584 -0.0048014 0.0086022 0.0062664 -0.0046936 -0.0023636 -0.0024427 0.0094716 0.0075784 -0.0035528 
on -0.0070519 -0.00059941 0.0017271 0.0068938 -0.0014806 0.0070085 0.0045736 0.0010557 -0.004076 -0.0067456 -0.007175 -0.0048083 0.0067141 -0.0094179 -0.0075949 -0.0061459 -0.0040184 -0.0099008 0.0024743 -0.0040501 -0.0045556 -0.002836 0.0025136 -0.0041508 -0.0086086 -0.0004122 0.0071481 -0.0078603 0.0055106 -0.0067688 0.0024649 -0.0072019 0.0043206 -0.0054772 -0.0043851 -0.0016681 -0.0054923 0.0084224 0.00061055 0.00012683 0.0033365 0.0067036 -0.0020797 0.0037571 -0.0010692 0.00033488 0.0046773 -0.0020951 -0.00086891 -0.0015372 -0.001288 -0.0080109 0.001301 -0.0018161 0.0055418 0.00442 0.0032853 0.0091065 0.0097449 0.0057475 -0.0047643 0.0024718 0.00017608 0.0048084 -0.0037285 -0.0068595 -0.0031551 0.0091918 -0.0034609 0.0046349 0.0036108 -0.0051901 0.0015858 0.0058757 -7.6605e-05 0.0057623 -0.002925 0.0011652 0.0067168 -0.0015739 0.0085402 -0.0061406 0.0058179 -0.0094041 -0.0068519 0.0016911 -0.010044 0.0050638 -0.001564 -7.1934e-05 0.002547 0.0077469 0.0099528 -0.0053151 -0.009141 -0.0034325 -0.0085882 0.00128 -0.0049883 -0.009863 
it 0.0066173 0.0021528 -0.0064026 0.008119 0.0093047 0.0012755 -0.0019768 -0.001597 -0.00071306 -0.0022953 0.0083968 0.00069158 -0.00014634 0.00064536 -0.0020045 -0.0029421 -0.00064409 -0.0068259 0.0090671 0.0071002 0.0029132 -0.0013342 0.0092746 -0.0099321 -0.0047331 -0.0075796 0.0076954 -0.0033304 -0.0041213 0.001518 0.0098547 -0.0075095 -5.776e-05 -0.0031329 0.0066302 -0.0078736 -2.867e-05 -0.00071506 -0.0012763 -0.008947 -0.0049915 -0.0012789 -0.0090082 -0.002881 0.0068577 0.0098317 -0.0023837 0.0053192 -0.0065904 0.00077995 -0.0098543 -0.0043434 0.0068713 -0.0012373 0.0033156 -0.0073105 0.0013001 0.0092881 0.0067809 0.00096112 0.0060065 0.0059137 0.0038696 0.0064568 -0.0040473 0.0097073 0.0043809 0.00072626 -0.0050251 0.0092546 0.0091449 0.0091719 0.0060634 -0.0074883 -0.0026006 -0.0017968 0.00038299 0.0077629 0.0044037 -0.0054553 -0.00278 0.005741 -0.0035038 -0.0029931 0.0096696 -0.0064275 -0.0038257 0.00052409 -0.0072029 -0.0025913 -0.0051719 0.0032158 0.0069351 -0.0082758 -0.009883 -0.0091395 0.0057992 -0.0028544 -0.0052214 0.0038771 
this 0.0085891 0.006502 -0.0053818 0.0088509 -0.0037436 0.0057725 0.0097525 0.00063985 -0.0079211 -0.0044648 -0.007172 0.0011693 0.0069488 -0.00058412 0.0064845 -0.00058874 -9.9616e-05 -0.0074364 0.0005399 0.0024445 0.0033583 0.0064198 0.00075857 0.0064211 -0.0070762 0.005762 -0.0035075 0.0049329 -0.010272 0.0034146 0.0039116 0.0091161 -0.0017295 -0.01004 0.00099852 0.00065621 0.00017347 -0.0025314 -0.00073566 0.0019934 0.0033113 0.0051229 0.0068929 0.0085994 0.004913 0.0010654 -0.00026938 0.0015976 -0.0071959 0.008339 -0.0069304 0.00050081 0.0042014 -0.0083911 0.0088866 0.0043135 0.0021238 -0.0037413 0.0069625 -0.010055 0.0058878 0.002723 0.0077722 0.0082586 0.0079366 -0.0041929 -0.0035901 0.0043948 -0.0075896 0.0017672 -0.0052474 0.00072385 0.0089529 0.0048205 -0.0064219 0.0030541 -0.0019358 -0.0021917 0.0078503 -0.0092399 0.0066368 0.003823 -0.0059932 0.0059063 0.0061097 0.0056539 0.0090158 0.0017784 0.0013809 -0.0097816 -0.0024719 0.0088222 -0.00018711 0.0097565 0.0052871 -0.00079945 -0.008994 -0.0024667 -0.009256 -0.0061879 
do 0.0018151 -0.0068785 -0.0071638 -0.0052497 0.0086254 0.00055685 -0.0090276 -0.003644 0.0036625 -0.0032573 -0.0022404 0.0090506 0.0096155 0.007832 0.0034873 -0.0010027 -0.00088487 -0.0033888 0.0078438 -0.0044856 0.0086406 -0.00036746 0.0045001 0.0018202 -0.0032084 -0.0073579 0.0066734 0.0085277 0.0076758 -0.0044305 0.0015902 0.0031003 0.0071441 0.0020086 -0.0088097 0.0036707 0.0085377 -0.0066155 -0.0067196 -0.0016489 0.0059947 -0.0055765 0.0091899 -0.0074124 0.007514 -0.0078573 -0.00058975 0.0083167 0.0020332 0.0011837 0.0046258 -0.0097981 -0.00083511 -0.005413 -0.003362 -0.0057331 -0.0078684 -0.0037586 -0.007806 -0.0043218 0.0034182 0.0063384 0.0051335 -0.00081886 -0.0081825 0.0071121 -0.0087149 -0.0001327 0.0046007 -0.00537 0.0045304 0.0065404 0.0059297 -0.0047653 -0.001541 -0.008241 0.0031847 0.0090732 0.00077183 0.0073251 0.0011968 0.0016433 0.0027906 -0.0042916 0.0054853 0.0010749 0.0010367 -0.002265 -0.005386 0.0010482 0.0014378 -0.0090755 -0.0016667 -0.0087854 -0.0035923 -0.0066427 0.0051782 -0.0094617 -0.00016325 -0.0075954 
not 0.0035126 -0.0032139 0.0052206 0.0066838 -0.0050014 0.0062265 0.0034727 -0.0062057 0.0085952 0.00322 0.0024337 0.0053406 -0.0086996 0.0054888 -0.002628 0.0063029 0.0052191 0.0082269 -0.0096182 -0.0037059 -0.0031475 -0.0040158 -0.0048925 0.0010901 0.0055378 0.0032595 0.0082959 0.0049245 0.0065689 0.0016939 0.0057948 7.2153e-05 -0.0027547 -0.0052796 0.0072602 0.0071956 -0.0084591 -0.0093224 0.0045636 -0.0034078 0.0089596 0.0020275 -0.00094989 0.0052637 0.0064385 -0.0058242 -0.0093042 0.00073885 0.0036198 -0.0032431 -0.0014085 0.0076605 -0.009342 0.0043963 -0.010065 -0.0026039 -0.0076198 0.0044099 -0.0096614 0.0048874 -0.0090371 -0.0048807 0.0033616 0.010331 -0.002294 -0.0055565 -0.0051828 0.00098943 0.0048629 -0.0026147 -0.0097237 0.0063265 0.0044808 -0.00091277 -0.005037 -0.0082181 0.008695 -0.0086831 -0.006602 -0.0020493 0.0056001 0.0044351 -0.0073909 0.0069046 -0.0022886 0.0069255 0.007699 -0.0076432 -0.0034662 0.0054265 -0.0064741 0.0054428 0.0054825 -0.00708 -0.0020319 0.0010017 -0.002144 -0.0019893 0.0096347 -0.003041 
for 0.002018 -0.00838 0.0021705 0.007682 0.0064335 -0.0095749 0.0023071 -0.0037238 0.0019827 0.003686 -0.0043954 0.0088081 -0.0097422 -0.0035822 -0.0048197 -0.0026504 -0.00039521 0.0082076 -0.0050386 0.0099601 -0.0066031 0.0063518 0.00090176 -0.0063599 0.0019863 0.0049995 0.0075922 -0.009716 0.0056661 0.0049057 -0.0043991 0.0078548 -0.007922 -0.0069353 0.0087827 -0.0049062 0.0004845 0.0052647 -0.0058548 -0.0089232 -0.0068227 0.0064634 -0.0049123 -0.00016942 -0.001662 -0.0012579 0.0099024 -0.0055575 0.008515 0.003184 -0.0077941 0.0068635 -0.0031639 -0.0017945 -0.0060344 -0.0064728 0.00011291 -0.0029128 0.0026837 0.0043785 -0.0068696 0.0026667 -0.0093169 0.0066471 0.0087584 -0.0067793 -0.00039647 0.00075177 -0.002032 0.0030095 -0.0083972 -0.0027728 0.0041708 -0.0096374 -0.0091146 0.0091702 0.0085978 0.0081032 -0.0036183 0.0083348 0.0052339 -0.0081259 -0.0011913 0.0080049 -0.0023765 -0.0047372 0.0056221 0.0021331 -0.0033619 -0.0090691 0.0083399 0.0033742 -0.0051913 0.0040116 -0.0080015 -0.0094401 -0.0029748 0.00092299 0.0014371 -0.0010284 
it's 0.0028694 0.0068156 -0.0041529 -0.008867 0.0039052 0.0065814 -0.0063979 -0.007409 -0.0035399 0.0072268 0.0056646 -0.0085443 0.0017047 0.0028359 0.0062295 0.01008 -0.0028638 0.00039201 -0.0073316 -0.0073702 0.0086457 -0.0087014 -0.0093815 0.0093859 0.00040908 0.0031777 -0.0052445 0.0092641 -0.0096497 -0.0054528 0.0040043 0.0076017 0.0092376 -0.006619 -0.0074013 -0.0058889 -0.0095367 -0.0055971 0.00099906 0.0097031 6.7196e-05 0.005517 0.0094878 0.006764 -0.0040867 -0.0083617 0.0028987 0.0096875 0.0012613 0.0079321 -0.0044941 0.0098336 0.00030038 -0.0032883 0.0053005 0.007344 -0.0030741 -0.0067494 0.0075118 -0.0034338 0.0043376 -0.0061709 -0.0063402 0.0045396 0.0058931 -0.0062277 0.0089235 0.0016571 -0.0061104 0.0067658 0.0067316 0.008364 -0.0099489 -0.0066973 0.0080529 -0.0039249 -0.0028112 -0.0084226 0.0023973 0.0020763 0.00052553 0.0098909 0.0037103 0.0028186 -0.0022653 -0.0074535 0.0046171 -0.0090215 0.00096473 -0.0098931 -0.0092863 0.0056684 0.0053556 -0.0040979 -0.00147 0.0053931 -0.0043655 -0.0026804 0.0056961 0.0027995 
good 0.003845 0.0018945 -0.0038714 0.0015052 0.0035154 0.0066224 -0.0062029 -0.0039499 0.0084857 0.0049656 0.0066682 0.0057529 -0.0052091 0.0042382 0.0037559 -0.0061558 0.0019307 0.0034181 -0.006119 -0.0022163 -0.00099844 0.0056573 0.0097294 0.0062006 0.0009142 0.0027857 0.0063282 -0.00087392 -0.00255 0.0049243 0.0099249 -0.0016149 0.00094946 -0.0076658 -0.0095583 -0.006771 -0.00093806 -0.0036732 0.0091842 -0.00064436 -0.0073613 0.0088393 0.0058033 0.006984 0.0040525 0.008635 -0.00049491 0.0056552 0.0071822 -0.0010953 0.0063316 0.0025648 0.0014667 -0.0065254 -0.00044227 -0.0011451 0.0095095 -0.0026939 -0.0017883 0.0009421 0.0038944 -0.0097494 0.0089822 0.0020265 0.0022725 0.0042133 0.0088445 0.0016738 0.0051246 -0.0040558 -0.0041625 0.0041008 0.0089615 0.0063206 0.0062662 -0.00016885 0.0020971 -0.0027786 0.0078294 0.0057919 -0.0057977 0.0013433 0.001276 0.0082993 0.0020845 0.0060195 -0.009348 -0.0089064 0.006844 0.0053278 0.0078642 0.0068717 0.0089244 0.0098737 0.00352 -0.0097484 -0.0010193 0.0055316 0.0059785 -0.0026049 
am 0.0072602 -0.0075245 0.00061901 0.0021985 -0.0011709 -0.0089837 -0.0079579 0.0056491 0.0054001 -0.0087229 -0.0024368 0.002488 -0.0064972 -0.00011831 -0.009483 0.0098671 0.0074081 0.0004789 -0.00094025 -0.0090479 0.0046849 -0.00033171 -0.0092866 -0.0042813 -0.0057034 0.0072837 0.0027081 -0.0077053 -0.0022602 0.0044911 -0.0043484 -0.0033837 0.0012698 -0.0036287 0.00029513 -0.0034201 0.0068889 0.0011381 0.0022786 -0.0062991 0.0073054 0.002089 -0.0029532 0.0038723 0.0033376 -0.0071588 0.0059513 -0.0050243 -0.0053338 -0.0040213 -0.007869 0.0028859 -0.0049681 -0.0040446 0.0079889 -0.0069138 0.0042655 0.0017478 -0.0020953 -0.0011996 -0.0091906 -0.006226 0.0080231 0.0090114 -0.0035239 0.0074848 0.0054735 0.0094296 -0.0023986 0.0070179 -0.0068695 0.0060038 0.0012028 0.00075307 0.00057773 -0.0089098 -0.0022464 0.0078722 0.0073931 0.0081395 0.009611 -0.0024346 -0.0018433 -0.0095635 0.003838 -0.00053998 0.0012653 -0.0018934 0.0068629 -0.0087394 0.008895 -0.0065315 0.0067447 0.0034115 0.00035796 -0.0037116 -0.0027107 -0.0022315 -0.004875 0.0056154 
po 0.0064073 0.0085868 -0.0071741 -0.0083937 0.0018321 -0.007747 -0.0037784 0.0084538 -0.00059487 0.004366 -0.0062438 -0.0018703 0.004778 0.0089673 0.0063521 0.0063799 -0.005321 -0.0033611 0.0029183 -0.0049739 0.0020855 0.0018402 0.00018084 0.0028426 -0.0030116 -0.0033141 0.007704 -0.010184 0.0017435 -0.0082536 -0.0042445 -0.0084283 0.005532 -0.0051459 -0.0042384 -0.005138 0.0022052 -0.0085275 -0.0085745 0.004397 0.0061054 -0.00025683 0.0010893 -0.0035222 0.0016539 -0.0094771 -0.0078918 0.0087337 -0.0018298 -0.0044247 -0.0094539 0.0090673 -0.0092758 0.0064034 -0.0079373 -0.0016245 -0.0051758 0.0092604 0.0086105 0.0093956 0.0085109 -0.00029328 0.0090206 0.0091196 -0.00053475 0.0029062 0.005924 -0.0035437 -0.0070145 0.0034535 -0.0048193 -0.00093211 0.0038179 -0.0013397 -0.00076133 0.0018771 0.0073471 0.00083946 0.001104 -0.0028948 0.0051738 -0.009346 0.0057465 9.6209e-05 0.0081419 0.0093491 0.00017634 0.0065943 0.0047645 3.4764e-05 0.001812 0.0080487 0.0095385 -0.0096024 -0.0071151 -0.0033219 -0.0058966 0.0039629 -0.0036764 0.0038621 
have 0.0037677 -0.0041357 0.0073908 0.0066143 0.0083887 0.0086668 0.00096954 -0.00077397 -0.00019544 0.0044014 -0.0076915 -0.0095708 0.0027767 0.0035291 0.0018903 0.0011939 -0.0046937 -0.0060865 -0.0087554 -0.010083 0.0055665 0.0037098 0.0085377 0.0044732 -0.0053826 -0.0075502 -0.0035946 0.006324 0.0020857 0.002535 0.0035945 -0.00058675 0.0056767 0.0066118 -0.0038043 -0.00056945 -0.0084529 0.0074021 -0.0028504 -0.0086899 -0.0016298 0.0047275 -0.007634 0.0084755 0.005145 0.0093289 0.00017213 -0.0086814 0.00036561 -0.00834 -0.0047193 0.0048498 0.0023162 0.00046011 -0.0050646 0.0050261 0.0068851 -0.0029165 0.0054101 -0.0081323 -0.0089117 0.0010013 -0.0087788 0.0014457 0.0042942 -0.0032452 0.0043553 0.0078969 0.0029648 0.009091 -0.0079276 -0.0019929 -0.0048141 -0.0061631 -0.0054134 -0.0020121 0.0067939 0.0061884 0.0058627 -0.001675 0.008501 0.0023083 0.00075215 0.00026979 -0.0090693 0.0058346 -0.0080047 -0.0010246 0.0056216 -0.0095265 0.0059869 -0.0014645 0.0064845 -0.008121 -0.0043458 0.00020795 -0.0057902 0.0079642 0.0026083 0.0063564 
so 0.0022005 -0.009018 0.0048815 0.0096466 -0.007606 0.0024564 0.0057073 0.0034985 0.0094811 -0.0022293 -0.0044446 0.0012174 0.0046463 0.006143 0.0034527 0.0060839 0.0027468 -0.0047216 0.0072775 -0.004122 -0.0099383 -0.0019852 0.0065343 0.0011241 0.0039673 -0.0046459 -0.0026761 0.0026944 -0.0041658 -0.0068093 -0.0016413 -0.0031084 -0.0045331 0.0029938 -0.0087092 -0.005107 0.0090165 0.0056355 0.0068627 0.0091533 -0.0080484 0.0017757 0.00059941 0.0084702 0.0059482 0.0063216 -0.004548 0.001046 0.003769 0.0084628 0.0043335 -0.0065227 -0.0092082 0.0007027 -0.0055688 -0.0036614 0.0079145 -0.0026796 -0.00445 0.006175 -0.0095105 0.0019832 -0.004232 0.0052914 -0.0084647 -0.0032584 0.0033608 0.0023827 -0.0025114 -0.0066408 -0.0096989 0.0090047 0.0069565 0.0094836 -0.0064992 0.0076669 0.0060473 -0.00064382 -0.00022585 -0.0078554 0.0066344 0.0077987 -0.0040653 -0.0074994 0.0044333 0.0015033 -0.003047 0.0089062 -0.0014979 -0.0091771 0.0053297 0.0090837 0.0052292 0.0021209 -0.008737 -0.005476 -0.0026613 -0.0097751 -0.0072199 -0.0044578 
and 0.0030458 0.0079271 -0.0032926 -0.0082244 0.0022922 0.0056322 -0.0097891 0.002427 -0.0067101 -0.0053255 -0.0017096 0.0086636 -0.001603 0.0080457 -0.0042009 0.0052424 0.0049046 0.0016917 0.009885 -0.0055914 0.008584 -0.0085637 0.0095828 -0.00039022 -0.00048464 -0.0047773 0.005771 -0.0037141 -0.0074488 0.001452 0.0094808 0.0075744 0.00081375 0.0083717 0.00040003 -0.0094069 -0.0046465 -0.0027725 -0.0088352 0.0042964 0.0051953 0.00907 -0.0028877 -0.00029195 0.0032478 -0.0078323 0.0047423 0.0030332 0.00013941 -0.0085786 -0.0020391 0.0065447 0.0036723 -0.0058054 -0.0055996 -0.0036631 -0.0026144 -0.0075722 -0.00045052 -0.00083908 -0.0061277 -0.0003103 0.004311 0.0010905 -0.0088689 -0.0097961 0.0054458 7.6073e-05 0.0059762 0.0034548 -0.0095352 -0.00064071 -3.0141e-05 0.00061254 -0.0045952 0.0048706 -0.0094983 0.0025063 0.0010521 0.0028999 0.00015366 -0.0048102 0.0022572 -0.0073578 0.0035638 0.0088042 0.00023073 0.00010734 -0.0042884 -0.0068654 0.007656 -0.0047436 -0.0067011 -0.0052807 0.0091817 -0.0099339 0.0014143 0.0012537 0.0081802 -0.0061821 
we -0.0028838 0.0064665 0.0079218 0.0069888 -0.008438 0.0067157 0.00014589 0.0027802 0.008105 0.0041645 -0.00034231 -0.0036386 -5.5827e-05 0.0016128 -0.0070929 0.008581 0.0065563 0.0072635 -0.0067345 0.0069469 -0.0013584 0.0095973 -0.0097058 -0.001813 0.00082612 0.0041484 0.0062373 0.0082367 -0.008286 -0.0040555 0.0064329 -0.00065155 0.0099362 0.0022665 0.0046519 0.0072699 0.0070724 0.0085706 -0.0062765 0.0049103 -0.0088034 0.00074905 -0.009884 0.0022337 0.0063219 -0.00018758 0.0099181 -0.0044685 -0.0060546 -0.0081956 0.0091512 0.009167 0.0045595 0.0084989 -0.0024464 -0.0090319 -0.0047464 0.0081601 0.0078048 0.0020154 -0.0033712 8.3529e-05 -0.0061781 0.0053832 0.0042923 -0.0092671 0.0098643 0.00093466 0.0065503 0.0021091 0.0041469 -0.0031427 -0.0076648 -0.0079225 0.0013455 -0.0038554 -0.00031015 -0.0092421 -0.0023913 -0.001333 -0.0029692 0.0036863 -0.0028028 0.0021875 -0.0095501 -9.9941e-05 0.0099173 -0.0031023 -0.00014709 -0.007696 -0.004291 -0.0087714 -0.0016228 -0.0078425 0.0049442 0.0037792 0.00062058 0.00028007 0.0052124 -0.0096134 
can -0.0052215 0.0048258 -0.002224 0.0086718 -0.0023146 0.0089987 -0.0056223 -0.0055223 0.0037705 -0.0076602 -0.0012014 -0.0063013 0.0029985 0.0094829 -0.0079819 0.0080462 0.0074946 -0.0082062 -0.0078327 0.0044785 -0.0016958 0.0025705 -0.0064453 0.00073154 -0.0091644 -0.0048763 -0.0095329 0.0035793 0.0022158 -0.0044283 0.005677 -0.0095813 0.0074851 0.0062976 0.0079668 -0.0091262 0.0077325 0.0072037 -0.0052965 0.0025453 -0.0083618 -0.0084307 -0.0024978 0.0048533 0.0026852 0.0082426 0.0061815 0.0030359 0.0080052 -0.010116 0.0094024 0.0048185 -0.0029935 -0.0041553 -0.0073783 -0.0052542 -0.0041451 0.0042538 -0.0020896 0.0071487 0.0079556 0.0088275 -0.0042903 -0.0043029 -0.0043241 -0.0027108 -0.0069243 -0.0021992 -0.0072598 -0.0099265 0.0046158 0.0047196 -0.0023166 0.0015011 0.00079159 -0.0010408 -0.0017474 -0.0095639 -0.0044131 0.0062497 -9.3645e-05 -0.0055524 -0.0056026 0.0079286 0.0066205 0.0092317 0.00096662 0.0072222 -0.0056364 0.0089277 -0.0030227 -0.0042011 0.0084142 -0.0025889 0.0031512 0.0064013 0.0099247 0.0052791 0.0058414 0.0074952 
one 0.0056696 0.0025222 -0.0095255 0.0020919 0.0049941 0.0015881 -0.0047138 -0.0055469 0.0023071 0.0074223 -0.0077087 0.0023277 -0.0017078 0.0013659 0.002245 0.0081182 -0.0037761 0.0053256 0.0043943 0.0012576 0.0034737 0.0013304 0.00066462 -0.0037963 0.0068561 -0.001192 0.0060853 -0.0033835 -0.006689 0.0093365 -0.0018689 -0.00048775 0.0036499 0.0075285 -0.0037766 0.0051385 0.002036 -4.8579e-05 -0.0027854 0.0026224 -0.0022161 -0.0067784 0.0030534 -0.0060361 -0.0039269 -0.0095824 -0.0059017 -0.003224 -0.0071037 0.0007501 0.0078008 -0.0044974 0.0061101 -0.0085936 0.0042198 0.0078938 0.0097056 -0.0039879 0.008796 -0.0035719 0.0036773 -0.00294 -0.0030323 0.0081151 -0.0043218 0.0024859 0.006683 -0.0027038 0.0091495 0.0094722 -0.0066441 0.0056017 -0.0028206 0.0041002 -0.0079349 -0.0097051 -0.0056188 0.0062562 0.0003109 0.0038099 -0.0036248 -0.0026027 -0.0077068 -0.006372 -0.0019294 0.007098 0.0031966 0.0047971 -0.0047828 0.0041499 0.010011 0.0012407 -6.2681e-06 -0.0032591 0.0060515 -0.009661 -0.0035588 -0.0085174 0.00036953 0.0051617 
something 0.0045028 -0.0051761 0.0031703 0.0074623 -0.0067684 -0.0088445 -0.0078373 -0.0025928 0.0083278 -0.0063457 -0.0053776 0.0088749 -0.0079306 -0.0085574 -0.0084651 0.0087463 0.0026389 -0.0074125 -0.0080129 0.0073036 0.0016801 0.0014492 -0.00064654 -0.0031227 0.0032151 0.0019567 0.0035097 -0.0098326 -0.0070562 -4.918e-05 0.0084766 -0.0039275 -0.0081537 -0.0060525 -0.0098384 -0.0043646 -0.0083384 -0.0093075 0.0032789 0.0015882 -0.0069692 0.0046347 0.0031327 -0.0011675 -0.009373 0.0067451 -0.0043021 -0.0081621 -0.0052307 -0.0062757 -0.0047319 -0.0034372 0.0089426 0.0082656 0.0030514 0.008288 -0.0067493 -0.00037358 0.00088213 0.0013731 0.0066467 -0.0094761 0.00042438 0.0023146 -0.0099849 -0.0095856 0.0079783 0.003432 0.0025958 -0.0042001 -0.0083563 0.0043421 0.00022908 0.0073168 0.003235 0.0025142 0.00048782 0.0052013 -0.0025597 -0.00054254 -0.0041111 -0.0075292 -0.0006192 -8.3535e-05 -0.0057628 0.0054125 -0.0041495 -0.0019749 -0.0073242 -0.0087385 -0.0087524 -0.0069423 -0.0084967 0.0037897 0.00064052 -0.0093921 -0.0051231 -0.00014842 -0.0072841 -0.0010784 
I 0.0010658 -0.00081407 0.0018718 0.0089026 0.0038276 0.0044081 -0.00088229 -0.0062819 0.00044845 0.002734 0.0033835 0.00096648 -0.0029928 -0.0035413 0.0012212 -0.0071779 -0.0052398 0.0097019 0.0021907 -0.0036782 -0.0024925 -0.0038581 -0.0064069 0.008826 -0.0074548 -0.0058398 -0.0056505 -0.0099012 -0.0014789 -0.0071973 -0.0092798 0.0007931 0.0073069 0.0063082 -0.0057744 0.0009361 0.0004609 -0.0014099 -0.00047276 0.0063108 -0.0018029 0.0070484 -0.004196 0.0063844 -0.0094782 -0.0016328 0.0012503 0.0052998 0.0098526 0.0092574 -0.0096274 0.0031566 0.00099879 0.0064769 0.0062713 -0.008011 0.00030715 -0.0082027 0.0066451 -0.00059794 0.0060721 -0.0046812 0.0091624 -0.0010976 0.0074383 -0.0027799 -0.0013229 0.0083964 -0.0054439 0.0014573 -0.0095013 -0.0095404 0.0082031 -0.00063779 0.00098867 0.0030161 0.008581 -0.0092065 0.0099215 0.0026655 -0.0017421 0.0018974 0.0086755 0.0018671 0.0031937 -0.00042682 0.0080658 0.0060213 -0.0053114 -0.0024563 0.0044416 -0.0088885 0.0091473 0.0081171 -0.00075334 -0.008841 0.0011393 0.0015391 -0.0043817 0.00674 
are -0.0056266 -0.0085562 -0.0022398 0.0012954 0.0087089 0.0080287 0.0076505 0.00072543 0.0018014 0.0093646 -0.00333 0.005185 -0.0076697 -0.0021493 -0.0091403 -0.0083641 0.00056702 -0.0090737 0.0010874 -0.0047512 -0.0027968 0.0036271 0.0039203 -0.000219 0.0042587 0.0057344 -0.003045 0.0017245 -0.0023908 0.0087504 -0.0011506 0.0081948 -0.0089367 -0.0051183 0.0084792 -0.0043044 -0.0070767 -0.005685 0.0068552 -0.0075033 -0.0086537 -0.00074184 -0.0027616 0.0076506 0.00083825 -0.0022782 -0.005872 -0.0061351 0.0073332 0.0048794 0.0090195 -0.0072784 0.0022145 0.0043727 -0.0086196 -0.0077257 -0.008387 0.0010637 -0.0070737 0.0096166 0.0097622 0.0089064 -0.0032708 -0.0090359 -0.0014313 0.0030979 -0.0012572 -0.0065669 -0.0094172 0.0086178 0.0097077 -0.0059908 -0.0086851 -0.0017897 -0.003413 0.0097586 0.0082894 -0.0063836 -0.0092588 0.0068056 0.0089724 0.0089265 0.0077741 0.0092191 0.0041598 8.6151e-05 -0.0082847 -0.0022174 0.0091597 -0.0079724 -0.0049182 -0.0015222 0.0027088 0.0092355 0.0057155 0.0022494 -0.0097618 0.0028049 0.0031367 -0.0068271 
miss -0.0026108 0.0096161 0.0080791 0.0055946 -0.0036383 -0.005981 -0.0019326 0.0065448 -0.0047568 0.0017485 -0.0017748 0.0029292 0.0010307 -0.0046746 0.0053632 0.0043458 0.0072993 -0.0015474 3.483e-05 0.001239 0.0021909 0.0039021 -0.004598 -0.0016962 0.00065496 -0.0051378 0.0050613 0.0031161 -9.0163e-05 0.0037061 0.00033414 0.0010201 0.0092567 0.0044806 0.0042189 -0.0068015 -0.0022919 -0.0048569 0.00085206 -0.0096626 0.0075855 0.00629 -0.0016413 -0.003089 -0.0045949 5.0691e-05 0.0077827 -0.00080048 0.0043224 0.002375 0.0081246 -0.0075666 0.0094977 0.0061224 -0.0043602 0.0071109 -0.0056443 -0.0084051 0.002306 0.00089474 0.004742 0.0020766 -0.0099686 0.0091753 0.0079718 -0.00735 -0.0051036 0.0050275 -0.0056267 -0.0064323 0.0052145 0.0098454 -0.0082677 0.0048826 -0.004424 -0.00098795 0.0088185 0.007183 -0.0064591 0.006047 -0.0072257 -0.006387 -0.00084599 0.0044513 0.0038664 -0.00047327 0.0028344 0.00038575 -0.0088028 0.0095101 -0.00050677 -0.00043365 0.0081026 0.0045427 -0.008339 0.007464 -0.0092164 -0.0099428 0.0069202 -0.0092753 
? -0.0020005 0.0087605 -0.006962 -0.0070982 -0.0036433 0.0067563 0.0019895 0.001062 -0.00024771 0.0028118 0.0040602 0.007064 -0.0081651 0.0028305 0.0072623 -0.0057325 -0.0040712 -0.0007546 0.0039317 -0.00023994 -0.0076792 0.0020858 0.004305 0.005668 0.00012717 -0.0022886 0.0090694 0.00047693 -5.7797e-05 0.007598 -0.0071073 0.010145 0.00075506 -0.0054596 0.0090223 0.0023655 -0.0030568 6.4069e-05 0.0041293 -0.0030666 0.0049034 0.0046069 0.0019561 0.0081397 0.0015039 -0.005226 -0.0046623 0.0046075 -0.0039154 -0.0034033 0.0046555 0.0040967 -0.0043487 -0.0022579 -0.0070962 -0.00026698 -0.0086333 0.0022681 -0.004016 0.0068526 0.0034809 -0.007001 0.0038736 -0.00094481 -0.0094271 0.005703 0.0054597 -0.0076328 -0.0011217 0.0037095 0.0040406 -0.0090201 -0.0055826 0.0025202 0.0038646 -0.0045501 -0.0054974 0.008971 -0.0079764 -0.008761 -0.0046439 0.0046621 0.0012439 0.0017886 0.0068171 -5.2634e-05 0.0097416 0.0059231 0.0044126 -0.0097624 0.0086488 -0.00079875 -0.0018802 0.0068414 -0.0049843 0.0097693 0.005992 -0.0096883 0.005692 0.0039814 
Japanese -0.00366 -0.0098152 0.0069556 -0.0050312 -0.0059556 -0.0090502 -0.0059732 -0.0035747 -0.0084189 0.0048922 0.0021732 -0.0087699 0.0084747 0.0026963 0.0059376 -0.0093237 -0.0056872 0.0056065 -0.0085216 0.0083127 -8.12e-05 0.007499 -0.0047244 -0.007045 0.0028092 0.0013346 -0.003209 0.002715 0.0069928 -0.00011841 -0.00915 0.0066934 0.0036908 0.007487 0.0097473 0.0007284 0.0023269 0.0049078 0.0077047 0.0082152 -0.0037306 0.0016062 -0.0076725 -0.0038059 -0.0008804 -0.0049351 0.0026824 0.0041055 0.009157 -0.0039738 0.0077125 -0.0054416 0.00022488 -0.004103 -0.0049695 0.00442 -0.0031187 0.0024336 0.0074035 0.0057043 0.0078192 0.0018329 -0.0026208 -0.0043606 0.006054 0.0058002 0.0080417 0.00027686 -0.0070458 -0.0050303 0.0038248 -0.0016138 0.0054272 0.00045771 0.00071863 0.00015301 0.0026073 -0.0075669 0.0095997 -0.009 -0.0070037 -0.0068881 0.0037017 -0.0038262 0.008081 -0.0024816 -0.0085433 0.0020159 -0.0062693 -0.0062978 -0.0044261 -0.0064397 0.0062955 -0.008198 -0.0043624 0.0093876 -0.0039213 -0.0081871 -0.0045046 -0.0098447 
an -0.0060861 -0.0092976 -0.0042737 -0.0020668 -0.0089886 -0.0069786 0.0052652 0.003961 0.0087007 -0.0039024 -0.0034052 -0.00030309 -0.0053921 -0.0060002 -0.0052634 -0.0056371 -0.0089122 2.3841e-05 -0.0068721 -0.0043993 -0.0071628 -0.0069967 -0.0075274 0.005369 -5.5077e-05 -0.005132 0.0056956 -0.0023721 -0.0023487 0.0088914 0.0080033 -0.0045938 -0.00069652 -0.0062462 -0.0042691 0.0022685 -0.0060844 -0.0070317 0.0041497 0.0088658 0.0013829 -0.0042094 0.0094826 -0.0062922 0.0034883 -0.0023825 0.0035814 -0.0094754 -0.0043712 -0.008232 0.0089303 0.0014176 -0.00063606 -0.0084795 -0.0018408 -0.0015291 -0.00032832 0.0041558 0.0062391 -0.00094398 -0.0098348 -0.00064318 -0.0049389 0.002993 -0.0093812 0.0030668 -0.0050446 0.0074295 -0.0092244 -0.0079068 -0.0016035 0.009778 0.0085589 -0.0001514 0.0027157 -0.0067222 -0.0011213 -0.0013266 0.0020892 -0.0074479 0.0082319 0.0035754 -0.0067685 0.00829 0.0038821 0.0059626 -0.0050258 0.0055071 -0.0099974 0.0064499 0.0050481 -0.0060121 -0.001417 -0.0099574 -0.0040077 0.0080534 -0.0043308 0.009587 -0.0093015 0.0093273 
because 0.0066471 -0.0039483 -0.0075133 0.0066133 0.0078669 0.0034348 0.0032051 -0.0057681 -0.0069023 -0.0060462 0.000979 0.0060853 -0.008525 -0.0032115 -0.008257 0.0066571 -0.0091358 0.0039752 0.0055706 0.0093595 0.0034403 0.0081993 -0.0038467 -0.0089025 -0.0068053 0.0033591 0.0087989 0.0051814 0.0092249 0.0016759 0.0090445 0.0060885 0.0011733 -0.0042853 7.9555e-05 0.0039488 0.003978 9.0025e-05 0.0029347 -0.0067272 0.0016375 0.0035674 -0.0011439 0.006533 -0.0085932 -0.0081651 -0.0033976 -0.0047963 -0.003769 -0.0087776 0.00038355 0.00093338 -0.0061806 -0.0034366 0.0063359 -0.0099596 -0.0032756 0.00992 -0.0010386 0.0027098 0.0067036 -0.0042345 0.0038152 -0.0017066 0.004925 0.0028518 -0.0060872 0.001057 0.007651 -0.0030623 0.0077287 0.0036539 0.0085021 0.0050662 -0.0096536 -0.0090193 0.0091868 0.0043538 0.0070981 0.0054548 -0.0029103 0.00085429 0.0058774 0.0071637 -0.0056769 0.0048156 0.0019461 -0.001275 0.0066332 0.0010899 -0.0096212 -0.0090196 -0.0068273 -0.0090117 0.0033179 -0.0047603 0.00015621 -0.0055845 0.0039584 -0.0022609 
of 0.00011433 -0.0028273 0.004069 0.00076344 0.0051608 0.0015366 0.0063428 -0.0079098 -0.0068374 0.003384 0.0078191 -0.00064768 -0.0037188 0.0012157 0.0097345 0.00022989 -0.0079279 -0.0053327 -0.0063933 -0.0047001 0.0067081 0.0044623 -0.0033342 -0.0054533 0.0048297 0.005035 -0.0042761 -0.00801 0.0048184 0.0035511 0.0071689 0.0040108 -0.0076274 0.0053657 -0.0059107 -0.0080763 -0.0071716 0.009983 0.0027904 -0.0098224 -0.0054709 -0.0062761 0.0014433 0.0034245 -0.0048914 0.0024657 0.0044944 0.0071773 0.0004612 0.00020077 0.0098029 -0.0030534 -0.0032229 -0.00032071 -0.0071947 0.0066857 -0.0046451 -0.0043229 0.0068543 0.0085827 -0.0086451 -0.0031876 -0.00063325 0.0028295 -0.0040607 -0.0011977 0.0055645 0.0014594 -0.0095819 0.003307 -0.0069386 -0.0040433 0.0093946 0.0027864 -0.0069484 -0.0060646 0.0025205 -0.0081618 0.0098638 -0.010068 0.0011674 -0.0065925 -0.0021469 -0.0092239 -0.0060848 -0.0075554 -0.0035333 0.0019109 0.0074808 -0.004953 -0.0070904 -0.0045585 0.0073564 0.0031864 -0.0039729 -0.005038 -0.0049873 0.0088072 -0.0076026 -0.0036082 
like 0.0082067 -0.0063367 -0.00067639 -0.004505 0.0086861 -0.0031488 -9.7743e-05 0.0077557 -0.0004122 -0.0035373 0.0090557 0.008307 0.0079679 -0.0040601 0.0010609 0.0081897 0.0084455 -0.0048979 0.0063963 -0.0050047 0.0019411 -0.00056826 0.001961 0.0018943 -0.0083153 0.0011298 -0.00067207 -0.0013977 0.0090783 0.0042996 -0.0051469 0.0024091 -0.0099323 0.0074771 0.0008296 0.00066325 0.003673 -0.006293 -0.0071677 0.0095119 0.0046121 0.0018 0.0077411 -0.0079794 -0.0064784 0.0060838 0.0062919 0.00065593 -0.0063121 0.0061885 -8.5202e-05 -0.0031863 -0.0059946 0.0026667 -0.008758 -0.0041068 0.0042955 0.0083796 0.0024851 0.007151 -0.0021772 0.0047571 -0.0030572 -0.00072758 0.0046592 0.0016985 -0.0068058 0.0081702 0.0084241 -8.338e-05 -0.0077761 -0.0095536 0.0045556 -0.003142 -0.0017936 -0.010051 -0.0076491 0.0094398 0.0076116 0.0035171 0.00063797 -0.007807 -0.0042013 -0.0030125 0.0058127 0.0055601 -0.00027184 0.0039612 -0.0040005 -0.00027469 -0.0095837 -0.0041339 0.0013766 -0.0015202 0.0026698 -0.0052126 -0.0052568 0.0023094 -0.0073257 -0.0011378 
you're 0.0067296 -0.0053289 0.0044251 -0.0019737 0.0031414 0.0089097 -0.001733 0.0037692 -0.00093852 0.0036377 -0.0057381 0.00089233 0.0037605 0.0081911 0.0048466 0.0086727 0.0055135 -0.0078776 -0.0039887 0.0065369 -0.001229 -0.009073 -0.004478 0.0045921 0.0067424 -0.0047597 -0.0064426 -0.0030366 0.0040517 -0.0012803 0.0053559 -0.0072895 0.0025823 0.0081366 -0.0059061 -0.0062676 0.0078607 0.0022129 -0.005345 -0.0086075 -0.0083767 0.0082457 -0.0043057 -0.0054545 0.0064832 -0.0082256 -0.0085192 -0.0048712 0.0086645 0.0067874 0.0055053 0.0087385 0.0021761 -0.0030186 -0.0082723 0.0054374 -0.0070159 0.0052222 -0.0071581 -0.00092977 -0.00089751 -0.0042109 0.0045287 -0.0018047 -0.0061336 -0.0087301 0.0080548 0.0080608 -0.0040042 -0.0038994 -0.0050313 -0.0094926 0.0031302 -0.0015765 0.0099129 0.0099599 0.0065566 -0.0034927 0.0048503 0.0017533 0.0049762 -0.0078614 -0.0063403 0.0042246 -0.0068534 0.0047169 0.0087591 0.0033478 0.0030774 -0.0010628 -0.0054777 -0.0024424 0.0093498 -0.0018391 0.0054153 0.0056692 -0.0062194 0.0057656 -0.0068273 -0.0076217 
present 0.005461 -0.008268 0.0081058 -0.0051333 0.0082588 0.0089755 -0.0043399 0.0066531 0.0051384 0.0096894 0.005586 -0.002601 0.00040315 -0.0024659 -0.0045572 0.0048276 0.0064559 -0.0093276 -0.0083714 0.0069919 -0.0053198 -0.0056703 0.0063025 -0.0062612 -0.00054201 -0.0049695 0.0017987 -0.0015959 -0.0080124 0.0032547 0.0051698 0.0026257 -0.0054709 -0.0020142 0.0013581 0.0027203 -0.0074196 -0.0084445 -0.0045228 0.0020226 -0.0019206 -0.0072283 -0.0017539 -0.0059948 -0.0025339 0.009549 0.0038688 -0.0013796 0.0080017 0.0089456 0.010221 0.0076851 -0.0052616 0.0068073 0.0020789 -0.0028659 -0.0067241 4.6173e-05 -0.0033553 -0.0097954 0.0040926 0.0028422 0.0086312 -0.0099462 0.0078647 -0.0079755 -0.0087736 0.0043201 -9.4305e-06 -0.0089077 0.0023684 -0.0021237 -0.0084904 0.0059513 0.0010265 0.0072842 -0.0027708 -0.0076162 0.0035726 0.00933 0.0082329 0.0080129 -0.00090171 -0.0089807 -0.004264 -0.0085592 0.0093899 -0.0082201 -0.0019438 -0.0031201 0.00098462 -0.0085059 -0.0047389 0.0037251 0.0025294 -0.0017686 0.0078496 -0.0042125 -0.0091188 0.0060434 
that's 0.0017024 0.0048723 0.0051029 -0.0020354 -0.0062433 0.0093765 0.0030717 0.0028579 -0.003741 0.0011824 -0.00045191 0.0069148 -0.010011 0.002992 -0.0094721 0.0063081 0.007461 -0.0036364 -0.0034815 -0.0061037 0.0075179 0.0055146 -0.0054619 0.0022828 0.0086148 7.6914e-05 -0.0087222 -0.0045172 0.00014494 -0.0075457 0.00074976 -0.0061874 -5.3572e-06 -0.003962 -0.005261 -0.0016389 0.0060814 0.0050356 -0.0066786 -0.00045955 0.0057466 0.0066458 -0.0015329 0.0079747 0.005246 0.0064099 -0.0087091 -0.006269 -0.0084116 0.00061359 0.0053282 -0.0099524 -0.0066444 0.00089297 0.0013091 -0.0038547 -0.0062771 0.0021571 0.005565 0.0044906 0.0053746 0.0089971 0.0029787 0.00086035 0.005763 0.00018595 0.0042207 -0.0036966 0.0062554 -0.0038738 -0.00015709 -0.0051288 -0.006849 0.0064314 -0.00081255 0.0066812 0.0059265 -0.0067127 0.0043978 0.0011174 -0.0089651 -0.0079558 -0.0064662 -0.0063954 0.0054311 -0.0013343 0.0085775 -0.0044447 -0.005845 0.0042346 -0.0082983 5.9534e-05 0.0014276 -0.00069181 0.0030342 -0.0034096 -0.0024273 0.009057 0.0078093 0.0030295 
real 0.00039533 0.001178 -0.00827 -0.0086061 0.00098852 0.0022232 -0.00045906 -0.0037829 0.0044494 -0.0047695 0.0054422 0.0073053 -0.00079828 0.0054944 -0.009045 -0.0056691 -0.0087878 -0.0088759 -0.00013254 0.0066719 0.0079713 0.00093354 0.0083842 -0.0034496 -0.0019022 -0.010029 -0.0019075 0.0013421 -0.00091374 0.0057805 -0.0075449 0.0079154 -0.0084387 0.0035464 -0.0031712 -0.0046813 0.0028753 0.0018299 -0.0078743 0.0050308 -0.0010272 -0.0084008 0.005217 -0.002286 -0.002333 -0.0052586 0.0041681 -0.0010901 0.00057444 0.0090995 -0.0044043 -0.0050505 0.0091667 -0.0098853 -0.009883 -0.0050723 0.0018515 0.0055573 -0.0091422 -0.0027529 0.0043187 0.0048438 -0.00043621 -0.00407 -0.0037882 0.0088311 -0.0019415 -0.0011741 0.0038442 -0.0015945 0.0054118 0.0096961 -0.00047491 0.0050458 -0.0049439 -0.002659 0.0028738 -0.0033014 -0.0048783 -0.0097868 0.0065567 0.0032872 0.0045285 -0.005781 0.0045878 0.0018915 0.0013925 -0.0091646 -0.0021624 0.0027785 0.0050432 -0.0033872 0.0096558 -0.0010414 -0.0028627 0.00096162 -0.0074665 0.0026658 -0.0029748 -0.0086605 
also -0.004472 -0.0018314 0.0040895 -0.0069208 0.0078379 0.0052246 -0.0047472 -0.002203 0.0011353 0.0084489 0.0085088 0.0086795 -0.0078087 -0.0036613 0.0073196 -0.0051136 -0.00088036 0.0038287 -0.0050376 -0.005509 0.0087752 -0.0043008 0.0019753 -0.0076905 0.00080681 0.0049852 0.006546 0.0096502 -0.0029935 0.009922 0.003588 0.0098039 -0.0055972 0.0090811 0.0030771 0.0013762 0.0091216 0.00592 -0.0070669 -0.0093518 -0.003466 0.0074647 -0.0071296 -0.0017842 0.0075552 -0.00058943 0.00248 0.004149 0.00047844 -0.00010949 -0.0066905 0.0051259 -0.0026736 -0.0030601 0.0035191 0.0041785 0.0098562 -0.005316 0.0098673 -0.002213 -0.009803 0.0053811 0.0047425 0.0027515 0.0071939 -0.0060001 -0.0017576 0.0055221 0.0079714 -0.0082771 0.0003526 -0.0058419 -0.0038628 -0.0024784 -0.005306 -0.0090555 -0.0087509 0.0051221 0.00056311 0.0051752 0.0032724 0.0055459 -0.0028083 -0.0077671 0.0081942 -0.0059587 0.0083035 0.0056305 -0.0077605 0.0028207 -0.008963 0.0027657 -0.0031112 0.0075645 -0.0050173 -0.0097514 -0.001991 -0.001288 0.0090955 0.0034451 
No 0.0096093 -0.0019802 -0.00016462 0.0047244 0.0017059 0.0043971 0.0026411 0.0039674 0.0073454 -0.0035931 0.0038562 0.0063185 -0.0069301 0.0057121 -0.0069134 0.0044917 -0.0028255 0.0056826 0.0014034 0.0094441 0.0020795 0.0062533 0.0010218 -0.0034531 -0.0082741 0.0066571 -0.0099139 0.0019919 0.002332 0.0033677 -0.0071311 0.0089068 -0.0027172 -0.00019858 -0.0018402 -0.0051606 0.0032137 -0.0097293 -0.00032059 0.0074025 -0.005991 -0.0073732 0.0089676 0.0033362 -0.0098637 -0.0036741 -0.0055591 0.00060605 -0.0081403 0.0022158 0.0047575 -0.0081942 0.0051486 0.0033865 -0.00061047 -0.0098858 -0.0035705 0.0033378 -0.004851 0.0028909 0.0021026 0.0036452 -0.0046951 -0.0079084 -0.0080159 -0.0025677 -0.0041135 0.004172 0.0065132 0.0069864 0.0014872 0.0058426 0.0030454 0.0048004 -0.0097618 -0.0091551 0.010029 0.0089843 0.001083 0.0019045 -0.0092341 -0.0049894 -0.0058075 0.0033907 -0.0016005 0.0097191 0.0063207 -0.0077095 0.001218 -0.0060098 -0.0012001 -0.0073788 -0.0036778 -0.0054745 0.0048879 -0.0080912 -0.0054222 -0.00031133 0.0029303 0.0076396 
buy 0.00021939 -6.5449e-06 -0.00075485 -0.0038153 0.0082289 -0.0069186 0.0030877 0.0078124 -0.0062804 -0.003562 -0.0092704 0.0085018 0.0015917 -0.0094146 0.0090798 -0.0092209 -0.0058321 -0.0095185 0.0061564 0.0055452 0.0070498 0.00095743 0.0032698 0.0088552 0.0016833 -0.0036481 0.0026578 -0.00336 0.0067303 -0.0080851 0.0099033 0.0048022 -8.7188e-05 0.0038468 -0.0040842 -0.0025423 -0.00017399 -0.0040597 0.001292 0.0026332 0.0015894 -0.0032812 -0.0014326 -0.0066193 0.0035871 0.0010587 0.0024262 -0.006688 0.0098928 0.0078311 -0.0082523 0.0012151 -0.0051202 -0.0070105 0.0057544 -0.0099816 0.001983 0.007511 -0.00040205 -0.000583 0.00034237 -0.0077529 0.009858 -0.0072443 0.00072337 0.0038922 0.0028018 -0.0073223 0.0070115 -0.0071636 -0.0072276 -0.008123 -8.3355e-05 0.0079703 -0.0099321 0.0010234 -0.0019429 0.0057252 -0.0059891 0.0061821 0.0058529 -0.0062005 -0.003529 -0.0001761 -0.005483 -0.0069946 -0.0050615 -0.0027971 -0.0076841 0.0052361 0.0013558 -0.0072227 0.0069759 -0.0076516 -0.0041675 0.0027304 -0.0030719 -0.0083459 -0.0089552 -0.0012822 
Read -0.008916 0.0009023 0.0074862 0.0022137 0.00211 0.0085531 -0.0047541 -0.0037122 0.0098081 -0.00057294 0.0047557 -0.00081088 0.005737 -0.00075055 -0.0095447 0.0058821 -0.0018559 -0.0090325 0.0066128 0.00063653 -0.0023304 0.0091608 0.0068418 -0.0047457 -0.0085868 0.007973 0.0081217 0.0028871 -0.0094633 -0.0024007 0.007555 0.0055183 -0.0059173 -0.0085584 0.0008033 -2.4996e-07 0.0070773 -0.0014421 0.0036478 -0.0080161 -0.00095137 -0.0040961 -0.0050483 -0.006026 0.0049559 -0.0073816 0.0099616 0.0045374 -0.0085627 -0.0015068 -0.0055733 -0.0050293 -0.0012552 0.0090004 -0.00020376 0.0022115 -0.0083849 -0.0085286 0.007714 -0.009929 -0.0090872 -0.0036812 -0.0050966 0.0040637 -0.0082794 0.00019111 -0.003194 -0.0025675 0.0047844 -0.0061913 0.0087936 0.00081177 0.0036747 0.002804 -0.0082111 -0.008974 -0.0022513 -0.0086508 0.0066818 0.0029765 0.0076273 0.0088738 0.0064632 -0.0077286 -0.0073099 0.0018538 -0.0082817 0.0019793 5.8346e-05 0.0099601 0.0041774 -0.0059384 -0.0030408 -0.0095475 0.003606 0.0028297 -0.00087341 0.0064909 0.007157 0.0034567 
Real -0.002407 -0.001074 0.0019256 0.0020498 0.000314 0.0057065 -0.0050784 -0.0094627 -0.0083778 -0.00084999 0.00090337 -0.0090521 -0.0008377 -0.0073253 -0.00068687 -0.0099812 -0.0068794 0.001367 0.0049098 0.0027876 -0.0015713 -0.0042042 0.0058357 0.0010051 0.0079341 -0.0065216 -0.0057785 -0.0090273 0.0066401 -0.0094431 -0.0039019 -0.0072416 -0.0085016 -0.0061717 -0.0078919 0.00069182 0.0019473 -0.0083967 -0.0051503 0.00057007 -0.0060364 -0.0035899 -0.0099799 0.0094562 -0.0037128 -0.0086658 0.009804 -0.00081205 0.0028158 0.0019331 0.0074367 -0.006674 0.0083158 -0.0016982 -0.0080178 -0.0070443 0.0039278 0.0080781 -0.0082421 -0.0020034 -0.0099929 0.0022217 -0.00029746 0.006169 -0.0074555 0.0098331 -0.0082641 0.006369 -0.0056131 0.004787 -0.0029788 -0.0031558 0.0028131 -0.0066693 -0.0007946 -0.0073387 0.0070573 0.0068822 -0.0051641 0.0077283 -0.0014618 -0.0060101 -0.0030675 -0.0096864 -0.0063401 -0.0084424 -0.00993 0.0041836 0.0091894 -0.0068441 0.005934 -0.0081054 0.0097568 -0.0060107 0.0063648 -0.0073569 -0.0068121 -0.0091709 -0.0056273 -0.0046638 
sense -0.0060481 -0.0087922 0.0019288 -0.0056359 -0.0061005 -0.0061365 0.00053474 -0.0073412 0.0026057 0.0079652 0.0029026 -0.0041904 0.0082009 0.0070293 -0.0068993 -0.0020729 0.0054244 -0.0036955 0.0056506 -0.0065089 0.0097943 0.00224 -0.002031 0.0048953 -0.0068052 0.0056618 0.00073066 0.0016808 -0.0080247 -0.0025852 0.0075763 -0.0068079 -0.0072353 0.0045917 0.0083667 -0.0086172 0.0022367 0.0038243 -0.0099607 -0.0074644 -0.0097456 -0.0020036 0.0058756 0.0026991 -0.0095875 -0.0080745 -0.0049246 0.0013899 0.0082916 0.004187 -0.0070761 0.0052217 -0.00114 0.0096497 0.0044471 -0.0084652 -0.006408 0.00034628 -0.00016624 -0.008362 -0.0012173 0.0035036 -0.0031755 0.0053386 -0.0044157 -0.00032342 0.0098087 -0.00068098 0.0047695 -0.0054409 -0.0095999 0.0057856 0.0038117 -0.0038272 -0.0088713 -0.0031686 -0.0042 0.0034588 -0.003867 -0.0066101 0.0007959 0.0068103 -0.0038883 0.0035033 -0.0010293 -0.0055778 -0.003112 -0.0063238 0.0062959 -0.0027936 0.0039703 0.0080283 0.0040546 0.0097194 0.00026083 -0.0033 -8.8241e-05 0.0085463 0.0034155 0.0036717 
Human 0.0015928 -0.0064073 -0.0049745 0.0026524 -0.0073741 -0.0064699 -0.00079457 0.0015536 0.0051672 0.0027057 0.0093718 -0.00030675 -0.0054366 0.0081683 0.006834 -0.0062052 -0.0035682 -0.0068326 -0.0059023 -0.0095355 -0.0034546 0.0045783 -0.0080184 0.001466 -0.0038398 -0.0051354 -0.0042664 -0.0064673 -0.0018062 0.0095244 0.0068198 0.0098701 -0.0085181 -0.003766 -0.0033676 -0.00051927 -0.0030642 -0.0056711 0.004952 0.0017017 -0.0041808 -0.008505 -0.0040126 0.0015303 0.0063789 0.0056428 -0.0065803 -0.0048813 0.0032916 -0.0082284 -0.0097885 0.0071911 -0.0077607 -0.0045212 0.0087657 -0.0075243 -0.007096 -0.00025139 0.0018062 -0.0016784 0.0043128 -0.0028469 0.0077617 0.009926 0.0076463 0.0049548 0.0051623 -0.0013835 0.0008428 0.00016507 -0.00087711 0.0080683 -0.0053736 0.00051467 -0.0084641 0.0044918 0.0058484 0.0066195 0.006885 0.00082602 -0.003432 0.0017333 0.0055123 0.0074084 0.0091137 -0.0097644 -0.0033973 -0.0066884 -0.002515 -0.0043931 0.00055869 -4.7035e-05 0.0034674 0.0052334 0.0082237 -0.00061782 -0.008909 0.004679 -0.0026734 3.7612e-05 
true 0.0079303 -0.0066906 -0.0044079 -0.0012956 -0.0043149 -0.0096175 -0.0094163 0.0050385 -0.0042705 -0.0047981 -0.0086298 -0.0032618 0.0069715 0.005646 -0.0094554 0.0052743 -0.0029897 -0.007144 0.0014504 0.0060023 -0.0013824 0.0076881 0.0102 0.0076385 -0.0099319 0.001278 0.0077135 0.0055715 0.0041906 0.0086597 -0.0065759 -0.0042091 -0.00045383 0.0033511 -0.0020974 0.0093438 -0.0045897 -0.0080959 -0.0051 -0.0045922 -0.0094555 -0.0071991 0.0023879 0.00055426 -0.0061311 -0.0079164 0.0012458 0.005003 0.0077805 0.0087769 -0.0020555 -0.0078117 -0.0041378 0.0066633 0.0056775 0.0090645 0.0098539 0.0048507 0.0017153 -0.0038277 -0.00028947 0.00035784 -0.0025951 -0.0010308 0.0085013 0.0040144 0.0082 0.0020482 0.0012209 0.0098314 -0.0022937 0.0087036 -0.0067778 0.0047203 -0.0046542 0.0013033 0.0028583 -0.0070065 0.006719 -0.0090162 -0.0022185 0.004807 0.00072292 -0.0031148 0.0084176 0.0060815 0.0034011 0.0034546 0.0017761 0.0087775 -0.00047288 -0.0027813 -0.0098142 0.0065878 0.0028337 0.0034935 -0.0094723 -0.00013712 -0.0028625 0.0020074 
same -0.0064833 0.0079439 0.0059962 -0.0048533 -0.0070465 -0.0076783 -0.0057643 -0.0082016 0.001246 0.00044086 0.0039482 0.0073015 0.0020423 0.0088398 -0.0014241 -0.0040795 -0.0062453 0.0048535 -0.00036528 -0.0098903 -0.0027725 -0.0097914 0.0035292 -0.0030205 -0.008654 0.00060115 0.0045611 -0.0092916 0.0087405 0.0075155 -0.0076441 0.0036574 -0.0057278 0.0045639 0.0062827 0.003828 0.0072389 -0.0064454 -0.0021479 -0.0047946 -0.0060088 -0.0035561 0.00085789 -0.0034028 -0.0082187 0.00037126 -0.0055133 0.0097288 0.003726 -0.0084675 -0.0035748 0.00029935 -0.0086734 -0.0086572 0.002104 0.0074381 0.006603 0.0089391 0.0099154 0.0061763 -0.0075475 0.00015027 -0.0064177 -0.0071745 0.009935 -0.0011201 -0.00069543 -0.0075055 0.0090546 5.8171e-05 0.0055613 -0.0079527 0.0056577 0.0032055 -5.3646e-05 0.0095967 -0.002214 -0.0030736 -0.0073997 -0.0029879 -0.0069117 -0.00028077 0.0075361 -0.0079954 0.00023413 -0.0069935 0.0030307 -0.0078762 -0.00031988 0.0046846 0.0034259 0.0047344 -0.00733 0.0028148 0.008993 0.0064402 0.0075791 0.0018264 0.0059563 0.0055383 
your -0.0063386 0.0098029 -0.0055139 0.0056643 0.0056978 -0.0064476 0.0041434 -0.007134 -0.00056944 0.0032228 -0.0043075 -0.0029272 0.0056297 -0.0061844 -0.0052841 0.0037101 0.0016213 -0.0024703 -0.00385 -0.0067673 -0.0088793 0.0038231 -0.0021839 -0.0023323 0.0063679 -0.0076582 0.0011201 0.0085442 -0.0026236 0.0084359 -0.0090729 -0.0062316 0.0025189 0.0010213 -0.0099235 -0.0074042 0.0087874 -0.0075138 0.0032579 0.0013002 -0.0034359 0.0044309 0.0064891 0.0062796 0.0013388 0.0061969 0.0070522 -0.0057177 -0.0024814 -0.0043595 0.0021342 -0.00070582 0.00099369 -0.0068375 -0.0058817 0.0043617 -0.0070184 0.0063155 0.0087696 0.0066347 0.0015084 0.0040603 -0.0084105 -0.0094938 -0.0093489 0.00119 -0.0075476 0.0063602 -0.008882 -0.0078702 -0.0093864 -0.008145 0.003765 -0.0072121 -0.0083545 0.004216 -0.009545 0.0016116 0.0088982 0.0028046 -0.0055476 -0.0044491 -0.0045274 -0.00026336 -0.0090566 -0.002661 0.0059135 0.00095906 0.0097512 0.009427 0.0072509 0.0032847 0.0027307 -0.004415 0.0085658 0.00794 0.0029729 -0.0082433 -0.002179 0.0033399 
yup 0.0022743 -0.0047409 0.0045495 -0.001124 0.00069716 -0.0052801 -0.0035269 0.0089801 -0.00079979 -0.00015894 -0.0068426 -0.00057324 -0.0027554 0.0015648 -0.0090104 0.0047536 -0.0029037 0.006673 -0.0022959 -0.0077879 0.0045738 -0.0065825 0.0026913 0.0048411 -0.0035238 -0.0065224 -0.0040657 0.0092653 0.0077047 -0.0034022 0.0071888 -0.0052705 -0.00069972 -0.0017968 0.0052043 0.0079101 0.0096103 -0.005332 -0.0013986 -0.0031533 0.0076106 0.0037453 -0.003338 -0.0092069 -0.00063966 0.0023983 0.0075715 -0.00091926 0.0062162 -0.0046744 -0.0093837 -0.0065111 0.0029578 -0.0050272 0.00035932 9.1169e-05 0.0066165 -0.0067931 0.0095913 -0.0092904 0.0019632 -0.0021409 0.0080169 0.010046 0.0020185 0.0063485 -0.0058154 -0.0062721 0.0044699 0.0067888 0.0035429 -0.0017333 -0.0075013 0.003489 -0.0041378 0.0029379 -0.0070648 -0.0065238 -0.0094448 -0.0041023 0.0092287 0.0013705 0.007093 0.0060743 -0.0092849 -0.0059977 -0.0026097 0.0010967 0.0063697 0.0094394 -0.0079557 0.0048801 0.0051762 0.0093287 0.0081441 -0.010124 -0.0036033 0.00081746 -0.0066422 -0.0063719 
yaz 0.0013086 -0.0064641 0.0035704 0.0072316 0.0052915 0.0065336 -0.0051411 -0.0038608 0.0026918 0.0049496 0.0021911 -0.0048504 0.0057548 0.0028524 -0.002178 -0.0040802 0.0099071 0.0022604 -0.0053282 -0.01014 -0.0040519 -0.005468 0.0099862 -0.0060173 -0.0024746 0.0024821 -0.007253 -0.0035167 0.0036429 0.0083091 0.0045661 -0.0093216 0.0047944 0.002967 -0.0058464 0.0058459 -0.00065773 -0.0090542 0.0082274 0.0017186 0.0039203 -0.0027204 0.0049656 0.0089191 0.0056137 -0.0099741 -0.0097754 -0.00055078 -0.0064172 0.0081067 0.0017794 -0.0084603 -0.0022167 0.0088175 -0.0071407 0.0087644 -0.0038342 -0.0087568 -0.0013197 0.0075125 0.0095157 -0.0063378 -0.0067035 0.0017352 0.001539 -0.0026486 -0.0097917 0.0021141 -0.0072483 -0.0094023 -0.0010054 0.0021502 -0.0051364 0.0053647 -0.0055765 0.0085674 0.0039363 -0.0067625 -0.001268 -0.008092 -0.00094696 -0.00026932 0.0036843 -0.0095507 -0.0096493 -0.0047102 -0.0079414 0.0058995 -0.0021473 0.00016015 -0.0029328 -0.00075793 -0.0066735 -0.0055281 0.0017305 0.00056025 -0.0047976 -0.0069276 0.0098077 -0.00071133 
read -0.0033382 0.0050163 0.0014914 -0.0082692 -0.0096775 0.0077491 0.0045515 0.0079134 0.0055317 -0.0050669 0.0066845 -0.003859 -0.00093754 -0.0023736 0.0087674 -0.0048089 -0.0079859 -0.0078792 0.0016542 0.00356 -0.0076961 -0.0082699 0.005872 0.009656 0.0049056 -0.0051034 -0.0066572 0.0085615 0.0084377 0.0019706 -0.0037419 -0.0031071 0.00016668 0.0086136 -0.0049586 0.0018969 0.0041346 0.0057198 0.0081265 -0.0072575 0.0026341 0.0089156 -0.0054742 -0.0018204 0.0025784 -0.0077362 -0.0049117 0.0029978 0.0057254 0.007449 -0.0020759 0.0020062 0.0023034 0.0029747 0.0043362 0.0057656 -0.0088505 -0.0075827 -0.0069964 -0.0097837 0.0021455 -0.0078263 0.0089242 -0.0079875 -0.0032397 -0.0017365 -0.0052972 0.0040769 -0.0046777 -0.0075287 0.0054785 0.0080774 0.0072038 0.0067385 -0.0091159 0.0095771 -0.00020132 0.0052429 -0.0011545 -0.0079753 -0.0019009 -0.001869 0.0025767 0.005137 -0.0051781 0.0079752 0.0090427 -0.002437 -0.0015753 0.009373 -0.0059325 -0.0043573 -0.0018739 0.0084588 0.0006864 0.0056514 -0.0020859 0.0092053 -0.0063145 0.0077313 
ok 0.0021872 0.0037188 -0.0067555 -0.004443 0.00096918 -0.00060937 0.0061177 0.0062341 0.0025996 -4.5632e-05 -0.0063535 -0.00065583 0.0067044 0.0059774 0.0078074 0.00031565 -0.0018915 -0.0098582 -0.0046511 0.00035576 -0.0035327 0.00099902 0.0076168 0.0037992 0.0016789 0.0041511 0.0011326 0.008703 -0.0028149 -0.0075459 0.0038414 -0.0044201 0.0042053 0.0099308 -0.0077267 -0.0013906 0.0083171 0.0085753 -0.0062406 -0.0027112 0.0011876 -0.0077033 0.0067575 -0.007819 0.009412 -0.0066064 -0.0065162 0.0070631 -0.0063887 -0.0059179 0.00069296 -0.005635 0.0069402 0.0044249 0.0094903 -0.0074025 0.0031088 -0.0067765 -0.0054868 0.0045662 0.0096393 -0.0047024 0.0043597 -0.0076433 0.002489 0.00089675 -0.0055498 0.0056816 0.0084357 -0.0067702 0.0058348 -0.0085183 0.0014728 -0.0095608 -0.0095154 -0.00082233 0.005925 -0.0040004 0.0064396 -0.0033103 -0.00013953 -0.002693 -0.00031125 -0.0061685 -0.0034786 0.0066446 -0.0047466 -0.0047072 -0.0080051 -0.00218 -0.0021176 -0.0035374 0.0010892 0.0015721 -0.0057122 -0.010135 -0.0023888 0.0062866 -0.0042186 0.00070494 
with -0.0037955 0.0090483 0.00034497 -0.0025267 -0.0091538 -0.0079987 -0.0024011 0.0056639 0.0052638 -0.0013222 0.0041753 0.0056891 0.0020994 0.0017216 0.0074152 -0.0061338 0.009657 -0.00062266 -0.0097806 0.0019101 -0.0040349 -0.0017747 -0.0037348 0.006291 -0.0014079 0.00374 0.0050794 0.0045608 -0.0013353 0.0026031 -0.0019525 0.0082303 -0.0058575 -0.008798 -0.0054068 -0.0082104 0.0054706 -0.00068412 0.0075431 0.0047695 -0.0077855 -0.0030256 -0.0022261 -0.0089312 -0.00025672 0.0083048 0.0074716 -0.0098396 -0.0068149 -0.0038102 1.5672e-05 -0.0024548 0.008657 -0.0067402 0.0077037 -0.0049088 0.0060233 -0.0030273 0.0082297 -0.0097789 0.0078501 0.004515 0.0053568 -0.00081134 0.0043662 0.0086717 -0.0092216 0.0099387 0.0088515 0.00019845 -0.0032449 0.0089271 0.0097043 0.00046337 0.0085648 0.0034932 0.00037412 -0.0051905 -0.0050769 -0.0081564 -0.0086435 0.0026011 -0.0074548 0.0094471 -0.0084534 -0.0027975 -0.00072482 -0.0058104 0.0036013 0.005935 0.0061977 -0.0039261 -0.0056958 -0.00072148 0.0047207 0.0079781 -0.0012778 -0.0095337 -0.001742 0.0024413 
na -0.00086976 -0.0014061 -0.0018923 -0.0011414 0.0027117 0.0024169 -0.0092473 -0.0041015 0.0025768 0.0055347 0.0071104 0.0064212 0.00702 -0.0053361 -0.0049604 -0.0074854 0.0089656 0.004458 -0.0075729 -0.0068379 -0.00091121 -0.0025704 -0.0099604 -0.0071561 0.0093887 -0.0085561 0.009115 0.0004811 0.0063196 0.00051678 0.00020141 0.0072997 0.0056717 0.003651 0.0077427 0.0006755 0.0073083 0.0037959 0.0091572 0.0090345 0.0030448 0.0093924 0.0067626 -0.0075896 0.0011489 -0.0012107 -0.0029169 -0.0016664 0.0098306 0.010046 0.0040088 -0.0031086 -0.0012486 0.0034558 0.0066021 0.0096854 3.1068e-05 -0.0093645 0.0090134 0.0085275 0.0043015 0.0035581 0.003291 0.007857 8.6158e-06 -0.0016111 0.0061838 -0.0023607 0.0076123 -0.0030643 0.0077728 -0.0075538 -0.0091383 0.0058869 -0.0090929 0.00039253 -0.0052788 -0.0098696 -0.008483 0.0017827 0.0027591 -0.0023347 0.0096571 0.0089921 -0.0070104 -0.00031972 0.00057867 0.0079317 -0.0095378 0.0066378 0.0050557 -0.0081115 -0.0074923 -0.0025229 -0.0044421 -0.0059319 0.00065987 0.0011802 0.0041044 -0.0060833 
sleep -0.007171 0.0034585 -0.00058383 0.0073311 -0.0012787 -0.008825 -0.0088077 0.0059694 -0.0035184 -0.0086793 0.009558 0.0083567 -0.005367 0.0089141 -0.009732 -0.0072505 0.00052837 0.0043826 -0.00049325 0.0078864 -0.0050394 -0.0089752 -0.0017544 0.0076957 -0.00083339 -0.0092023 -0.00015769 -0.0071208 -0.0031006 -0.00061738 -0.00043737 -0.0096787 0.0071175 0.0008857 -0.0034781 0.0078625 -0.0053933 0.007511 0.00039754 0.0042565 -0.0098047 0.0048959 0.0062506 -0.0064605 0.0016655 -0.0084437 0.0066984 -0.0055614 -0.0080151 0.0084801 0.001503 -0.0041667 0.0033233 0.0027877 0.0025307 0.0056926 -0.0098089 0.0089966 -0.0012028 -0.0012462 0.0013972 -0.0017526 -0.00023521 -0.00054272 0.0022331 0.0038774 0.0031946 0.0035762 0.005853 -0.0015074 0.0067614 0.0054759 0.0089865 -0.0012772 0.0039653 0.0016923 0.0043552 -0.0071128 0.0017805 -0.0053031 0.0015362 0.0062034 0.0080242 0.0075584 0.0075452 -0.00044297 -0.0069657 -0.0015744 0.0057924 -0.004098 0.0090906 -0.006281 0.0087807 0.00022992 -0.0081884 0.0050724 0.0021223 0.0028718 -0.0061431 -0.0092597 
tama 0.0052804 0.0020327 -0.0045742 -0.0070253 -0.0054876 0.0042511 -0.00077808 -0.00023567 -0.0067709 -0.0016659 0.002425 0.0078485 0.0027483 0.0027088 0.0018584 -0.0063356 -0.0011508 0.0019985 0.0095538 -0.0032798 -0.0026081 -0.0095785 0.0070289 -0.002854 -0.0030503 -0.0099571 -0.0018722 -0.0031069 0.0088127 0.0067023 0.0052474 0.0043526 -0.00070072 0.00075886 0.0046793 0.0054251 0.0048256 0.0080709 -0.010039 -0.00827 0.0028207 0.0091214 -0.0088143 0.0055359 0.0029584 0.0059195 0.005975 0.0034081 0.0066507 0.0089644 -0.0039629 -0.006549 0.00051409 0.0094626 -0.0015448 0.0031741 0.0051756 0.0083062 0.0064966 0.0034918 0.0061988 0.0065804 0.0066561 -0.0012672 0.0021311 0.0024495 8.1932e-05 0.0005263 -0.0078734 -0.0072863 0.0021073 -0.0039303 -0.0022657 -0.0053721 -0.0070757 -0.00038768 0.0072214 -0.0020519 -0.0096202 -0.0085536 0.003442 0.0010236 0.001792 -0.0075268 -0.0091203 -0.0012324 0.0050689 0.0064 0.0081699 0.00077864 -0.0029033 -4.8431e-05 0.0088668 -0.0085022 -0.0032049 -0.0081213 0.0043788 -0.0053639 0.0041436 0.0047458 
well 0.0097031 -0.0050303 0.0046156 0.0082747 0.0055165 -0.0038295 0.0042298 0.0071832 0.0011554 0.0018966 -0.0042081 0.0096957 0.0054678 -0.0059978 0.008834 0.001539 -0.0058806 0.008119 -0.0015038 0.0028729 0.0073209 -0.0086374 0.0065023 0.00033094 0.0032799 -0.0052205 0.0050782 0.0050427 0.004198 -0.0072518 0.00033879 -0.00048378 0.0055319 0.00969 0.0046505 0.0062387 0.0014675 -0.0031583 -0.0064055 -0.006013 -0.00011964 0.008238 0.0028848 -0.0084281 0.0070951 -0.0055085 0.008744 0.0067301 0.0047712 0.0016654 -0.00081929 0.0039121 0.0023188 0.0055301 0.0056441 -0.0082653 0.0090867 -0.004051 -0.0023319 -0.0068356 -0.0015242 -0.0082033 0.0075761 0.00057104 -0.0041011 0.0081475 -0.0064659 0.0006574 0.0014596 -0.0090828 0.0055323 -0.0046197 -0.00047469 -0.0083458 0.0058912 -0.0031485 0.0012302 0.0027151 0.0021655 -0.0073665 0.0080361 -0.0092146 0.0026393 -0.0055459 0.0072125 -0.0071192 0.0011526 -0.0027839 -0.0036172 -0.0063485 -0.0018656 -0.0072256 0.0054634 0.0038314 0.0099363 0.0053877 -0.0062878 -0.0054936 0.0013643 -0.00037438 
agree -0.0021056 0.0088323 -0.0044745 -0.0023665 -0.0051675 0.0056525 -0.0060624 0.0096175 0.0041161 -0.0084936 0.0035283 -0.0050729 -0.0082627 0.0010439 -0.0028513 -0.0064146 0.0090178 -0.0083887 0.0029832 0.0086046 -0.0032342 -0.0067881 -0.0079533 0.0070817 0.0065429 0.0072374 0.0029901 -0.0098067 0.0049357 -0.0036261 0.0084857 -0.0073754 -0.0099855 -0.0020058 -0.0069376 -0.00032933 -0.0020595 0.0031091 -0.0063407 0.007608 0.0060737 -0.0084718 -0.0079014 -0.0078917 0.0074812 0.0096458 0.0073369 -0.0054977 -0.004289 -0.0034011 -0.0080885 6.2416e-05 -0.0044547 0.010076 -0.0055414 -0.0012983 0.0070006 0.0027721 -0.0049274 -0.0084875 0.006762 -0.004867 -0.0077995 0.0013707 1.8517e-05 -0.0073718 0.0014682 -0.0039322 0.0028773 -0.0027992 -0.0054227 -0.0072621 0.0047915 -0.0073005 -0.009348 0.00035512 0.0085262 -0.005208 -0.009293 0.0049886 0.0087362 -0.0097221 -0.001649 0.00025166 0.0038324 0.0049178 0.0078065 0.0015808 -0.0069132 -0.00017246 0.0051322 0.0095745 -0.0019139 -0.0028888 0.0048527 0.00033926 -0.0010471 0.0099308 -0.0077556 -0.0018061 
start 0.002349 0.0087431 0.0083095 0.0067293 0.0079361 -0.0088326 -3.7493e-06 -0.0054137 0.0066258 0.00023483 -0.0033521 0.0056352 -0.0095612 0.009889 -0.0025348 0.0044681 -0.0022222 0.0018936 0.0089547 -0.0009044 -0.0083271 -0.0095529 0.00072761 -0.0089249 -0.0048048 0.0065422 -0.0051028 0.0089341 0.0045597 -0.0063774 -0.0087937 0.0091384 -0.0050555 0.0085504 0.0022767 0.00060081 -0.0034863 -0.0084061 -0.0083219 0.0064889 -1.1514e-05 0.0063331 -0.0071025 -0.004772 -0.0058081 -0.00096596 -0.00022892 0.0048572 0.0097621 0.0017266 -0.0012473 -0.0028568 3.3148e-05 0.0092477 0.0074144 0.0010601 -0.0027738 0.0057099 -0.0099945 0.0047125 0.0052404 0.0098415 -0.0063112 0.0020315 -0.0033036 0.0095125 -0.0032926 -0.0037891 0.0083498 -0.00018784 0.0081696 -0.0026318 -0.0014156 0.0062317 0.0041025 0.0088731 0.0086269 -0.0050069 -0.0017057 2.348e-05 -8.6298e-05 -0.0074465 -0.0027526 0.0014336 0.000114 0.0093462 -0.001427 0.0022354 -0.0099376 -0.00062211 -0.0085044 0.0085413 0.00030421 0.0091333 0.0014812 0.0022405 0.0036496 -0.0098438 0.0074688 -0.0082187 
as 0.0029614 -0.0062482 0.0028774 -0.0063932 -0.0096316 0.0081841 0.0076098 0.0045272 0.0074978 -0.0023344 -0.0098125 -0.0060132 -0.00071262 -0.0013694 -0.0012079 -0.0054458 0.0086551 -0.0023227 0.0038541 0.0044937 -0.0097471 0.0023459 0.0098893 -0.0047377 -0.0026431 -0.006543 -0.0071048 0.0040383 -0.0037871 0.0058365 0.0064156 0.0048526 0.0062109 0.0039108 -0.005951 0.0088037 -0.0031571 0.0081713 -0.0018757 -0.0081297 0.006487 0.0030741 -0.00096457 0.0095356 0.0062141 -0.0026662 -0.0010473 -0.0056454 0.0059298 -0.0087854 -0.0037993 0.0087574 0.0078538 -0.0090635 0.0083827 0.006897 -0.00025666 -0.0012703 0.00099427 0.0036334 -0.0012125 -0.0084472 -0.009128 -0.0030899 -0.0016675 -0.0012006 4.0793e-05 -0.0030322 0.0080429 -0.0060386 -0.0080539 0.0039446 -0.0084219 0.003253 0.0092535 0.0063247 0.0027542 -0.0027191 0.0024437 -0.0017128 -0.0044172 -0.0022487 -0.0046015 0.0074014 0.008988 -0.0024819 -0.0046472 0.0050505 0.003197 0.0087688 0.006206 0.0068609 0.0031017 -0.0072808 -0.0057076 0.0060636 -0.0042679 -0.0086421 -0.00031887 0.0054866 
being 0.0069492 -0.0066091 -0.0003338 -0.0015603 0.00039384 -0.0013592 -0.0058158 -0.000611 -0.0010851 0.0071373 0.0063203 0.0059149 0.0047676 -0.0040843 -0.0074768 -0.0079044 0.0094834 0.0036825 -0.0074184 -0.0037552 0.0064567 -0.0098168 -0.0070504 0.0052281 0.0010576 0.0068394 -0.0046506 -0.00038217 -0.0038806 0.00071777 -0.0092218 -0.0059093 -0.0042538 -0.0077931 0.0080735 -0.00053938 -0.0036054 -0.0098553 -0.0063813 0.0011759 -0.0069004 0.0086818 -0.00028482 -0.0087594 0.0025015 0.0064891 -0.007533 0.0066715 0.0012658 -0.0078734 0.0020339 0.0080528 -0.0034593 -3.714e-05 0.004021 0.0094324 -0.0099053 0.0077122 0.0067083 0.0052362 -0.0049174 -0.0061215 0.00883 0.0025259 -0.0075949 -0.0090478 0.0014502 0.0032226 0.00456 -0.0079748 0.0028584 -0.0030762 -0.0066604 0.001021 0.007086 -0.0023295 0.0061605 0.0017323 0.0026086 -0.0012725 -0.00036082 0.009622 0.0058083 -0.0035814 -0.0064974 0.0028348 -0.0032021 0.0064724 0.0074409 -0.0024512 0.0053411 0.0081848 0.006273 -0.0068335 0.0067637 -0.004858 0.0061204 0.0098897 -0.0026426 0.0048271 
classes 0.0040763 0.007474 -0.0097386 0.0047951 0.0088878 -0.00041272 0.0053718 -0.0038271 -0.0020301 -0.005304 0.0092902 0.0054235 0.00081865 0.0016472 0.0093435 0.003824 0.0039983 0.0060733 0.0055965 0.00080644 0.0028952 0.0019473 -0.0018438 0.0091935 -0.0081847 0.0049549 -0.0029216 0.0010899 -0.0071037 0.0010547 -0.0025174 -0.0041262 0.0060331 -0.0069616 0.0077467 0.0066703 -0.00041569 0.0096333 0.0007082 0.0021985 -0.0072162 0.0036675 -0.0016799 0.0076198 -0.0046599 -0.00011751 -0.0072095 0.0042329 -0.0035496 -0.0061472 -0.0022862 0.0035131 -0.0046664 0.0097549 0.00066607 -0.0047582 0.0092494 -0.005131 -0.0059281 0.0081849 -0.004632 0.0029566 0.0051881 -0.0068836 0.0051897 0.0093756 -0.0086676 0.0060662 0.0028735 0.0078298 -0.00049852 -0.0063165 0.0097468 0.0039257 -0.0093694 0.0044213 -0.005573 0.0042751 -8.5857e-05 0.0044578 0.002227 0.0023576 0.0020334 -0.0079528 -0.0078893 0.0050772 0.00057416 -0.0091992 -0.0057335 -0.0089133 -0.0077187 -0.00036688 -0.0080122 0.0088528 -0.0054833 -0.0087053 0.009201 -0.0025943 -0.0099879 -0.0042187 
used -0.0078078 0.0085015 -0.0035923 -0.0098343 0.0082997 -0.0091652 -0.0020299 0.0040625 0.0037743 0.0057148 -0.003874 0.0033591 -0.0014268 -0.0093747 -0.0065362 -0.00039231 -0.0056207 0.005035 0.00020045 -0.0050663 0.00067289 -0.0068994 0.0030469 -0.0092823 -0.0062191 0.0021206 0.0037298 0.004676 -0.0017595 -0.0016717 -0.0065905 -0.0061021 -0.0077937 0.0028754 0.0015159 0.0019013 0.0044453 0.0059448 -0.0039811 0.00025674 -0.001928 0.0045 0.0043937 0.0035245 0.0042717 0.0034361 -0.0051649 0.0088502 -0.0083246 0.0039749 0.0048306 -0.002999 -0.00482 -0.0066642 -0.0071314 -0.0030925 -0.0078459 -0.0037294 0.0033202 0.0079537 0.0010886 0.0012291 -0.0059551 0.00086822 0.0091627 -0.0029373 -0.0040743 0.0099038 -0.0078293 -0.0045402 -0.00734 -0.0017424 0.0020657 -0.0058633 0.0011529 0.0033369 -0.00093236 0.0098463 -0.0088209 -0.0034232 -0.0060451 -0.0026166 0.0095923 -0.0098623 -0.0051412 -0.0064001 -0.0035711 -0.0033412 -0.0058952 0.0082507 -0.00015206 0.0046097 0.0041604 0.009113 -0.0061749 -0.0021232 0.0038374 0.0067116 0.0022438 0.00758 
get 0.0012166 -0.0071999 -0.0011974 -0.0092598 -0.0072028 -0.0051115 0.0077747 -0.0054212 0.0097054 -0.0099573 0.0022495 0.006072 0.0030178 -0.0069813 -0.00098854 -0.0030899 -0.0092199 0.0068259 -0.0048466 0.0023462 -0.0033869 -0.0068487 0.008272 0.009872 -0.00055598 0.0067141 0.0077011 -0.002427 0.0085212 0.009478 0.0070972 -0.0012115 0.0054456 -0.0087196 0.009375 -0.0055521 -0.0095274 0.007121 -0.0001201 -0.0044228 0.0089674 0.0092675 -0.0048042 0.0046817 -0.0083938 -0.0054959 0.0045439 -0.0066803 0.0042663 0.0062274 -0.0030687 -0.00056418 -0.0020736 0.0071876 -0.0088064 0.0033646 -0.009984 0.0013294 0.0013338 0.0092976 0.0071222 0.0092142 -0.0071813 -0.0082028 0.0026428 0.009765 0.0089272 -0.0077967 0.0095176 -0.0079705 0.0004477 0.0064099 0.0010117 0.0010208 0.0037722 -0.0065614 0.0030507 0.0079158 -0.0020039 0.0098603 0.0063479 -0.0021922 -0.0088117 -0.0062768 -0.0083816 -7.2902e-06 -0.00089268 -0.00051033 0.0034808 0.0042753 0.0078791 0.0041075 -0.0034408 -0.0035887 -0.0037093 -0.0054922 -0.0033636 -0.0089612 0.0092196 -0.0081989 
no -0.0044013 0.00063988 -0.005721 -0.0070537 -0.0050896 0.0041131 0.00010237 -0.004709 0.0041271 0.00077847 0.0030141 0.0099024 0.0097734 0.0027779 0.0087702 0.0056269 0.0081813 -0.0094255 -0.0036861 -0.0012366 0.0096312 0.0065286 -8.3464e-05 0.0031385 -0.0038601 0.0097358 -0.0064073 0.0084118 0.002448 0.0027774 -0.00527 -0.0082972 -0.0028617 0.00027481 -0.001112 -0.0023992 -0.0068525 0.00075893 0.0046324 0.0097161 -0.0040498 0.0084432 -0.0078234 0.0084044 0.0028714 -0.0022454 -0.0045925 -0.0048167 0.0017073 0.0052001 -0.0038647 -0.00073868 -9.4918e-05 0.0015103 -0.009033 0.006683 -0.0013814 -0.0031325 -0.0099226 -0.0069811 0.0033546 0.0026946 0.0016659 0.0070707 0.0079394 0.0076538 0.0063822 0.0073157 -0.0079031 -0.00084052 0.0084154 -1.1532e-05 0.0039159 -0.0088328 -0.0062879 0.0080234 -0.0011911 0.0011039 -0.00067431 -0.0095831 0.0048811 0.00060945 0.0060219 -0.0036496 -0.00031644 0.0058828 0.004595 0.0099438 -0.0081553 0.0084571 -0.0053698 0.0097198 -0.0030478 -0.00091605 -0.0063126 0.0016611 0.0093628 -0.0019361 0.0046315 -0.0038385 
yourself -0.0010152 0.00058764 0.0018871 0.0071612 -0.0053224 0.0038544 0.0042876 -0.00043359 -0.002012 -0.0053766 0.0031239 0.0030912 -0.0055829 0.004742 -0.00059265 0.0098701 -0.0052204 -0.0080101 0.0069617 -0.0011199 -0.0011793 -0.0050045 -0.001435 -1.5381e-05 0.0054742 0.0026828 0.0043208 0.0072404 -0.0034499 -0.0060804 -0.001873 -0.002404 0.003275 -0.001722 0.0074086 -0.0020502 -0.0045884 0.0034471 0.0040329 0.0012331 0.0090129 0.0092857 0.0092984 0.00958 -0.0067063 -0.0011597 -0.0021742 0.00072799 0.0024322 0.0071277 -0.0060664 0.0061798 -0.0038031 0.0061344 -0.0057275 -0.0093026 -0.00062999 -0.0016293 0.0079957 0.0096244 -0.0021037 -0.0097478 0.0023601 -0.00717 -0.007013 -0.0049871 -0.0063282 -0.0022789 -0.0022645 0.0058501 -0.00096696 0.0059355 -0.0034861 -0.0072164 0.0077794 0.006057 0.009527 -0.0043753 0.0060741 -0.006557 -0.0046204 0.009053 0.0039591 -0.0067148 -0.0061766 0.0069865 0.0099082 0.0071649 -0.0072926 0.0029376 -0.00022519 0.0081283 0.0051447 -0.0058946 -0.0081375 0.00087101 -0.0066497 -0.0014027 0.008185 0.0055536 
interesting -0.0033372 -0.0072949 -0.0020539 0.0064226 0.0020369 0.0059791 -0.0098438 0.0038226 0.0014891 -0.0085743 -0.0082126 -0.0050007 0.0003495 0.0032575 0.0082326 0.0094273 0.0057029 0.0087133 -0.0083637 -0.0065961 -0.0027768 -0.004385 -0.0011695 -0.0097176 -0.00099989 -0.0070468 0.0019144 -0.001814 -0.0086777 -0.0067276 0.0054019 -0.00096505 0.0045977 0.0077145 0.0019171 0.0046895 -0.006086 -0.0021556 0.0056724 -0.00086026 -0.0026687 -0.0053623 -0.00065711 0.0090871 0.00036168 0.0074475 0.0097152 -0.0049928 0.0017156 -0.001045 -0.0071373 -0.0015635 -0.0099828 0.0067252 -0.0016961 -0.0049614 0.0070903 0.0051047 -0.0050365 0.0044491 0.0065258 -0.0061385 -0.0037349 -0.0036399 -0.0064587 -0.0014904 -0.0077147 -0.0050606 0.00013775 0.0050211 0.0022149 -0.0017703 -0.0048033 0.00047039 0.00078414 -0.0074221 0.0006093 0.0073472 0.005555 -0.0019276 -0.0020657 -0.007126 -2.9354e-06 0.0089004 -0.0064497 -0.0047492 0.0025598 -0.0023261 0.0014295 0.0058703 0.0042579 0.010096 -0.0030409 -0.003668 -0.0041045 0.0097131 -0.0066158 -0.0052604 0.0026605 -0.0072929 
nah 0.0030241 0.0064617 0.0093809 -0.0037499 -0.0066255 0.0042981 0.0062354 -0.0017521 -0.0095491 -0.004234 0.0075023 0.0090874 0.0062582 0.0030473 -0.002041 -0.0072071 0.0015133 -0.006 0.0069611 0.0020377 -0.0042984 0.0043167 -0.0025509 -0.0036662 0.00022109 -0.0073599 -0.0051687 -0.0075247 -0.0048562 -0.0020429 -0.0040107 0.0011701 -0.0051753 -0.001928 0.004632 -0.0085814 -0.0057839 -0.0079864 0.0095639 0.0065714 -0.0092875 0.00010064 0.0065354 0.00040241 0.00094176 -0.0041723 0.00069943 -0.0017748 -0.0095876 -0.0079992 -0.0085578 0.0093761 -1.3318e-05 0.0052586 -0.0086007 0.00035189 -0.0048144 -0.0064779 0.0027931 0.0019207 0.009154 0.0040848 0.0011455 -0.0086693 -0.003472 0.0090514 0.0039357 -0.0017523 0.0038693 0.0087666 0.0080247 0.009433 0.0083229 0.0016208 0.0078101 -0.0049513 0.0093054 0.0022013 -0.0054979 -0.0045852 0.0097599 -0.00232 0.00094089 0.0010435 0.0099117 -0.0045521 0.0088695 -0.0065254 -0.0078845 0.0021 -0.0063908 -0.0010764 0.0063398 0.0040369 -0.0022314 -0.0079484 -0.0078695 0.00548 -0.0041164 0.0076758 
or -0.0051307 0.0025687 -0.0028728 0.0066724 0.0076407 0.0062853 0.004508 -0.0057363 0.0026506 0.001212 -0.0011507 -0.0022652 -0.0049496 -0.0093121 -0.0023428 0.0090972 0.00029562 -0.000389 0.0082679 -0.0061655 -0.0024202 -0.0083358 -0.0013641 -0.009291 -0.0050898 0.0036134 -0.0042622 0.00089285 0.0040062 0.0097099 0.0035911 0.00054692 0.0029885 -0.0011449 0.0090629 -0.0025816 0.00070807 -0.0091538 0.0016927 -0.0090815 -0.0085867 0.00062833 -0.00058878 0.0074988 0.0073109 0.001332 0.004712 -0.005636 -0.0051964 -0.0063513 -0.0086092 -0.008133 -0.0065223 -0.0017538 0.0023811 -0.0039003 -0.0014013 0.0033799 -0.002312 0.0098035 -0.0011168 0.0041526 -0.00016303 0.00030282 -0.0078123 0.0024922 -0.0063742 0.0057889 0.00044587 0.0072412 -0.009316 0.0062682 0.0069967 -0.0057667 -0.0093912 -0.001862 -0.0075935 0.0043489 0.0045209 -0.0038649 -0.0080251 0.0076763 0.0062989 0.004361 0.0026428 -0.0019333 0.0097999 0.002122 0.0056184 -0.0087851 -0.010006 -0.0027001 -0.00018026 0.0035268 0.0038141 -0.00047604 0.0066998 -0.0022581 -0.0068444 0.0017635 
nope 0.0049237 -0.0008662 -0.0097468 -0.0053269 0.0071615 -0.0017593 -0.0069252 -0.0065232 0.0012524 -0.0046671 0.0099425 0.0059579 -0.0067517 -0.0072594 -0.0077441 -0.0067661 0.0010526 -0.00035428 -0.0072397 0.0017783 -0.0029387 -0.0010786 -0.0039984 0.0034037 0.0025355 -0.0087477 -0.0041018 -0.0031354 0.0026851 -0.00080875 0.0082483 -0.007662 -0.00224 0.0047937 -0.0028273 0.00031307 -0.0047581 -0.0047063 -0.0084834 -0.0048566 0.0035254 0.0076551 -0.0014909 0.0044819 0.0093694 0.0044083 -0.0023789 0.0034791 0.0083826 -0.0073957 -0.0044387 -0.0087701 0.009234 0.0066144 0.0014405 0.00046397 -0.0056472 0.0035067 0.0021705 0.0033728 0.0004726 0.0033945 0.007197 0.0069965 -0.0029272 -0.0083595 -0.0035965 -0.0043691 -0.0092616 0.0050747 0.0014598 0.00013197 0.0017494 0.0020154 0.0068111 -0.0050843 -0.0072245 0.0037484 0.0053281 0.0075587 0.0056685 -0.0020556 0.0032225 -0.0040081 -0.0072561 -0.0042996 -0.0043246 0.0075824 -0.0062864 0.0010738 0.0069393 -0.0011259 -0.0030162 -0.0098298 -0.0040141 -0.0079619 -0.0093503 -0.0037607 -0.0038891 -0.0021581 
book -0.005324 -0.0015103 -0.0070723 0.00084307 0.0058853 0.009154 -0.0017707 -0.0036289 -0.0016194 -0.0089029 -0.0042076 -0.0087385 0.0093444 0.0025137 -0.0016068 -0.0046741 -0.0029292 -0.006988 0.003057 0.0065398 0.0012707 0.0099771 -0.00073202 0.002863 0.0031747 -0.0013364 -0.0049163 -0.0010555 0.0061867 0.0079272 -0.005696 0.005213 0.0031602 -0.0052506 -0.0010199 0.0092038 0.0070422 -0.0079257 -0.0090791 0.0084117 0.0011477 -0.0040921 -0.0078059 0.0078906 -0.006914 0.00055781 -0.0037337 0.0029192 -0.0082611 -0.0084798 0.0058998 0.0011326 -0.0053338 0.00021235 0.0048953 0.00072006 0.0059758 0.0019866 -0.005185 -0.0076203 -0.0096657 0.0087604 9.4578e-05 0.0093893 -0.0077625 0.0090639 0.0065869 0.0070363 -0.00032843 -0.0098641 0.00026398 -0.00021334 0.0033277 0.0061215 -0.0070846 -0.0065691 0.0074712 -0.0016747 -0.0085369 0.0084108 0.0042711 -0.0029152 0.00056384 0.0031767 0.0092321 0.0049717 0.0035497 -0.0066651 -0.0027702 -0.0018408 -0.0048652 -0.0018183 0.0032207 -0.00017328 -0.0039875 0.0043469 0.0068892 -0.0069852 0.0043137 0.0016034 
mathematics -0.0057063 -0.0090487 0.0011884 0.0044174 0.0060519 0.0020988 0.00039225 0.0085247 -0.0066266 -0.0060543 0.0029466 -0.0047868 -0.0098006 0.0056204 -0.0057946 0.0020408 0.0054194 -0.0074438 -0.0082672 0.0022906 0.0047786 0.0097153 -0.0065453 0.0078717 -0.0016246 -0.0062607 0.0098821 0.0076565 0.0083748 -0.0038712 -0.0031881 -0.0057011 0.001905 -0.0067047 -0.0086732 0.0076522 0.0022336 -0.0079882 0.0045152 -0.0067972 0.0096771 0.0090747 -0.0044514 -0.0028901 -0.0052062 -0.006898 -0.0033312 0.0039746 0.0049755 0.0083275 -0.0093764 0.0018644 -0.0033826 -0.0086928 0.0075117 -0.0060953 -0.0068129 0.0018686 0.0023432 0.0016468 0.0076452 0.0096943 0.0056655 -0.005672 -0.00029092 0.0027807 -0.0069791 0.0031214 -0.0022275 -0.0010024 0.0042763 -0.0059019 -0.0029164 0.0022571 -0.0035019 0.0080633 0.0068279 0.0043874 -0.0018923 0.00042138 0.0026012 0.0081938 0.0069023 -0.0062756 0.0081889 -0.0029452 0.0044364 0.00023405 -0.0016408 -0.00046855 -0.0065057 0.0070869 0.0095219 -0.0093285 0.0016071 -0.0053951 -0.0040154 0.0077475 0.0072895 -0.0013349 
me 0.0039424 0.0037639 -0.0050059 -0.0075851 3.8631e-06 -0.0087318 0.0075333 0.0064736 -3.5964e-05 0.0054883 -0.0038988 -0.0070801 -0.0080152 -0.0056313 0.0025193 0.0041103 -0.0078086 0.0092212 0.0079939 0.00064641 0.007177 -0.0038307 0.0072236 0.0058586 -0.0043295 0.0017961 0.0083241 0.0022218 0.0064023 -0.0050401 0.0005715 0.00026602 -0.00887 -0.0057302 0.006451 -0.0018266 0.0088393 0.0038819 0.0040075 -0.0065987 -0.0056503 -0.0083312 -0.00026802 -0.0038538 -0.0062827 -0.0036319 -0.0077797 0.0065087 0.0068086 0.0044578 -0.0078011 0.00053113 -0.007976 -0.0093668 0.003608 -0.0050233 0.00049594 0.0098652 0.004143 -0.0045726 -0.0017975 0.0068763 0.0057957 -0.0045583 0.0096712 0.0097836 -0.0025122 0.0084663 -0.0096931 0.0036427 0.0090087 -0.0019919 -0.0065771 0.0087928 -0.0091431 0.0059195 0.0069305 0.00855 0.003233 -0.0034516 0.0087513 -0.0034806 -0.0092956 -0.0022086 0.0038301 -0.002728 -0.0055193 0.0069232 -0.0022122 -0.0011712 0.0072256 -0.0019252 -0.0067712 -0.0016349 -0.00081837 -0.0020322 0.0061171 0.0083213 0.00046638 -0.0092783 
some -0.0048435 0.0010843 -0.0055498 -0.0056921 -0.0066786 0.0049155 -0.0034702 -0.0048621 0.007559 0.0040127 -0.0046655 0.0081923 0.0038135 0.0087766 -0.00060357 0.0015623 0.0049363 -0.0077586 0.0081419 -0.0083443 -0.0069858 0.0057766 0.0046788 0.0069445 -0.0047226 0.0086984 -0.00097156 0.0049663 -0.0026319 0.0045022 0.0078172 -0.0026011 0.0080135 0.0071867 0.0033269 0.004602 0.0022456 0.0086506 -0.003112 0.00096105 -0.003564 -0.0059469 -0.0088771 0.0089107 -0.00522 -0.0048094 0.0078262 0.0083082 -0.0043946 -0.0014822 -0.0082819 -0.0077951 -0.0087329 0.0037022 -0.0055263 0.0030716 0.0092802 -0.0075554 -0.0045501 -0.0020386 0.002332 -0.0056556 -0.0057824 0.0034264 0.0091786 -0.004263 -0.0054528 0.0030476 -0.0039761 0.0090322 0.0020017 -0.0074152 0.0053626 -0.003943 -0.0011562 -0.0021244 0.0091009 0.0054801 -0.00017836 0.006397 0.008373 -0.0045246 -0.0083702 0.00031102 0.0014346 0.00075639 -0.009168 0.000342 -0.0066742 -0.0001076 0.0092549 0.00034819 0.0039444 0.00082105 -0.0037371 0.0059397 1.1824e-05 -0.004748 -0.002988 0.0066593 
was 0.004243 -0.0010373 0.007147 0.009929 0.0027619 -0.0089813 -0.0063321 0.0069595 0.0061006 0.0044102 -0.0033671 -0.0075742 -0.0075241 -0.0025237 -0.0089404 0.0019319 -0.0039303 0.009977 0.0065561 0.0087692 -0.0014298 -0.0023785 0.0073072 0.0097114 0.0025732 0.0024474 0.0020983 0.0014897 -0.0033957 -0.0066905 -0.0024557 0.00090795 -0.0080395 0.0041269 -0.0075654 -0.0051568 -0.0029968 0.0053163 -0.005539 -0.0016833 -0.0093473 -0.0092305 -0.0097186 0.0010633 0.004757 0.0066291 0.0095683 -0.0032425 0.0016251 -0.0089201 0.0061179 0.00088414 0.006861 0.004098 -0.0033816 0.0057995 -0.0060223 0.0082724 -0.0088904 0.004005 0.004362 0.0092752 -0.0054864 0.0049713 0.005775 -0.0011348 0.0010601 0.0091903 -0.0055231 0.00161 0.0019741 -0.0048611 -0.005339 0.0078451 -0.0012018 0.002604 0.00086385 -0.0067597 -0.0073001 -0.0097759 -0.0062393 -0.0033345 0.0067719 -0.0051715 0.0069925 -0.0050052 -0.0046404 -0.0010337 -0.0010505 -0.0065726 0.0084408 -0.0071939 0.0042587 -0.0051378 -0.0094697 0.0084527 0.0075353 0.0022517 0.0032973 -2.4829e-05 
near 0.00073289 -0.0066859 -0.0060916 -0.0097819 -0.0037664 -0.0085091 -0.0059466 0.0064217 -0.0035069 -0.0071142 0.009721 0.0070512 -0.0077187 -0.0079052 -0.0089141 0.0035054 -0.0042039 -4.8564e-05 0.0073963 -0.00082728 0.0029791 0.004963 -0.0002864 -0.006611 0.0036828 0.0081296 0.0073109 0.0055165 0.0096063 -0.0004839 0.0021252 -0.006481 -0.000971 -0.00064434 0.0020597 0.00049162 -0.0017138 0.001341 0.0032956 0.0049238 0.0030913 -0.0051014 -0.0075673 0.0037065 0.0029478 0.008918 0.0014525 0.0070804 0.0096381 0.0095878 -0.0065849 0.0096703 -0.0088295 0.0045815 -0.0078078 0.0047 -0.0023893 -0.0079071 0.0068606 -0.0033247 0.0081869 0.0016598 0.0084268 -0.0084476 -0.0073032 0.0099398 -0.0038511 0.0051895 -0.0088637 0.0016448 -0.0089618 -0.0083032 -0.008967 -0.0055847 -0.0050711 0.0030878 -0.0049544 -0.0014356 -0.00022758 -0.0089229 -0.0095606 0.0086927 -0.0068063 -0.00023716 0.0080694 -0.0089331 -0.0040252 -0.0032435 0.0054058 -0.0031187 -0.0073207 0.0013855 0.0020112 -0.0087732 0.0043383 0.0047206 0.009049 -0.00020527 -0.0064666 0.0074049 
speech -0.00026453 0.0064801 -0.0059378 0.00077742 -0.0064688 0.0061128 -0.0067845 -0.0053863 -0.0022811 0.0093123 -0.0037246 -0.0032795 -0.0087322 -0.0056389 -0.0031468 0.0035331 0.0040001 -0.0034642 -0.005025 -0.0057606 -0.0062088 0.00088239 0.0060322 0.0076256 0.0070171 -0.0027984 -0.0022298 0.0042048 -0.0062118 -0.0042868 -0.0022186 0.0032311 -0.0036649 -0.0046386 -0.0055026 0.0087551 0.0017345 0.0037582 -0.0058088 0.0072487 0.0053233 0.0083915 0.0061468 0.0093372 0.0028227 0.0054601 -0.0056112 0.0066389 -0.0072971 -0.00054954 0.0016364 0.0034762 0.0013326 -0.0055361 -0.0097969 0.00028765 -0.0014146 0.0006093 -0.0056204 0.0096629 0.0010133 -0.0096572 -0.0023048 -0.0044944 -0.0020029 0.0049179 0.00030949 0.0097348 -0.0024773 0.0030385 -0.0061287 -0.003675 0.001966 0.0082723 -0.0028453 -0.0027019 -0.0011974 0.00053332 -0.0048369 0.0036522 0.0051155 0.0076414 -0.0023868 -0.0022012 -0.0063952 0.0035971 -0.0078856 0.00039789 0.0031289 0.00037063 0.0014604 0.0047478 0.0092748 0.0038521 0.0047418 0.00084325 0.0087605 0.0081778 0.0048717 0.002624 
when -0.0013216 0.0061332 -0.0055449 0.0030572 -0.00456 0.004447 -0.0071614 0.0043677 -0.00442 0.0017429 -0.0035652 0.0070644 0.0054964 0.0044796 -0.0064103 0.003418 0.0042537 -0.0027993 0.0085189 -0.0012109 0.0058119 0.0027375 0.0023754 -0.0096704 -0.0092465 0.0050322 -0.008911 -0.0039013 0.0075607 -0.0059882 -0.0035286 -0.0020595 0.009645 0.0021855 -0.0027842 -0.0022584 0.0076906 -0.0093536 0.0033624 -0.0076302 0.0081506 -0.00060844 0.0049787 0.0044621 0.0080918 0.0040524 0.0060814 0.0089987 0.0035475 0.0075028 -0.00034005 -0.010015 0.0049166 0.0069198 0.0051157 -0.00093916 -0.0058948 -0.0017034 0.0012316 0.0054363 0.0099915 3.9769e-05 0.0043336 -0.0048706 0.0035476 0.0074725 0.0036473 0.00024011 -0.010062 0.007128 0.0037751 0.0021248 -0.00026534 0.0080079 0.0061606 0.0021369 0.0094821 -0.0040577 -0.0098484 -0.0091865 -0.003835 0.0012171 -0.00062229 -0.0074833 -0.0026766 -0.00025488 -0.0006092 -0.0021142 0.0071661 -0.0056859 -0.00035999 -0.00044654 -0.0014266 -0.0087045 -0.0098123 -0.0088534 -0.008145 0.0033457 0.0020502 -0.0034694 
just -0.0030961 0.0021884 0.0053842 0.0078866 0.0074586 -0.0041556 -0.008097 -0.0036452 0.0094078 -0.0048614 0.0061443 0.0098191 -0.006731 -0.0043851 0.0065351 0.0065873 0.0091926 0.0083738 0.0051844 0.0017223 -0.0066151 -0.008362 0.003361 0.002128 0.0062211 0.0033931 -0.0073789 0.0082768 -0.002059 0.0013159 0.0012853 0.009529 0.0065327 -0.0011634 0.0099739 -0.0012953 -6.3702e-05 -0.00037887 6.4152e-05 0.0077785 -0.0092605 -0.0042842 -0.0048399 -0.0082244 -0.0019601 -0.005724 0.0043377 0.0073064 -0.003618 -0.0039576 0.0065895 0.0035973 0.0040665 -0.0031174 -0.008442 -0.0028645 0.0040869 -0.0058676 -0.0047004 0.0081185 0.0098144 0.001289 -0.0037384 0.0059466 -0.0062925 0.0018225 0.0045 0.003262 0.0095389 0.0065803 -0.0057473 -0.0025342 0.0076444 -0.00023639 -0.0026379 -0.0041898 -0.00042505 -0.0058237 -0.0011625 0.0037121 -0.0045651 -0.0090441 0.0058489 -0.0014101 -0.0087368 -0.0090144 0.0063823 0.0043805 -0.0068215 -0.008268 0.0081791 -0.0099151 0.0028985 0.0029741 0.007067 0.0074354 0.0047353 0.0063695 0.0074456 -0.0014358 
play 0.0018852 0.0097622 -0.0084438 0.006364 -0.0093887 -0.0030231 -0.0078732 0.0031637 -0.0026394 -0.0040622 -0.0089532 0.0093001 -0.00026908 0.0066832 0.0041932 -0.0077604 -0.005756 0.0014854 0.0017367 0.0082675 -0.0009423 0.0041183 0.0040911 0.005484 -0.0060243 -0.00018882 0.0014747 -0.0042236 -0.00012107 0.0093289 -0.0012938 0.006424 0.0092709 -0.0069351 0.0053435 0.0072807 -0.0055398 -0.0034514 -0.0042373 0.006561 0.0020046 -0.00075843 0.0043501 -0.0068791 0.0058504 -0.0053489 -0.0063356 -0.0032232 -2.9755e-05 0.0054957 0.0093784 0.0070198 0.00099514 -0.0096177 -0.0031902 -0.0098144 0.0056876 -0.0083539 -0.0029874 -7.5442e-05 -5.2725e-05 -0.00099604 -0.0080774 0.00062154 -0.0060064 -0.0031196 -0.0055511 -0.0014011 -0.0030484 -0.00072912 0.00055444 -0.0019768 -0.005739 -0.0079252 0.0032447 -0.0093354 -0.0093517 0.0046062 -0.0082053 0.0041201 -0.00073368 -0.00019667 0.00062717 0.0099955 0.0025314 0.0054699 -0.0046656 -0.0035209 0.0084458 0.0093174 0.006804 0.00056436 0.0021829 0.0083693 -0.00088861 -0.0046646 -0.0044797 -0.0053262 -0.0079796 0.0040124 
anyone 4.8069e-05 -0.0059726 -0.003709 0.0075956 -0.0013543 0.0036218 0.0053872 -0.0096927 -0.0074321 -0.0010594 0.0030864 -0.0022807 -0.0029814 -0.0076137 0.0080136 -0.0039992 0.004073 0.0058056 0.0059061 0.0075962 0.0090468 -0.0091192 0.00073077 -0.0018752 -0.0047554 0.0048438 -0.0026254 -0.0082029 -0.0027872 -0.00084929 -0.0067917 0.0094481 0.0094048 -0.0049345 -0.0046082 -0.0095586 -5.2238e-05 -0.0061196 0.00021115 0.0087402 -0.0036798 -0.0013562 -0.0029357 -0.00029604 -0.0029599 0.006143 -0.0071611 -0.008931 0.0026485 -0.0025255 0.0066913 -0.0017141 -0.0041121 0.0029142 0.003803 -0.0073665 0.0017047 -0.0086403 -0.0011324 -0.0071095 -0.00068863 -0.0040539 0.0048463 0.00090771 -0.0078351 0.0073632 0.0099839 0.0084883 0.0070413 0.0070076 -0.0079145 -0.0034803 0.0063794 0.0064403 -0.0061616 -0.0028006 -0.0090845 -0.005734 0.0046168 0.0079876 0.0035047 -0.00031892 0.0086185 -0.0063368 -0.0014395 0.0023364 0.0095288 -0.0075045 -0.0015378 -0.0053069 0.0063124 0.0057373 0.00030223 -0.001105 0.0081969 -0.0032193 -0.0052893 0.00076985 -0.0042427 -0.0036482 
news 0.0071428 0.00053139 0.0088498 0.0067779 -0.0054401 0.0039866 -0.0062379 0.0025929 -0.0059073 0.0067649 -0.0098254 -0.00624 0.0043501 -0.00024298 -0.0044262 0.0022623 0.0054217 0.0021111 0.0059752 -0.0080766 -0.008485 0.0062531 -0.0075092 0.0047755 0.00050159 0.0076294 -0.0024163 0.0035178 -0.0094604 -0.0024801 -0.0090998 -0.0034222 0.0018916 -0.0084718 -0.0076252 -0.0035559 -0.0026241 -0.0029774 -0.0010929 0.0080471 -0.0051372 -0.0069636 0.0075311 0.0041121 0.0060361 0.0051515 0.0059402 -0.0088601 0.00064209 0.0069794 0.0065658 0.0085737 -0.0093722 0.0017427 -0.0026953 0.00073075 -0.00070307 -0.0099679 0.00044784 0.00061245 0.0091837 0.0053698 -0.0096514 -0.0045604 0.0084887 -0.00030398 -0.0072126 -0.0051145 -0.00070097 0.004967 -0.0096322 -0.0083844 0.0057426 0.0042051 -0.0049771 -0.004125 0.0088392 -0.0057124 0.008548 -0.0098393 0.0044515 -0.0039184 0.0013675 0.0072192 -0.0011822 0.0053971 0.00051306 -0.0045577 0.0047479 -0.01004 -0.0096201 0.004152 -0.0013313 -0.0012733 0.0071654 0.00070841 0.0065689 -0.0036142 -0.0091004 -0.0059924 
hahahah 0.0086016 -0.0018847 -0.007757 0.0062214 -0.0037332 -0.0052904 -0.0028705 -0.0043709 0.0073822 -0.0095217 -0.00064932 -0.0059258 0.0078549 0.0018404 -0.0013597 -0.0042621 0.0089159 0.0035684 -0.0074663 0.0037031 -0.001113 -0.0035869 0.0014083 -0.0081538 -0.0057596 -0.00012054 0.0031159 0.0033678 0.0075522 -0.0071483 0.0048687 0.0080623 0.0097071 -0.0082029 -0.0092367 -0.0044061 -0.0060436 0.0071658 -0.0079349 -0.0059973 0.0081417 -0.0095972 0.0087908 -0.00082621 0.0015807 -0.0063702 0.0033745 0.0087116 -0.0090495 -0.00096597 0.00052091 0.00021681 0.00094355 0.00068803 -0.00099355 -0.0085162 -0.005936 -0.0067677 -0.0063526 -7.4403e-05 -0.0050702 -0.0024932 0.0031829 -0.0010922 -0.0063958 -0.0037647 1.1268e-06 -0.0077306 0.0021511 -0.0087174 -0.0073276 -0.0077511 0.0078754 -0.0059316 0.0029571 -0.0038945 -0.0033015 -0.0065225 -0.0083818 0.0033364 0.0083059 0.0064388 0.0074798 -0.0038122 -0.0036053 -0.0084209 -0.0056775 0.0033028 -0.0071508 0.0086806 -0.0046891 0.0086543 0.0046557 -0.00094536 -0.0052461 0.0067303 0.0060533 0.0059737 -0.0013189 -0.0058208 
hey -0.0083458 -0.0086306 -0.0095483 0.005531 -0.009371 0.0074347 -0.0010958 0.0051033 -0.0090842 0.0037965 0.002173 -0.0067651 -0.0098661 -0.0088221 -0.00061144 -0.0042293 0.0093262 0.0025201 0.0073476 -0.0079672 -0.0091724 -0.0061075 0.00092288 0.0015445 -0.0014727 -0.0098365 0.0004563 0.0057101 -0.0058956 -0.00075039 0.0070101 -0.0019037 0.0079509 -0.0016223 -0.00058054 0.0013312 0.0099653 -0.0007392 0.00054362 -0.0067925 -0.0037799 0.008492 -0.0052328 -0.0045889 -0.0049861 0.0025477 0.0059696 0.0057664 -0.0068741 -0.0064345 -0.0075596 -0.0082326 0.0074409 0.0058441 0.0081338 0.0067337 0.00037064 -0.0016105 -0.0020383 0.0026318 -0.0019203 0.006965 0.0019313 0.0058927 -0.0047188 -0.0070838 0.007976 -0.00084483 -0.0059511 -0.0051178 0.0049797 0.0065762 -0.0029753 -0.0082395 -0.0068926 0.0085849 0.0099 0.0045683 -0.0067371 0.0053158 0.0043926 -0.0087867 -0.0047962 0.0093741 0.0088284 -0.0027432 -0.0096649 0.00016982 0.0028181 -0.0089472 -0.0093243 0.0020703 -0.00095313 -0.0024487 0.0032285 0.0054229 0.00020202 -0.0070345 -0.0055816 0.001728 
greetings -0.0082951 -0.0027659 -0.0071896 -0.0086719 0.0061894 -0.0065339 0.0053446 0.0046468 -0.0055969 -0.0060416 0.00030792 -0.0066871 0.0019927 0.00047031 -0.006228 -0.008537 0.0032765 -0.0080892 0.0012371 0.0066734 0.0051638 0.0056563 0.0030327 -0.003392 0.0090343 0.0014042 -0.0082078 -0.0085098 0.0010426 0.0077402 -0.00087084 0.0069011 -0.0086676 0.0011573 -0.00072862 -0.0048126 -0.0092994 -0.0015857 0.0065949 0.0092015 -0.0031954 -0.0028908 0.00058412 -0.0024379 -0.010071 -0.0082989 -0.0021519 0.0021633 -0.0069987 0.0023646 0.0054622 -0.0014282 -0.00075021 -0.0033809 0.0099586 -0.0038085 0.0011766 -0.00035209 0.0012868 0.0059476 0.0089295 0.0040989 -0.0083893 -0.00089527 -0.0042218 -0.0038964 0.0059185 -0.0075374 -0.0062888 -0.0029243 -0.0074496 0.0038359 -0.000593 0.0011085 -0.0013947 0.0069929 -0.005589 -0.0049494 0.00035277 0.00097225 -0.005147 -0.0017436 -0.0037523 -0.0094336 -0.0051512 -0.0033359 0.0056993 -0.0099569 0.0023118 -1.1167e-05 0.00084252 0.0066849 0.0096448 0.0088662 0.00031269 0.0012792 0.00051712 -0.0030751 -0.00033819 -0.0021188 
see 0.0023268 0.0081481 0.0088071 -0.0079288 -0.0083043 0.0088038 0.0039929 0.0094925 -0.0026372 -0.0012259 0.0066483 -0.0036812 0.0029062 -0.0092967 -0.0065025 0.0086153 -0.0058256 0.0057496 -0.0010815 0.0068542 -0.0028482 -0.0091345 0.0090637 0.0050118 0.0081116 0.0055261 -0.0090818 0.0013149 -0.0075498 0.0039247 -0.0075332 -0.0012941 -0.0081166 -0.0016464 0.00232 0.0092074 0.0086361 -0.0048976 0.009575 0.0090992 -0.0044992 0.0015557 0.0021118 0.0090261 0.0030098 0.0070367 -0.0028064 0.0017273 0.0034568 0.0056321 0.003911 0.0045467 0.0097825 0.0070197 0.0092642 -0.0046561 -0.0045404 0.0062343 0.00054455 0.0047586 0.0023458 -0.0099366 0.00039959 -0.0089913 0.00017785 -0.0053771 -0.006121 0.0063012 -0.003398 -0.0078386 0.0014676 -0.0096032 -0.0047686 -0.00040099 -0.0097624 -0.0046313 -0.0067819 -0.00027893 0.0061604 0.0063449 0.0022701 0.00052888 0.0061489 0.0081662 0.0066987 0.0044103 0.0055121 0.0052699 0.0079543 0.0032506 0.0035345 0.0088365 0.0030704 -0.0095866 -0.0061556 -0.00040263 -0.005353 -0.0047399 0.0047687 -0.0028551 
how're -0.0062886 -0.0010982 0.0037347 0.00034362 0.0079386 0.00074407 -0.0094928 0.0064299 0.0070146 -0.0022526 -0.00033477 0.0011717 0.0056882 0.009396 -0.0073628 -0.0071885 -3.3768e-05 -0.0035632 0.00022837 -0.009632 -0.0074003 -0.00081737 -0.0024877 0.0081147 -0.0090651 -0.0020417 -0.009412 0.001033 -0.0080724 0.0089543 0.0018974 0.0025859 0.0093208 -0.0040541 -0.00037349 -0.0037747 0.00060474 -0.0060077 -0.0085695 0.0099199 -0.0055112 -0.0045041 0.0084921 0.0015114 0.0014656 0.00013256 -0.0051662 -0.0029 -0.0011673 -0.0084263 -0.00071815 0.0013301 -0.0078655 -0.0068571 0.0091989 -0.0046534 0.0029767 0.0063289 0.0049927 -0.006108 0.0078877 0.0010769 0.0069314 0.0039892 0.0076861 0.0037544 -0.0026359 -0.0020973 -0.0082717 -0.0083937 0.0070679 0.0095097 0.0015124 0.0099502 0.0032347 -0.0032838 -0.0052432 -0.0011549 0.0028383 -0.0087995 -0.0031989 0.0075008 -0.0083207 0.0039344 -0.0057166 -0.0020385 -0.0032605 0.0059483 -0.0053127 0.00079266 0.0052446 -0.006407 0.0048746 0.0030527 -0.0078944 -0.0098101 0.0054683 -0.006586 0.0055627 0.00090773 
okay -0.0078625 0.0067408 -0.00034797 -0.0031475 -0.0097815 0.0069821 -0.00080705 0.0036564 0.00336 0.0097324 -0.0099555 -0.0065691 0.0026868 -0.0098065 0.0091061 0.0073999 0.0096827 -0.0078023 -0.0014039 0.0062828 0.0081685 -0.0095915 -0.00053054 -0.0031381 -0.0092094 -0.0034306 0.0091131 -0.0029205 0.0010476 -0.00028217 0.0091579 0.0027033 -0.0063605 0.0016425 0.0027143 -0.0099639 0.0062534 0.0073445 -0.0014543 -0.0054924 -0.0040734 -0.0093341 -0.0026349 -0.0060359 -0.0071906 0.0078982 -0.0023197 -0.0055915 -0.0068213 0.0068124 -0.0094576 -0.000956 0.0013949 0.0067008 -0.0065617 -0.0073138 -0.0029799 0.00076305 -0.0061614 0.0042963 -0.0070546 -0.0036549 0.0038181 -0.0088424 -0.00086214 0.0024864 0.0049022 -0.0071898 -0.0085677 -0.0017337 0.00026299 0.0092551 0.0059621 -0.0026172 0.0035838 0.0029608 0.0058856 -0.0038789 -0.00052703 -0.0084303 0.00033807 0.0048021 -0.0047672 -0.0062742 0.0043592 0.00060342 0.0023671 -0.009631 -0.0083072 0.0060775 -0.00961 0.00529 -0.0062398 0.0079133 0.0075035 0.0072205 0.00029388 0.0016264 -0.0045105 0.0068922 
yess -0.008976 0.0026201 0.0021575 0.0097848 0.0072519 0.0035773 -0.0097527 0.0060848 -0.0019197 0.0043319 -0.0083631 -0.0067956 0.0099257 0.0019813 -0.0090905 -0.0097752 0.0031567 0.0067776 -0.0052817 0.0023059 -0.0088363 -0.0065733 0.009171 -0.0062626 -0.0020455 0.0047718 0.0028586 -0.0072695 -0.0063099 0.0091008 -9.7914e-05 -0.0041511 0.0089855 -0.0080353 0.0050212 0.0023151 -0.0019007 -0.0015618 -0.0024941 -0.0049203 0.0042995 0.0030351 -0.0063742 -0.0020649 0.0042234 -0.00082641 0.0044019 -6.5831e-07 0.00073502 -0.0067966 -0.0061017 -0.00017711 -0.0079901 0.0050399 -0.007244 -0.00019883 0.0030417 0.007022 -0.0073479 -0.0044314 -0.0063641 -0.0041302 0.0048415 0.0013923 0.0088039 0.0037713 0.0030523 -0.0077903 0.0047317 -0.0017464 0.0071675 0.00081835 -0.0040804 -0.0062961 -0.0046313 0.0098956 -0.0030762 -0.0036563 -0.007218 0.0022853 -0.0089974 0.0062611 0.0084295 0.0064934 0.008416 -0.0098651 0.0074357 0.0026481 3.7123e-05 -0.0051904 0.0049181 0.0092083 0.0027728 -0.0032539 -0.0040538 -0.00068149 0.0096712 -0.0074468 -0.0011559 0.0091708 
preach -0.0083815 -0.0092201 -0.0082991 0.0053093 0.0060999 0.0077894 -0.0070128 0.0075713 -0.0020001 0.00083705 -0.00064748 0.0075046 -0.0052174 -0.0029273 -0.00086635 0.001742 0.0060187 0.0064954 -0.001405 -0.0096155 -0.0096372 -0.00046249 0.0068705 0.0062364 -0.0080371 -0.0093841 -0.0037909 0.0082465 -0.0034571 0.001009 -0.0031512 0.0066454 -0.0033799 -0.000436 -0.0029252 0.0069196 0.0037834 -0.0013315 -0.0012851 0.0076384 0.0041821 0.00081336 -0.00041401 -0.0035775 0.0044946 -0.006195 0.0031937 -0.0069558 0.00465 0.0097473 0.0067074 0.0094598 -0.0037143 0.0071334 -0.0029294 -0.0095319 -0.0024314 -0.0089888 -0.0043158 -0.0053662 -0.003626 -0.002262 0.0024399 -0.0042574 0.0037639 -0.0069639 0.0064383 0.0021789 -0.0071851 -0.0043229 0.0073811 -0.0026966 -0.0041528 0.0052498 0.0060008 -0.0060112 0.0046365 -0.0071692 0.0036375 0.0064644 -0.0081599 0.0058892 -0.0042873 0.0025125 -0.00051154 -0.004285 -0.0099125 -0.0072082 -0.0030513 0.0028612 0.0037062 -0.0093642 0.0064117 0.0084449 0.0096899 -0.00065673 -0.0077279 -0.0086437 0.0064044 0.0084055 
oki 0.0076759 -0.0041509 0.0087131 0.004473 -0.0054619 -0.0053386 -0.0087044 0.0050461 -0.0027593 -0.0042878 0.007394 0.0027038 -0.0086135 -0.0090229 0.0065313 0.0060943 -0.0029949 -0.0054413 0.0059337 -0.0080061 0.0072431 0.0040059 0.0013613 0.00024345 -0.0020211 -0.0031399 0.0089996 -0.0024461 -0.0089174 0.0070501 -0.009857 0.00089415 -0.0099009 -0.0098637 -0.0092711 -0.0090596 -0.0067331 0.0023162 0.0007985 0.0052759 0.00046981 -0.00057929 0.0055212 -0.0077279 -0.0047123 3.1322e-05 0.0036498 0.0026682 0.0064667 -6.7391e-05 -0.0047267 -0.0011502 -0.0018383 0.0080703 -0.0009443 -0.005241 -0.0020411 -0.0097392 -0.0043925 -0.0028213 0.0094944 -0.0035553 0.0040065 0.0019646 -0.0090186 0.0058141 0.0052966 -0.0038474 0.004347 -0.001469 0.0074282 0.0080705 0.0040637 -0.0039575 -0.0052753 -0.002333 -0.0091901 -0.0064281 0.0049476 -0.0080602 -0.0075108 -0.007131 -0.0072906 0.0071219 0.0045095 -0.0050587 -0.0047293 0.0080011 0.0083638 -0.0034057 -0.0058103 0.0031975 -0.009664 0.0028555 0.0047521 -0.0064932 -0.00045277 0.0027843 -0.0088026 -0.0016829 
yes -0.00021658 0.0044952 0.0051675 -0.0033968 -0.0007818 -0.0037306 -0.0073127 0.009488 -0.0031688 -0.0033565 -0.0077624 0.0027196 0.0015877 -0.0017997 -0.0083211 0.00028645 0.0097431 -0.0060927 -0.0040956 -0.0021594 0.007907 -0.0082167 -0.0074919 -0.00023881 0.0083955 -0.003656 -0.0039702 -0.0065361 0.0082504 0.0087336 -0.0050736 -0.00027941 0.0038178 -0.0029871 0.0050466 -0.0032207 -0.0041543 -0.00073479 -0.00044577 -0.0084724 -0.0019127 -0.0070187 0.00065889 -0.0023944 0.0094912 0.0031293 0.0094323 -0.00013044 0.0081688 -0.0062561 0.0057111 0.0022359 -0.0091417 -0.0029965 -0.0014105 0.0044601 0.0045922 0.0028552 -0.0046036 -0.003125 -0.001244 -0.0028742 0.0063025 0.003996 0.0070833 0.0027647 0.0017505 -0.0066361 0.00081219 0.0065937 0.00039099 0.0066483 -0.00068261 -0.00020629 -0.0013976 0.0084916 0.00038344 0.0068658 -0.0047853 -0.0013336 0.003514 -0.0055065 0.0039267 0.0039565 -0.0061566 0.0098434 0.002025 0.0030673 -0.0067127 0.003026 0.0058205 -0.002833 0.0077403 -0.0096135 0.0075132 0.0082879 0.0083199 -0.0064363 0.00052144 0.0053539 
yez 0.0030435 0.0016539 -0.0039632 0.0047201 -0.00057005 0.0085504 -0.0090788 0.00047082 -0.0092908 0.0073054 -0.007481 -0.0068035 -0.0040823 0.0028388 0.0039746 -0.0021902 0.0013266 0.0016175 -0.0096732 0.0071683 -0.0063536 -0.0033587 -0.0071701 -0.0030286 0.00072943 -0.0058262 0.009833 -0.0078741 -0.0094435 -0.0011885 0.0025245 -0.0018991 -0.0039869 -0.00080407 0.0041467 0.0065999 0.00049614 -0.0049739 0.0090836 -0.0039806 0.0019377 0.0078693 -0.0030121 -0.0078667 -0.00036014 0.0050423 -0.0036475 0.0083539 0.0069477 0.0017571 0.008845 -0.0077761 0.00079906 0.009914 0.0051895 -0.002166 -1.1173e-05 -0.001982 0.0047664 0.00058841 0.0033244 -0.0019348 -0.0092818 -0.0059702 0.0020132 -0.0094128 -0.0065842 0.0092341 0.0029177 0.0050638 0.0020767 0.0094704 0.00083559 -0.0038957 -0.01004 -0.0015858 -0.0040618 -0.0060005 0.007321 0.0052613 0.0059977 0.0054138 -0.0051457 -0.0037333 -0.0038791 0.0079465 -0.0094082 0.0056604 -0.0019275 -0.0049428 -0.0010672 0.0080036 0.0033839 -0.0085739 -0.0057666 -0.0015453 0.0034647 -0.0065453 -0.0081027 -0.00083911 
