241 100
</s> -0.027462 0.019526 -0.019372 -0.012515 0.01493 0.0064229 0.019626 0.00023622 0.025747 0.021038 -0.0060868 0.010315 0.029135 0.026816 -0.0084796 -0.010079 0.0024343 0.019 0.0073253 -0.025259 -0.0064 0.015932 0.01409 -0.018196 0.015452 -0.021849 0.0099739 -0.0066008 -0.0047672 0.03494 -0.018979 -0.0073079 -0.015943 -0.015861 -0.023686 0.0015985 0.010415 -0.025865 -0.0044245 -0.013971 0.026607 0.015752 0.0078275 0.0086139 -0.012905 0.0022239 -0.017776 -0.012928 -0.023567 0.010184 -0.023298 0.026765 -0.02728 0.018483 -0.0058404 -0.011834 0.0021381 0.0015924 0.012951 0.017853 -0.012168 0.013069 0.022877 0.016006 -0.013496 0.0045753 -0.015213 0.012729 0.024697 0.017981 -0.020849 0.0045575 -0.013003 0.012032 0.00083467 -0.0078125 0.021019 0.032459 0.0056785 -0.012479 -0.030216 0.01654 0.03256 -0.030451 -0.0082713 -0.019233 0.0032985 -0.0026942 -0.014415 -0.0066154 0.031204 0.01522 0.032734 -0.028192 0.0018471 -0.023877 0.019045 0.027929 -0.013553 -0.0051951 
the 0.0030451 0.0051228 0.0086039 -0.0093258 0.0065896 0.0081117 -0.0068457 0.0012416 -0.003599 -0.0021724 -0.0005026 -0.006285 -0.0053144 0.0017378 -0.0059559 -0.0069054 0.003327 0.0055971 -0.006753 -0.00044254 -0.0050267 0.0095712 0.0042458 0.0072624 -0.0087839 -0.0059858 -0.010032 -0.0012466 -0.0024563 -0.0080332 -0.0047572 -0.00066406 0.0041968 -0.0057152 -0.0062496 -0.0022873 -0.0072296 0.0047104 -0.00081269 -0.0025073 -0.010593 0.0094651 -0.0053459 0.00291 0.0093653 0.0020164 0.0086499 -0.0030875 -0.0040477 0.0036126 -0.00047519 -0.0022885 0.0026518 0.0047008 -0.0089173 0.0036918 -0.009651 0.00057529 0.0086398 -0.0028938 0.00020706 0.0036376 0.0054752 0.0076041 0.0045553 -0.0033563 -0.0070703 -0.0052097 -0.0061419 -0.0060126 0.0016597 0.0049657 0.0061384 -0.0077734 -0.0024782 -0.0026571 -0.0039506 0.0020432 0.0062511 0.0055286 0.0009516 -0.0058729 0.0024145 0.0031295 0.0049587 0.0037372 -0.0022565 -0.0098414 -0.0047537 0.0074025 0.0023041 0.0025149 0.002163 0.0022358 0.0095274 0.0026892 -0.00090561 0.0019827 -0.0067907 -0.0072251 
is 0.0087872 -0.0081511 -0.00023728 -0.0033485 0.00017533 -0.0075109 -0.0094565 -0.0096255 0.0092558 0.0089113 -0.009607 -0.0025671 -0.0028723 -0.0068847 -0.0025748 0.0054015 0.0023219 -0.0036192 -0.0077445 0.0038666 0.0070492 -0.0070838 -0.0063443 0.0031302 -0.00089527 -0.00093038 0.0047961 -0.0096366 -0.0086333 0.00069317 0.0035819 0.0073081 -0.0041735 0.0034076 -0.0082355 -0.0074918 -0.0076454 0.0097951 0.0083514 0.0088186 -0.0087318 0.0046447 0.0044248 -0.00043331 0.0046797 0.0045824 0.0092625 0.008177 0.0062663 0.0074348 -0.00081443 -0.0012483 0.0061871 -0.0062044 -0.0093279 0.0082621 0.0018266 -0.0083681 -0.0069391 -0.0051736 0.01017 0.0084614 0.0063484 0.006261 -0.0060621 0.0034244 -0.0053132 -0.0022532 0.0032797 -0.0096608 0.0073797 0.0035798 0.0040864 -0.010747 -0.009196 0.0030817 0.0086795 -0.0052665 0.0088928 -0.0079037 0.0096684 -0.0028836 -0.0077774 -0.004372 -0.0018645 -0.0064477 -0.0026119 0.0096796 0.0066919 -0.0034417 -0.0074315 -0.00067475 0.0059564 -0.002176 0.0035364 -0.00083916 -0.0028384 0.0043085 0.0060888 0.0087942 
a 0.00052843 0.009074 -0.00617 -0.0032567 0.00092391 0.0078163 -0.0060883 -0.00042788 0.005976 0.0064998 -0.0043029 0.0090341 -0.0073038 0.004332 0.0053774 -0.0056871 -0.0068586 -0.0077737 0.0076385 0.0031916 0.0084676 0.0086595 -0.00019849 0.0012991 -0.0071499 0.0047985 0.0078154 -0.0025434 -0.009203 -0.0048884 0.0065352 0.0055258 -0.00061101 0.0085244 -0.0019213 0.0079342 0.0021574 -0.0039181 -0.0017305 0.0043878 0.0019206 -0.00042486 -0.0038116 -0.0067237 -0.00085215 -0.0044921 0.0074045 -0.0011715 0.0046973 0.0066358 -0.0095983 -0.0059228 0.0015065 -0.0069413 -0.0018836 -0.005299 -0.0001951 0.0027226 0.0043648 0.00070674 -0.0082694 0.0026173 0.0031388 -0.0083883 -0.0068887 0.002345 0.00080837 -0.0053182 -0.0014361 -0.0042003 0.0086204 0.0025059 0.00067299 0.0041167 -0.00010361 0.008544 0.0048329 0.0092808 0.0066611 -0.007552 0.0010907 0.0031638 0.0080201 0.005199 0.0095378 0.00013246 -0.0010427 0.0076432 -0.0094617 -0.0087508 0.001148 -0.0060193 0.00095414 0.0031954 -0.0062241 -0.0041135 0.00017303 0.0042716 -0.002468 0.0022402 
you -0.0058965 0.0057328 -0.001498 0.0005593 0.010923 0.0091499 0.0055837 -0.0097486 0.0069719 0.0054377 -0.0005634 -0.004156 -0.0028744 0.0052507 0.0086276 -0.00021161 0.0028206 -0.00098807 -0.0053271 0.007361 0.0080044 -0.0016605 -0.0037347 -0.011007 0.0039782 0.001886 0.0098624 0.0027792 0.0074602 0.0098966 0.003678 -0.0090472 -0.0091261 -0.0027987 -0.00092684 0.0075863 -0.0082996 0.0076444 0.0058803 0.00038366 -0.002439 -0.0014 0.0087391 0.010838 0.0040431 -0.010598 -0.002199 0.0082487 -0.0034552 -0.0021181 -0.0076192 0.007373 0.0020599 0.0014986 0.0092452 0.0064387 -0.004988 0.0050704 -0.0088164 0.010862 0.0023247 0.0028861 -0.0023355 0.00033684 0.0063726 0.0060155 -0.0051842 -0.0080348 -0.0044063 0.0056751 -0.0054487 -0.00071409 -0.008151 0.008196 -0.0047338 -0.0046542 -0.0053828 -0.0069863 0.0056527 -0.0032052 -0.010087 0.0032112 0.0034263 0.00047632 -0.00091129 -0.004118 0.0032766 0.0059295 -0.0062376 0.0072684 0.0078676 0.0018418 0.012261 -0.0027252 0.0018783 0.0056304 0.00010845 -0.0068588 -0.0072879 -0.0070344 
that 0.0106 0.0052469 0.0066927 -0.0046225 0.0052015 0.0035674 -0.0086128 -0.0029997 -0.0086268 0.0093449 0.00039689 0.0039526 -0.005984 -0.0022291 -0.0061529 0.0045825 -0.0066444 -0.0089616 0.0074694 -0.0062763 -0.0073654 0.0013529 0.0068179 -0.0025582 0.0022188 0.0066091 -0.00020459 -0.0068499 -0.0087751 -0.0078719 -0.0064167 0.0069795 -0.0044003 -0.00089611 0.003961 0.0058445 -0.0072405 -0.0043821 -0.0088756 0.0093506 -0.0072024 -0.00024203 -0.0047283 0.002894 0.0088055 -0.0029395 -0.0019046 -0.0094086 -0.0054386 0.0084107 -0.005059 -0.0091711 -0.0093006 0.0061054 0.0045516 0.0028293 0.0018965 -0.00061419 0.00034983 -0.0032639 -0.0079965 -0.0036107 0.0083369 -0.0040359 0.004892 0.0030816 -0.0097023 -0.0062604 -0.0057411 0.0069446 -0.0021002 0.0066661 0.010328 -0.010731 -0.0034151 -0.0026753 0.0030597 -0.0090721 -0.0062509 -0.0037265 0.0059588 0.005057 0.0021968 0.010434 0.0068745 -0.0011624 -0.009714 0.0014523 -0.0088749 0.009862 -0.0021072 -0.0015452 -0.0088042 0.0028204 0.00080469 0.00057123 -0.0090777 -0.0013801 -0.0059364 -0.0078247 
i 0.0082113 -0.0010951 0.0091311 -0.0080982 -0.0043386 0.0039138 0.0036994 -0.0015409 9.1327e-05 0.00011983 0.00095221 0.0059 -0.010774 -0.010651 -0.0050346 0.0085425 -0.0017215 -0.0033181 0.00086738 0.0053306 0.0075143 0.0087018 0.0021093 -0.0036051 0.00163 0.0062125 -0.0064435 -0.00038059 0.00029005 0.00777 -0.006046 -0.0096683 -0.0054074 0.0023615 0.0044993 0.005961 0.0039892 0.0044664 -0.00025024 0.0015884 -0.0054295 0.0060941 0.0049948 -0.005235 0.0085142 -0.0058902 0.010312 -0.0070473 6.3199e-05 -0.0062865 0.0064635 0.0052955 -0.0051541 -0.00028317 0.0049965 -0.0031292 -0.0012562 0.0028695 0.0075322 -0.0026743 0.00049871 0.0063503 -0.010165 -0.010018 -0.0057004 0.0061782 -0.0095295 0.0036972 -0.0019796 0.0095311 -0.0072229 0.0014872 -0.0048129 -0.0033814 0.0011848 0.00099294 -0.00077504 -0.0098307 -0.0085991 -0.0029005 0.0074564 0.0076084 0.0031843 -0.0053274 0.007337 -0.004803 0.007245 0.0053202 0.0092257 0.00065447 -0.0027692 -0.0051369 -0.0039395 5.2134e-06 -0.0064867 -0.0066888 -0.0025407 -0.0050561 0.0083297 -0.0094323 
to -0.007248 -0.0032466 -0.0089206 -0.006974 0.0091154 -0.0026896 -0.0036652 0.0010611 0.0014942 -0.0062773 0.0033768 -0.0083808 0.00093146 0.010233 0.0063174 -0.0016776 -0.0052275 0.0014437 0.0023832 0.0043227 0.0012411 -0.0032169 -0.0063592 0.0021197 -0.0052809 -0.0065521 -0.0044356 0.0048577 -0.0046237 0.0033236 -0.0013928 0.0074633 0.008927 0.0038846 -0.010046 0.0052463 0.0082976 -0.0096324 0.0081524 0.0022595 0.0055827 0.0059734 0.00061093 0.0071644 0.0047048 0.0052545 0.0070857 0.0074479 0.0056606 0.0099999 -0.0073813 0.000148 0.0046728 0.0089013 0.0023431 -0.0020592 0.00051826 0.0010385 0.0060447 -0.0066163 -0.0013107 -0.0076713 0.010127 -0.0083423 -0.006825 -0.0071604 0.0026495 -0.0022684 -0.0081268 -0.0043164 -0.0064678 0.005894 -0.0089577 0.0015787 0.0084195 0.0084054 -0.0056939 0.0076765 -0.0041193 -0.0032139 -0.00324 -0.0036826 0.0086183 0.006966 0.0007227 0.0087244 -0.00054036 0.0045313 2.7819e-05 -0.0031682 0.010372 -0.003016 -0.0079983 -0.0053481 -0.010091 -0.0066173 -0.0030314 -0.0091153 0.0066313 -0.0031838 
good 0.002997 -0.0040332 0.0050093 -0.0054645 0.010109 -0.0099765 0.00021704 0.0021673 -0.0054284 -0.0012676 -0.0091113 -0.0012545 -0.0001453 0.014761 0.0038928 -0.0088955 0.0014668 0.0076069 0.0093844 -0.0039077 -0.0092419 -0.00023065 0.0051783 -0.0092571 0.001432 -0.0071161 0.010299 -0.010729 0.00879 0.010841 -0.0015503 0.0095464 0.0027274 -0.0039642 -0.01042 0.0035283 0.010098 0.00093868 0.0017158 0.0090026 -0.0059896 -0.0076349 0.011644 0.0096707 0.005969 -0.0090982 0.0011105 0.0039781 -0.0060099 0.011822 -0.0082626 0.0086075 -0.010792 0.0094745 -0.0022133 0.0057759 -0.00040018 -0.0093487 -0.0027336 0.0082134 -0.0038867 0.0035535 0.0098626 0.012647 -0.0043711 -0.0055437 0.0076091 -0.0030366 -0.0021792 -0.00057841 0.00097685 -0.0082887 0.00075374 0.010704 0.0096101 0.0066535 -0.0034892 0.011286 0.010543 0.0079491 -0.0059377 -0.00067504 0.0031385 -0.013331 0.0082262 0.0049046 0.0066906 0.0029664 -0.0031525 0.0020086 0.0031981 -0.0026509 0.014517 0.0023454 -0.0054904 -0.0060935 -0.0013252 0.013121 0.0057882 -0.0054087 
on -0.0070913 -0.00085827 0.0018602 0.0069964 -0.0016888 0.0070138 0.0046591 0.0010852 -0.0043251 -0.0070025 -0.0070764 -0.0049198 0.0065215 -0.0096998 -0.0075715 -0.0062113 -0.0040117 -0.010009 0.0026022 -0.0038079 -0.0044853 -0.0029884 0.0024784 -0.0039244 -0.0086683 -0.00014988 0.0068646 -0.0076145 0.0055715 -0.006961 0.002642 -0.0070561 0.0045672 -0.0053272 -0.0040434 -0.0016167 -0.0056314 0.0085675 0.00074633 0.00026017 0.0030172 0.0064461 -0.0021526 0.0037905 -0.001092 0.00048692 0.0047307 -0.002068 -0.00073908 -0.0017445 -0.00086452 -0.0081157 0.0015205 -0.002118 0.0055354 0.0045122 0.0032878 0.0091214 0.009544 0.0055827 -0.0046342 0.00239 -0.00018471 0.0045366 -0.0036658 -0.0068908 -0.002985 0.0089959 -0.0037372 0.0045861 0.0038159 -0.0053401 0.0016196 0.0060217 0.00013377 0.0058669 -0.0033082 0.00092682 0.0064792 -0.0013489 0.0086559 -0.0061225 0.0054852 -0.0091704 -0.0067194 0.0017876 -0.010039 0.0049065 -0.0013311 4.6265e-05 0.0022789 0.0075907 0.0097492 -0.0050384 -0.0091782 -0.0029153 -0.0085993 0.00096812 -0.004825 -0.0098402 
in 0.0073635 0.0022838 -0.0058732 0.0078847 0.0093574 0.0012012 -0.0023396 -0.0016114 -0.00077834 -0.0024102 0.008656 0.00077276 -0.0003192 0.00027558 -0.0020313 -0.0026942 -0.00061728 -0.0072531 0.0089629 0.0070245 0.0026851 -0.001747 0.0096592 -0.0098114 -0.0048405 -0.0075315 0.0074513 -0.0036099 -0.0041279 0.00095553 0.01003 -0.0076418 -0.0001526 -0.0030299 0.0065962 -0.0081885 -6.495e-05 -0.0004385 -0.0016 -0.0088234 -0.0053709 -0.0011897 -0.0091258 -0.0031992 0.007327 0.010021 -0.0020673 0.005543 -0.0067089 0.00077631 -0.0094444 -0.0047292 0.0069776 -0.0011937 0.0035344 -0.0070838 0.0014383 0.0093754 0.0067714 0.00053123 0.0062434 0.0058996 0.0037791 0.0063919 -0.0038877 0.0099011 0.0043095 0.00082802 -0.0050787 0.0089907 0.0090658 0.0092685 0.0064472 -0.0080043 -0.0026587 -0.0019137 0.00040278 0.0069512 0.0042858 -0.0054607 -0.00228 0.0056601 -0.003785 -0.0028823 0.0097324 -0.0063466 -0.0040961 0.00047137 -0.0071658 -0.0022716 -0.0056938 0.0033177 0.0066291 -0.0079295 -0.0095934 -0.0090102 0.0054928 -0.0031077 -0.0052636 0.0038534 
for 0.0089551 0.0065446 -0.0048681 0.0086334 -0.0039392 0.0057609 0.0097351 0.00079971 -0.0080496 -0.0047066 -0.0068852 0.0013604 0.0071173 -0.00090293 0.0062418 -0.00057007 9.3477e-05 -0.0078232 0.00045444 0.0021582 0.0031045 0.0059939 0.0011485 0.0064204 -0.0069758 0.005847 -0.0038847 0.0047849 -0.0099399 0.0032984 0.0039501 0.0087925 -0.0019895 -0.0099213 0.001118 0.00040579 5.8924e-05 -0.0024473 -0.00088799 0.0019808 0.0032038 0.0050046 0.006893 0.0082559 0.0050724 0.001401 -0.00055951 0.0015811 -0.0072316 0.0079277 -0.0064857 0.00020113 0.004079 -0.0081689 0.0090672 0.0045332 0.0023998 -0.0035312 0.0068727 -0.010213 0.0060967 0.0025482 0.0075368 0.0082933 0.0081389 -0.0040551 -0.0036372 0.0044217 -0.0073742 0.0018641 -0.0052333 0.00081621 0.0091989 0.0045687 -0.0063207 0.0029842 -0.0020867 -0.0028728 0.0075477 -0.008984 0.0069759 0.0038789 -0.0063941 0.0058259 0.0061225 0.0056696 0.0088595 0.0016383 0.0015427 -0.0092728 -0.0028388 0.0088385 -0.0003824 0.0098422 0.0054489 -0.00068335 -0.0091068 -0.0025945 -0.009305 -0.0061298 
it 0.0019116 -0.0069812 -0.0070421 -0.0054486 0.0086548 0.00052393 -0.0091623 -0.0034164 0.0035892 -0.0033301 -0.0021009 0.0088995 0.0096554 0.0077074 0.0031992 -0.0011991 -0.00083461 -0.0035399 0.0078661 -0.0047582 0.0084835 -0.00046733 0.0048679 0.002115 -0.0032089 -0.0072999 0.0062229 0.008425 0.0076971 -0.0046435 0.0015428 0.0031195 0.0071951 0.0020861 -0.0090122 0.0036252 0.0085865 -0.0063752 -0.0068071 -0.0015974 0.0056462 -0.0055165 0.0092643 -0.0075014 0.0077035 -0.007721 -0.00040563 0.0085183 0.0018024 0.001245 0.0050277 -0.0098503 -0.00090755 -0.0054033 -0.0032563 -0.0056316 -0.0076933 -0.0037765 -0.0077452 -0.0045722 0.0035576 0.006431 0.0049701 -0.001126 -0.0081187 0.0071606 -0.0087834 -0.00015149 0.0044852 -0.0054073 0.0043311 0.0062364 0.0058778 -0.004911 -0.0016377 -0.0081412 0.0030295 0.0085999 0.00056047 0.007264 0.0014233 0.0017395 0.0027065 -0.0043873 0.0054656 0.00099491 0.0006357 -0.0024139 -0.0051426 0.0012113 0.0012716 -0.0090998 -0.0017274 -0.0084347 -0.0033474 -0.0063653 0.0050857 -0.0094013 -0.00023232 -0.0075519 
this 0.0036176 -0.0037688 0.005505 0.0072301 -0.0054943 0.0058465 0.0033595 -0.005943 0.0079414 0.002404 0.0024054 0.0048054 -0.008846 0.0049713 -0.0026757 0.0061557 0.0053403 0.0082125 -0.0097348 -0.0030593 -0.0028747 -0.0043685 -0.0048869 0.0013094 0.0051962 0.0037775 0.0081288 0.0050527 0.006832 0.0013918 0.005999 0.00053927 -0.0024972 -0.0048949 0.0080967 0.0072993 -0.0083177 -0.0086896 0.0046463 -0.0034394 0.0083508 0.0015302 -0.00090745 0.0047527 0.0061628 -0.0055287 -0.0087817 0.0011381 0.0042305 -0.0035338 -0.00055404 0.0073365 -0.0085674 0.0037923 -0.009559 -0.0024226 -0.007208 0.0041965 -0.010061 0.0044698 -0.0088094 -0.0051084 0.0025835 0.0097484 -0.0021204 -0.0056613 -0.0047689 0.00075388 0.0046833 -0.0029496 -0.0091777 0.0059758 0.0045941 -0.00084353 -0.0050993 -0.0074797 0.0080676 -0.0092625 -0.0068057 -0.0016126 0.0056196 0.0042706 -0.0080896 0.0071871 -0.0022926 0.0072422 0.0075443 -0.0077983 -0.0028917 0.005479 -0.0068979 0.004895 0.0046979 -0.0061804 -0.0021033 0.0015445 -0.0024492 -0.0023754 0.009679 -0.0030946 
test 0.0025061 -0.0091624 0.0025637 0.0084416 0.0059023 -0.0099453 0.0020378 -0.0036224 0.001422 0.0033845 -0.0045773 0.0090314 -0.010441 -0.0043473 -0.0050707 -0.0026725 -0.00043006 0.0079925 -0.0056214 0.010609 -0.0063624 0.0063518 0.00069017 -0.0062375 0.0017054 0.0058342 0.0073762 -0.0098541 0.0060589 0.004667 -0.004206 0.0081535 -0.008038 -0.0067285 0.0095172 -0.0048401 0.00012363 0.0056524 -0.0056663 -0.008851 -0.007294 0.0061012 -0.0049379 -0.00036821 -0.0019106 -0.0011535 0.010212 -0.0055551 0.0095078 0.0026937 -0.0073966 0.0063598 -0.0026348 -0.0023951 -0.0061449 -0.0064173 0.00024308 -0.0028867 0.0024112 0.0043453 -0.0070829 0.0022234 -0.010016 0.0063527 0.0091267 -0.0071504 -0.00018212 0.00060906 -0.0023819 0.0028574 -0.0080836 -0.0030919 0.0044575 -0.00976 -0.0089905 0.0098521 0.0085407 0.0076736 -0.0040743 0.0090471 0.0059551 -0.0084148 -0.0020769 0.008579 -0.0024376 -0.0043603 0.0058783 0.0022648 -0.0030529 -0.0089945 0.0078702 0.002891 -0.0060624 0.0045408 -0.0083544 -0.0092502 -0.0034186 0.00061253 0.0016607 -0.00076447 
something 0.0030542 0.0065482 -0.0038864 -0.0086432 0.0036084 0.0063424 -0.0064928 -0.0072756 -0.003942 0.0066674 0.0057333 -0.0088999 0.0016407 0.0024544 0.0062832 0.010052 -0.0027668 0.00028699 -0.0073089 -0.0069961 0.0087579 -0.0090852 -0.009282 0.0095383 0.00021149 0.0034713 -0.0053835 0.0093298 -0.0095351 -0.0057809 0.0041654 0.007882 0.0094241 -0.0063682 -0.006891 -0.0059002 -0.009406 -0.0051234 0.00096564 0.0097524 -0.00042405 0.0051984 0.0094649 0.0063744 -0.0041451 -0.0081124 0.0032797 0.010005 0.0015271 0.0077885 -0.0038218 0.0095721 0.00080451 -0.0036438 0.0057051 0.0075239 -0.0027435 -0.0068976 0.0072175 -0.0038252 0.0045857 -0.0062833 -0.0068166 0.0041759 0.0059935 -0.0061718 0.0091812 0.0015299 -0.0062294 0.0064942 0.0071127 0.0081867 -0.0097831 -0.0067306 0.0080065 -0.003533 -0.0032475 -0.0089569 0.0022783 0.0023032 0.00054783 0.0098008 0.003245 0.0029918 -0.0022219 -0.0072504 0.0044322 -0.0091429 0.0013323 -0.0097884 -0.0096565 0.0053868 0.0048418 -0.0034581 -0.001395 0.0058314 -0.0045531 -0.0030013 0.0056971 0.002715 
not 0.004182 0.0020701 -0.0037336 0.0014464 0.0036076 0.0066211 -0.0065121 -0.0039647 0.008411 0.0050081 0.00667 0.0058421 -0.0053057 0.0041685 0.0039025 -0.0059449 0.0018166 0.0032596 -0.0060915 -0.0022207 -0.0010539 0.0055314 0.0097707 0.006462 0.00069994 0.0027536 0.006412 -0.00095911 -0.002694 0.0044909 0.01001 -0.001618 0.0010811 -0.0075552 -0.0096002 -0.0068399 -0.0009291 -0.0035795 0.0089924 -0.00050901 -0.0075693 0.0088885 0.0056852 0.0068254 0.0043919 0.0085769 -0.00027573 0.0057877 0.0071134 -0.00094137 0.0062129 0.0022558 0.0015884 -0.0065237 -0.00046571 -0.00098887 0.0094575 -0.0027089 -0.0016977 0.00075594 0.0040084 -0.0097406 0.0090508 0.0020313 0.0023183 0.0043269 0.0088153 0.0016424 0.0050338 -0.0042759 -0.0040819 0.0041452 0.0091716 0.00607 0.0060114 -0.00030343 0.0021049 -0.0030658 0.0078765 0.0056183 -0.0055945 0.0011546 0.0012802 0.0085624 0.0020948 0.0061454 -0.0094455 -0.0087964 0.0066614 0.0054483 0.0076363 0.0069542 0.0086976 0.0099705 0.0036455 -0.0097241 -0.001215 0.005332 0.0059474 -0.0026191 
am 0.0075285 -0.0075823 0.00076467 0.0020809 -0.0012327 -0.0091038 -0.008029 0.0055593 0.0053842 -0.008794 -0.0022061 0.0026327 -0.0064982 -0.00015966 -0.0095701 0.0098277 0.0074404 0.0002593 -0.00095637 -0.0092007 0.004598 -0.00041985 -0.0091558 -0.0044032 -0.0056378 0.007267 0.0024044 -0.00788 -0.0020076 0.0045107 -0.0044555 -0.0034644 0.00099354 -0.0035928 0.00024789 -0.0034817 0.006741 0.0011442 0.0022355 -0.0061811 0.0071364 0.0020187 -0.0028052 0.0039 0.0034771 -0.007157 0.0057568 -0.0049785 -0.0053714 -0.0042137 -0.0078297 0.0027814 -0.0051585 -0.0040619 0.0080445 -0.0068747 0.0043883 0.0019045 -0.0021952 -0.0012217 -0.00909 -0.0062506 0.0079719 0.0092456 -0.0034045 0.0076983 0.0054992 0.0094192 -0.0023877 0.0072109 -0.0069023 0.0060597 0.0014189 0.00067938 0.00066749 -0.0090134 -0.0021918 0.0076488 0.0072732 0.0083115 0.0097841 -0.0023578 -0.0019379 -0.0097372 0.0039522 -0.0005092 0.0013091 -0.0018356 0.0067873 -0.0084208 0.0087295 -0.0065105 0.0069243 0.003355 0.00035323 -0.0037237 -0.0029618 -0.0022618 -0.0049106 0.0054591 
can 0.0065947 0.007843 -0.0070195 -0.0078738 0.0014142 -0.0078958 -0.0037253 0.0082434 -0.0010637 0.0037249 -0.0059864 -0.0025039 0.0039435 0.0083011 0.0068391 0.0065304 -0.0053209 -0.0034466 0.002977 -0.0038111 0.0024804 0.001603 -0.00050489 0.0030079 -0.0030288 -0.0026537 0.0073417 -0.009609 0.0016846 -0.0088169 -0.0036836 -0.0079105 0.0061487 -0.0048429 -0.0034635 -0.0051579 0.0021075 -0.0077841 -0.0080354 0.0047014 0.0054097 -0.00071107 0.00092351 -0.0033913 0.0016295 -0.0094651 -0.0074595 0.0089344 -0.0014038 -0.0047481 -0.0084719 0.0089853 -0.0082531 0.005507 -0.0077246 -0.0016055 -0.0053501 0.0090508 0.0079259 0.0089015 0.0088069 -0.00051167 0.0082323 0.0085491 -0.00052995 0.0028372 0.0065555 -0.0038576 -0.0077592 0.0029635 -0.0044088 -0.0010385 0.0038444 -0.0011888 -0.00024507 0.0020152 0.0065969 0.00053085 0.00096437 -0.0024757 0.0053935 -0.0095126 0.0048305 0.00064255 0.0085541 0.0096935 0.00025966 0.0065163 0.005524 -0.00016131 0.0012137 0.007529 0.0090462 -0.008828 -0.0074582 -0.0023995 -0.0060236 0.003045 -0.0030676 0.0039252 
and 0.0037803 -0.0042917 0.0075588 0.0066643 0.0081689 0.0086171 0.0010834 -0.00077806 -0.00038242 0.0041728 -0.0075998 -0.0095538 0.0027514 0.0033754 0.0019057 0.0011685 -0.0046392 -0.0061258 -0.0087199 -0.0099843 0.0055648 0.0035509 0.0084968 0.0045442 -0.0054007 -0.0074129 -0.0037628 0.0064739 0.002269 0.0024776 0.0036848 -0.00058462 0.0057271 0.0067357 -0.0035174 -0.00059297 -0.0085207 0.0074246 -0.002766 -0.0086531 -0.0017238 0.0044829 -0.0076711 0.0084086 0.0050564 0.0094555 9.7247e-06 -0.0086662 0.0004709 -0.008618 -0.0044703 0.0047308 0.0024616 0.00032912 -0.0050817 0.005162 0.0069238 -0.002845 0.005287 -0.0081595 -0.0088435 0.00087278 -0.0090605 0.0014045 0.0043548 -0.0032232 0.0044812 0.0077745 0.002941 0.0091138 -0.0077481 -0.0020141 -0.0047418 -0.0060501 -0.0052615 -0.0019417 0.0065446 0.0060416 0.0056889 -0.001443 0.0085589 0.0022776 0.0004859 0.00038405 -0.0090157 0.0059494 -0.0079554 -0.0011049 0.0057801 -0.0093503 0.0057837 -0.0015475 0.0063119 -0.0080253 -0.0043566 0.00048061 -0.0058043 0.0077863 0.0027235 0.0064036 
it's 0.0024831 -0.0089112 0.0051405 0.0095592 -0.0075643 0.0024625 0.0055546 0.0035399 0.0094352 -0.0022535 -0.0043417 0.0013184 0.0045586 0.0060026 0.0034948 0.0062675 0.0027137 -0.004944 0.0072381 -0.0041607 -0.0099821 -0.0021874 0.006693 0.001228 0.0038967 -0.0046451 -0.0026717 0.002613 -0.0042129 -0.0069337 -0.0015786 -0.0032356 -0.0045601 0.003034 -0.0086497 -0.005218 0.0089816 0.0056405 0.0067449 0.0092375 -0.0082015 0.0018287 0.00055535 0.0083367 0.0061398 0.0063736 -0.0044432 0.0010648 0.0037737 0.0084516 0.004417 -0.0067291 -0.009158 0.00074871 -0.0055234 -0.0035179 0.0079413 -0.0026153 -0.0044745 0.0060307 -0.0093123 0.0019671 -0.0042349 0.0052624 -0.0083755 -0.0032079 0.0033227 0.00241 -0.0025709 -0.006736 -0.0096456 0.0090847 0.0070867 0.0092423 -0.0065686 0.0075573 0.0060282 -0.00098232 -0.00023347 -0.0078416 0.0068425 0.0077224 -0.0041946 -0.0073911 0.0044867 0.0015384 -0.003085 0.0088797 -0.0015543 -0.0090356 0.005097 0.0090865 0.0050621 0.0021522 -0.0086751 -0.0054707 -0.0028085 -0.0099215 -0.0072888 -0.0044455 
so 0.0020748 0.0086796 -0.0035161 -0.0085437 0.0024103 0.0060631 -0.0091126 0.0024346 -0.0058917 -0.0049206 -0.0020905 0.0089406 -0.00078507 0.0085924 -0.0046134 0.0052264 0.0051269 0.0024423 0.010034 -0.0061907 0.0083571 -0.0083542 0.0096352 -0.00090286 -4.9605e-05 -0.0052649 0.0064336 -0.0035985 -0.0076404 0.0023642 0.0092827 0.0072474 0.00047817 0.0078918 2.1917e-05 -0.0095354 -0.0043551 -0.0035986 -0.0090936 0.0036494 0.0063821 0.0093616 -0.0030825 -0.00040846 0.0027228 -0.00753 0.0043219 0.0025168 -0.00031039 -0.0084648 -0.0024427 0.0073039 0.003241 -0.0051251 -0.0059544 -0.0038994 -0.0026652 -0.0074376 5.0933e-05 -0.00033492 -0.0065368 -0.00021341 0.0048106 0.0015861 -0.0093608 -0.0098802 0.0048975 0.00039189 0.0069104 0.0038743 -0.0099908 -0.00010387 -0.00050679 0.00086614 -0.0045166 0.0047123 -0.0090186 0.0035719 0.0012165 0.0025703 -0.00065485 -0.0046285 0.0030042 -0.0078363 0.0034257 0.0082401 0.00016256 -0.00031807 -0.0042372 -0.0072607 0.0085754 -0.0043608 -0.006194 -0.0060213 0.0094489 -0.010514 0.002304 0.0021423 0.0079889 -0.0058679 
you're -0.0028885 0.0065018 0.0080328 0.006818 -0.0083888 0.0067126 0.00016449 0.0028793 0.0081667 0.0041854 -0.00027799 -0.00359 0.00014833 0.0016722 -0.0072633 0.0084641 0.006617 0.0072157 -0.006846 0.0066709 -0.0014798 0.0095573 -0.0095616 -0.0018514 0.00092845 0.0040701 0.0060921 0.0081149 -0.0081132 -0.0039315 0.0063512 -0.000836 0.0097605 0.0022407 0.0044598 0.0072035 0.0070637 0.008499 -0.0062885 0.004859 -0.0086952 0.00077766 -0.0097896 0.0021893 0.0063183 -0.00012993 0.0096865 -0.0044801 -0.0061165 -0.0082736 0.0091329 0.0092161 0.0043465 0.0087023 -0.0024492 -0.0089987 -0.0046504 0.0082986 0.0078932 0.0020757 -0.0034143 1.9932e-05 -0.0061256 0.005449 0.0043804 -0.0092834 0.0097729 0.00096285 0.0067162 0.0022188 0.0039966 -0.0031306 -0.0076918 -0.0079591 0.0013432 -0.003861 -0.00029252 -0.0093084 -0.002429 -0.0012861 -0.002893 0.0037432 -0.0027867 0.0020065 -0.0096432 -0.0001688 0.0098295 -0.0031593 -0.00010455 -0.0075296 -0.0042435 -0.0087212 -0.0015229 -0.0079486 0.0050328 0.0036866 0.00062619 0.00045016 0.0051509 -0.009549 
Japanese -0.0052284 0.0049495 -0.0022438 0.0084752 -0.0020925 0.0090021 -0.0057004 -0.0054509 0.0039457 -0.0074762 -0.0012176 -0.0062917 0.0031709 0.0096788 -0.0081246 0.0079886 0.0074759 -0.0081699 -0.0079593 0.0042018 -0.0017836 0.0026652 -0.0063276 0.00070221 -0.009101 -0.0050376 -0.0095691 0.003388 0.0022174 -0.0043191 0.0055456 -0.0097016 0.0073196 0.0062118 0.0076077 -0.0091635 0.0077847 0.0071214 -0.0053533 0.0024918 -0.0082362 -0.008226 -0.0024147 0.0048917 0.0027385 0.0081813 0.0061253 0.0030263 0.0078565 -0.0099738 0.0091808 0.0049716 -0.0032507 -0.00396 -0.0073968 -0.0052855 -0.0041168 0.004343 -0.0018892 0.0071905 0.0078352 0.0088669 -0.0040604 -0.0042226 -0.0042972 -0.0027332 -0.0070801 -0.0021248 -0.0071324 -0.0098694 0.0043112 0.0047343 -0.0023982 0.0014241 0.00068968 -0.0010992 -0.0015884 -0.0094901 -0.0043393 0.0061144 -5.5142e-05 -0.005497 -0.0054023 0.0077415 0.0064982 0.0091257 0.00086262 0.0072248 -0.0056652 0.0089492 -0.0028464 -0.0040768 0.0086176 -0.0026953 0.0032501 0.0061802 0.0099012 0.0055235 0.005752 0.007525 
mam 0.0048859 0.0026102 -0.010042 0.0016629 0.0054918 0.0014953 -0.004114 -0.0053825 0.0024941 0.0075152 -0.0077375 0.0025216 -0.00052358 0.0022723 0.0022764 0.0073545 -0.0036568 0.0055888 0.0046293 0.00056866 0.0033527 0.0015138 0.0011909 -0.0044059 0.0072381 -0.002029 0.0060606 -0.0036509 -0.006319 0.010548 -0.0025777 -0.00056685 0.0033554 0.0074153 -0.0043387 0.0054636 0.0022846 -0.00073234 -0.0026131 0.002622 -0.001857 -0.006759 0.0036616 -0.0056575 -0.0042987 -0.0096249 -0.0069036 -0.00345 -0.0075374 0.00089333 0.0070083 -0.0038296 0.0051875 -0.0081434 0.0042898 0.0077076 0.010032 -0.0038767 0.0088811 -0.0029119 0.0036222 -0.0027855 -0.0023414 0.0085323 -0.0045035 0.0027128 0.0067311 -0.0026607 0.0097842 0.010031 -0.0067913 0.0056048 -0.0030421 0.0049471 -0.0077415 -0.0097316 -0.0055448 0.0070735 0.00058279 0.0038131 -0.0045894 -0.0020278 -0.0069257 -0.0075996 -0.0020516 0.0068334 0.0035934 0.0047755 -0.005578 0.0046278 0.010736 0.0015879 0.0012933 -0.0041452 0.0058101 -0.010144 -0.0033489 -0.0079989 -4.7952e-05 0.0046956 
of 0.0048771 -0.0053616 0.0034176 0.0076516 -0.0069071 -0.008965 -0.0080366 -0.0025699 0.0081036 -0.0064614 -0.0053635 0.0089362 -0.0082165 -0.0089022 -0.0085235 0.0088421 0.0026133 -0.0076083 -0.0081775 0.0075337 0.0017115 0.0013504 -0.0006307 -0.003029 0.003061 0.0022365 0.0034059 -0.0099534 -0.006968 -0.00031929 0.0085953 -0.0038376 -0.0081828 -0.0059383 -0.0096004 -0.0044198 -0.0084465 -0.0090972 0.0032395 0.0016569 -0.007231 0.004554 0.0030694 -0.0013123 -0.0093046 0.0068071 -0.0040788 -0.0081152 -0.0049769 -0.0064048 -0.0044792 -0.0037345 0.0091621 0.0080658 0.0030856 0.008373 -0.0066944 -0.00037886 0.00077953 0.0012077 0.0066715 -0.0095876 0.00017582 0.0021943 -0.0098181 -0.0096176 0.0080375 0.0034041 0.0024292 -0.0043473 -0.0082856 0.0042946 0.00043419 0.0070973 0.0032474 0.0026662 0.00048893 0.0048407 -0.0027305 -0.00036923 -0.0037478 -0.0076534 -0.00098065 0.00017437 -0.0057486 0.0055622 -0.0041493 -0.0019253 -0.0072091 -0.0086598 -0.0090486 -0.0070704 -0.0088904 0.0040679 0.00059727 -0.0092988 -0.0053487 -0.0003609 -0.0072152 -0.0010121 
have 0.00069844 -0.00092498 0.0017236 0.0087584 0.0037664 0.0044388 -0.00048334 -0.006217 0.0004174 0.0026475 0.0034803 0.0011357 -0.0026609 -0.0033868 0.0010789 -0.0075608 -0.005097 0.0097507 0.0024307 -0.0039672 -0.0026044 -0.0038351 -0.00613 0.0086792 -0.0072234 -0.0059459 -0.0059023 -0.0098351 -0.0012484 -0.0066836 -0.0095457 0.00075341 0.007252 0.0062704 -0.0057365 0.0010892 0.0004303 -0.0016393 -0.00035977 0.006319 -0.0017873 0.0068704 -0.0039911 0.0065646 -0.009682 -0.0015093 0.00073754 0.0051658 0.0096735 0.0090341 -0.0095249 0.0033189 0.00066995 0.0065824 0.0062317 -0.0080178 0.00045978 -0.0081713 0.0065562 -0.00031482 0.006183 -0.0046217 0.0091082 -0.0010306 0.0073542 -0.0026725 -0.0012872 0.0084013 -0.0052984 0.0018444 -0.0094681 -0.0096733 0.0081261 -0.00022499 0.0012284 0.003024 0.0084509 -0.0090827 0.0097449 0.0028712 -0.0020226 0.002199 0.0087586 0.001448 0.0032686 -0.00051579 0.0081858 0.005873 -0.0054403 -0.0022149 0.0046031 -0.0088511 0.0095628 0.0078581 -0.00085913 -0.0087237 0.0012881 0.0016524 -0.0045015 0.0065732 
ok -0.0056994 -0.0089063 -0.0021803 0.0012253 0.0082956 0.0081458 0.0076876 0.00099918 0.0014434 0.0091412 -0.0031396 0.0052435 -0.0077223 -0.0024511 -0.0094302 -0.0086565 0.00075735 -0.0094202 0.0013029 -0.0051068 -0.0030222 0.0035044 0.0042029 0.00031432 0.0042969 0.0060725 -0.0036139 0.0021059 -0.0022287 0.008463 -0.0011244 0.0081036 -0.0086231 -0.0048988 0.0086785 -0.00418 -0.0073559 -0.0054211 0.0069027 -0.0074054 -0.0090274 -0.001082 -0.0027986 0.0076931 0.00097007 -0.0020602 -0.0059885 -0.0059365 0.0073233 0.0045529 0.0096294 -0.0076211 0.0021245 0.0045158 -0.0087231 -0.0075122 -0.0082905 0.00088644 -0.0072613 0.0095923 0.010225 0.0088861 -0.0037569 -0.0094037 -0.001252 0.0029825 -0.0012357 -0.0066594 -0.0097311 0.0087947 0.0099709 -0.0065627 -0.0087232 -0.0017739 -0.0034141 0.0098408 0.0078992 -0.0070717 -0.0097646 0.0069677 0.0092658 0.0090143 0.0073947 0.0094531 0.004263 0.00015797 -0.0086024 -0.0024376 0.0093275 -0.0077013 -0.0052224 -0.0017121 0.0025511 0.00942 0.0057599 0.0029906 -0.0097052 0.0026732 0.0031225 -0.0067759 
read -0.0026342 0.009876 0.0080138 0.0052531 -0.0032424 -0.0059366 -0.0020526 0.0066481 -0.0044027 0.0021341 -0.0018204 0.0030017 0.0013219 -0.0043055 0.0051134 0.0042652 0.0072637 -0.0014721 -0.00017305 0.00071991 0.0020235 0.0041227 -0.0043857 -0.001777 0.00077448 -0.0054493 0.0050501 0.002796 -0.00012453 0.0039403 8.8947e-05 0.00079121 0.0089383 0.0042881 0.0035674 -0.0068714 -0.002213 -0.0050651 0.00073347 -0.0097656 0.0078734 0.0066698 -0.0014955 -0.0029876 -0.0045076 -7.5874e-05 0.0076753 -0.00085371 0.0040286 0.0026235 0.0076757 -0.0072848 0.0090083 0.0065034 -0.0044244 0.0070325 -0.005625 -0.0082563 0.0026696 0.0010106 0.0045235 0.0021716 -0.0095268 0.0093805 0.0079943 -0.0073825 -0.0054142 0.0051833 -0.0053873 -0.0062928 0.0046743 0.0098952 -0.0084156 0.0047509 -0.0045949 -0.0011369 0.00917 0.0073741 -0.0063246 0.0057969 -0.0071869 -0.0062631 -0.00043573 0.0041144 0.0036785 -0.00068188 0.002704 0.0004059 -0.0089161 0.0095182 -0.00016444 -0.00019382 0.0085179 0.0042794 -0.0081904 0.0070218 -0.0092309 -0.0094938 0.0067404 -0.0092679 
true -0.0022082 0.0087012 -0.007126 -0.0073959 -0.0036458 0.0069758 0.0020587 0.0012971 -0.00018148 0.0030709 0.0041214 0.0072462 -0.0080881 0.0029074 0.0067556 -0.0061027 -0.0039599 -0.00090524 0.0040906 -0.00096644 -0.007981 0.0023183 0.0047482 0.005978 0.00032387 -0.0022675 0.0085975 0.00051903 -6.5758e-05 0.0077043 -0.0073896 0.0099828 0.00074795 -0.00556 0.0086405 0.0024459 -0.0031914 1.5979e-05 0.0040905 -0.0030817 0.0047897 0.0047344 0.0020882 0.0083804 0.0016909 -0.0051891 -0.0048064 0.0046287 -0.0042833 -0.003382 0.0048627 0.0041037 -0.0048699 -0.0018728 -0.0073188 -0.00028888 -0.0086383 0.0021669 -0.0038579 0.0070714 0.0037136 -0.0067262 0.0038177 -0.0011143 -0.0094333 0.0056869 0.005176 -0.0075151 -0.0012428 0.0040993 0.0037754 -0.009513 -0.0058108 0.0025174 0.00373 -0.0045798 -0.0053764 0.0086423 -0.0083023 -0.0089099 -0.0044896 0.0049329 0.0014464 0.0016369 0.0068257 -0.00024146 0.0094006 0.0057944 0.0044343 -0.0096992 0.0087544 -0.00077131 -0.0015563 0.0067517 -0.004846 0.0099672 0.0060612 -0.0093339 0.0055336 0.0039489 
morning -0.0046554 -0.0093551 0.0057824 -0.0056595 -0.0050656 -0.0090929 -0.0052511 -0.0037376 -0.0074285 0.0056008 0.0020762 -0.0082961 0.0097204 0.0043092 0.005817 -0.0099844 -0.0057227 0.0063351 -0.0081908 0.0073043 -0.00018099 0.0082958 -0.0041288 -0.0080865 0.0033758 0.00016062 -0.0028531 0.0022126 0.0069779 0.0017483 -0.010301 0.0066411 0.0029924 0.0069602 0.0086359 0.0010955 0.0028246 0.0039163 0.0077048 0.0080276 -0.0029361 0.0022318 -0.0069762 -0.0029969 -0.0014009 -0.0053167 0.0017761 0.0037244 0.0081907 -0.0033342 0.006239 -0.0041831 -0.0010856 -0.0035253 -0.0051102 0.003948 -0.0029462 0.0023977 0.0078643 0.0066852 0.0074413 0.0024615 -0.0013969 -0.0034837 0.0054821 0.0062422 0.0077281 0.00079805 -0.0061269 -0.0041458 0.0030134 -0.0014017 0.0049358 0.0012622 0.00080616 -8.5312e-05 0.0035216 -0.0058919 0.010226 -0.0095267 -0.0084121 -0.0060635 0.0053186 -0.00571 0.0078897 -0.003066 -0.0080511 0.0021775 -0.0073794 -0.0063323 -0.0029637 -0.0057393 0.0082723 -0.0094578 -0.0046083 0.008152 -0.0035591 -0.0070329 -0.0050883 -0.010424 
agree -0.0062321 -0.0095738 -0.0042722 -0.0020242 -0.0093597 -0.0068451 0.0054158 0.0041263 0.0084233 -0.0040737 -0.0032818 -0.00019592 -0.0055092 -0.0062852 -0.0054785 -0.0058767 -0.0087416 -0.00023037 -0.0066129 -0.0045949 -0.0073147 -0.0070808 -0.0073069 0.0057149 1.3563e-05 -0.0048252 0.0052841 -0.0020227 -0.0022337 0.0087688 0.0080019 -0.0045736 -0.00047168 -0.0061237 -0.0039483 0.0023647 -0.0063107 -0.0069001 0.004233 0.0089105 0.0010769 -0.004525 0.0094547 -0.0062248 0.0035343 -0.0021779 0.0034474 -0.0093775 -0.0043375 -0.0085126 0.0095175 0.0011405 -0.00063277 -0.0084309 -0.0019653 -0.0014398 -0.00030652 0.004 0.0059948 -0.00086226 -0.009394 -0.00061197 -0.0053845 0.0026756 -0.0093281 0.003066 -0.0049851 0.0073512 -0.0094895 -0.0076932 -0.0012889 0.0093289 0.0085075 -3.5083e-05 0.0027686 -0.006607 -0.0013943 -0.0018377 0.0016235 -0.0072737 0.0083611 0.0037106 -0.0070288 0.0084887 0.0040123 0.0060073 -0.0052134 0.0053458 -0.0098401 0.0065698 0.0048137 -0.0062075 -0.0015237 -0.0098093 -0.0040094 0.0086528 -0.0042586 0.0094695 -0.0092771 0.0093021 
Read 0.0066423 -0.0039973 -0.0074345 0.0066308 0.007777 0.0034264 0.0032501 -0.0057375 -0.0069727 -0.0061431 0.0010132 0.0060915 -0.0084981 -0.003289 -0.0082771 0.0066229 -0.0090911 0.0039313 0.0055678 0.009362 0.003427 0.0081172 -0.0038285 -0.0088967 -0.006788 0.003405 0.0087401 0.0052159 0.0093144 0.001684 0.0090631 0.0060594 0.0011663 -0.0042515 0.00017521 0.003934 0.0039483 0.00010374 0.0029588 -0.006729 0.0016176 0.0034699 -0.0011352 0.0064775 -0.0086277 -0.0080933 -0.0034854 -0.0047989 -0.0037128 -0.0088901 0.00050064 0.00087872 -0.0061538 -0.0034392 0.0063633 -0.0099263 -0.0032256 0.0099475 -0.0010987 0.002703 0.0067508 -0.0042962 0.0037215 -0.0017315 0.0049647 0.0028509 -0.0060519 0.0010263 0.0076753 -0.0030485 0.0078094 0.0036439 0.0085283 0.0050919 -0.0096133 -0.0089801 0.0090935 0.0042653 0.0070311 0.0055558 -0.0028921 0.00086019 0.0057735 0.0071728 -0.0056682 0.004842 0.0019466 -0.0013168 0.0066835 0.0011723 -0.0096861 -0.0090622 -0.0068844 -0.0089971 0.0033153 -0.0046848 0.00016231 -0.0056289 0.0039624 -0.0022479 
well 0.00036077 -0.0028074 0.0042837 0.0007284 0.0050943 0.0015281 0.0062644 -0.007892 -0.0069144 0.003286 0.0079212 -0.00060763 -0.0037745 0.0010297 0.0097184 0.00031896 -0.0078805 -0.0055151 -0.0064142 -0.0047079 0.0066298 0.0042841 -0.0032195 -0.0053982 0.0047924 0.0050882 -0.0043723 -0.0080633 0.0048635 0.0033777 0.007242 0.0039403 -0.0076611 0.0054219 -0.005829 -0.0081931 -0.0072303 0.010065 0.0027035 -0.0097768 -0.0055912 -0.0063326 0.0014024 0.0032909 -0.004761 0.002576 0.0045315 0.0072241 0.0004743 0.0001081 0.010002 -0.0032374 -0.0031538 -0.00030282 -0.007119 0.0067819 -0.0045793 -0.0042788 0.0067863 0.0084326 -0.008507 -0.0032367 -0.00073594 0.0028137 -0.0039848 -0.0011379 0.0055772 0.0014514 -0.0096005 0.0032419 -0.0068746 -0.0040031 0.0095379 0.0026249 -0.0069422 -0.0060966 0.0024667 -0.0084882 0.0097691 -0.0099975 0.0013475 -0.0066201 -0.0023217 -0.0091579 -0.0060446 -0.0075042 -0.0035854 0.0018794 0.0075082 -0.0048134 -0.0073186 -0.0045566 0.0072168 0.0032745 -0.0038955 -0.0049554 -0.0050732 0.0086839 -0.0076151 -0.0036084 
an 0.0083002 -0.0066981 -0.00059392 -0.0042775 0.0085675 -0.0032812 -4.4303e-05 0.0077441 -0.00067544 -0.0039081 0.0091877 0.0079519 0.0077157 -0.0043201 0.0012493 0.00821 0.0084724 -0.0048293 0.0064244 -0.0044684 0.0021393 -0.000701 0.0017425 0.0019851 -0.008335 0.0014164 -0.00087627 -0.0012123 0.0090571 0.0039998 -0.0049173 0.0027078 -0.0096655 0.0076757 0.0011717 0.00067465 0.00371 -0.0059227 -0.0069862 0.0096275 0.00425 0.0016238 0.0076658 -0.0080179 -0.0065411 0.0061186 0.0065999 0.00082143 -0.0061851 0.0061241 0.00040595 -0.0031689 -0.0054933 0.0022409 -0.0086323 -0.0040719 0.0042809 0.0082661 0.0022203 0.0069105 -0.0020568 0.0046914 -0.0034268 -0.0010346 0.00465 0.0016588 -0.0064617 0.0080592 0.008136 -0.00037902 -0.0076232 -0.0096757 0.0045254 -0.0030401 -0.0015677 -0.0098591 -0.008046 0.0093206 0.0075794 0.0036788 0.00066798 -0.007904 -0.0046213 -0.0028554 0.0059054 0.0057403 -0.00030947 0.0038718 -0.0036209 -0.00035904 -0.0098264 -0.0043702 0.0011192 -0.0010507 0.0026028 -0.0047865 -0.0053376 0.0020005 -0.0070917 -0.0010564 
sleep 0.0067284 -0.0053424 0.0044338 -0.0019612 0.003132 0.0089015 -0.0017392 0.0037811 -0.00095994 0.0036138 -0.0057406 0.00087304 0.0037622 0.008173 0.0048543 0.0086675 0.0055145 -0.007883 -0.003987 0.006558 -0.0012188 -0.0090902 -0.0044795 0.0046068 0.0067295 -0.0047477 -0.006448 -0.0030285 0.004053 -0.0012977 0.0053664 -0.0072739 0.0025995 0.0081526 -0.0058842 -0.0062639 0.0078664 0.0022331 -0.0053409 -0.0086023 -0.0083989 0.0082282 -0.0043077 -0.0054725 0.0064795 -0.0082156 -0.008506 -0.0048607 0.0086813 0.0067868 0.0055284 0.0087262 0.0022018 -0.0030379 -0.0082555 0.0054425 -0.0070029 0.0052161 -0.0071702 -0.0009503 -0.00089039 -0.0042233 0.0045113 -0.0018295 -0.0061268 -0.0087309 0.0080699 0.0080467 -0.0040112 -0.0039193 -0.0050093 -0.0095019 0.0031338 -0.0015724 0.0099063 0.0099773 0.0065267 -0.003511 0.0048468 0.001764 0.0049752 -0.0078671 -0.0063615 0.004239 -0.0068537 0.0047266 0.0087509 0.0033429 0.0030896 -0.0010555 -0.0054922 -0.0024567 0.009325 -0.0018108 0.0054167 0.0056911 -0.0062237 0.0057432 -0.0068265 -0.0076211 
because 0.0054743 -0.0080967 0.0080116 -0.0052005 0.0083402 0.0090118 -0.0044457 0.0066344 0.0052166 0.00984 0.0054971 -0.0024662 0.00049991 -0.0022919 -0.0045684 0.0048624 0.0064237 -0.009289 -0.0083395 0.0067961 -0.0054013 -0.0055658 0.0062958 -0.0062069 -0.00062004 -0.0050886 0.0019319 -0.0016583 -0.0080599 0.0031594 0.0050829 0.0025882 -0.0054887 -0.0020467 0.0011944 0.0027181 -0.0073788 -0.0085494 -0.0046492 0.0019855 -0.0017998 -0.0071645 -0.0017907 -0.0060129 -0.0024465 0.0094545 0.0038291 -0.0013723 0.0078795 0.0090816 0.0099139 0.0076157 -0.0053895 0.0069492 0.0019451 -0.002865 -0.0067992 4.231e-05 -0.0031904 -0.0097188 0.0040291 0.0028961 0.0088044 -0.0097755 0.0078311 -0.0079155 -0.0088767 0.0043441 9.2075e-05 -0.0088684 0.0023132 -0.0021061 -0.0084436 0.0059141 0.0008355 0.007203 -0.0025892 -0.0075055 0.0036191 0.009172 0.0082135 0.0079603 -0.00067534 -0.0089596 -0.0043057 -0.0085523 0.0093758 -0.0081261 -0.0021465 -0.003134 0.0010815 -0.0083942 -0.0046691 0.0035842 0.0025923 -0.0019023 0.0078286 -0.0040945 -0.0091989 0.0060031 
same 0.0014001 0.0047669 0.0049251 -0.002093 -0.0064172 0.0096017 0.003187 0.0031019 -0.0038716 0.0012566 -0.00045032 0.0070575 -0.010142 0.0028905 -0.0098091 0.0060676 0.007526 -0.003779 -0.0031748 -0.0064846 0.0074388 0.0056282 -0.005055 0.002651 0.0086205 0.00022551 -0.0089772 -0.0042756 2.5674e-05 -0.0073948 0.00054855 -0.0061906 0.0002113 -0.0040026 -0.0051323 -0.0014543 0.0059958 0.0050061 -0.0066987 -0.00045009 0.0054689 0.0066459 -0.001443 0.0081043 0.0053214 0.0064726 -0.0086187 -0.0062424 -0.0085787 0.00054982 0.0057257 -0.0101 -0.0068343 0.0010186 0.0011779 -0.003852 -0.0062962 0.0019465 0.0055104 0.0046733 0.0058374 0.009295 0.0027276 0.00053002 0.0056642 0.00020148 0.0040828 -0.0036274 0.0059533 -0.0035558 -4.2919e-05 -0.0056388 -0.0070601 0.0065 -0.00094909 0.006776 0.0058466 -0.0071077 0.0040414 0.0010894 -0.0089535 -0.0077353 -0.0063969 -0.0062977 0.0055886 -0.0014229 0.0083831 -0.0045702 -0.0058 0.0041915 -0.0083053 -0.00012231 0.0015087 -0.00066193 0.0029827 -0.0030348 -0.0024022 0.0091463 0.0076609 0.0028853 
present -0.00031516 0.001416 -0.0089187 -0.0089923 0.0015281 0.0021979 8.7296e-05 -0.0038357 0.0049383 -0.0044512 0.0054115 0.0075678 5.9e-05 0.0064828 -0.0091069 -0.0061668 -0.0087294 -0.0084274 9.083e-05 0.0059953 0.0078283 0.0013547 0.0087732 -0.0041401 -0.0014913 -0.0108 -0.0017263 0.0010535 -0.00075025 0.0069773 -0.0082342 0.0078378 -0.008869 0.0032354 -0.0038099 -0.0044235 0.0031664 0.0011395 -0.0078055 0.0048981 -0.00053619 -0.0081169 0.0057008 -0.0017732 -0.0026847 -0.0054087 0.0034686 -0.0013094 -7.6107e-06 0.0093906 -0.0052642 -0.0042908 0.0082852 -0.0094192 -0.0099424 -0.0053363 0.0019963 0.0055542 -0.0089241 -0.0020798 0.0041515 0.0052296 0.00028034 -0.0035204 -0.0041266 0.0090688 -0.0021236 -0.0009059 0.0044108 -0.00097314 0.0050076 0.009762 -0.00075945 0.0056418 -0.004796 -0.0027677 0.0033199 -0.0022809 -0.004546 -0.0099746 0.0056353 0.0038127 0.0054799 -0.0069683 0.0044898 0.0015153 0.0017456 -0.0091063 -0.0028462 0.0028663 0.0058757 -0.0029707 0.010884 -0.0018621 -0.0030378 0.00026443 -0.0072103 0.003395 -0.0033168 -0.0090622 
does -0.0043803 -0.0019038 0.0041402 -0.0069386 0.0076296 0.0053426 -0.0047085 -0.0021457 0.0010132 0.0083975 0.0086191 0.0087838 -0.0079684 -0.0039114 0.0071695 -0.0051697 -0.00076832 0.0036287 -0.0048632 -0.0056618 0.0086155 -0.0043816 0.0022107 -0.0074934 0.00083031 0.005119 0.0062965 0.009745 -0.0030177 0.0097646 0.0035848 0.0097852 -0.0054935 0.0090893 0.0031759 0.0013498 0.0090074 0.0060263 -0.0071411 -0.0092951 -0.0037083 0.0073959 -0.0071386 -0.0017899 0.0077316 -0.00044498 0.0025363 0.0041988 0.00033902 -0.00023529 -0.006271 0.0049143 -0.0026894 -0.0030235 0.0035086 0.0042281 0.0098674 -0.0054141 0.0097597 -0.0022635 -0.0095134 0.0055016 0.0044944 0.0025988 0.0071567 -0.0059156 -0.00178 0.0055432 0.0078115 -0.0082094 0.00043401 -0.0060615 -0.0038073 -0.0025691 -0.0052987 -0.009074 -0.0088064 0.0046687 0.00026565 0.0052018 0.0034291 0.0056405 -0.0029463 -0.0076828 0.0083287 -0.0059641 0.0081702 0.0055597 -0.007724 0.0029032 -0.0092009 0.0027258 -0.0031771 0.0076674 -0.0049533 -0.0094447 -0.0019939 -0.0013846 0.0090504 0.0033858 
your 0.009605 -0.002013 -0.00014815 0.0047554 0.0016867 0.0043758 0.0026294 0.0039888 0.0073057 -0.0036498 0.0038515 0.0062711 -0.0069317 0.0056803 -0.0069045 0.0044792 -0.002822 0.0056831 0.0014092 0.0094924 0.0021015 0.0062222 0.0010186 -0.0034309 -0.0083047 0.0066852 -0.0099168 0.0020099 0.0023374 0.0033387 -0.0071141 0.0089488 -0.0026848 -0.00016744 -0.00179 -0.0051528 0.0032341 -0.0096792 -0.00031394 0.0074084 -0.0060408 -0.0074092 0.0089643 0.0033 -0.0098767 -0.003653 -0.0055177 0.0006369 -0.0081068 0.0022183 0.0048129 -0.0082166 0.0052107 0.0033407 -0.00057072 -0.0098737 -0.0035387 0.0033178 -0.0048772 0.002847 0.002117 0.0036285 -0.0047377 -0.0079593 -0.008008 -0.0025685 -0.0040839 0.0041497 0.0065008 0.0069458 0.0015328 0.0058199 0.0030509 0.0048093 -0.0097776 -0.009109 0.0099679 0.0089528 0.0010814 0.0019276 -0.0092449 -0.0050029 -0.0058482 0.0034118 -0.0015987 0.0097399 0.0062986 -0.0077217 0.0012519 -0.0060062 -0.0012272 -0.007413 -0.0037295 -0.005404 0.0048914 -0.008047 -0.0054335 -0.00035018 0.0029295 0.0076357 
no 0.00055385 -0.00053876 -0.00013823 -0.0034006 0.0077827 -0.0070082 0.0027301 0.0082758 -0.0074504 -0.0043934 -0.0092167 0.0079747 0.0015108 -0.010432 0.0096067 -0.0093005 -0.0058274 -0.01027 0.0060782 0.0062815 0.0073199 5.1841e-05 0.0030823 0.009767 0.0011695 -0.0031287 0.0020991 -0.0029524 0.0068913 -0.0092866 0.010598 0.0050068 0.00082557 0.0046306 -0.0033266 -0.0024704 -0.00051537 -0.0033558 0.0015445 0.0030781 0.00071504 -0.0040948 -0.0016092 -0.007265 0.0038191 0.001403 0.0024914 -0.0064098 0.010709 0.007453 -0.0074372 0.00036695 -0.0042935 -0.0075429 0.0061478 -0.0096631 0.0022171 0.007592 -0.0009288 -0.0013072 0.00075097 -0.008523 0.0091924 -0.0081699 0.0013385 0.0036536 0.0035405 -0.0081389 0.0064918 -0.0079411 -0.006185 -0.0083572 0.00029241 0.0080236 -0.010027 0.0013535 -0.003288 0.0045303 -0.0063426 0.0066782 0.0064425 -0.0065645 -0.0046909 0.00089367 -0.0055165 -0.0063783 -0.0051804 -0.0029814 -0.0074401 0.0059941 0.00032563 -0.0076673 0.0058993 -0.006838 -0.0041728 0.0038647 -0.0033688 -0.0095894 -0.0086963 -0.0010698 
book -0.0089164 0.00089217 0.0074938 0.0022232 0.0021028 0.0085475 -0.0047593 -0.0037021 0.0097901 -0.00059111 0.0047536 -0.00082543 0.0057392 -0.00076614 -0.0095377 0.0058778 -0.0018553 -0.0090386 0.0066138 0.0006528 -0.0023226 0.0091461 0.0068409 -0.0047328 -0.0085971 0.0079822 0.0081162 0.0028935 -0.0094621 -0.0024155 0.0075642 0.0055293 -0.0059028 -0.0085453 0.00082001 2.5432e-06 0.0070803 -0.0014269 0.0036513 -0.0080112 -0.00096886 -0.0041106 -0.0050499 -0.0060407 0.004954 -0.0073734 0.00997 0.0045446 -0.0085489 -0.0015083 -0.0055557 -0.0050398 -0.001236 0.008986 -0.00019087 0.0022153 -0.008375 -0.0085317 0.0077043 -0.0099451 -0.0090815 -0.0036924 -0.0051096 0.0040437 -0.0082727 0.00018999 -0.0031815 -0.00258 0.0047787 -0.0062073 0.0088116 0.00080498 0.0036782 0.0028075 -0.0082162 -0.0089614 -0.002276 -0.0086667 0.006678 0.0029852 0.0076279 0.0088694 0.0064455 -0.0077157 -0.0073106 0.0018619 -0.0082874 0.0019753 6.6615e-05 0.0099681 0.0041649 -0.0059491 -0.0030602 -0.0095267 0.0036068 0.0028477 -0.00087679 0.0064714 0.0071579 0.0034578 
me -0.0018664 -0.0010186 0.0021255 0.0020211 0.00026787 0.0056403 -0.0054111 -0.0095802 -0.0084213 -0.0008816 0.0010974 -0.0091607 -0.0011918 -0.007604 -0.00061384 -0.0096725 -0.006941 0.0010699 0.0049561 0.0029622 -0.0015527 -0.0043579 0.0058242 0.0011143 0.0077958 -0.0064113 -0.0059184 -0.009114 0.0065048 -0.0099088 -0.0037691 -0.0072062 -0.0084792 -0.0060758 -0.0078347 0.00055084 0.0019366 -0.0080862 -0.0053022 0.00071254 -0.0063577 -0.0035376 -0.010064 0.0093348 -0.0033151 -0.0087498 0.010206 -0.00064358 0.0027712 0.0019823 0.007699 -0.0069195 0.0084813 -0.0018541 -0.0078258 -0.0070131 0.0039103 0.0080764 -0.0083284 -0.0023838 -0.0098152 0.0022766 -0.00039634 0.0061048 -0.0073856 0.010048 -0.0082028 0.0063814 -0.0058765 0.0046096 -0.0029907 -0.0030762 0.0030112 -0.0070785 -0.00086331 -0.0075362 0.0070653 0.006396 -0.0051944 0.0076237 -0.0011423 -0.0060755 -0.0032609 -0.0094709 -0.0061721 -0.0083713 -0.010081 0.0042959 0.0092712 -0.0068461 0.0055737 -0.0081397 0.009565 -0.005734 0.0064517 -0.0072319 -0.0070718 -0.0094755 -0.0055648 -0.0047404 
buy -0.0060697 -0.0088106 0.0020316 -0.0056698 -0.0061872 -0.0061398 0.00059969 -0.0072781 0.002547 0.0078819 0.0029431 -0.0041388 0.008304 0.0069781 -0.0069738 -0.0021372 0.0054953 -0.0037586 0.0056327 -0.0065927 0.0097456 0.0021584 -0.0019556 0.004878 -0.0067724 0.0056815 0.00063576 0.0016809 -0.0078934 -0.0025215 0.0075569 -0.0069066 -0.0073049 0.0045992 0.0084378 -0.0086372 0.0021909 0.0037785 -0.0099542 -0.0074935 -0.0097202 -0.0020721 0.0059089 0.0026372 -0.0096375 -0.0079829 -0.0050962 0.0013404 0.0083235 0.0040367 -0.0069928 0.0051777 -0.0012077 0.0097339 0.0044596 -0.0084309 -0.0063482 0.00040587 -0.00020384 -0.0083231 -0.001163 0.0034341 -0.0032408 0.0053631 -0.0043431 -0.00032808 0.0098011 -0.00069255 0.0048396 -0.0053588 -0.0095594 0.0057871 0.0038445 -0.0038064 -0.008822 -0.0031447 -0.0042528 0.0033681 -0.0039626 -0.0064936 0.00082044 0.0068352 -0.0039851 0.0034953 -0.0010307 -0.0055714 -0.0031049 -0.0063824 0.0063275 -0.0026637 0.003934 0.0080038 0.0040299 0.0096803 0.00025949 -0.0032575 -7.4281e-05 0.0085465 0.0033988 0.0036686 
hello 0.00094946 -0.0061497 -0.0058195 0.0021831 -0.0067871 -0.006564 -0.0003702 0.001376 0.0057741 0.0031499 0.0093545 -6.4509e-05 -0.0045656 0.0092391 0.00685 -0.0067045 -0.003582 -0.0063457 -0.0056535 -0.010153 -0.0034259 0.0051295 -0.0076818 0.00077939 -0.0034867 -0.0058603 -0.0041393 -0.0067868 -0.0017308 0.010785 0.005956 0.0097851 -0.0089532 -0.0040634 -0.0041027 -0.00020625 -0.0027596 -0.0062234 0.005019 0.0017031 -0.0037636 -0.0081226 -0.0034989 0.0021457 0.0060551 0.005229 -0.0072403 -0.0050533 0.0026649 -0.0078211 -0.010736 0.0079921 -0.0086421 -0.0041684 0.0086798 -0.0077976 -0.0069366 -0.0002874 0.0020056 -0.0010333 0.0041272 -0.0023875 0.0085397 0.010531 0.0073718 0.005351 0.0050816 -0.0010666 0.0013484 0.00078429 -0.0013322 0.008112 -0.0056311 0.0010829 -0.008432 0.004298 0.0063288 0.0077251 0.0073271 0.00051457 -0.0043499 0.0022586 0.0065742 0.0060708 0.0090297 -0.01008 -0.0030834 -0.0064804 -0.0032728 -0.0043724 0.0014934 0.0003513 0.0048757 0.0043977 0.007969 -0.0014262 -0.0086777 0.005369 -0.0030907 -0.00046907 
yourself 0.0080296 -0.0069907 -0.0043354 -0.0011684 -0.0043653 -0.0095935 -0.0092798 0.0048808 -0.0044227 -0.0050039 -0.0084637 -0.0034065 0.0065756 0.0054269 -0.0092595 0.0053852 -0.0029965 -0.0071221 0.0014967 0.006528 -0.0012436 0.0076957 0.0099092 0.0077265 -0.0099143 0.0015255 0.007477 0.0058156 0.0041271 0.0084651 -0.0063234 -0.0040638 -0.00019216 0.0034294 -0.0018269 0.009329 -0.0047537 -0.0080007 -0.0048615 -0.0043962 -0.0096799 -0.0073118 0.0022656 0.00081854 -0.0061622 -0.0079427 0.0013868 0.0049581 0.0078379 0.0086648 -0.0017102 -0.007722 -0.0038219 0.0062804 0.0055484 0.009104 0.0096184 0.0049203 0.0014987 -0.0039556 -0.00026917 0.00029835 -0.0029099 -0.0011721 0.0084714 0.0039447 0.0084533 0.0019671 0.00081152 0.0097014 -0.0023295 0.008778 -0.0067872 0.0048899 -0.004207 0.0012332 0.0025749 -0.0069283 0.0066954 -0.0087896 -0.002093 0.0047698 0.00033724 -0.0028753 0.0086412 0.0062509 0.0035971 0.0033861 0.0020435 0.0087135 -0.00069564 -0.0028842 -0.0099254 0.0067985 0.0026836 0.0039267 -0.009514 -0.00051899 -0.0025126 0.0020966 
Human -0.0064239 0.0076492 0.006061 -0.0047602 -0.0071334 -0.0077429 -0.0056064 -0.0083578 0.0011205 0.00024869 0.0041235 0.0071979 0.0016771 0.008683 -0.0012282 -0.0039508 -0.0062969 0.0049345 -0.00033038 -0.0094014 -0.0026121 -0.0098051 0.0032901 -0.0029364 -0.0086562 0.00080886 0.0043104 -0.0089795 0.0087158 0.007383 -0.0073843 0.0038148 -0.0055041 0.0046654 0.0065938 0.0038252 0.0071735 -0.0063962 -0.0019182 -0.0046372 -0.0061946 -0.0036709 0.00076745 -0.0031856 -0.0083293 0.00033549 -0.0053982 0.0097198 0.0037956 -0.0086527 -0.0032646 0.0004291 -0.0083605 -0.0091121 0.0019905 0.007493 0.0064113 0.0090233 0.0097501 0.0060511 -0.007551 8.6533e-05 -0.0067265 -0.0073185 0.0099188 -0.0011433 -0.00043414 -0.0076214 0.008712 -3.3252e-05 0.0055326 -0.007943 0.0055951 0.003436 0.00041888 0.0095376 -0.0025295 -0.0030028 -0.0075033 -0.0028023 -0.0068361 -0.00029359 0.0071929 -0.0077653 0.00039905 -0.0068767 0.0032643 -0.0079728 -2.9952e-06 0.0046507 0.0031755 0.0046554 -0.0074631 0.0030745 0.0088863 0.0068501 0.007561 0.0014796 0.0063271 0.0056489 
No -0.0063392 0.0097716 -0.0054736 0.0056947 0.0056717 -0.0064514 0.0041244 -0.0070824 -0.00065575 0.0031625 -0.0043173 -0.0029745 0.0056541 -0.0062609 -0.0052447 0.0036894 0.0016249 -0.0025205 -0.0038493 -0.0067122 -0.0088549 0.0037488 -0.0021821 -0.0022648 0.00633 -0.0076277 0.0010773 0.0085711 -0.002617 0.0083638 -0.0090246 -0.0062115 0.0025905 0.0010799 -0.0098688 -0.007394 0.0087756 -0.007468 0.0032749 0.0013295 -0.0035021 0.0043642 0.0064841 0.0062195 0.0013462 0.006233 0.0070503 -0.0057051 -0.0024267 -0.0043827 0.0021909 -0.00075743 0.001049 -0.0068785 -0.0058397 0.004373 -0.0069864 0.0063271 0.0087297 0.0065767 0.0015339 0.0039974 -0.0084508 -0.0095751 -0.0093037 0.0011788 -0.0074906 0.0062904 -0.008908 -0.0079324 -0.0093067 -0.0081645 0.0037857 -0.0071922 -0.0083692 0.0042464 -0.0096579 0.0015292 0.0088669 0.0028405 -0.0055273 -0.0044621 -0.004608 -0.00019454 -0.009065 -0.0026257 0.0059065 0.00094042 0.0097619 0.0094918 0.0071865 0.0032544 0.0026593 -0.0043582 0.008564 0.008022 0.0029627 -0.0083419 -0.0021708 0.0033543 
Real 0.0023315 -0.0050226 0.0045972 -0.0010103 0.00061397 -0.0053056 -0.0033789 0.0088445 -0.00092924 -0.00035054 -0.0066849 -0.0006785 -0.0031082 0.0013867 -0.0088076 0.0048665 -0.002926 0.0067258 -0.0022676 -0.0073206 0.0047069 -0.0065975 0.002441 0.0049088 -0.0034958 -0.0063138 -0.0042793 0.0095575 0.0076692 -0.0035611 0.0074421 -0.0051258 -0.0004659 -0.0017117 0.0054812 0.0079009 0.0095442 -0.0052404 -0.0011736 -0.0030027 0.0074353 0.0036308 -0.0034254 -0.0090147 -0.00070928 0.0023589 0.0076714 -0.00092717 0.0062836 -0.0048316 -0.0090762 -0.0064228 0.0032789 -0.0054065 0.00026969 0.00011393 0.0064206 -0.0067636 0.0094053 -0.0094036 0.0020007 -0.0022146 0.007735 0.0098967 0.0019855 0.0063107 -0.0055717 -0.0063647 0.0041448 0.0066677 0.0035421 -0.0017205 -0.0075547 0.003673 -0.0037183 0.0028753 -0.007352 -0.006485 -0.0095334 -0.0039266 0.0093101 0.0013466 0.006754 0.0062934 -0.0091237 -0.0058771 -0.0024048 0.0010244 0.0066442 0.0093909 -0.0081883 0.0047862 0.0050454 0.009559 0.0080149 -0.009751 -0.0036092 0.00047452 -0.0063005 -0.0062793 
with 0.0013417 -0.0065922 0.0036242 0.0073052 0.0052646 0.0065573 -0.0051013 -0.003955 0.0026243 0.0048706 0.0022385 -0.0049297 0.0055417 0.002742 -0.0021119 -0.0040324 0.0098886 0.0022705 -0.0053133 -0.0099109 -0.0039915 -0.0054875 0.0098342 -0.0059882 -0.0024747 0.0026031 -0.0073461 -0.0034338 0.0036186 0.0082178 0.0046909 -0.0092488 0.0049142 0.0029834 -0.0057148 0.005857 -0.00075481 -0.0090157 0.0083506 0.0017962 0.003799 -0.0027634 0.0048809 0.0090547 0.0056109 -0.0099635 -0.009706 -0.00058216 -0.0063675 0.0080528 0.0019191 -0.0084349 -0.0020829 0.0086258 -0.0071898 0.0087924 -0.0039349 -0.0087336 -0.0014042 0.0074308 0.0094977 -0.0063634 -0.0068475 0.0016694 0.0015327 -0.0026945 -0.0097064 0.0020584 -0.0074378 -0.009451 -0.0010201 0.0022021 -0.0051211 0.0054326 -0.0053803 0.0085535 0.0038218 -0.0067484 -0.0012911 -0.0079956 -0.00086259 -0.0002761 0.0035268 -0.0094443 -0.0095486 -0.0046592 -0.0078609 0.005866 -0.0020312 0.00013585 -0.00303 -0.00079666 -0.0067138 -0.005438 0.0016739 0.00076959 -0.0048024 -0.0071239 0.0099731 -0.00068804 
are -0.0033388 0.0050062 0.0014991 -0.0082596 -0.0096847 0.0077435 0.0045463 0.0079236 0.0055137 -0.0050851 0.0066824 -0.0038736 -0.00093534 -0.0023892 0.0087744 -0.0048132 -0.0079852 -0.0078853 0.0016552 0.0035762 -0.0076883 -0.0082846 0.0058711 0.0096689 0.0048954 -0.0050942 -0.0066627 0.0085679 0.0084388 0.0019557 -0.0037327 -0.0030961 0.00018119 0.0086268 -0.0049419 0.0018997 0.0041376 0.005735 0.00813 -0.0072526 0.0026166 0.0089011 -0.0054758 -0.0018351 0.0025766 -0.007728 -0.0049033 0.0030051 0.0057392 0.0074475 -0.0020584 0.0019957 0.0023227 0.0029602 0.0043491 0.0057693 -0.0088406 -0.0075858 -0.0070061 -0.0097998 0.0021512 -0.0078376 0.0089112 -0.0080075 -0.003233 -0.0017376 -0.0052847 0.0040644 -0.0046834 -0.0075447 0.0054964 0.0080706 0.0072073 0.006742 -0.0091211 0.0095898 -0.00022606 0.005227 -0.0011583 -0.0079667 -0.0019004 -0.0018734 0.002559 0.0051499 -0.0051788 0.0079832 0.009037 -0.002441 -0.001567 0.009381 -0.005945 -0.004368 -0.0018933 0.0084796 0.00068721 0.0056694 -0.0020893 0.0091858 -0.0063136 0.0077325 
get 0.0022238 0.0035924 -0.0067236 -0.0043968 0.0010073 -0.00055267 0.0062644 0.0060726 0.0025823 -0.00012183 -0.0063687 -0.00081347 0.0063826 0.0059156 0.0078868 0.00039339 -0.0019795 -0.0098877 -0.0046548 0.0007359 -0.0034644 0.0010336 0.0074536 0.0038896 0.0016549 0.0043895 0.00094452 0.0088281 -0.002888 -0.0076991 0.0040444 -0.0043919 0.004384 0.0099877 -0.0076259 -0.0013377 0.0081556 0.0085694 -0.006108 -0.0026221 0.0010029 -0.0077888 0.00665 -0.0075215 0.0094643 -0.0066232 -0.0064185 0.0070186 -0.0064172 -0.0060405 0.00088029 -0.0055636 0.0071073 0.0040765 0.009447 -0.0074107 0.0029757 -0.0066678 -0.0056051 0.0044495 0.0095477 -0.0047328 0.0041549 -0.0077678 0.0025222 0.00079359 -0.0055625 0.0056699 0.0081528 -0.0068085 0.0056975 -0.0084305 0.0015427 -0.0095031 -0.0092008 -0.00086223 0.0058597 -0.0038676 0.0065135 -0.0031522 1.7445e-05 -0.0026617 -0.00049744 -0.0061202 -0.0033077 0.006752 -0.004626 -0.0048424 -0.0079035 -0.0022512 -0.0022105 -0.0035536 0.0011481 0.0016869 -0.0058115 -0.0098574 -0.0024145 0.0060478 -0.0040033 0.00071168 
sense -0.0035306 0.0090642 0.0004646 -0.0025209 -0.0091458 -0.0080224 -0.0025504 0.0056325 0.0052109 -0.001368 0.0042356 0.0056603 0.0019513 0.0015695 0.007478 -0.0059939 0.0096357 -0.00074831 -0.0097783 0.0020173 -0.0040552 -0.0018926 -0.0036957 0.0063792 -0.0014956 0.0037917 0.0050542 0.0045126 -0.0014146 0.0023359 -0.0018445 0.0082687 -0.0058 -0.0087329 -0.0053656 -0.0082942 0.0054565 -0.00053003 0.0074553 0.0048502 -0.0079663 -0.0030127 -0.0023039 -0.0090185 -7.8858e-05 0.0083321 0.0076859 -0.0097479 -0.0068234 -0.0037599 0.00014934 -0.0026016 0.0088079 -0.0068162 0.007776 -0.0048395 0.0060283 -0.0030543 0.0081871 -0.0099789 0.0079431 0.004524 0.0052969 -0.00087086 0.0043861 0.008731 -0.0091888 0.0099336 0.0087487 3.738e-05 -0.0032108 0.0089525 0.0098267 0.0002813 0.0085274 0.0034479 0.00035071 -0.0054416 -0.005087 -0.0081972 -0.0084855 0.0025325 -0.0075701 0.0095541 -0.0084086 -0.0027383 -0.00079048 -0.0057946 0.0036111 0.0059653 0.0059915 -0.0039143 -0.0058518 -0.00055164 0.0047956 0.008055 -0.0013841 -0.0096921 -0.0017208 0.0024391 
speech -0.00087909 -0.001544 -0.0017308 -0.0011032 0.0025467 0.0024356 -0.0090894 -0.0041063 0.0024874 0.00536 0.0072102 0.006438 0.0069703 -0.0055149 -0.0049832 -0.0075238 0.0090407 0.004346 -0.0075967 -0.0067613 -0.000913 -0.0026842 -0.009988 -0.0071551 0.0094909 -0.0083972 0.0089492 0.0006047 0.0064664 0.00053835 0.00027526 0.0072154 0.00568 0.0037183 0.0079242 0.00062902 0.0071739 0.0037994 0.0092782 0.0090883 0.0029857 0.0092052 0.0067859 -0.0075987 0.0010913 -0.0010783 -0.0031267 -0.001722 0.0099213 0.0097404 0.0042961 -0.0031683 -0.0011826 0.0033715 0.0066387 0.0097363 7.4734e-05 -0.0093113 0.008853 0.0085347 0.0043832 0.0034326 0.0030645 0.0078247 6.1216e-05 -0.0016548 0.0062314 -0.0024012 0.0076444 -0.0030096 0.0078817 -0.007534 -0.0090761 0.0059643 -0.0088989 0.00040417 -0.0054732 -0.0099905 -0.0085988 0.002042 0.0028321 -0.0023135 0.0094005 0.0090054 -0.0069421 -0.00025194 0.00063011 0.0078204 -0.0094265 0.0067818 0.0049197 -0.0082014 -0.0075616 -0.0025102 -0.0045117 -0.0057503 0.00068576 0.0010558 0.0041771 -0.0060739 
as -0.0071716 0.0034483 -0.00057618 0.0073407 -0.0012859 -0.0088305 -0.0088129 0.0059796 -0.0035364 -0.0086975 0.0095558 0.0083422 -0.0053648 0.0088995 -0.0097254 -0.0072545 0.00052891 0.0043765 -0.00049244 0.0079027 -0.0050325 -0.0089899 -0.0017549 0.0077086 -0.00084262 -0.0091943 -0.00016313 -0.0071151 -0.0030995 -0.00063223 -0.00042814 -0.0096676 0.007132 0.00089886 -0.0034614 0.0078653 -0.0053903 0.0075262 0.00040099 0.0042614 -0.0098222 0.0048814 0.006249 -0.0064752 0.0016636 -0.0084355 0.0067069 -0.0055541 -0.0080014 0.0084785 0.0015206 -0.0041771 0.0033426 0.0027733 0.0025436 0.0056963 -0.009799 0.0089935 -0.0012124 -0.0012623 0.0014029 -0.0017638 -0.00024823 -0.00056275 0.0022397 0.0038762 0.0032071 0.0035637 0.0058473 -0.0015234 0.0067793 0.0054691 0.00899 -0.0012737 0.0039602 0.0017049 0.0043304 -0.0071287 0.0017767 -0.0052945 0.0015368 0.006199 0.0080065 0.0075713 0.0075445 -0.00043495 -0.0069714 -0.0015784 0.0058007 -0.0040901 0.0090781 -0.0062917 0.0087613 0.00025075 -0.0081876 0.0050904 0.0021189 0.0028523 -0.0061422 -0.0092586 
start 0.0052767 0.0019892 -0.004592 -0.0069994 -0.0054677 0.0042998 -0.00074932 -0.00029187 -0.0067501 -0.0016481 0.0024435 0.0078255 0.0026422 0.0026521 0.001913 -0.0063214 -0.0011612 0.0020002 0.0095599 -0.0031753 -0.0025767 -0.0095611 0.0069693 -0.0028588 -0.0030306 -0.0099261 -0.0018852 -0.0030481 0.0087632 0.0066883 0.0053146 0.0043988 -0.00064537 0.00075269 0.0046867 0.0054248 0.0047936 0.0080949 -0.0099741 -0.0082214 0.0027954 0.0091371 -0.0088267 0.00562 0.002976 0.0059188 0.0060062 0.0033783 0.0066624 0.0089695 -0.0039134 -0.0065096 0.00056162 0.0093884 -0.0015575 0.003139 0.0051148 0.0082981 0.0064522 0.0034746 0.0061809 0.0065781 0.0066327 -0.0013007 0.0021159 0.002423 9.9207e-05 0.00051674 -0.007947 -0.0073393 0.0020912 -0.0039012 -0.002268 -0.0053606 -0.0069952 -0.00043304 0.0072006 -0.0020293 -0.0096152 -0.0085361 0.0034517 0.0010373 0.0017441 -0.0074954 -0.0090819 -0.0012353 0.0051191 0.0063867 0.0081905 0.00074136 -0.0029301 -5.6791e-05 0.0088798 -0.0084799 -0.0032487 -0.0080812 0.0044075 -0.0054549 0.0042193 0.0047542 
one 0.0099569 -0.0050367 0.0048485 0.0082361 0.0054363 -0.0038513 0.0041424 0.007196 0.0010246 0.0017595 -0.0040872 0.0097259 0.0054022 -0.0062018 0.0088295 0.0016106 -0.0058444 0.007917 -0.0015205 0.0028942 0.0072529 -0.0088364 0.0066047 0.00040231 0.0032239 -0.005137 0.004944 0.0050078 0.0042626 -0.0074769 0.00043014 -0.00054717 0.0055269 0.009773 0.0047707 0.0061455 0.0014026 -0.0030508 -0.0064892 -0.0059564 -0.00027644 0.008184 0.0028381 -0.0085738 0.0072236 -0.0054094 0.0087798 0.0067798 0.0047993 0.0015557 -0.00058447 0.0037036 0.0023961 0.0055286 0.0057245 -0.008151 0.0091348 -0.0040172 -0.0024058 -0.0069845 -0.0013743 -0.0082601 0.0074432 0.00053266 -0.0039958 0.0082002 -0.0064414 0.00064978 0.0014082 -0.0091502 0.0056028 -0.0045935 -0.00031169 -0.0085069 0.0059201 -0.0031717 0.0011574 0.0023579 0.0020471 -0.007289 0.0082376 -0.0092575 0.0024171 -0.0054234 0.0072633 -0.0070375 0.0010992 -0.0028244 -0.003565 -0.0061779 -0.0021197 -0.007246 0.0052681 0.0039682 0.01 0.0055215 -0.0063916 -0.0056617 0.0013932 -0.00038291 
mathematics -0.0013436 0.0089222 -0.0041218 -0.0024391 -0.0050704 0.0056193 -0.006395 0.00937 0.0040722 -0.0085372 0.003779 -0.0051095 -0.0088422 0.00067444 -0.0026906 -0.0059366 0.0088631 -0.0086681 0.00308 0.0089789 -0.0032525 -0.007022 -0.0078555 0.0072476 0.0063067 0.0073922 0.0028647 -0.0099172 0.0046665 -0.0043556 0.0088071 -0.0072242 -0.0098276 -0.0018647 -0.0068092 -0.00055565 -0.0021044 0.0034409 -0.0065881 0.0078477 0.0055719 -0.0083114 -0.0081851 -0.0079588 0.0079737 0.0096618 0.0080005 -0.0053404 -0.0044411 -0.0032699 -0.0077152 -0.0002088 -0.0041194 0.0097323 -0.0054151 -0.0011219 0.0068695 0.0027655 -0.004975 -0.0090423 0.0069094 -0.0047304 -0.0079518 0.0012519 1.9393e-05 -0.0071409 0.0015334 -0.0038973 0.0024761 -0.0031537 -0.0055638 -0.0070858 0.0051201 -0.0077779 -0.0092016 0.00011582 0.0085476 -0.0057731 -0.0093377 0.0048572 0.0091837 -0.009834 -0.001925 0.00054815 0.0040585 0.0050346 0.0077274 0.0015793 -0.0068278 -0.00014203 0.0045809 0.0096569 -0.0022641 -0.002409 0.0050064 0.00060048 -0.0013306 0.009444 -0.0075381 -0.0018344 
news 0.0028286 0.0088351 0.0085092 0.0066787 0.008014 -0.0088564 -0.00027443 -0.0055374 0.006624 0.00023428 -0.0032408 0.0056557 -0.0098315 0.0096734 -0.0024118 0.0047154 -0.0022905 0.0016891 0.0089672 -0.00078212 -0.0083924 -0.0097329 0.00085855 -0.0088402 -0.0049118 0.0065775 -0.0051091 0.0088176 0.0043807 -0.0068141 -0.0086293 0.0092005 -0.0049951 0.0086007 0.0022702 0.00044336 -0.003465 -0.0081792 -0.0085304 0.0066322 -0.00031937 0.00642 -0.0072345 -0.0048904 -0.0054674 -0.00093677 0.00017855 0.005036 0.0096711 0.001865 -0.0010535 -0.0030823 0.00022132 0.0091192 0.0075289 0.001158 -0.0027758 0.0056686 -0.010024 0.0044039 0.0053698 0.0099169 -0.0063292 0.0019578 -0.0033109 0.0096611 -0.0033021 -0.0037186 0.0081969 -0.00044295 0.0081555 -0.0025786 -0.0011825 0.0059207 0.0040417 0.0087775 0.0086945 -0.005418 -0.0017007 -8.625e-05 0.00015871 -0.0075182 -0.0028464 0.0015732 0.00019798 0.009407 -0.0015442 0.0022796 -0.0099783 -0.00058645 -0.0088139 0.0086144 0.00011092 0.009385 0.0016261 0.0023266 0.0034643 -0.010059 0.0074742 -0.0082593 
im 0.0026911 -0.0061381 0.0025862 -0.0065465 -0.009384 0.0081742 0.007793 0.0044899 0.0077132 -0.0021772 -0.0098454 -0.0059198 -0.0003949 -0.00095738 -0.0012265 -0.005623 0.0086452 -0.0021307 0.003945 0.0042505 -0.0097785 0.0025379 0.010042 -0.0050083 -0.0024924 -0.0068628 -0.0070056 0.0039149 -0.003768 0.0062997 0.0061368 0.0048518 0.0060514 0.0037948 -0.0062325 0.00891 -0.0030204 0.0079138 -0.0018665 -0.0081715 0.0066695 0.0032046 -0.00077443 0.0097373 0.0060833 -0.0027634 -0.001268 -0.0057253 0.0056818 -0.008616 -0.004161 0.0090614 0.0075291 -0.0089117 0.0083521 0.0067855 -0.00020244 -0.0012872 0.0010992 0.003879 -0.0012886 -0.0082715 -0.0088265 -0.0028782 -0.0018204 -0.0010985 -3.4928e-05 -0.002923 0.0082628 -0.0058095 -0.0082381 0.0039796 -0.0085451 0.0034817 0.0092778 0.006265 0.0029512 -0.0022951 0.0025951 -0.0018313 -0.0047835 -0.0020499 -0.0042008 0.0069317 0.0089467 -0.0026268 -0.0045161 0.0050831 0.0029151 0.0087711 0.0065621 0.0070249 0.003597 -0.0075937 -0.0057695 0.0057655 -0.0041822 -0.0083555 -0.00045669 0.00532 
here 0.0066743 -0.0065413 -0.00054388 -0.001707 0.00054725 -0.0013684 -0.0055772 -0.00062418 -0.00092728 0.0072103 0.0063285 0.0060387 0.0051147 -0.0037412 -0.007529 -0.0081141 0.0095243 0.0038289 -0.0073339 -0.0040236 0.0063987 -0.009701 -0.0068747 0.0049518 0.0012437 0.0065619 -0.0046151 -0.00047565 -0.0037618 0.0012102 -0.0094935 -0.0059643 -0.0044401 -0.0078868 0.0078791 -0.00045574 -0.0035117 -0.010116 -0.0063507 0.0011293 -0.0067185 0.0087207 -8.6346e-05 -0.0086022 0.0023361 0.0064643 -0.0078704 0.0065758 0.0010645 -0.0078361 0.0017811 0.0083064 -0.0037829 0.00013309 0.0040004 0.0093557 -0.0098066 0.007731 0.006757 0.0054989 -0.004947 -0.0060036 0.0090414 0.0027385 -0.0077103 -0.008947 0.0013977 0.0033124 0.0048184 -0.0077036 0.002746 -0.0030452 -0.0067566 0.0012735 0.007162 -0.0023651 0.0062843 0.0020758 0.0026856 -0.0012839 -0.0007029 0.0098313 0.0061128 -0.0040585 -0.0065296 0.0027114 -0.0030627 0.0064607 0.0072035 -0.0023602 0.0056405 0.008316 0.0067307 -0.0071616 0.0066963 -0.0050954 0.0062175 0.010148 -0.002777 0.0046776 
goodafternoon 0.0036268 0.0076073 -0.010179 0.0044833 0.0092657 -0.00047036 0.0057092 -0.0038708 -0.0016722 -0.0050535 0.0092367 0.0055986 0.0014117 0.0023697 0.0092657 0.0034527 0.0040198 0.0064056 0.0057427 0.00036401 0.0028103 0.0022671 -0.0015548 0.0086695 -0.0079019 0.0044017 -0.0027858 0.00085675 -0.0070051 0.0019212 -0.0030491 -0.0041324 0.0057322 -0.0071641 0.0072775 0.0068411 -0.00016821 0.0091831 0.00073142 0.0021394 -0.0068829 0.0038625 -0.0013328 0.0079628 -0.0048822 -0.00027762 -0.0076541 0.0040803 -0.0039578 -0.0059241 -0.0028848 0.0040506 -0.0052588 0.010021 0.0006116 -0.0049089 0.0093544 -0.0051223 -0.005761 0.0086542 -0.0047731 0.0032212 0.0056956 -0.0064802 0.0049272 0.0095526 -0.0087624 0.0062635 0.0032838 0.0082301 -0.00080679 -0.006255 0.0095395 0.0043662 -0.0092554 0.0043213 -0.0052371 0.0049776 0.00018854 0.0042941 0.0015869 0.0027091 0.0027033 -0.0088227 -0.0079187 0.0048315 0.00079005 -0.0091461 -0.0062002 -0.0088783 -0.0070912 -0.00010264 -0.0070905 0.0082563 -0.0056099 -0.009196 0.0093435 -0.0020831 -0.010249 -0.0045162 
nice -0.0080762 0.0085977 -0.0038753 -0.01001 0.0085353 -0.0091977 -0.001805 0.0040296 0.0039881 0.0058604 -0.0038954 0.0034828 -0.0010487 -0.0089394 -0.0065774 -0.00061319 -0.0055965 0.0052489 0.00030497 -0.0053407 0.00062593 -0.0067108 0.0032307 -0.0095995 -0.0060354 0.0017951 0.0038049 0.0045356 -0.0016997 -0.0011144 -0.0069233 -0.0061256 -0.0079769 0.0027512 0.0012529 0.0020176 0.0045919 0.0056751 -0.0039652 0.0002151 -0.0017323 0.004598 0.0046114 0.0037229 0.0041073 0.0033415 -0.0054829 0.0087524 -0.0085875 0.0040782 0.0044931 -0.002678 -0.0051826 -0.0064918 -0.0071529 -0.0031737 -0.0077441 -0.0037304 0.0034166 0.0082483 0.001008 0.0013833 -0.0056592 0.0011177 0.0090107 -0.0028116 -0.0041356 0.010028 -0.0075438 -0.0042613 -0.0075283 -0.0017083 0.0019487 -0.0055804 0.0012057 0.0032703 -0.00075147 0.010277 -0.0086686 -0.0034914 -0.0064415 -0.0023944 0.0099792 -0.01042 -0.0051797 -0.0065374 -0.0034313 -0.0033253 -0.0061851 0.0082795 0.00022835 0.0047704 0.0047052 0.0087497 -0.0062494 -0.0024415 0.0039404 0.0070093 0.0020662 0.0074021 
day! 0.00095075 -0.007084 -0.0015206 -0.0094364 -0.0069178 -0.005144 0.0079656 -0.0054653 0.0099475 -0.0097692 0.0022058 0.0061778 0.0033782 -0.0065118 -0.0010142 -0.0032924 -0.0092227 0.0070646 -0.0047403 0.002086 -0.0034181 -0.0066227 0.0084434 0.0095621 -0.00039069 0.0063685 0.0078099 -0.0025817 0.0085275 0.010019 0.0067595 -0.0012067 0.0052768 -0.008854 0.0090686 -0.005426 -0.0093589 0.0068576 -0.00011545 -0.0044603 0.0091594 0.0094132 -0.0045937 0.0049009 -0.0085391 -0.0056274 0.0042895 -0.0067689 0.0039805 0.0063977 -0.0034604 -0.00021868 -0.0024343 0.0073474 -0.0088327 0.0032671 -0.0099046 0.001308 0.0014587 0.009582 0.0070194 0.0093992 -0.0068411 -0.0079558 0.002471 0.0098908 0.0088536 -0.0076627 0.0097843 -0.0077139 0.00022589 0.0064421 0.00088109 0.0012904 0.0037954 -0.0066401 0.0032671 0.0083887 -0.0018142 0.0097383 0.0059391 -0.0019774 -0.0083748 -0.006832 -0.0084251 -0.00015308 -0.00075923 -0.00047477 0.0031707 0.0042584 0.0082886 0.0042825 -0.0028782 -0.0039423 -0.0037816 -0.0058411 -0.0032673 -0.0086511 0.0090402 -0.0083842 
hi -0.0051249 0.00093484 -0.0065105 -0.007494 -0.0044328 0.0040027 0.00058828 -0.0047768 0.0047272 0.0011812 0.0029157 0.010163 0.010716 0.0038662 0.0086461 0.0050389 0.008175 -0.0087929 -0.0034417 -0.0018876 0.0095851 0.0070134 0.00042897 0.0023892 -0.00351 0.0089352 -0.0061237 0.0080013 0.0024971 0.0041596 -0.0061417 -0.0082715 -0.0033267 -2.9309e-05 -0.0017739 -0.002076 -0.0063959 0.0001582 0.0046155 0.0095784 -0.0035784 0.0087999 -0.0072749 0.0088766 0.0024147 -0.0025251 -0.0051975 -0.0049917 0.0010578 0.0056532 -0.0047772 7.7917e-05 -0.00093998 0.0018736 -0.0090014 0.006413 -0.0011383 -0.003212 -0.009618 -0.0062858 0.003126 0.0031656 0.0024358 0.0075935 0.0075594 0.0079792 0.0062257 0.0076621 -0.0071964 -0.00023909 0.0078971 4.0491e-05 0.0036029 -0.0081659 -0.0062512 0.0079427 -0.00066955 0.0022303 -0.00022636 -0.0098592 0.0038095 0.0011775 0.0070992 -0.0050859 -0.00044824 0.0055047 0.0048777 0.010018 -0.0088984 0.0084314 -0.0043282 0.010094 -0.0016827 -0.0016924 -0.0065212 0.00075607 0.0095942 -0.0011373 0.004137 -0.0043433 
hey -0.0018142 0.00097592 0.00091722 0.0066239 -0.0045948 0.0037782 0.0048525 -0.00058664 -0.0011816 -0.0047396 0.0030595 0.0034875 -0.0045501 0.0060511 -0.00062959 0.0092956 -0.0052536 -0.0073748 0.0071932 -0.0019563 -0.0012557 -0.0043033 -0.00096313 -0.00083069 0.0058859 0.0017771 0.0045882 0.0067966 -0.0034567 -0.0045311 -0.0028073 -0.0024492 0.002692 -0.0021621 0.0064937 -0.0017484 -0.0041921 0.0026532 0.0040469 0.0011099 0.0096096 0.0097913 0.0097895 0.01023 -0.0071111 -0.001467 -0.0029303 0.00040421 0.0016475 0.0076302 -0.0072566 0.0071815 -0.0048934 0.0066052 -0.0058411 -0.0096527 -0.00051061 -0.0016881 0.0083511 0.010396 -0.0023953 -0.0091912 0.0033577 -0.0064088 -0.0073742 -0.0045691 -0.0065286 -0.0018281 -0.0015307 0.0065404 -0.0016264 0.0060765 -0.0038425 -0.0065781 0.0077843 0.0058855 0.010265 -0.0029848 0.0065939 -0.0069732 -0.0057595 0.0096871 0.0052858 -0.0082321 -0.0063096 0.0064819 0.010263 0.007289 -0.0082114 0.0028786 0.00093525 0.008683 0.0067148 -0.0068632 -0.0083229 -0.00016229 -0.0063079 -0.00046179 0.0076762 0.0050646 
mornin -0.0044374 -0.0069461 -0.0029387 0.0057982 0.0026008 0.0058728 -0.0088724 0.0037561 0.0023129 -0.0080789 -0.0081878 -0.0044053 0.001807 0.0047375 0.0080499 0.0086069 0.0058375 0.0093604 -0.0080809 -0.0077357 -0.0029974 -0.0037794 -0.00048766 -0.01086 -0.00025053 -0.0080576 0.002092 -0.0022341 -0.0082651 -0.0046517 0.0042246 -0.0012397 0.0037193 0.0071932 0.0011035 0.0050029 -0.0057347 -0.0031888 0.0058039 -0.0010718 -0.0018156 -0.0049734 6.7294e-05 0.0097804 -0.00033064 0.0073282 0.0083246 -0.0054586 0.00091658 -0.00088011 -0.0083372 -0.0004076 -0.011439 0.0074872 -0.001815 -0.0053218 0.00743 0.0051799 -0.0047251 0.005599 0.0062668 -0.0056606 -0.0027422 -0.0026646 -0.0068486 -0.0010476 -0.0079817 -0.0045808 0.0012179 0.0061206 0.0016358 -0.0016194 -0.0051791 0.0013958 0.0010626 -0.0075256 0.0013423 0.0088141 0.0060056 -0.0020964 -0.003507 -0.0062546 0.001361 0.0068988 -0.0066148 -0.0053344 0.0030735 -0.0022416 0.00039715 0.0061194 0.0055599 0.01069 -0.0011091 -0.0050488 -0.0044238 0.0086197 -0.0061655 -0.0041115 0.0020417 -0.0078859 
afternoon 0.0022914 0.0066967 0.0086804 -0.0040527 -0.0061565 0.0042003 0.0067553 -0.001798 -0.0089757 -0.0039277 0.0074313 0.00927 0.0071582 0.0040832 -0.0021165 -0.0076941 0.0015689 -0.00541 0.0071274 0.0014034 -0.0043565 0.0047683 -0.0021234 -0.0043978 0.00059508 -0.0080889 -0.0049207 -0.0078477 -0.0047504 -0.00076563 -0.0047406 0.0011542 -0.0056564 -0.0022235 0.0040716 -0.0083213 -0.0054011 -0.0085819 0.0096089 0.0063597 -0.0087867 0.00041893 0.0070319 0.00084974 0.000502 -0.0042911 0.00015784 -0.0019525 -0.010124 -0.0076896 -0.0093674 0.010208 -0.00085521 0.0056362 -0.0085716 2.665e-05 -0.0046009 -0.0065079 0.003031 0.0025716 0.0089764 0.0044914 0.0018013 -0.0081682 -0.0038351 0.0093395 0.0037567 -0.001426 0.0045192 0.0093499 0.007568 0.0094773 0.007987 0.002181 0.007887 -0.0049588 0.0098439 0.0032319 -0.0050786 -0.0048468 0.0086909 -0.0017866 0.0019428 -0.00024586 0.0097641 -0.0049799 0.0091501 -0.0064621 -0.0085258 0.0020859 -0.0054623 -0.00069521 0.0075592 0.0032796 -0.0024388 -0.0086831 -0.0076574 0.006242 -0.0045318 0.0072087 
evening -0.0058651 0.003004 -0.0036652 0.0061375 0.0083911 0.0062475 0.0049917 -0.0058313 0.0034568 0.0018632 -0.0012637 -0.0019248 -0.0039615 -0.0080107 -0.0024414 0.0086084 0.00027208 0.00024077 0.0084336 -0.007058 -0.0026052 -0.0076618 -0.00090114 -0.010131 -0.0046197 0.0026624 -0.0039524 0.00038846 0.0039888 0.011087 0.0027206 0.0004367 0.0023726 -0.001616 0.008077 -0.0023605 0.0010786 -0.0099497 0.0017111 -0.0092431 -0.0079346 0.0011998 -5.2472e-05 0.0081547 0.0069702 0.0010396 0.0040827 -0.0059253 -0.0059868 -0.0058239 -0.0098375 -0.0071007 -0.0076972 -0.0011272 0.0022131 -0.0042802 -0.0013025 0.0033805 -0.0018603 0.010596 -0.0014485 0.0046639 0.00086594 0.0010162 -0.0082121 0.0027869 -0.0067185 0.0062147 0.0011405 0.0079409 -0.01005 0.0063986 0.0066232 -0.0052462 -0.0093261 -0.0020782 -0.006763 0.0056611 0.0050559 -0.0043204 -0.009058 0.0082569 0.0076104 0.002932 0.0024541 -0.0024783 0.010117 0.0022578 0.0047686 -0.0088519 -0.0088701 -0.0021128 0.0013704 0.0025266 0.0036477 -0.0015037 0.0069635 -0.0012381 -0.0073118 0.0013212 
greetings 0.0033868 -0.00022466 -0.011315 -0.0060709 0.0084441 -0.0019733 -0.0059173 -0.0066748 0.0025632 -0.0037817 0.0096411 0.0063253 -0.0049202 -0.0049108 -0.0078448 -0.0077478 0.0010564 0.00098513 -0.0067467 0.00041338 -0.003105 3.2019e-05 -0.0031244 0.001772 0.0032736 -0.010411 -0.0034086 -0.0039613 0.0027354 0.0018976 0.006678 -0.0075674 -0.0031875 0.0040506 -0.0042917 0.00083358 -0.0038104 -0.0059932 -0.008421 -0.0052133 0.0045184 0.0084863 -0.00041207 0.0056087 0.0085804 0.003972 -0.00329 0.0031042 0.0070399 -0.0064315 -0.0064506 -0.006882 0.0073529 0.0074855 0.0013911 -0.00023499 -0.0053168 0.0033189 0.0028009 0.0047998 -3.403e-05 0.0044167 0.0088552 0.0081613 -0.0037993 -0.0077699 -0.0040128 -0.0036268 -0.0079917 0.0062802 0.00033659 0.00022832 0.0010258 0.0031853 0.00694 -0.0051449 -0.0059809 0.0062099 0.0064205 0.0068504 0.003349 -0.00095479 0.0055963 -0.0067706 -0.0075077 -0.0052335 -0.0036763 0.0078178 -0.0077014 0.00084272 0.0089983 -0.00026591 -0.00027474 -0.011388 -0.0044329 -0.0096951 -0.0088558 -0.0019935 -0.00477 -0.0031355 
see -0.0059571 -0.0011812 -0.0077514 0.00045345 0.0064844 0.009112 -0.0013267 -0.003746 -0.00099151 -0.008427 -0.0042961 -0.0084609 0.010116 0.0035287 -0.0016732 -0.0050817 -0.0029325 -0.0064483 0.0032538 0.005876 0.0011276 0.010494 -0.00037787 0.0021471 0.0035568 -0.0020978 -0.0046455 -0.0014293 0.006203 0.0090844 -0.0063679 0.0051592 0.0026966 -0.0056222 -0.001741 0.0094045 0.0073605 -0.0085933 -0.0090663 0.0082595 0.001658 -0.0036617 -0.0073757 0.0084446 -0.0071938 0.00035167 -0.0042402 0.0026833 -0.0088826 -0.008087 0.0049312 0.0019459 -0.0062281 0.00069033 0.0047745 0.00040968 0.0060464 0.0019574 -0.0048755 -0.0069488 -0.0099322 0.0091985 0.00090402 0.0099832 -0.0081388 0.0092986 0.006337 0.0073717 0.00020757 -0.0092779 -0.00027532 -0.00011685 0.0030438 0.0065969 -0.0069817 -0.0067248 0.0080771 -0.00056881 -0.008092 0.008097 0.0033579 -0.0024289 0.0016202 0.0020086 0.0091025 0.0045359 0.0038495 -0.0065407 -0.0034573 -0.0019222 -0.0039585 -0.0013767 0.0044549 -0.00098565 -0.0041526 0.0035348 0.0071318 -0.0061961 0.00394 0.0012259 
greeting -0.0074299 -0.0082861 -0.00032762 0.0033647 0.0073808 0.0020345 0.0017329 0.0083517 -0.0051638 -0.0050759 0.002827 -0.003969 -0.0076304 0.0080929 -0.0061082 0.00083852 0.0055868 -0.0062325 -0.0077969 0.00045711 0.0043027 0.010834 -0.0055239 0.0059779 -0.00050981 -0.0081352 0.010371 0.0067655 0.008813 -0.00068478 -0.0049368 -0.0060811 0.00053807 -0.0076619 -0.010337 0.0081619 0.0029306 -0.009828 0.0046024 -0.0072277 0.01106 0.0099286 -0.0032768 -0.0015584 -0.0060432 -0.0071937 -0.0050934 0.0032961 0.0035072 0.0089026 -0.011649 0.0038355 -0.0057978 -0.0072618 0.007272 -0.0067726 -0.0064638 0.001986 0.0029647 0.0034715 0.0070638 0.010638 0.0075515 -0.0040653 -0.0011087 0.0033492 -0.0076101 0.0039142 -0.00072539 0.00070266 0.0030597 -0.0056636 -0.0036058 0.0036292 -0.0030808 0.007735 0.0081791 0.0069943 -0.0010368 -1.0719e-05 0.00032631 0.0094907 0.0093543 -0.0092715 0.0078956 -0.0040228 0.0052654 0.00044637 -0.0033072 -0.00033892 -0.0042618 0.0081354 0.01263 -0.011537 0.0011259 -0.0073575 -0.0033339 0.0097263 0.0063185 -0.0023105 
how're 0.0027939 0.0043057 -0.0060045 -0.0083102 0.00096251 -0.0087465 0.0083827 0.0063992 0.0010025 0.0062151 -0.0039972 -0.0065535 -0.0066056 -0.0039623 0.0022511 0.0033576 -0.0076966 0.010013 0.008218 -0.00061411 0.0068754 -0.0030382 0.0078953 0.0046521 -0.0035741 0.00052847 0.0087007 0.0016214 0.0066718 -0.0029579 -0.00059626 -5.2317e-05 -0.0098245 -0.0064211 0.0052192 -0.0015083 0.0093113 0.0026415 0.0040381 -0.006949 -0.0046503 -0.007661 0.0004689 -0.0030179 -0.0068361 -0.0038555 -0.008931 0.0060709 0.0058118 0.0049083 -0.0093715 0.0018716 -0.0096061 -0.0084196 0.0034641 -0.0055029 0.00070811 0.009977 0.0046346 -0.0033866 -0.0022241 0.0075527 0.0071132 -0.0035084 0.0091281 0.010151 -0.0030289 0.0090281 -0.008646 0.0047438 0.0081176 -0.0018327 -0.0070701 0.0096505 -0.0089474 0.0056901 0.0079067 0.010288 0.0038029 -0.0038036 0.0072999 -0.0026012 -0.0076059 -0.004222 0.0036121 -0.0034982 -0.0050319 0.0070658 -0.0032914 -0.0011142 0.0087308 -0.0011741 -0.0046733 -0.0031401 -0.0010708 -0.0034114 0.0065719 0.0097203 -0.00018006 -0.0098818 
okay -0.0047856 0.00062107 -0.0052608 -0.0055407 -0.0072957 0.0050107 -0.0033823 -0.0046553 0.0069273 0.0034992 -0.0044396 0.0081593 0.0036104 0.008193 -0.00069966 0.0013553 0.0051573 -0.0081734 0.0082835 -0.008347 -0.0070729 0.0053952 0.0047467 0.0074387 -0.0047617 0.0091465 -0.0015261 0.0054075 -0.0023778 0.0040681 0.0079942 -0.0026272 0.0084167 0.0074924 0.003905 0.0046591 0.0019078 0.0089856 -0.0029881 0.0011311 -0.0040375 -0.0064768 -0.0089258 0.0087467 -0.0051325 -0.0045155 0.0076463 0.0084611 -0.0041553 -0.0020214 -0.0073884 -0.0083367 -0.0084685 0.0036042 -0.0055042 0.0033365 0.009379 -0.00768 -0.0049063 -0.0021513 0.0028485 -0.0058309 -0.0064978 0.0030034 0.0093866 -0.0043822 -0.0052131 0.0027962 -0.0042865 0.0090279 0.002593 -0.0078209 0.0054823 -0.0038806 -0.0010402 -0.0019528 0.0084524 0.0046367 -0.00069372 0.0068037 0.00873 -0.0045743 -0.0090297 0.00074633 0.0015996 0.0010254 -0.0093104 0.00010262 -0.0063773 0.00027004 0.0086525 2.9816e-05 0.0034618 0.0011672 -0.003733 0.0067797 -2.0248e-05 -0.0051605 -0.0028696 0.0067101 
oki 0.004247 -0.0013379 0.0073375 0.010014 0.0023312 -0.0089094 -0.0062368 0.0070848 0.0057079 0.0040706 -0.0032109 -0.0075542 -0.0076137 -0.0028831 -0.0090191 0.0017761 -0.0037539 0.0096834 0.0066693 0.0087244 -0.0015203 -0.002627 0.0073866 0.010018 0.0025672 0.0027537 0.0017152 0.0017952 -0.0031896 -0.0069211 -0.0023363 0.00087615 -0.0077934 0.0043366 -0.0071565 -0.0051156 -0.0032177 0.0055209 -0.0054478 -0.001597 -0.0096383 -0.0096114 -0.0097525 0.00097334 0.0047705 0.006837 0.0094007 -0.0031306 0.0017789 -0.0093122 0.0067077 0.00051451 0.0069974 0.0040621 -0.0033767 0.0059748 -0.0059207 0.0081949 -0.0091537 0.003954 0.0047151 0.0091325 -0.0059813 0.0047128 0.0059373 -0.0012121 0.0012089 0.0090331 -0.0057033 0.0016627 0.0023745 -0.0051404 -0.0052505 0.0078999 -0.0010983 0.0027227 0.00045623 -0.0073012 -0.0076647 -0.009457 -0.0060063 -0.0033496 0.0063173 -0.0049124 0.0070895 -0.0048353 -0.004749 -0.001201 -0.00086017 -0.0063076 0.0080693 -0.0074056 0.0039658 -0.00493 -0.0094746 0.0090176 0.0075253 0.0019918 0.0033658 1.2892e-05 
na 0.000739 -0.0069548 -0.005961 -0.009706 -0.0041347 -0.008437 -0.0058858 0.0065317 -0.0038582 -0.0073927 0.0098485 0.0070561 -0.0078232 -0.0082139 -0.0089681 0.0033706 -0.0040607 -0.00031476 0.007515 -0.00086337 0.0029041 0.0047695 -0.00022147 -0.0063012 0.003653 0.0084085 0.0069672 0.0057976 0.009743 -0.00073339 0.002238 -0.00648 -0.00070525 -0.00044988 0.002408 0.00055026 -0.0019078 0.0015459 0.0033694 0.0050158 0.0028028 -0.0054177 -0.0076081 0.0036498 0.002985 0.009076 0.0013596 0.0071998 0.0097587 0.0092856 -0.0060746 0.0093366 -0.008699 0.0045376 -0.0078148 0.0048515 -0.002317 -0.0080113 0.0066362 -0.0033825 0.0085044 0.0015541 0.0079959 -0.0087011 -0.0071673 0.0098623 -0.003718 0.0050453 -0.009069 0.0016748 -0.0086117 -0.0085773 -0.0088966 -0.0055465 -0.0050022 0.0031871 -0.0053061 -0.0019208 -0.00054036 -0.0086771 -0.0093412 0.0086692 -0.0071956 2.7668e-05 0.0081585 -0.0087795 -0.0041387 -0.0033766 0.0055605 -0.0029125 -0.0076497 0.0012017 0.0017474 -0.0085574 0.004337 0.0052397 0.0090315 -0.00044619 -0.006401 0.0074329 
yes -0.00030702 0.0063486 -0.0059503 0.00080334 -0.0065961 0.0061603 -0.0067506 -0.0053239 -0.0024031 0.0092455 -0.0036859 -0.0032686 -0.0087993 -0.0057523 -0.003212 0.0034454 0.0040454 -0.003573 -0.0049228 -0.0058084 -0.0062499 0.00085479 0.0060985 0.0077908 0.0070141 -0.0026666 -0.0023789 0.0043486 -0.0061993 -0.0043791 -0.0021942 0.0032646 -0.0035431 -0.0045709 -0.0053762 0.0087998 0.0016427 0.0038447 -0.0057763 0.007279 0.005163 0.0082719 0.0061147 0.0093639 0.0028557 0.0055164 -0.0056107 0.0066916 -0.0072741 -0.00062603 0.0018586 0.0033482 0.0013625 -0.0055376 -0.0098378 0.00032895 -0.0014106 0.00052486 -0.0057143 0.0096594 0.0011807 -0.0096316 -0.0024821 -0.0046422 -0.0019761 0.0048984 0.00033573 0.0096909 -0.002619 0.0030862 -0.0059895 -0.0038636 0.0019458 0.008293 -0.0028498 -0.0026504 -0.0013143 0.00032701 -0.005 0.0037091 0.0051913 0.0076747 -0.0024911 -0.0020835 -0.0063393 0.0036331 -0.0079822 0.0003379 0.0031901 0.00040706 0.0013491 0.0046696 0.0092063 0.0039511 0.004745 0.0010946 0.0087627 0.0081042 0.0048821 0.0026111 
yez -0.0013627 0.0060351 -0.0055228 0.0029951 -0.0046471 0.004491 -0.0071227 0.0044643 -0.0044966 0.0017136 -0.0035034 0.0070997 0.0055047 0.0044108 -0.0065484 0.0032862 0.0043125 -0.0029176 0.0085661 -0.0013878 0.0057151 0.0027138 0.0024987 -0.0095286 -0.0091976 0.0051184 -0.0091163 -0.0038314 0.007632 -0.0060218 -0.0035512 -0.0021061 0.0096824 0.0022277 -0.002767 -0.0022437 0.0075917 -0.0093074 0.0033898 -0.0076255 0.0080448 -0.0006891 0.0049829 0.0044903 0.008129 0.004112 0.0059912 0.0090399 0.0035292 0.0074144 -0.00015535 -0.010105 0.0048388 0.0070109 0.0050614 -0.0008864 -0.0058617 -0.001729 0.0011946 0.0054689 0.010128 5.3397e-05 0.0042026 -0.0049774 0.0036058 0.0074424 0.003622 0.00022221 -0.010137 0.0072269 0.0038185 0.0019496 -0.00030494 0.0080101 0.0061484 0.0021752 0.0094039 -0.0042681 -0.010014 -0.009136 -0.0037236 0.0012739 -0.00069307 -0.0074485 -0.0026654 -0.00026027 -0.00074793 -0.0021895 0.007239 -0.005596 -0.00042979 -0.00048464 -0.0014295 -0.0086544 -0.0097724 -0.0086647 -0.0081478 0.0033668 0.0020368 -0.0034503 
yaz -0.0031528 0.0020994 0.0054207 0.0078235 0.0073509 -0.0040947 -0.0080299 -0.003538 0.009337 -0.0048937 0.0062093 0.0098874 -0.0066916 -0.004457 0.0063776 0.0064475 0.0092772 0.0082427 0.0052315 0.0015094 -0.0067294 -0.0083919 0.0035063 0.0022551 0.0062828 0.0034746 -0.0075858 0.0083577 -0.0019661 0.0013225 0.0012503 0.0094492 0.0065378 -0.0011313 0.010008 -0.0012879 -0.00017083 -0.00036914 8.1618e-05 0.0077652 -0.0093329 -0.0043871 -0.004825 -0.0082093 -0.0019442 -0.0056357 0.004195 0.0073208 -0.0036337 -0.0040853 0.0067817 0.0034994 0.0039605 -0.0029971 -0.0084924 -0.0028216 0.004133 -0.0058768 -0.0047449 0.0081671 0.0099634 0.0012921 -0.003873 0.005861 -0.0062282 0.0017974 0.0044593 0.0032456 0.0094984 0.0067069 -0.0056931 -0.0026988 0.0076108 -0.00022466 -0.0026367 -0.004159 -0.00050067 -0.0060431 -0.0013561 0.0037963 -0.0044631 -0.0089634 0.0057734 -0.0013832 -0.0087185 -0.0090241 0.0062633 0.0042943 -0.0067611 -0.0081547 0.0081142 -0.0099528 0.0029143 0.0029829 0.0071006 0.0076144 0.0047503 0.0063985 0.0074081 -0.0014354 
do 0.0018258 0.0096505 -0.0084015 0.0063746 -0.0095635 -0.0029854 -0.007773 0.0032325 -0.0027483 -0.0041654 -0.0088924 0.0093538 -0.00027844 0.0065564 0.0041008 -0.0078639 -0.0056722 0.0013848 0.0018139 0.0081876 -0.0010097 0.004052 0.0041781 0.0055741 -0.0059771 -7.6713e-05 0.0013116 -0.0041023 -2.244e-05 0.0093331 -0.0012952 0.0063981 0.0093119 -0.0068926 0.0054945 0.0073026 -0.0056272 -0.003426 -0.0041962 0.0065624 0.0019191 -0.00090998 0.0043612 -0.0068912 0.0058349 -0.0052422 -0.0064514 -0.0032143 6.7797e-07 0.0053275 0.0096297 0.0069162 0.00099173 -0.0095919 -0.003216 -0.0097754 0.0057252 -0.008377 -0.0030918 -3.8703e-05 0.00010005 -0.001018 -0.0082707 0.000522 -0.0059803 -0.0031117 -0.0055261 -0.0014339 -0.0031024 -0.00063417 0.00068641 -0.0021086 -0.0057433 -0.0078711 0.003297 -0.0092825 -0.0094748 0.0044055 -0.008398 0.0042366 -0.00068556 -0.0001342 0.00049562 0.010047 0.0025809 0.0054872 -0.0047187 -0.0035909 0.0085207 0.0094074 0.0067074 0.0004847 0.0021309 0.0084021 -0.00089418 -0.004447 -0.0044477 -0.0053681 -0.0079765 0.0040091 
notion -7.121e-06 -0.0058857 -0.0037772 0.0073577 -0.0011718 0.0036825 0.0053467 -0.00959 -0.0072527 -0.00083131 0.0030954 -0.002209 -0.0028285 -0.0074246 0.0077738 -0.0041297 0.004082 0.0057934 0.0058434 0.007182 0.0088863 -0.0089806 0.00093702 -0.0018331 -0.0046431 0.0047091 -0.0027603 -0.0083373 -0.0027842 -0.00071854 -0.0069704 0.0093058 0.0092511 -0.005041 -0.0049935 -0.009569 -5.2804e-05 -0.0062168 0.00015909 0.0086874 -0.0035851 -0.001155 -0.0028335 -0.00019146 -0.002867 0.0060932 -0.0072534 -0.0089331 0.0024359 -0.0024132 0.0065486 -0.0015821 -0.0044569 0.0031825 0.0037127 -0.0074002 0.0017092 -0.0085886 -0.00093683 -0.0070031 -0.00073051 -0.0039555 0.0050311 0.00094905 -0.0078253 0.0073499 0.0097814 0.0085839 0.0071126 0.0071694 -0.0082294 -0.003582 0.0062552 0.0063721 -0.0062663 -0.0028705 -0.008905 -0.0057451 0.0045856 0.0078326 0.0035775 -0.00019142 0.0088493 -0.0065292 -0.0015356 0.0021996 0.0093658 -0.0075257 -0.0015602 -0.0052857 0.006494 0.0058535 0.00055916 -0.0012371 0.0083091 -0.0033525 -0.0052854 0.0010664 -0.0043495 -0.0036334 
yup 0.0069291 0.00032453 0.0088948 0.0067422 -0.0058456 0.0041388 -0.0059591 0.0028228 -0.0061461 0.0066102 -0.009698 -0.0060269 0.0044164 -0.00049172 -0.0047797 0.0019591 0.0056633 0.0018554 0.0061777 -0.0084256 -0.0086675 0.0061896 -0.0071916 0.0049718 0.00062684 0.0078536 -0.0028509 0.0037291 -0.0092301 -0.0023429 -0.0092335 -0.0035628 0.0019039 -0.00843 -0.0073667 -0.0034809 -0.0028459 -0.0030189 -0.0010218 0.008011 -0.0052816 -0.0071989 0.0075985 0.0041126 0.0059862 0.0054132 0.0055672 -0.008981 0.0006105 0.0065403 0.0070923 0.0083419 -0.0095869 0.0019355 -0.0027737 0.00079191 -0.00059343 -0.01002 0.00027666 0.000801 0.0095525 0.0054123 -0.010041 -0.0047279 0.0085557 -0.00028206 -0.0072522 -0.0051225 -0.00076529 0.0053373 -0.0094338 -0.008708 0.0057175 0.0043331 -0.0048816 -0.0040513 0.0086356 -0.0061615 0.0080433 -0.0095839 0.0045494 -0.0037131 0.0011127 0.0072733 -0.001069 0.0053575 0.00039345 -0.0047071 0.0048907 -0.0097967 -0.0097399 0.0039758 -0.001357 -0.0012943 0.0071159 0.0011037 0.006659 -0.0036151 -0.0091615 -0.0060418 
kinda 0.008363 -0.0016235 -0.0079549 0.0059383 -0.0035231 -0.0050019 -0.0028684 -0.0041747 0.0075772 -0.0090552 -0.00072454 -0.0055901 0.0079049 0.0021212 -0.00165 -0.0042669 0.0088573 0.0034872 -0.0073012 0.0030919 -0.0011956 -0.0032852 0.0018353 -0.0079682 -0.0057169 -0.00028855 0.003129 0.0033429 0.0072778 -0.0067511 0.0045212 0.0077943 0.0096589 -0.0084531 -0.0095264 -0.0042865 -0.0060956 0.0067254 -0.0080797 -0.0060245 0.0082161 -0.0092218 0.0089238 -0.00057703 0.0017104 -0.0065084 0.0033887 0.008504 -0.009363 -0.00077151 0.00022193 0.00029089 0.00039826 0.0010875 -0.0012536 -0.0085613 -0.0060648 -0.0067979 -0.0061324 0.00027673 -0.0048189 -0.0021356 0.0034657 -0.0010983 -0.0064892 -0.0037762 -0.00037076 -0.0075423 0.0020398 -0.0082983 -0.0075553 -0.0079649 0.0076336 -0.0060041 0.0026982 -0.0040823 -0.0029519 -0.0065385 -0.0084355 0.0031015 0.0083131 0.0066305 0.0079123 -0.0038371 -0.0035384 -0.0086445 -0.0057058 0.0032791 -0.007457 0.0085645 -0.0044231 0.0087282 0.0050439 -0.0013783 -0.0053056 0.0065169 0.0060892 0.0063163 -0.001578 -0.0059528 
opo -0.0086158 -0.0086969 -0.0098108 0.0054552 -0.0096418 0.007689 -0.00089803 0.0052218 -0.0091513 0.0039153 0.0021833 -0.0065005 -0.0099282 -0.0088733 -0.00095631 -0.0045171 0.0094715 0.0024192 0.0077085 -0.0084332 -0.0094042 -0.005898 0.0012331 0.0018637 -0.001373 -0.0097034 0.00012929 0.0059474 -0.0059425 -0.00071132 0.0067682 -0.0019123 0.0081175 -0.0017157 -0.0005868 0.0014797 0.0098084 -0.00079675 0.00050502 -0.0067831 -0.0039259 0.0084247 -0.0051458 -0.0043795 -0.0048532 0.002603 0.0058501 0.0057725 -0.0072018 -0.0065342 -0.007219 -0.0083754 0.0071383 0.0060341 0.0078884 0.0066755 0.00025653 -0.001825 -0.0020382 0.0029055 -0.0015785 0.0072546 0.0016832 0.0057058 -0.0048859 -0.0069912 0.0078066 -0.00081238 -0.0061376 -0.0047504 0.0050151 0.0060616 -0.0030987 -0.0081126 -0.0069809 0.0085758 0.0099363 0.0042448 -0.0071886 0.0052176 0.0043879 -0.0085368 -0.0046644 0.0094166 0.0089654 -0.0028408 -0.0098175 0.00012523 0.0027411 -0.0089486 -0.009317 0.0020352 -0.00078713 -0.0025224 0.0032286 0.0058103 0.00034615 -0.0068973 -0.0056841 0.0015836 
Yes -0.0084265 -0.0027003 -0.0073806 -0.0087577 0.0060655 -0.0064003 0.0053964 0.0046846 -0.0056214 -0.0059237 0.00027997 -0.006471 0.0020055 0.00054933 -0.0064271 -0.0086589 0.0033194 -0.0081051 0.0014758 0.0063543 0.0049829 0.0058293 0.0031508 -0.003184 0.009056 0.0014269 -0.0083216 -0.0084197 0.0010147 0.0076799 -0.0010634 0.0068794 -0.0085789 0.0010948 -0.00079058 -0.0047212 -0.009349 -0.0016691 0.0065123 0.0092092 -0.0032419 -0.0029131 0.00060233 -0.0023767 -0.0099531 -0.0083457 -0.0022695 0.0021856 -0.0072654 0.0023779 0.0054638 -0.0015724 -0.00094778 -0.0032172 0.0097771 -0.0038106 0.0010778 -0.00046282 0.0014095 0.006134 0.0090652 0.0042972 -0.0084731 -0.00088346 -0.0043404 -0.0037931 0.0057854 -0.0075172 -0.0063318 -0.0027213 -0.0074404 0.003597 -0.0006234 0.001171 -0.0015831 0.0069608 -0.0054967 -0.0050622 0.00015928 0.00082284 -0.0051779 -0.0016876 -0.0035687 -0.0093668 -0.0051215 -0.0033703 0.0055991 -0.0099049 0.0021627 -2.9959e-07 0.00089259 0.0067568 0.0097274 0.0087751 0.00036131 0.0014234 0.00057755 -0.0029921 -0.0004145 -0.0022023 
disagree 0.0024554 0.0080192 0.0089889 -0.0078111 -0.0084295 0.0087652 0.003847 0.0096503 -0.0030454 -0.0014849 0.0066268 -0.0037938 0.0029181 -0.0096076 -0.0062988 0.0085899 -0.0058614 0.0054982 -0.0010648 0.0070708 -0.0027733 -0.0094205 0.0089889 0.0053753 0.0079215 0.0056718 -0.0092383 0.0014448 -0.0074837 0.0034551 -0.0073122 -0.0012295 -0.0077822 -0.0013602 0.002542 0.0092494 0.0085366 -0.0046924 0.0096288 0.0092578 -0.0047828 0.0012555 0.0020454 0.0087677 0.0031328 0.0071205 -0.0028255 0.0018188 0.0037117 0.0055446 0.0040951 0.0042181 0.010039 0.0068519 0.0093754 -0.0045422 -0.0044699 0.0062759 0.00042759 0.0045271 0.0024733 -0.010208 0.00021726 -0.009272 0.00037649 -0.0054138 -0.0058839 0.006 -0.0035197 -0.0080991 0.0018211 -0.009695 -0.0046248 -0.00035118 -0.0098877 -0.0045527 -0.0072308 -0.0006501 0.0060396 0.0064787 0.0024666 0.00036414 0.0057962 0.0085576 0.0066525 0.0046311 0.0054532 0.0052515 0.0079536 0.0035483 0.0032149 0.0087057 0.0027064 -0.0093643 -0.0061413 -3.3186e-05 -0.0054702 -0.0051839 0.0048333 -0.0027879 
nah -0.0061059 -0.0012757 0.0040048 0.0004957 0.007744 0.00068828 -0.0096884 0.0066723 0.006416 -0.0026306 -0.00037037 0.0010139 0.0057226 0.0089338 -0.0070799 -0.0072121 -9.5156e-05 -0.0039188 0.00027158 -0.0093158 -0.0072922 -0.0012331 -0.0025865 0.0086418 -0.009333 -0.0018345 -0.0096545 0.0012224 -0.0079824 0.0082807 0.0021926 0.0026773 0.0098028 -0.0036317 -4.546e-05 -0.0036991 0.00048224 -0.0057225 -0.0084975 0.010153 -0.0059196 -0.0049408 0.0083953 0.001125 0.0016415 0.00025565 -0.0052 -0.0027815 -0.00080853 -0.0085433 -0.0004533 0.00085875 -0.0074989 -0.0070864 0.0093604 -0.0044978 0.0030756 0.0063954 0.0048411 -0.0064413 0.0080654 0.00068776 0.006662 0.0035713 0.0079557 0.0037019 -0.0023069 -0.0025229 -0.0084414 -0.0087644 0.0075814 0.0093699 0.0017131 0.010023 0.0030427 -0.0031716 -0.005897 -0.0016803 0.0026555 -0.0086114 -0.002912 0.0072682 -0.0088188 0.0044845 -0.0057808 -0.0017209 -0.0033315 0.0059333 -0.0053171 0.0012271 0.0047825 -0.0065939 0.0043411 0.0033526 -0.0078852 -0.0092791 0.0053008 -0.0072301 0.0056605 0.0010013 
nope -0.0077138 0.0064288 1.2573e-05 -0.002926 -0.0099995 0.0069711 -0.00095874 0.0039789 0.0026536 0.0092361 -0.0099452 -0.0068676 0.0026808 -0.01047 0.0094531 0.0073104 0.0096564 -0.0082639 -0.0014024 0.0067571 0.0083542 -0.010137 -0.00061449 -0.0025455 -0.0094693 -0.0031421 0.0087123 -0.0026412 0.0011027 -0.00096254 0.0095962 0.002838 -0.0057597 0.0021285 0.0031307 -0.0098846 0.0060544 0.0077118 -0.0012721 -0.0051628 -0.0046159 -0.0098412 -0.0026852 -0.0064167 -0.0070383 0.0081264 -0.0023314 -0.0054968 -0.0063352 0.0065836 -0.008939 -0.0014018 0.0018708 0.0063286 -0.0062522 -0.0071927 -0.0028251 0.0008631 -0.0064575 0.0038481 -0.0067923 -0.0041541 0.0034491 -0.009454 -0.00050803 0.0023442 0.0053417 -0.0077139 -0.008863 -0.0022377 0.00086599 0.0091095 0.006155 -0.0024815 0.0035313 0.0030924 0.0049902 -0.0045638 -0.00077305 -0.0081173 0.00066155 0.0046294 -0.0054937 -0.0056402 0.004309 0.00094274 0.0023336 -0.009745 -0.0081911 0.0065856 -0.010189 0.0050055 -0.0068165 0.0083336 0.0074446 0.007897 0.00015691 0.00078007 -0.0043361 0.0069982 
mali -0.008898 0.0023644 0.0024723 0.0099725 0.0070411 0.0035917 -0.0098713 0.0064093 -0.0025554 0.0039119 -0.0083875 -0.007091 0.0099797 0.001353 -0.0087384 -0.0098633 0.0031615 0.0063362 -0.0052744 0.0027429 -0.0086404 -0.0071022 0.0091116 -0.0057248 -0.0023008 0.0050033 0.0025017 -0.0070216 -0.0062595 0.0084961 0.00031919 -0.0040214 0.0095242 -0.0075818 0.0053886 0.0023697 -0.0020596 -0.0012271 -0.0023279 -0.0046345 0.0037967 0.0025409 -0.0064112 -0.0024365 0.0043318 -0.00057888 0.0043539 5.6207e-05 0.001148 -0.0069855 -0.0056619 -0.00056843 -0.0075685 0.0047195 -0.0069647 -0.00012268 0.003191 0.0071256 -0.007636 -0.0048304 -0.0061499 -0.004601 0.0045313 0.00079961 0.0091286 0.0036502 0.0034716 -0.0082986 0.004456 -0.0022137 0.0077205 0.00070833 -0.003896 -0.0061474 -0.0046678 0.010014 -0.0038998 -0.0042822 -0.0074516 0.002547 -0.0087347 0.0061377 0.0077611 0.0070411 0.0083631 -0.0095653 0.0074147 0.0025087 0.00010001 -0.0046852 0.0043769 0.0089703 0.0022517 -0.0028673 -0.0040898 -4.4965e-05 0.0095683 -0.0082224 -0.001023 0.0092792 
has -0.0083833 -0.009263 -0.0082753 0.005343 0.006091 0.0078155 -0.0070122 0.0075847 -0.002058 0.00080387 -0.00064587 0.0074603 -0.0052483 -0.0030166 -0.00080662 0.0017327 0.0060165 0.0064521 -0.0014024 -0.0095244 -0.009605 -0.00051343 0.0068434 0.0062886 -0.0080549 -0.0093474 -0.0038347 0.0082964 -0.0034764 0.00094475 -0.0030785 0.0066776 -0.0032951 -0.00039357 -0.0028835 0.0069269 0.0037526 -0.0012888 -0.001239 0.007687 0.0041208 0.00076901 -0.00042363 -0.0035808 0.0045127 -0.0061675 0.003199 -0.0069653 0.0046968 0.0097281 0.0067712 0.0094385 -0.0036544 0.0070697 -0.0029066 -0.009542 -0.0024397 -0.0089781 -0.0043683 -0.0054167 -0.0036151 -0.0023148 0.0024009 -0.0043355 0.0037947 -0.0069872 0.0064914 0.0021168 -0.0072422 -0.0043956 0.0074349 -0.0026947 -0.0041367 0.005272 0.0060315 -0.006016 0.004538 -0.0072244 0.0036124 0.0065003 -0.0081353 0.0058875 -0.0043742 0.0025841 -0.00050004 -0.0042592 -0.0098887 -0.0072295 -0.0030385 0.0028994 0.0036409 -0.0093879 0.0063661 0.008492 0.0096654 -0.00057272 -0.0077203 -0.0087683 0.0064496 0.0084229 
Mac 0.0076867 -0.0042163 0.0087464 0.0045111 -0.0054495 -0.005314 -0.0086618 0.0050216 -0.0027938 -0.0043296 0.007406 0.0026283 -0.0087093 -0.0091196 0.0066067 0.0061059 -0.0030202 -0.0054998 0.0059217 -0.0078493 0.0073018 0.0039952 0.0012923 0.00030561 -0.0020141 -0.0030502 0.0089282 -0.0023657 -0.008966 0.0069614 -0.009761 0.00092078 -0.0097903 -0.0098128 -0.0092375 -0.0090559 -0.0067971 0.0023456 0.00088885 0.0053564 0.0003786 -0.0006349 0.0055263 -0.0076781 -0.0046889 4.2888e-05 0.0036601 0.0026517 0.0064981 -0.00012353 -0.0046194 -0.0011438 -0.0017489 0.0079285 -0.00090448 -0.0052595 -0.0020796 -0.0097291 -0.0044637 -0.0028843 0.0095004 -0.0036126 0.0039297 0.0018743 -0.0089987 0.0057688 0.0053321 -0.0038953 0.0042679 -0.0015376 0.00744 0.0080882 0.0040876 -0.0039192 -0.0051846 -0.0023571 -0.0093075 -0.0064482 0.0049554 -0.007991 -0.0074604 -0.0071336 -0.0074051 0.0072009 0.0045539 -0.0050127 -0.0046883 0.0079579 0.0083876 -0.0033924 -0.0058797 0.003165 -0.0097013 0.0029191 0.0046966 -0.0063774 -0.00045095 0.0026455 -0.008729 -0.0016936 
runs -0.00020133 0.0044211 0.0052395 -0.0033484 -0.00080243 -0.0037164 -0.0073189 0.0094747 -0.0032672 -0.0034334 -0.0077536 0.0026446 0.001501 -0.0019053 -0.0082863 0.00028992 0.0097295 -0.0061258 -0.0040847 -0.0020168 0.0079529 -0.008284 -0.0075579 -0.00016113 0.0083471 -0.0035787 -0.0040608 -0.0065058 0.0082502 0.008644 -0.0049859 -0.0002464 0.00392 -0.0029449 0.0051472 -0.003195 -0.0042381 -0.00071737 -0.00037884 -0.0084082 -0.0020264 -0.0070828 0.00060417 -0.0023505 0.0094928 0.003171 0.0094707 -0.00014912 0.0082348 -0.0062961 0.0058051 0.002213 -0.0090708 -0.0031283 -0.0014169 0.0044969 0.0045727 0.0029149 -0.0046525 -0.0032155 -0.0012642 -0.0029293 0.0062017 0.0039169 0.0071303 0.0027261 0.0018202 -0.006724 0.00068616 0.0065483 0.00041892 0.0066807 -0.00064567 -0.0001491 -0.0013045 0.0085095 0.00024408 0.0068264 -0.0048133 -0.001251 0.0035867 -0.0055094 0.0038026 0.0040576 -0.0061058 0.0098905 0.0020649 0.0030319 -0.0066566 0.0030805 0.0057364 -0.0028541 0.0076835 -0.0095391 0.0075016 0.0084649 0.0083031 -0.0066082 0.00060077 0.0053697 
power 0.0030588 0.0015798 -0.0038912 0.0047684 -0.00059068 0.0085647 -0.009085 0.00045747 -0.0093893 0.0072284 -0.0074722 -0.0068786 -0.004169 0.0027332 0.0040094 -0.0021867 0.0013131 0.0015844 -0.0096624 0.0073109 -0.0063077 -0.003426 -0.0072361 -0.0029509 0.00068098 -0.0057489 0.0097423 -0.0078437 -0.0094436 -0.0012781 0.0026122 -0.0018661 -0.0038847 -0.00076187 0.0042474 0.0066256 0.00041235 -0.0049565 0.0091505 -0.0039164 0.0018241 0.0078052 -0.0030668 -0.0078228 -0.00035846 0.0050839 -0.003609 0.0083352 0.0070137 0.001717 0.008939 -0.007799 0.00086993 0.0097821 0.0051831 -0.0021291 -3.0658e-05 -0.0019223 0.0047176 0.00049789 0.0033043 -0.00199 -0.0093826 -0.0060492 0.0020602 -0.0094514 -0.0065145 0.0091463 0.0027917 0.0050184 0.0021046 0.0095028 0.00087253 -0.0038386 -0.0099467 -0.0015679 -0.0042012 -0.0060399 0.0072929 0.005344 0.0060704 0.0054109 -0.0052698 -0.0036322 -0.0038282 0.0079936 -0.0093683 0.005625 -0.0018713 -0.0048882 -0.0011514 0.0079824 0.0033271 -0.0084995 -0.0057782 -0.0013682 0.0034479 -0.0067172 -0.0080233 -0.0008233 
pc -0.0014128 -0.0063085 -0.0028177 0.0032063 -0.0017356 -1.5961e-05 0.0091283 -0.00084346 -0.0097953 0.0018906 -0.0022948 0.0043625 0.0017053 -0.0080226 0.0055108 -0.0078979 0.0013085 -0.0022428 -0.0083909 -0.0086441 -0.0063296 -0.0054799 -0.002072 0.0041621 -0.0073589 -0.0026354 -0.00033311 -0.00781 -0.0059092 -0.0031227 -0.0062795 -0.0056391 -0.005765 -0.0049784 0.01002 -0.0039784 -0.0087247 0.0014146 0.0022594 2.7587e-05 -0.00084353 0.0065742 -0.0071464 -0.00077225 -0.0090512 0.0087841 -0.00056353 0.0015883 0.0051046 0.00055575 -0.0012434 -0.00033613 -0.00040194 0.0036237 -0.0048626 -0.00028303 -0.0016203 0.0017741 -0.0026472 0.0097328 -0.0088622 0.0045731 -0.0060554 -0.0062879 -0.0037199 0.0018048 0.0058687 -0.00072416 0.0050159 -0.004813 0.0090236 -0.0040095 0.0078749 -0.0011142 -0.0053436 0.0015401 -0.0060876 -0.0022235 0.0070252 0.0091959 -0.0025435 0.0099513 -0.0089109 0.010047 0.0059506 -0.0053413 -0.003128 0.005002 -0.006372 -0.003261 0.0076527 -0.00025596 0.0079019 -0.0074527 0.0014171 -0.0024644 -0.0028742 -0.0045133 -0.000975 -0.0028835 
