319 100
</s> -0.024996 0.031718 -0.021227 -0.006543 0.01851 0.0029275 0.015791 -2.6367e-05 0.040816 0.031329 -0.0028443 0.011339 0.027094 0.020747 -0.011724 0.0051783 0.00014268 0.023713 0.0017559 -0.027334 -0.011312 0.019394 0.02146 -0.025875 0.021429 -0.02141 0.017796 -0.0094011 -0.014902 0.041235 -0.018673 -0.015896 -0.029972 -0.03166 -0.028154 -0.010386 0.018949 -0.030587 -0.0096172 -0.025303 0.035288 0.021861 0.01218 0.008326 -0.01841 0.0055309 -0.015752 -0.016407 -0.028146 0.0084434 -0.025494 0.030436 -0.030165 0.018032 0.0042444 -0.023161 0.00099688 0.012826 0.011775 0.011698 -0.022679 0.015568 0.024088 0.014723 -0.014823 -0.001464 -0.024642 0.023952 0.031802 0.0082984 -0.030108 0.002854 -0.014222 0.0019888 -0.00093472 -0.018772 0.032454 0.03397 0.0062074 -0.0092189 -0.029525 0.020362 0.037368 -0.0353 -0.017619 -0.034242 0.00088196 -0.0018353 -0.012722 -0.017275 0.029324 0.019249 0.027969 -0.032112 0.010621 -0.032481 0.023306 0.030227 -0.028572 -0.00094258 
the 0.0026155 0.0049496 0.0084953 -0.0095432 0.0065787 0.0081953 -0.0066204 0.0010967 -0.0035824 -0.0024016 -0.0010319 -0.0064995 -0.0053247 0.0023827 -0.0058387 -0.0071 0.0032053 0.0057866 -0.0065893 -7.3181e-05 -0.0046866 0.0099561 0.0039599 0.0070254 -0.0089793 -0.0058216 -0.0097839 -0.0010623 -0.0018526 -0.007845 -0.004823 -0.00060653 0.0042408 -0.0056043 -0.0061668 -0.0017796 -0.0070521 0.0049911 -0.00058896 -0.0024352 -0.010686 0.009326 -0.0052612 0.003307 0.0093005 0.0011359 0.0088761 -0.003079 -0.0037967 0.003578 -0.0011266 -0.0020417 0.00262 0.0044189 -0.0093462 0.0036462 -0.0099101 0.000453 0.0084403 -0.0023985 -0.00014416 0.0035276 0.0054214 0.0078419 0.0045245 -0.0032738 -0.0068383 -0.0055848 -0.0064432 -0.0056698 0.0017492 0.0047017 0.0061268 -0.0070935 -0.0025826 -0.0020882 -0.0038673 0.0025259 0.0066701 0.0055892 0.00099447 -0.0061034 0.0024954 0.0030755 0.0051968 0.0041629 -0.0016698 -0.0096009 -0.0047592 0.0074185 0.0027684 0.0021312 0.002737 0.0025152 0.009182 0.002625 -0.00099192 0.0021138 -0.0063426 -0.0075817 
to 0.006997 -0.0077701 -0.0012679 -0.0036818 0.00080541 -0.0071274 -0.0086855 -0.0094228 0.01006 0.0095259 -0.010249 -0.0023074 -0.0018937 -0.0056841 -0.0029484 0.0047527 0.0023567 -0.0027843 -0.0073785 0.0031266 0.0071532 -0.0062814 -0.0059711 0.002163 -0.00052941 -0.001566 0.005505 -0.0095774 -0.0084312 0.0025518 0.0029966 0.006982 -0.0048246 0.002783 -0.0089018 -0.0070786 -0.0071724 0.0088615 0.0085715 0.0080526 -0.0077646 0.0050023 0.0047874 0.00020121 0.003914 0.0043377 0.0084294 0.0076882 0.005759 0.0075194 -0.0022119 -0.00012964 0.0050756 -0.0056292 -0.0098657 0.0075134 0.001725 -0.0082318 -0.0066561 -0.0039519 0.0094401 0.0087459 0.0070858 0.0068265 -0.0064859 0.0033269 -0.0056993 -0.0021015 0.0039607 -0.0086406 0.0069334 0.0034983 0.0035063 -0.0097226 -0.0093995 0.0032378 0.0093286 -0.0034544 0.0093101 -0.0080803 0.0083965 -0.0023648 -0.0066694 -0.0053938 -0.00194 -0.0070438 -0.0021373 0.0097114 0.0062348 -0.0037248 -0.0060525 -0.00045529 0.0075266 -0.0031316 0.003169 -0.0018205 -0.0019891 0.0053527 0.0059021 0.0086061 
is 0.0012848 0.0084932 -0.0054999 -0.0037371 0.00028452 0.008183 -0.0064463 -0.0009096 0.0049025 0.0052519 -0.0048857 0.0081462 -0.0086572 0.0042255 0.0061734 -0.0054088 -0.0071754 -0.0086558 0.0084958 0.0046912 0.0090481 0.0084054 -0.00074109 0.002023 -0.0081727 0.0058647 0.0076448 -0.0017199 -0.0084524 -0.0069656 0.0073577 0.0062026 0.00069948 0.009477 -0.0008518 0.0085958 0.00192 -0.0020601 -0.0018371 0.005309 0.00019468 -0.0011305 -0.004528 -0.0064803 0.00038007 -0.0058747 0.0090797 -0.00021867 0.0054516 0.0063981 -0.0090687 -0.006689 0.002629 -0.0080147 -0.0024667 -0.0047511 -0.00072984 0.0020429 0.0033728 0.00038558 -0.0079139 0.0023823 0.0020512 -0.0087536 -0.0067431 0.0028092 0.001777 -0.0064887 -0.0033202 -0.0043101 0.00963 0.0018327 0.00152 0.0042799 -0.00039998 0.0094653 0.0041393 0.0079805 0.0070328 -0.007365 0.0025602 0.0021675 0.0068516 0.0064541 0.010804 0.001746 -0.00059802 0.0079434 -0.0090841 -0.0083153 0.00033522 -0.0069886 0.00067479 0.0051159 -0.0064788 -0.0025973 -0.00066165 0.0031506 -0.0010322 0.0016463 
that -0.0039646 0.0047579 0.00046587 0.0011245 0.0093807 0.0094078 0.0043604 -0.0097914 0.0052098 0.0038393 -0.00088751 -0.0049439 -0.0054046 0.0029342 0.0091422 0.00094723 0.0025478 -0.002605 -0.0053386 0.0097136 0.008521 -0.0028213 -0.0045032 -0.0091534 0.0024455 0.0042865 0.0093741 0.0038816 0.0078098 0.0061748 0.0056774 -0.008586 -0.0075309 -0.0014845 0.0012215 0.0074257 -0.0088707 0.010264 0.0056805 0.0011502 -0.0047039 -0.0026467 0.0073983 0.0097102 0.0053348 -0.011031 0.00029124 0.0092142 -0.0017682 -0.0029994 -0.0053261 0.005029 0.0047274 -0.00032946 0.0089977 0.0074315 -0.0055702 0.0047367 -0.0099576 0.0092744 0.0029237 0.001783 -0.0047973 -0.0012625 0.0072074 0.0057472 -0.0041877 -0.0092285 -0.0066239 0.0041797 -0.0038807 -0.0014941 -0.0069175 0.0072904 -0.0052285 -0.0036197 -0.0067694 -0.010177 0.0049138 -0.0024564 -0.0071086 0.0014964 0.00047441 0.0037913 -7.1654e-05 -0.0022253 0.003026 0.0059008 -0.004581 0.0076153 0.0054535 0.00025015 0.0092904 0.000445 0.0021352 0.0080999 -0.00091163 -0.0092067 -0.0056834 -0.0065787 
a 0.0096479 0.0046276 0.0063054 -0.0043784 0.0049591 0.00365 -0.0081886 -0.0027572 -0.0090634 0.0090327 -3.884e-05 0.0036696 -0.0056534 -0.0016987 -0.0063089 0.00398 -0.0065981 -0.0086625 0.0075017 -0.0061926 -0.0068405 0.0017823 0.0062665 -0.0027473 0.0020876 0.0066886 -0.0001842 -0.0064782 -0.0081476 -0.0071855 -0.006598 0.0071421 -0.0042545 -0.00067908 0.0043046 0.0064751 -0.0074809 -0.0045784 -0.008267 0.0091923 -0.0067867 -0.00056544 -0.0046388 0.0032425 0.0081119 -0.0031547 -0.0026761 -0.0096224 -0.0048729 0.00796 -0.0055519 -0.0087659 -0.0094561 0.0061646 0.0041161 0.002718 0.001933 -0.00066304 0.00023948 -0.0025 -0.0083324 -0.0039868 0.0081575 -0.0038499 0.0050406 0.002703 -0.0093678 -0.0067215 -0.0057453 0.0076751 -0.0017488 0.0065893 0.010003 -0.0099718 -0.0033865 -0.0021211 0.0027469 -0.0080657 -0.0061007 -0.0033002 0.0056165 0.0049435 0.0020589 0.010501 0.0069454 -0.00087241 -0.0093353 0.00144 -0.008665 0.0098316 -0.0015207 -0.0019326 -0.0084782 0.0025918 0.00017004 0.00050423 -0.008956 -0.0010628 -0.0054241 -0.007723 
i 0.0077462 -0.0012394 0.0090864 -0.0085466 -0.0040443 0.0039202 0.00398 -0.0018109 0.00041873 -5.9136e-06 0.00042832 0.0059219 -0.010371 -0.009395 -0.0050546 0.0082666 -0.001758 -0.0028076 0.00064237 0.0055 0.0079556 0.0092694 0.0015979 -0.0042491 0.0013949 0.0059854 -0.0059031 -0.00062997 0.0011008 0.0084401 -0.0062541 -0.0098281 -0.0056986 0.0024903 0.0040792 0.0064785 0.0044083 0.0042071 8.5139e-05 0.0015914 -0.0049047 0.0064037 0.0051573 -0.0048746 0.0081348 -0.0068004 0.010272 -0.0074981 7.9005e-05 -0.0060646 0.0051856 0.0057889 -0.0053205 -0.00022599 0.0044497 -0.0028679 -0.0015117 0.002675 0.0078532 -0.0019666 -7.5495e-05 0.0061291 -0.0097719 -0.009245 -0.0058656 0.0062777 -0.0095213 0.0035921 -0.0017173 0.0099484 -0.0076353 0.0017898 -0.0049215 -0.0024496 0.0011613 0.0016231 -0.00039568 -0.0085809 -0.007896 -0.0030497 0.007238 0.007221 0.003691 -0.005653 0.0072915 -0.0043809 0.0079816 0.0057075 0.0091912 0.00057539 -0.0018292 -0.0053388 -0.0033344 1.1033e-05 -0.0068994 -0.0076285 -0.0026882 -0.0045165 0.008997 -0.0097998 
you -0.007163 -0.003317 -0.0088467 -0.0065981 0.00927 -0.0024939 -0.0041704 0.00141 0.0013505 -0.0061507 0.0034858 -0.0082507 0.00047828 0.0093698 0.0059705 -0.0012781 -0.0052542 0.0010912 0.0023161 0.004441 0.0014683 -0.0034715 -0.0061547 0.0020003 -0.0056884 -0.006327 -0.0042235 0.0047734 -0.0049328 0.0032001 -0.00085348 0.0072798 0.0085522 0.0038739 -0.0099304 0.004846 0.0082264 -0.0096651 0.0080667 0.001682 0.0055485 0.0061172 0.00031761 0.0066876 0.0047296 0.005951 0.0072922 0.0074967 0.00577 0.0098075 -0.0070886 -0.00027466 0.0048933 0.0088904 0.0023967 -0.0024164 0.00047681 0.0012878 0.006143 -0.0069237 -0.0013168 -0.007883 0.0098669 -0.0086732 -0.0066444 -0.0073632 0.0025826 -0.0021566 -0.0082079 -0.0045301 -0.0064041 0.0061263 -0.0087457 0.00099549 0.0079953 0.0082588 -0.0056824 0.0074555 -0.0043637 -0.003194 -0.0031204 -0.0038414 0.0080666 0.007668 0.00086706 0.0085148 -0.0009826 0.0045591 0.00037741 -0.0033614 0.009736 -0.0030912 -0.0086599 -0.0051028 -0.0101 -0.0068991 -0.0028483 -0.0095629 0.0068011 -0.0027014 
in 0.0063516 -0.0056842 0.008586 -0.0038489 0.007259 -0.0096654 -0.0020861 0.0024065 -0.00869 -0.0039365 -0.009135 -0.0029182 -0.0045563 0.0099222 0.0044845 -0.0067844 0.0013071 0.0048681 0.0088492 -7.2221e-05 -0.0085185 -0.0026638 0.0033588 -0.0058079 -0.000829 -0.0030778 0.0091733 -0.0088448 0.0091358 0.0045264 0.0021283 0.010095 0.00533 -0.0019613 -0.0066749 0.0028161 0.0087044 0.0048698 0.0015099 0.0099827 -0.0092693 -0.0098472 0.0093569 0.0073264 0.008014 -0.0088261 0.0046502 0.005572 -0.0028174 0.0099339 -0.003707 0.0044509 -0.0061607 0.0068196 -0.0019763 0.0073713 -0.0011209 -0.0095142 -0.0046249 0.0050583 -0.0027276 0.0015625 0.0057015 0.009799 -0.0026744 -0.0065529 0.0090743 -0.0050584 -0.0056926 -0.0033813 0.0037818 -0.0092333 0.0026051 0.0085478 0.0090354 0.0078841 -0.0064652 0.0056578 0.0088082 0.009578 -0.0010078 -0.0034441 -0.0022076 -0.0073208 0.0094 0.0075661 0.0055986 0.0026593 0.00021955 0.0023601 -0.0014212 -0.0052529 0.0086482 0.0071308 -0.0048412 -0.0018394 -0.0028426 0.0090517 0.0080778 -0.0039946 
on -0.0071375 -0.00073721 0.0017955 0.0068733 -0.0014787 0.00697 0.0046666 0.00099364 -0.003991 -0.0067921 -0.0070802 -0.0047676 0.0066343 -0.0094232 -0.0076542 -0.0061351 -0.0040317 -0.0098777 0.0024679 -0.0039616 -0.0044868 -0.0028058 0.002483 -0.0041708 -0.0086194 -0.00030927 0.0070409 -0.0078159 0.0056184 -0.0066447 0.0025335 -0.0072422 0.0042503 -0.0054414 -0.0043636 -0.0016674 -0.0054529 0.0083613 0.0007426 0.00012491 0.003296 0.0066996 -0.0020467 0.0038635 -0.0011997 0.00037879 0.0047296 -0.0022396 -0.00091686 -0.0016005 -0.0012221 -0.0079693 0.001352 -0.0020174 0.005486 0.004476 0.0032079 0.0091755 0.0097278 0.0057075 -0.0048038 0.0024494 3.5231e-05 0.0047704 -0.0037487 -0.0068444 -0.0031741 0.0092169 -0.003504 0.0046568 0.0034652 -0.0052114 0.0015595 0.0060613 9.822e-05 0.0057822 -0.0029803 0.0012748 0.0066322 -0.0014863 0.0085316 -0.006129 0.0057803 -0.0093856 -0.0068231 0.0016515 -0.009964 0.0050306 -0.0013515 -0.00010231 0.0025275 0.0076528 0.0099361 -0.0051907 -0.009194 -0.0033707 -0.0085889 0.0012011 -0.0048493 -0.0099164 
good 0.00524 0.0030986 -0.007655 0.0084048 0.01104 0.0018264 -0.0024261 -0.00061926 -0.00018603 -0.0012333 0.0084393 0.0011052 0.00090598 0.0006095 -0.0030051 -0.0035766 -0.00042517 -0.0059515 0.0095342 0.0058243 0.0028189 -0.00155 0.011087 -0.012124 -0.004784 -0.0091092 0.0086226 -0.0042282 -0.0051353 0.0035175 0.0095895 -0.0077482 -0.0015212 -0.0041643 0.0059675 -0.0080135 0.00042037 -0.0019694 -0.0016543 -0.01056 -0.00444 -0.00017415 -0.0090129 -0.0029837 0.0067674 0.011138 -0.0033357 0.0054573 -0.0076293 0.00094813 -0.011114 -0.0033274 0.0052696 -2.0877e-05 0.0036229 -0.0090981 0.0021201 0.010058 0.0074661 0.0015072 0.0055587 0.0063235 0.0053326 0.0072445 -0.0039687 0.0098414 0.0038729 0.0010993 -0.0043038 0.010032 0.0092917 0.010387 0.0061217 -0.0080397 -0.0032336 -0.0021024 0.0013569 0.0092435 0.0046038 -0.0058996 -0.004874 0.0070807 -0.0027369 -0.0037036 0.0097583 -0.0080919 -0.0042933 0.00042691 -0.008207 -0.0022827 -0.0046577 0.0046739 0.0084223 -0.009529 -0.010088 -0.010991 0.0069291 -0.0024529 -0.0057104 0.0043888 
for 0.0085522 0.0063736 -0.005018 0.0086102 -0.0040056 0.0057903 0.0099354 0.00079258 -0.008053 -0.0047984 -0.0071106 0.0013077 0.0071991 -0.00065393 0.0062637 -0.00076945 8.8256e-05 -0.0077087 0.00049925 0.0022062 0.0032242 0.0061877 0.0010182 0.0063325 -0.0069496 0.0059312 -0.0038246 0.0049612 -0.0096712 0.0035846 0.0038781 0.0087827 -0.0019839 -0.0099483 0.0011485 0.00061964 7.062e-05 -0.0024531 -0.00070361 0.0019391 0.0032698 0.00486 0.0069937 0.0084674 0.0048599 0.0011833 -0.00068387 0.0015525 -0.0070932 0.0078016 -0.0067119 0.00036292 0.0040236 -0.0082231 0.0088493 0.004472 0.0023266 -0.0035567 0.006763 -0.0099041 0.0059464 0.0024671 0.0074629 0.0083297 0.0081132 -0.0041591 -0.0035706 0.0042828 -0.0074092 0.0020853 -0.0051479 0.00059487 0.0091112 0.0049703 -0.0063387 0.0032114 -0.0021361 -0.0025471 0.0076491 -0.0088292 0.0068883 0.0038236 -0.0063347 0.0057482 0.0061669 0.0057715 0.0090641 0.0016747 0.0015669 -0.0092879 -0.0025984 0.0086633 -0.00014299 0.0098172 0.0052913 -0.00065803 -0.0090293 -0.0024513 -0.0092154 -0.0062215 
it's 0.0017075 -0.006975 -0.0071214 -0.0056432 0.0089586 0.00041139 -0.0090414 -0.0035535 0.0040017 -0.003168 -0.0022766 0.0090377 0.0098168 0.008133 0.0032179 -0.00096941 -0.0010321 -0.0034825 0.0076926 -0.0047328 0.0086421 -0.00010356 0.0047302 0.001732 -0.0032408 -0.0073698 0.0065987 0.0082277 0.0079735 -0.0041289 0.0015204 0.0029295 0.006698 0.0020252 -0.0093806 0.0035655 0.008825 -0.006615 -0.0067027 -0.0018407 0.0060298 -0.0053548 0.0094115 -0.0073479 0.0073295 -0.0079151 -0.00043879 0.008294 0.0017648 0.0013449 0.0043814 -0.0096195 -0.0010796 -0.0053843 -0.0034655 -0.0057123 -0.0079272 -0.0036186 -0.0075998 -0.0042603 0.0031409 0.0063171 0.005169 -0.00093104 -0.0082165 0.0071085 -0.0088772 7.4885e-05 0.0047877 -0.0053025 0.003858 0.0062795 0.0058378 -0.0046654 -0.0017363 -0.0081939 0.0033892 0.0092788 0.00099194 0.0072352 0.0012483 0.0015255 0.0029801 -0.0046749 0.0053859 0.00099828 0.00088512 -0.0022054 -0.0051465 0.00095858 0.001575 -0.0092395 -0.0015158 -0.0085287 -0.0035027 -0.006998 0.005091 -0.0091102 -0.00014739 -0.0076369 
this 0.0037852 -0.0038414 0.0056055 0.0069811 -0.0055419 0.0060035 0.0033006 -0.0061008 0.0077289 0.0021485 0.0022364 0.0045648 -0.0091012 0.0051424 -0.0024154 0.0062108 0.0052521 0.0079662 -0.009397 -0.0027677 -0.0027028 -0.0043767 -0.0049372 0.0014602 0.0049367 0.0039253 0.0081048 0.0052538 0.0070107 0.00094023 0.00615 0.00071385 -0.0021359 -0.0046339 0.0082635 0.0075258 -0.0083623 -0.0082135 0.0045788 -0.0031714 0.0079218 0.0014225 -0.0010892 0.0048835 0.0065517 -0.0059682 -0.0083802 0.0013755 0.0042556 -0.0035328 -0.00053877 0.0072393 -0.0083975 0.0035937 -0.0097322 -0.002264 -0.0073293 0.0039705 -0.010312 0.0044291 -0.008715 -0.0050829 0.0023991 0.0097579 -0.00214 -0.0054224 -0.0045292 0.00046872 0.0042454 -0.0028533 -0.0090138 0.0058426 0.0048059 -0.00075816 -0.0052253 -0.0073426 0.0079425 -0.0095245 -0.0066127 -0.0016756 0.0059113 0.00406 -0.0082679 0.007368 -0.0019316 0.0076567 0.0076577 -0.0076906 -0.0028919 0.0056064 -0.0069742 0.0046904 0.004829 -0.005771 -0.0021811 0.0018613 -0.0026799 -0.002608 0.010063 -0.0033518 
it 0.002027 -0.0085769 0.002394 0.0075511 0.006228 -0.0095759 0.0024098 -0.0036498 0.0018812 0.0034603 -0.0043415 0.0089435 -0.0096683 -0.0036344 -0.0049624 -0.0027782 -0.00025512 0.0080532 -0.0050881 0.0099287 -0.0066065 0.0062498 0.00095932 -0.0063562 0.0019645 0.0051666 0.0073897 -0.0096727 0.0060392 0.0049415 -0.0044138 0.0076797 -0.0080176 -0.006802 0.0089497 -0.0048131 0.00048296 0.0053602 -0.0057769 -0.0088969 -0.0069895 0.0063316 -0.0048391 -0.00028563 -0.0016642 -0.0012858 0.0098459 -0.0056136 0.0086115 0.0029711 -0.0076594 0.0066824 -0.0031515 -0.0018166 -0.0060784 -0.0063059 0.00015259 -0.0028884 0.0025796 0.004462 -0.0067175 0.0025472 -0.0095326 0.0066754 0.0088306 -0.0067059 -0.00035341 0.00071643 -0.0020284 0.0031337 -0.0082247 -0.0029214 0.0042379 -0.0093857 -0.0090719 0.009392 0.0084784 0.0078733 -0.0038179 0.0085265 0.0053895 -0.0081274 -0.0013448 0.0080864 -0.0023499 -0.0046094 0.0057292 0.0022057 -0.0032068 -0.0088503 0.0082881 0.0031564 -0.0051777 0.0041523 -0.0080753 -0.0093228 -0.003059 0.00089143 0.0015692 -0.0012021 
so 0.0019261 0.0084109 -0.004806 -0.0088576 0.004006 0.0063814 -0.0055159 -0.0074803 -0.0018501 0.00798 0.005548 -0.0086374 0.0028685 0.0035242 0.006048 0.010599 -0.0027362 0.0018543 -0.0071662 -0.0081386 0.0079227 -0.0081895 -0.0084391 0.0085106 0.0015787 0.002636 -0.0043324 0.0093295 -0.010407 -0.0039071 0.0031865 0.0071597 0.008353 -0.0081897 -0.0077848 -0.0065854 -0.0083996 -0.0064338 0.00034008 0.0087457 0.0014668 0.0058329 0.0099959 0.006884 -0.0051177 -0.008186 0.0024871 0.0092453 0.00038618 0.0080024 -0.004828 0.011224 -0.00039342 -0.0029233 0.0061307 0.006485 -0.0027574 -0.0062162 0.0074304 -0.0033868 0.0032896 -0.0055018 -0.0058393 0.0047933 0.0051154 -0.0064278 0.0081045 0.0026147 -0.0046018 0.0064823 0.0059121 0.0081338 -0.010648 -0.0066648 0.0081447 -0.0045529 -0.0019755 -0.007506 0.002794 0.0021567 -0.00066905 0.010782 0.0051846 0.00094119 -0.0032209 -0.0089728 0.0045315 -0.0095472 0.00085463 -0.010774 -0.0081916 0.006404 0.006067 -0.005016 -0.00046261 0.0047178 -0.0033187 -0.0014278 0.0038897 0.0028029 
have 0.0037337 0.0021351 -0.0040559 0.0013559 0.0038361 0.006725 -0.0063763 -0.0039102 0.008644 0.0052227 0.006548 0.0059734 -0.0050919 0.0045168 0.0036494 -0.0061414 0.0018343 0.0035107 -0.0060022 -0.002464 -0.0010122 0.005787 0.0099163 0.0060555 0.00074793 0.002553 0.0065784 -0.0010325 -0.0026117 0.0050401 0.0098209 -0.0017586 0.00078893 -0.0077331 -0.0098065 -0.0066563 -0.00077755 -0.0038378 0.0090701 -0.00076063 -0.0073462 0.0091075 0.0058082 0.0070472 0.0042286 0.008438 -0.00043079 0.0056605 0.0069274 -0.00087631 0.0057708 0.0025373 0.001236 -0.0063491 -0.00062193 -0.0012353 0.0094113 -0.0026551 -0.0015529 0.001152 0.0038522 -0.0096275 0.0092694 0.0022678 0.0022228 0.0043662 0.0086624 0.0017433 0.0051348 -0.0039031 -0.0042082 0.0041692 0.0090252 0.0063239 0.0059258 -0.00019294 0.002428 -0.0025514 0.0079538 0.0055107 -0.005937 0.0013413 0.0016303 0.0083586 0.0020792 0.0059383 -0.0093384 -0.0087012 0.0065818 0.0053534 0.0080353 0.0070313 0.0091989 0.009737 0.0034867 -0.010119 -0.001046 0.0056313 0.0059951 -0.0027318 
not 0.0070487 -0.0076149 0.00071397 0.0018711 -0.0011342 -0.0089713 -0.0077018 0.005697 0.0056829 -0.0086559 -0.0024408 0.0028908 -0.0062759 2.1014e-05 -0.009757 0.0099686 0.0073987 0.0002185 -0.00099395 -0.0094106 0.0045956 -0.00011619 -0.0090851 -0.0044536 -0.0056639 0.0073632 0.002665 -0.0078408 -0.0017786 0.0049838 -0.0043947 -0.0038172 0.00070984 -0.0036584 -3.8633e-05 -0.0035775 0.0069536 0.00084533 0.0023428 -0.0065709 0.0075689 0.0021155 -0.0027598 0.0039622 0.0030273 -0.007027 0.005618 -0.0053704 -0.0055384 -0.0042838 -0.0081225 0.0028554 -0.0053377 -0.0038627 0.0077371 -0.0068962 0.0041112 0.0020171 -0.0020323 -0.00087281 -0.00936 -0.0063766 0.0079304 0.0091146 -0.0035515 0.0074778 0.0053008 0.0096664 -0.0020762 0.0073381 -0.007342 0.0058357 0.0012643 0.00099322 0.00054187 -0.0090562 -0.0020279 0.0080899 0.0073791 0.0083246 0.009663 -0.0025451 -0.0017907 -0.0098252 0.0038513 -0.00059028 0.0014032 -0.0018275 0.00697 -0.0086779 0.0089331 -0.0067019 0.0068885 0.0033262 0.00028406 -0.0040501 -0.0026816 -0.0020133 -0.0048733 0.0055015 
and 0.0064581 0.0079671 -0.0070946 -0.0079697 0.0016018 -0.00782 -0.0035985 0.0082562 -0.00091667 0.0038508 -0.006098 -0.0023516 0.0040793 0.0084891 0.0067896 0.0065017 -0.0053389 -0.0033082 0.0029961 -0.0039343 0.0023978 0.0017036 -0.00031985 0.0029125 -0.0030089 -0.0027678 0.0075362 -0.0096827 0.0016613 -0.0086539 -0.0037306 -0.0079362 0.0060892 -0.0049087 -0.0036011 -0.0051606 0.0022116 -0.007939 -0.0081098 0.0045989 0.0055446 -0.00057129 0.00089793 -0.0033423 0.0015343 -0.0094312 -0.0074755 0.0088387 -0.0015553 -0.0046233 -0.0086645 0.0090877 -0.0083612 0.0056173 -0.0078333 -0.0015961 -0.0054017 0.0090103 0.0080478 0.0090519 0.0086962 -0.0004255 0.0083625 0.0086034 -0.00064796 0.0028255 0.0064404 -0.0037402 -0.007606 0.0029949 -0.0045938 -0.0010302 0.0038051 -0.001105 -0.00025057 0.002048 0.0067867 0.00072459 0.0010264 -0.0025718 0.0052514 -0.0094786 0.005019 0.00047801 0.0084769 0.0096315 0.00033149 0.0064811 0.0053965 -0.00019364 0.0013859 0.0076416 0.0091468 -0.0089001 -0.0074444 -0.002597 -0.0059019 0.0032073 -0.0030944 0.0039304 
test 0.0048124 -0.0052572 0.0082726 0.0070784 0.0074326 0.0086994 0.00058105 -0.0007642 -0.0017974 0.0032637 -0.0076066 -0.010133 0.001828 0.0028421 0.0022922 0.00118 -0.0046799 -0.0069712 -0.0086799 -0.0091539 0.0061441 0.0031629 0.0078746 0.0055728 -0.0061658 -0.0066792 -0.0044373 0.006936 0.0025639 0.00086888 0.0042839 0.00021735 0.0070083 0.0078316 -0.0024068 -0.00015597 -0.0094593 0.0085522 -0.0026071 -0.0077677 -0.0027596 0.0038725 -0.0082928 0.0081876 0.005715 0.0093658 0.00046096 -0.0081989 0.0014065 -0.0090691 -0.0035284 0.0039301 0.0034008 -0.0002139 -0.0052427 0.0059391 0.0070858 -0.0033785 0.004709 -0.0086873 -0.0083556 0.00038384 -0.010043 0.0010429 0.0048341 -0.0032427 0.0052706 0.0069617 0.0019421 0.0090352 -0.0068642 -0.0020461 -0.0042276 -0.0063904 -0.0052632 -0.0014675 0.0055491 0.0048908 0.0054476 -0.0010583 0.009685 0.0016685 -0.00082772 0.0016333 -0.0085274 0.00712 -0.0081239 -0.0011336 0.00622 -0.008955 0.0049346 -0.0022097 0.0052608 -0.0070756 -0.0047126 0.0016539 -0.0067326 0.0068832 0.0037375 0.0065532 
one 0.0023017 -0.0090152 0.0050648 0.0094652 -0.007628 0.0025336 0.0056652 0.0034787 0.0093684 -0.0023673 -0.0045714 0.0012079 0.0044915 0.0062211 0.0035293 0.0061719 0.0026486 -0.0049155 0.0073917 -0.0040079 -0.0098575 -0.0020264 0.0066068 0.0011845 0.0038176 -0.0045193 -0.0026289 0.0027556 -0.0039847 -0.0069246 -0.0016079 -0.0031514 -0.0044592 0.0030784 -0.0085425 -0.0049817 0.0090039 0.0057851 0.0068134 0.0092948 -0.0083111 0.0017288 0.00055969 0.0085376 0.0061312 0.0060222 -0.0043443 0.0011148 0.0038963 0.0084007 0.0042565 -0.006655 -0.0091696 0.00061211 -0.0057208 -0.0035438 0.0078371 -0.0027012 -0.0046145 0.006253 -0.009417 0.0019478 -0.0043194 0.0052946 -0.0084054 -0.0031738 0.003447 0.0022249 -0.0027853 -0.0065418 -0.0095521 0.0089047 0.0070943 0.0095198 -0.0066033 0.0078218 0.0060361 -0.00086639 -0.00012258 -0.0077833 0.0068957 0.0076545 -0.0042071 -0.0073619 0.0046527 0.0017501 -0.0028683 0.0089443 -0.0015415 -0.0090301 0.0052389 0.0089174 0.0052933 0.0023189 -0.0088283 -0.0053741 -0.0028492 -0.00989 -0.0070827 -0.0045964 
am 0.0034829 0.0073922 -0.0029824 -0.008061 0.0019603 0.0056799 -0.010102 0.002437 -0.0076063 -0.0060102 -0.0017715 0.0082797 -0.0021177 0.0076449 -0.0039266 0.0051157 0.0048747 0.0012632 0.010109 -0.0049311 0.0089091 -0.0089387 0.0093274 -6.3531e-05 -0.0010023 -0.0043651 0.0055078 -0.0034927 -0.0072169 0.00053999 0.0098814 0.0080795 0.0014723 0.0089547 0.0010806 -0.0091445 -0.0049973 -0.0020886 -0.0087626 0.0047272 0.0043616 0.0086256 -0.003225 -0.00042229 0.0036874 -0.0079022 0.0051276 0.0034898 0.00073655 -0.0087923 -0.0015282 0.0060589 0.0042487 -0.0062152 -0.005668 -0.003405 -0.0025038 -0.0078572 -0.00083073 -0.001105 -0.0057902 -0.00059302 0.0037947 0.00082443 -0.008634 -0.0097037 0.006011 -0.00053033 0.0052417 0.0033458 -0.0087796 -0.00070122 0.00040772 0.00053866 -0.0046479 0.0053514 -0.0101 0.0018511 0.0010013 0.0031678 0.00068838 -0.0051623 0.0014391 -0.0066403 0.0040522 0.0094918 0.00023943 0.00012473 -0.0041392 -0.0064865 0.0070447 -0.005064 -0.0071532 -0.0045618 0.0089665 -0.0092577 0.00099992 0.00057316 0.0087913 -0.0061852 
of -0.0025071 0.0061735 0.008284 0.0068599 -0.0086248 0.0067696 -1.7762e-05 0.0028003 0.007698 0.0038223 -0.00039156 -0.0038421 -0.00029489 0.0015558 -0.0070602 0.0085144 0.0065372 0.0068868 -0.0067348 0.0070831 -0.0012473 0.0094701 -0.00977 -0.0015198 0.00059099 0.0043979 0.0059264 0.0083109 -0.0079367 -0.0045955 0.0065904 -0.00051906 0.010238 0.0026362 0.0048581 0.007415 0.0068069 0.0090503 -0.0062658 0.0052189 -0.0092069 0.0005497 -0.010021 0.0022104 0.0066548 -0.00038761 0.010063 -0.0042304 -0.0057814 -0.0083947 0.0093844 0.0089159 0.0047175 0.0083891 -0.0025826 -0.0087395 -0.0046868 0.0080664 0.0075978 0.0019238 -0.0032787 -0.00011683 -0.006496 0.0053299 0.0045136 -0.0092125 0.010093 0.00061412 0.0062008 0.0021879 0.0043185 -0.0032458 -0.0074379 -0.008008 0.0012939 -0.0036016 -0.0005797 -0.0097465 -0.0024064 -0.0011737 -0.0024034 0.0034611 -0.0032498 0.0024478 -0.0093451 0.00035727 0.0098888 -0.0031054 2.44e-05 -0.0073859 -0.0045438 -0.009013 -0.0017797 -0.007441 0.0048885 0.0041455 0.00025026 8.9232e-05 0.0055866 -0.0096194 
can -0.0050657 0.0047434 -0.0021358 0.0084959 -0.0022424 0.0089947 -0.0057893 -0.0054679 0.0036407 -0.0077095 -0.0012056 -0.006377 0.0029919 0.0095361 -0.0080289 0.0079461 0.0074662 -0.0083228 -0.0079123 0.004411 -0.0016682 0.0025458 -0.0064755 0.00087291 -0.0092375 -0.0048761 -0.0096905 0.0034589 0.00231 -0.0046273 0.0056616 -0.0095398 0.0075222 0.0064328 0.0077851 -0.0091167 0.0076682 0.0072994 -0.0053194 0.0026718 -0.008463 -0.0083771 -0.0025006 0.0048438 0.0028548 0.0081595 0.0062362 0.0031287 0.0080893 -0.010032 0.0093717 0.0048067 -0.0030478 -0.0041108 -0.0074203 -0.0051717 -0.0041018 0.0042236 -0.0019793 0.0070932 0.0079553 0.008764 -0.004226 -0.0043456 -0.004244 -0.0027283 -0.0069152 -0.0023045 -0.0073315 -0.009937 0.0044867 0.004677 -0.0022864 0.0014258 0.00069441 -0.00095944 -0.0018232 -0.0097024 -0.0043882 0.0062177 0.00015873 -0.0056593 -0.0056497 0.0079481 0.0066536 0.0093594 0.00086847 0.0072282 -0.0055901 0.0090398 -0.0030557 -0.0042072 0.0084096 -0.00247 0.0031926 0.0063828 0.0097523 0.0053101 0.0059487 0.0075189 
something 0.0056949 0.0024427 -0.0093249 0.0020109 0.0048244 0.0016151 -0.0046217 -0.0055283 0.0021882 0.007207 -0.007701 0.0023695 -0.0016997 0.0012945 0.0022062 0.0080679 -0.0037131 0.0051694 0.0044368 0.0012529 0.0034424 0.0012192 0.00074762 -0.0038144 0.0068426 -0.0010669 0.0059817 -0.0033238 -0.0064016 0.0093242 -0.001844 -0.00058035 0.0036007 0.0076038 -0.0035999 0.0051391 0.0019825 3.128e-05 -0.0027721 0.0026402 -0.0023014 -0.006979 0.0030666 -0.0060819 -0.0039232 -0.0095725 -0.0060043 -0.0032006 -0.0069984 0.00050294 0.007957 -0.0046324 0.0061115 -0.0086038 0.0041832 0.007974 0.0097493 -0.0039412 0.008638 -0.003518 0.0037596 -0.0030575 -0.0032311 0.0081192 -0.0042373 0.0025412 0.006762 -0.0027993 0.0091154 0.0095876 -0.0065096 0.0055311 -0.0026996 0.0041878 -0.0078892 -0.0095752 -0.0057215 0.0060352 0.00022324 0.0040176 -0.0034785 -0.0026328 -0.0079137 -0.0063466 -0.0018194 0.0072426 0.0032819 0.0047605 -0.0047246 0.0043527 0.009893 0.0011125 -1.7475e-05 -0.0031778 0.0060114 -0.0095193 -0.0036025 -0.0085855 0.00044144 0.0050953 
no 0.0039797 -0.0051839 0.0029104 0.0071317 -0.0063987 -0.0088701 -0.0076134 -0.0024746 0.0090804 -0.0058025 -0.0054081 0.0094077 -0.0075583 -0.0081949 -0.0088695 0.0089099 0.0025606 -0.0076075 -0.0082817 0.0066169 0.0016055 0.0019265 -0.00042106 -0.0033686 0.0033378 0.001825 0.0037657 -0.01016 -0.0067742 0.0010149 0.0082927 -0.0045983 -0.0090267 -0.0062019 -0.010699 -0.0046709 -0.0080327 -0.01001 0.0035051 0.0010017 -0.0062009 0.0050031 0.0035264 -0.00095782 -0.010027 0.007115 -0.0048325 -0.0088359 -0.00564 -0.0062175 -0.0053181 -0.0033577 0.0084193 0.008668 0.0028204 0.0081465 -0.0070083 -0.00015327 0.0011308 0.0018096 0.0063852 -0.0095203 0.00062351 0.0023579 -0.010108 -0.0096582 0.0075319 0.0039674 0.0032767 -0.0038839 -0.0094066 0.00433 -8.6567e-06 0.0075614 0.0030306 0.0021129 0.0010333 0.0059492 -0.0024831 -0.00065647 -0.0044774 -0.0076009 -0.00018657 -0.00051307 -0.0059171 0.0050562 -0.0041756 -0.0017759 -0.0072147 -0.0090757 -0.0083972 -0.0069943 -0.008337 0.0034244 0.00038426 -0.010348 -0.0049296 0.00020437 -0.0074329 -0.0011755 
because 0.00105 -0.00093882 0.0020704 0.0088915 0.003624 0.0044053 -0.00073309 -0.0062912 0.00032072 0.0024968 0.0034641 0.00099161 -0.0030332 -0.0036917 0.0011851 -0.0072153 -0.0051662 0.009613 0.00224 -0.0035996 -0.0025043 -0.0039947 -0.0063938 0.0088101 -0.0074241 -0.0056684 -0.0058126 -0.0097976 -0.001232 -0.0071865 -0.0091991 0.00073208 0.007283 0.0063609 -0.0055272 0.00092208 0.00037893 -0.0013719 -0.0004079 0.0063188 -0.001885 0.0068394 -0.004216 0.0063688 -0.0095523 -0.0015155 0.0011077 0.0052508 0.0099636 0.0089621 -0.0093861 0.0030756 0.001057 0.0063765 0.0062612 -0.007936 0.00033941 -0.0081127 0.0064787 -0.00060468 0.0061088 -0.0048062 0.0089039 -0.0011167 0.0075024 -0.0027755 -0.0012338 0.0083104 -0.0054819 0.0015386 -0.0093813 -0.0095658 0.0083015 -0.00052747 0.00118 0.0030967 0.0083983 -0.0093457 0.009784 0.0029419 -0.0016418 0.0018879 0.0084117 0.0019062 0.003303 -0.00035095 0.0081578 0.005919 -0.0051538 -0.0022756 0.0042812 -0.0089927 0.0090669 0.0082238 -0.00078656 -0.0086203 0.0011497 0.0014112 -0.0042838 0.0067333 
we -0.0056351 -0.00848 -0.0021954 0.001093 0.0088231 0.0080611 0.0076396 0.00075596 0.0019155 0.0094234 -0.0033876 0.0052117 -0.0075732 -0.002002 -0.0092528 -0.0084118 0.00055863 -0.0090954 0.0010552 -0.0049295 -0.0028619 0.0036845 0.0040677 -0.00028405 0.0043033 0.0056892 -0.0030709 0.0016374 -0.0022578 0.0088299 -0.0012342 0.0080761 -0.0090965 -0.0051795 0.0082863 -0.004295 -0.0070291 -0.0056762 0.006795 -0.0075396 -0.0086255 -0.00065288 -0.0027009 0.0077047 0.00091666 -0.002404 -0.0058886 -0.0061338 0.0072471 0.0048873 0.0088678 -0.0071903 0.0020205 0.0044781 -0.0086702 -0.0077483 -0.008377 0.0011264 -0.0070297 0.0096905 0.0096611 0.0089158 -0.0031782 -0.008954 -0.0014151 0.0031334 -0.0013438 -0.0065618 -0.0093709 0.0087394 0.0095227 -0.0060486 -0.0086847 -0.0017998 -0.0034837 0.0097836 0.0084045 -0.006397 -0.0092176 0.0067765 0.009065 0.008965 0.0078582 0.0090623 0.0041508 7.3638e-05 -0.008272 -0.0022101 0.0091471 -0.0078821 -0.0048158 -0.0014964 0.0029265 0.009233 0.0057709 0.0021393 -0.009793 0.00296 0.0031201 -0.0068863 
Japanese -0.0026539 0.0098827 0.0079957 0.0052383 -0.0032229 -0.0059361 -0.0020422 0.0066441 -0.0043623 0.0021642 -0.0018198 0.0030254 0.0013313 -0.0042797 0.0050952 0.0042752 0.0072598 -0.001466 -0.00018199 0.00068854 0.0020175 0.0041513 -0.0043775 -0.001796 0.00078405 -0.00546 0.0050671 0.0027819 -0.00011966 0.0039888 7.5493e-05 0.00076676 0.0088995 0.0042724 0.003529 -0.0068828 -0.0021978 -0.0050971 0.00073702 -0.009792 0.0079109 0.0066938 -0.0014819 -0.0029712 -0.0045312 -6.9385e-05 0.0076603 -0.0008783 0.0040032 0.0026324 0.0076454 -0.0072713 0.0089823 0.0065223 -0.0044363 0.0070241 -0.0056384 -0.0082503 0.002686 0.0010321 0.0045088 0.0021813 -0.009512 0.0093929 0.0079811 -0.0073829 -0.005439 0.0052135 -0.0053585 -0.0062763 0.0046263 0.0098977 -0.0084297 0.004756 -0.0046009 -0.0011568 0.009206 0.0074142 -0.0063162 0.0057846 -0.0072066 -0.0062612 -0.00040424 0.0040885 0.0036724 -0.0007026 0.0027032 0.00041512 -0.0089145 0.0094936 -0.00014048 -0.00018893 0.0085341 0.0042575 -0.0081964 0.0069757 -0.0092206 -0.0094656 0.0067334 -0.0092723 
an -0.0019984 0.0089509 -0.0070049 -0.0074239 -0.0033009 0.0067734 0.0018721 0.0011194 4.6943e-05 0.0030983 0.0040095 0.0070929 -0.0079722 0.0031501 0.0070653 -0.0057993 -0.0041354 -0.0007116 0.0037927 -0.00062115 -0.007797 0.0022679 0.0044963 0.0055929 0.00021102 -0.0025058 0.0090487 0.00020319 -2.3546e-05 0.0077521 -0.0072837 0.0099692 0.00049996 -0.0055916 0.0084657 0.0023211 -0.0029553 -2.6446e-05 0.0040421 -0.0031356 0.005062 0.0049289 0.0020721 0.0082459 0.0016173 -0.0054046 -0.0046811 0.0046069 -0.0041662 -0.0031933 0.0042775 0.0043194 -0.0047243 -0.0019979 -0.0071828 -0.00031539 -0.0086416 0.0023795 -0.0037487 0.0069557 0.0032631 -0.00692 0.0042027 -0.00079548 -0.0094166 0.0057045 0.00523 -0.0075184 -0.00097516 0.0038327 0.0035719 -0.0090249 -0.0056791 0.0024249 0.0036995 -0.004631 -0.005203 0.0091126 -0.0078215 -0.0089799 -0.0045641 0.0047155 0.0015655 0.0014828 0.0066901 -0.00019633 0.0096322 0.005965 0.0043583 -0.0097496 0.00891 -0.00064339 -0.0015375 0.0067262 -0.0048549 0.0094246 0.005955 -0.0093261 0.0056054 0.0039908 
you're -0.0036809 -0.009822 0.0069462 -0.0050335 -0.0059455 -0.0090578 -0.0059691 -0.0035668 -0.0083999 0.0048985 0.0021712 -0.0087655 0.0084858 0.0027041 0.0059272 -0.0093189 -0.00569 0.0056071 -0.0085288 0.0083024 -7.7074e-05 0.0075104 -0.0047176 -0.0070492 0.0028058 0.0013359 -0.0031973 0.0027091 0.0069989 -8.725e-05 -0.0091528 0.0066847 0.0036691 0.0074872 0.0097308 0.00072067 0.0023478 0.004896 0.0077123 0.0081941 -0.0037154 0.0016128 -0.0076609 -0.0038075 -0.0009077 -0.0049187 0.0026806 0.0040914 0.0091484 -0.0039655 0.0077053 -0.0054403 0.00022461 -0.0041033 -0.0049646 0.0044167 -0.0031191 0.0024335 0.0074077 0.0057054 0.0078116 0.0018303 -0.0026234 -0.004373 0.0060477 0.005799 0.008032 0.00029301 -0.007024 -0.0050337 0.0037987 -0.0016206 0.0054167 0.0004669 0.00070607 0.00015048 0.0026134 -0.007545 0.0096045 -0.0090016 -0.0070244 -0.0068919 0.003712 -0.0038376 0.0080745 -0.0024926 -0.0085523 0.0020202 -0.0062554 -0.0063152 -0.0044167 -0.006449 0.0062869 -0.0081917 -0.004367 0.0093634 -0.0039153 -0.0081813 -0.0045108 -0.0098485 
are -0.0061044 -0.0093265 -0.0042129 -0.0020954 -0.0090508 -0.0069697 0.0053184 0.0039646 0.0086787 -0.0039795 -0.0034177 -0.00028879 -0.0053927 -0.0060263 -0.0052806 -0.0056525 -0.0088903 -2.8051e-05 -0.0068439 -0.0043891 -0.0071648 -0.0070325 -0.0074809 0.0053436 -5.0389e-05 -0.00507 0.0056721 -0.0023389 -0.0022306 0.008914 0.0080179 -0.0046324 -0.00073186 -0.0062265 -0.0042007 0.0022734 -0.0060807 -0.006994 0.0041539 0.0088553 0.0013409 -0.0042813 0.0094946 -0.0063022 0.0034764 -0.0023893 0.003553 -0.0094828 -0.0043409 -0.0083286 0.0089842 0.0013797 -0.00062874 -0.0085043 -0.0018542 -0.0015194 -0.00031357 0.0041701 0.0061584 -0.00091814 -0.0098242 -0.00068083 -0.0050251 0.0029873 -0.0093694 0.0030963 -0.0050213 0.0074009 -0.0092241 -0.007861 -0.0015678 0.0097356 0.0086 -0.00010075 0.0027271 -0.0066702 -0.001154 -0.0013953 0.0020558 -0.007368 0.0082644 0.003573 -0.006841 0.008275 0.0039254 0.0060019 -0.0049843 0.0054987 -0.0099588 0.0065163 0.0050088 -0.006073 -0.0014032 -0.0099044 -0.0040223 0.0080965 -0.0043325 0.0095568 -0.0092754 0.0092896 
mam 0.0061988 -0.0039243 -0.0079048 0.0067189 0.0083588 0.0035091 0.0030722 -0.0054571 -0.0067761 -0.0058223 0.0010022 0.0062813 -0.0082862 -0.0033075 -0.008591 0.0065119 -0.0090944 0.0039947 0.0056485 0.0090157 0.0035016 0.0081498 -0.0034593 -0.0094946 -0.0069199 0.0029609 0.0090966 0.0048426 0.0090686 0.0023157 0.0091044 0.0059265 0.00066934 -0.0044261 -0.00018129 0.0038265 0.0040406 -0.00035935 0.003038 -0.0072851 0.001802 0.0038471 -0.0011019 0.006499 -0.0087908 -0.007518 -0.0038294 -0.0048318 -0.0039874 -0.0087557 2.5973e-05 0.0010073 -0.0064782 -0.0030768 0.0063625 -0.010401 -0.003131 0.010129 -0.00083887 0.0029253 0.0066907 -0.0042302 0.0041023 -0.0015845 0.0049075 0.0028436 -0.0061287 0.0011656 0.0078471 -0.0028033 0.0077033 0.0040927 0.008561 0.0049818 -0.009873 -0.0090674 0.0094337 0.0048831 0.0071572 0.0053452 -0.0035324 0.0010632 0.0059118 0.007101 -0.0055866 0.004443 0.0017226 -0.0012401 0.0064424 0.0011295 -0.0096282 -0.0087138 -0.0065842 -0.0093049 0.0030781 -0.0054161 0.00044579 -0.005615 0.0039471 -0.0021079 
nah -0.00026059 -0.002764 0.0038913 0.00051168 0.0054215 0.0015478 0.0065508 -0.007864 -0.0061923 0.0037626 0.0077529 -0.00014329 -0.003448 0.0014994 0.0093392 0.00041758 -0.0079819 -0.0054524 -0.006589 -0.0052104 0.0066233 0.0048665 -0.0030591 -0.0057305 0.0049852 0.0049333 -0.0040842 -0.008277 0.0050745 0.0044727 0.007033 0.0033994 -0.0084042 0.0051465 -0.0066135 -0.0082792 -0.0069612 0.0093305 0.0028893 -0.010327 -0.0048811 -0.0059451 0.0017539 0.0035835 -0.00539 0.0026777 0.0040446 0.0065667 5.3458e-05 0.00013536 0.0092849 -0.0029255 -0.0036899 4.6726e-05 -0.0072904 0.0065573 -0.0048652 -0.0040504 0.0070998 0.0089592 -0.0088253 -0.0032555 -0.00047655 0.0028983 -0.0042582 -0.0012534 0.0052034 0.001917 -0.0089574 0.0035972 -0.0077897 -0.0040396 0.0091947 0.0030142 -0.0070908 -0.0063758 0.0030279 -0.0076174 0.0098352 -0.010152 0.00083092 -0.0065632 -0.0017337 -0.009608 -0.0062222 -0.0078435 -0.003521 0.0020319 0.0074884 -0.0052324 -0.0068193 -0.0046306 0.007555 0.002795 -0.004113 -0.0058754 -0.0048087 0.0091409 -0.0077292 -0.0037269 
nope 0.0078344 -0.0066084 -0.00092955 -0.0045133 0.0089986 -0.0032847 0.00021361 0.007742 0.00012277 -0.0032928 0.0091579 0.0085223 0.0080255 -0.0039364 0.00088204 0.0085004 0.008315 -0.0048994 0.0061676 -0.0050771 0.0021224 -9.2972e-05 0.0019867 0.001627 -0.0081395 0.0012523 -0.00061218 -0.0016098 0.0092043 0.0051057 -0.0050618 0.0020984 -0.010604 0.0074076 0.00018759 0.00037424 0.0039545 -0.0066717 -0.0068473 0.0089731 0.0049977 0.0020992 0.0080557 -0.0077865 -0.0071874 0.0063815 0.0061982 0.00014173 -0.0067595 0.0062228 -0.00024963 -0.0029519 -0.0060652 0.0026557 -0.0088022 -0.0042621 0.0039482 0.0085244 0.0026308 0.0073798 -0.0023846 0.0046846 -0.003142 -0.00094051 0.0043366 0.0015636 -0.0068947 0.008698 0.0088493 -0.00011211 -0.0087687 -0.0096956 0.0042655 -0.0028098 -0.0017882 -0.010356 -0.0073521 0.010078 0.0076946 0.0033854 0.00018572 -0.007921 -0.0040079 -0.0033917 0.0056372 0.0052774 -0.00035705 0.0040701 -0.003612 -0.00087077 -0.0094796 -0.0044213 0.0013957 -0.0015295 0.0024518 -0.0058788 -0.0051222 0.0025127 -0.0073217 -0.0011675 
sleep 0.006715 -0.0053368 0.0044198 -0.0019723 0.003146 0.008902 -0.0017313 0.0037761 -0.00092923 0.0036362 -0.0057397 0.00089049 0.0037673 0.0081938 0.0048403 0.0086749 0.0055119 -0.0078765 -0.0039929 0.0065348 -0.0012239 -0.0090679 -0.004474 0.0045911 0.0067374 -0.004756 -0.0064347 -0.0030388 0.004056 -0.0012621 0.0053553 -0.0072907 0.0025705 0.0081396 -0.0059119 -0.0062719 0.0078773 0.00221 -0.0053393 -0.0086213 -0.0083712 0.0082471 -0.0042984 -0.0054589 0.0064632 -0.0082129 -0.0085156 -0.0048774 0.0086618 0.0067938 0.0055061 0.0087376 0.0021824 -0.0030236 -0.0082651 0.0054365 -0.007013 0.0052192 -0.0071577 -0.00093347 -0.0009011 -0.0042138 0.0045225 -0.0018178 -0.0061377 -0.0087306 0.0080508 0.00807 -0.0039909 -0.0039055 -0.0050446 -0.0094997 0.0031233 -0.0015698 0.0099031 0.0099629 0.0065555 -0.0034806 0.0048538 0.0017542 0.0049608 -0.0078652 -0.006337 0.0042186 -0.0068574 0.0047113 0.0087505 0.0033498 0.0030906 -0.001075 -0.0054734 -0.0024522 0.0093387 -0.0018274 0.0054128 0.005657 -0.0062164 0.0057665 -0.0068315 -0.0076248 
that's 0.0043912 -0.0061849 0.0070642 -0.0055041 0.0089753 0.0090537 -0.003459 0.0064376 0.0075893 0.011485 0.0054411 -0.0019679 0.0018406 -0.0012342 -0.004898 0.0056899 0.0063811 -0.0078383 -0.0083927 0.0053515 -0.0062736 -0.0045522 0.0072035 -0.0072925 0.00086107 -0.00601 0.00304 -0.0018598 -0.0090261 0.0053136 0.0040876 0.0016921 -0.0069056 -0.0040251 -0.00015845 0.0017659 -0.0063239 -0.010148 -0.0052665 0.00080794 0.00036404 -0.0063426 -0.0010763 -0.0054785 -0.003625 0.0096263 0.002955 -0.0023374 0.0064521 0.0094501 0.008795 0.0093101 -0.0067668 0.0078282 0.0024135 -0.0039065 -0.0068783 0.00080887 -0.002722 -0.0092569 0.0026959 0.0036324 0.0098673 -0.0091427 0.0069119 -0.0082393 -0.010142 0.0057553 0.0020385 -0.0088775 0.00065986 -0.002081 -0.0094369 0.0059163 0.00097135 0.0058574 -0.0010924 -0.0059168 0.0041482 0.0088883 0.0068271 0.0089281 0.0014618 -0.011132 -0.0054879 -0.010517 0.0094071 -0.0084767 -0.0026647 -0.0043681 0.0025013 -0.0073165 -0.0034605 0.0018263 0.0035399 -0.003393 0.009117 -0.0023854 -0.011159 0.0061148 
used 0.0016627 0.0049789 0.0051044 -0.0020855 -0.0061062 0.0093782 0.0029775 0.0029425 -0.0037052 0.0012421 -0.00054174 0.0068708 -0.010018 0.0031072 -0.0094856 0.0063943 0.0073709 -0.003614 -0.0034934 -0.0061165 0.007637 0.0055486 -0.0053678 0.0023131 0.0085048 2.5356e-05 -0.0085608 -0.0045672 6.4481e-05 -0.0074313 0.00069329 -0.0062115 -7.6866e-06 -0.0039885 -0.0052701 -0.0016004 0.0062078 0.0050083 -0.0067391 -0.00048266 0.005714 0.0067809 -0.0014919 0.0079518 0.0052435 0.0063097 -0.0085084 -0.0062518 -0.0084018 0.00073464 0.0051879 -0.009931 -0.0066526 0.00088697 0.0013389 -0.0038372 -0.0062775 0.0021477 0.0056028 0.0045012 0.0054319 0.0090772 0.0030688 0.00082064 0.0057639 0.00018 0.0041639 -0.0036744 0.0062166 -0.0038694 -0.00018676 -0.0051617 -0.006918 0.006395 -0.00097571 0.006745 0.0059776 -0.0066905 0.004543 0.0010508 -0.0090096 -0.0080028 -0.0063591 -0.0063972 0.0054388 -0.0013407 0.0085978 -0.004435 -0.0058594 0.0041674 -0.0082335 3.4316e-06 0.0014436 -0.00065964 0.0029988 -0.0035249 -0.0025192 0.009107 0.0077404 0.0029624 
classes 0.00038236 0.001141 -0.008197 -0.0086203 0.00090726 0.0022235 -0.00040364 -0.0037668 0.0044036 -0.0048599 0.0054568 0.0073234 -0.0007817 0.005448 -0.009067 -0.0056951 -0.0087493 -0.0089228 -0.00011728 0.0066733 0.0079568 0.00087791 0.008417 -0.0034652 -0.0018891 -0.0099734 -0.0019527 0.0013773 -0.00079958 0.0058004 -0.0075317 0.0078754 -0.0084667 0.0035697 -0.0030843 -0.0046841 0.0028645 0.0018515 -0.0078624 0.0050168 -0.0010496 -0.0084862 0.0052241 -0.0023165 -0.0023582 -0.005225 0.0041011 -0.0010984 0.00061948 0.0089874 -0.0043224 -0.0050984 0.0091767 -0.0098933 -0.0098777 -0.0050502 0.0018794 0.0055802 -0.0092137 -0.0027377 0.0043437 0.0047906 -0.00052787 -0.0040769 -0.0037597 0.0088461 -0.0019117 -0.0012025 0.0038551 -0.0015551 0.0054705 0.0096701 -0.00043894 0.0050857 -0.0049094 -0.0026115 0.0028161 -0.0033758 -0.004929 -0.0096883 0.0065856 0.0032857 0.0044364 -0.0057825 0.0046192 0.0019243 0.0014196 -0.0091899 -0.0021186 0.0028573 0.0049929 -0.0034369 0.0096356 -0.0010058 -0.002873 0.0010203 -0.0074608 0.002633 -0.0029545 -0.008672 
hello -0.0045749 -0.001963 0.0039758 -0.0066882 0.0079543 0.0053531 -0.0050031 -0.001958 0.00068111 0.0082078 0.0085153 0.0085423 -0.0078294 -0.0039854 0.00722 -0.0053213 -0.00081154 0.0038047 -0.0048376 -0.0053895 0.0088819 -0.0046537 0.0021809 -0.0079769 0.00057211 0.0048985 0.0065744 0.009584 -0.0031068 0.0098606 0.0037945 0.010029 -0.0055242 0.009154 0.0033806 0.0014325 0.0089636 0.0059462 -0.0070511 -0.0094496 -0.0037788 0.0073677 -0.007297 -0.0018787 0.0076766 -0.00023503 0.0023823 0.0043908 0.00061957 -0.00028131 -0.0066048 0.0050138 -0.0026744 -0.0030377 0.0035954 0.0039272 0.010127 -0.0052383 0.0097422 -0.0022467 -0.0096171 0.0052227 0.0047758 0.0027343 0.0073484 -0.0059287 -0.0015384 0.0052016 0.0077438 -0.0082279 0.00089802 -0.0055505 -0.0036039 -0.0026226 -0.005392 -0.0088364 -0.0089542 0.0050661 0.00049625 0.005278 0.0030314 0.0056165 -0.00313 -0.0074548 0.0084743 -0.0059618 0.0082069 0.0055415 -0.0078526 0.0031327 -0.0092424 0.0029399 -0.003156 0.0076387 -0.0051656 -0.0096979 -0.0019142 -0.0016574 0.0092917 0.0035946 
your 0.0095917 -0.0020074 -0.0001621 0.0047443 0.0017007 0.0043762 0.0026373 0.0039839 0.0073364 -0.0036275 0.0038524 0.0062885 -0.0069265 0.005701 -0.0069184 0.0044867 -0.0028245 0.0056896 0.0014033 0.0094692 0.0020965 0.0062445 0.001024 -0.0034466 -0.0082968 0.0066768 -0.0099036 0.0019995 0.0023404 0.0033743 -0.0071253 0.008932 -0.0027138 -0.00018045 -0.0018177 -0.0051607 0.003245 -0.0097022 -0.00031233 0.0073894 -0.0060131 -0.0073904 0.0089736 0.0033136 -0.009893 -0.0036503 -0.0055273 0.00062024 -0.0081263 0.0022254 0.0047905 -0.0082052 0.0051913 0.003355 -0.00058033 -0.0098796 -0.0035488 0.0033209 -0.0048647 0.0028639 0.0021063 0.003638 -0.0047264 -0.0079475 -0.0080189 -0.0025682 -0.004103 0.004173 0.006521 0.0069596 0.0014975 0.0058221 0.0030403 0.0048119 -0.0097808 -0.0091234 0.0099966 0.0089833 0.0010884 0.0019178 -0.0092593 -0.005001 -0.0058237 0.0033913 -0.0016023 0.0097245 0.0062983 -0.0077148 0.0012529 -0.0060258 -0.0012084 -0.0074086 -0.0037158 -0.0054206 0.0048875 -0.0080811 -0.0054262 -0.00032682 0.0029245 0.0076321 
from 0.00047196 -0.00030495 -0.00057913 -0.0037696 0.0080005 -0.0069217 0.0029352 0.0077697 -0.0067497 -0.0039408 -0.0092942 0.008305 0.0012975 -0.009622 0.0092618 -0.0092824 -0.0058598 -0.0097452 0.0062523 0.0059269 0.0072211 0.00076101 0.0030584 0.0091143 0.0014448 -0.0033778 0.0024872 -0.0032187 0.0068728 -0.0086193 0.010092 0.0050752 0.0002721 0.0041759 -0.0037663 -0.0024276 -0.00033145 -0.0036978 0.0013275 0.0029296 0.0011497 -0.003541 -0.0015826 -0.0066799 0.0038116 0.00095643 0.0026749 -0.0064754 0.010248 0.0077494 -0.0079623 0.00094733 -0.004773 -0.0072861 0.0057153 -0.0098051 0.0020005 0.0073194 -0.00059551 -0.00074268 0.00052017 -0.0079004 0.0095853 -0.0074292 0.00081733 0.0039268 0.0030841 -0.0076403 0.0066281 -0.0072868 -0.0068862 -0.0082366 0.00012488 0.0079813 -0.0099364 0.0012765 -0.0022994 0.0053528 -0.0060293 0.0063273 0.0061968 -0.0064446 -0.0039263 0.00017283 -0.0052256 -0.0065969 -0.0050209 -0.0027842 -0.0075809 0.0054079 0.001024 -0.0074298 0.0066985 -0.007225 -0.0042484 0.0031108 -0.0033134 -0.0086992 -0.0086478 -0.001316 
well -0.0087995 0.00081341 0.0075635 0.0021473 0.002045 0.0085709 -0.004793 -0.0037692 0.0096908 -0.00072339 0.0046491 -0.00091637 0.0055526 -0.00075798 -0.009436 0.0059135 -0.00192 -0.0091178 0.0067105 0.00084874 -0.0022733 0.0091491 0.0067922 -0.0046679 -0.0087248 0.0081151 0.0081169 0.0029663 -0.0093651 -0.0026489 0.0076438 0.0056302 -0.005761 -0.0084561 0.00093099 9.8065e-05 0.0070879 -0.0011873 0.0036311 -0.0078833 -0.0012095 -0.0041912 -0.0051151 -0.0059846 0.0050918 -0.0075649 0.010216 0.0046718 -0.0084455 -0.001493 -0.0055287 -0.0051237 -0.0011043 0.0088242 -0.00027612 0.0022699 -0.0084413 -0.0086082 0.0075929 -0.0099573 -0.0090688 -0.0037058 -0.0052195 0.0040154 -0.0082677 0.00023738 -0.0030669 -0.0027016 0.0045426 -0.0062283 0.008935 0.00069144 0.0037903 0.0028621 -0.0082393 -0.0088134 -0.0023131 -0.0087885 0.0067446 0.0030158 0.0078033 0.0087512 0.006328 -0.0075945 -0.0071516 0.0020718 -0.0081972 0.0020367 7.5412e-05 0.010002 0.0040841 -0.0060674 -0.0030594 -0.0092736 0.0035608 0.003013 -0.00098891 0.0063552 0.0073225 0.003362 
me -0.0021647 -0.001312 0.0020919 0.0020064 0.00014425 0.0057257 -0.0052135 -0.0095504 -0.0087717 -0.0012111 0.00079642 -0.0092413 -0.0011632 -0.0074486 -0.000476 -0.0099963 -0.0069441 0.0011395 0.005081 0.0032106 -0.0013832 -0.0043269 0.0056873 0.0011992 0.0076732 -0.0062444 -0.005879 -0.0088852 0.0068124 -0.0099618 -0.003713 -0.0069852 -0.0081636 -0.0058729 -0.0075986 0.00084078 0.001858 -0.0079632 -0.0051573 0.00085158 -0.0065149 -0.0038081 -0.010125 0.00945 -0.0034364 -0.0089234 0.010188 -0.00057662 0.0031092 0.0018738 0.0076282 -0.0068886 0.0086339 -0.0020095 -0.0081026 -0.0069068 0.0038772 0.0078815 -0.0084617 -0.002128 -0.0098784 0.0021146 -0.00057063 0.006003 -0.0074035 0.0099184 -0.0079798 0.0060563 -0.0060491 0.0047067 -0.0027013 -0.0033365 0.0030431 -0.0066201 -0.00084405 -0.0070668 0.0067859 0.0065299 -0.0051381 0.0078531 -0.0010903 -0.0062614 -0.0034101 -0.0093855 -0.0060492 -0.0080268 -0.0098211 0.0042458 0.0092464 -0.0066905 0.0056633 -0.008344 0.0095853 -0.0055398 0.0062795 -0.0070024 -0.0070545 -0.0095119 -0.0052923 -0.0047842 
Human -0.006083 -0.008805 0.0020177 -0.0056809 -0.0061732 -0.0061393 0.00060764 -0.0072831 0.0025777 0.0079043 0.0029439 -0.0041213 0.0083092 0.0069989 -0.0069877 -0.0021297 0.0054928 -0.003752 0.0056268 -0.0066159 0.0097406 0.0021808 -0.0019501 0.0048622 -0.0067645 0.0056731 0.00064901 0.0016706 -0.0078903 -0.0024858 0.0075457 -0.0069235 -0.0073338 0.0045862 0.0084101 -0.0086451 0.0022019 0.0037554 -0.0099526 -0.0075125 -0.0096925 -0.0020533 0.0059182 0.0026508 -0.0096539 -0.0079802 -0.0051058 0.0013237 0.008304 0.0040437 -0.0070152 0.0051891 -0.0012271 0.0097481 0.00445 -0.0084368 -0.0063584 0.00040898 -0.00019135 -0.0083063 -0.0011738 0.0034436 -0.0032296 0.0053748 -0.004354 -0.00032776 0.0097821 -0.00066927 0.0048598 -0.005345 -0.0095946 0.0057893 0.003834 -0.0038038 -0.0088252 -0.003159 -0.004224 0.0033986 -0.0039556 -0.0065033 0.00080605 0.0068371 -0.0039606 0.0034748 -0.0010344 -0.0055867 -0.0031052 -0.0063756 0.0063285 -0.0026832 0.0039529 0.0080082 0.0040435 0.0096637 0.00025562 -0.0032916 -6.693e-05 0.0085698 0.0033938 0.003665 
start 0.0015788 -0.0064118 -0.0049808 0.0026509 -0.0073673 -0.006475 -0.00079182 0.0015589 0.0051799 0.0027098 0.0093705 -0.00030385 -0.0054292 0.0081734 0.0068271 -0.006202 -0.0035701 -0.0068322 -0.0059072 -0.0095424 -0.0034518 0.0045859 -0.0080139 0.0014632 -0.003842 -0.0051345 -0.0042587 -0.0064713 -0.0018021 0.0095451 0.0068178 0.0098642 -0.0085326 -0.0037659 -0.0033786 -0.00052443 -0.0030502 -0.005679 0.0049571 0.0016876 -0.0041706 -0.0085006 -0.0040048 0.0015292 0.0063607 0.0056538 -0.0065815 -0.0048907 0.0032858 -0.0082229 -0.0097933 0.0071919 -0.0077609 -0.0045214 0.008769 -0.0075264 -0.0070963 -0.00025145 0.001809 -0.0016777 0.0043078 -0.0028487 0.0077599 0.0099177 0.0076421 0.004954 0.0051558 -0.0013727 0.00085735 0.00016285 -0.00089446 0.0080637 -0.0053807 0.0005208 -0.0084725 0.0044901 0.0058524 0.006634 0.0068882 0.00082495 -0.0034458 0.0017308 0.0055192 0.0074008 0.0091094 -0.0097718 -0.0034034 -0.0066855 -0.0025057 -0.0044047 0.00056497 -5.3274e-05 0.0034617 0.0052377 0.0082207 -0.00063393 -0.008905 0.0046828 -0.0026775 3.5092e-05 
being 0.0080319 -0.0069752 -0.0043471 -0.0012145 -0.0043421 -0.0095755 -0.0092827 0.0048451 -0.004392 -0.0049973 -0.0085178 -0.0034131 0.0065303 0.0054778 -0.0092422 0.0054096 -0.0030233 -0.0071286 0.0015389 0.0065621 -0.0012252 0.0077369 0.0099274 0.0077014 -0.0099408 0.0015501 0.0075138 0.0058222 0.0041539 0.0084492 -0.0063177 -0.0040556 -0.00019536 0.0034238 -0.0018383 0.0093594 -0.004721 -0.0079481 -0.0048848 -0.0043881 -0.0097295 -0.0072947 0.0022586 0.00086465 -0.0061196 -0.0080432 0.0014769 0.0049755 0.007821 0.0086839 -0.0017661 -0.0077088 -0.0038242 0.0062428 0.0055059 0.0090883 0.0095784 0.0048992 0.001471 -0.0039317 -0.00030376 0.00032586 -0.002912 -0.001154 0.0084441 0.0039764 0.0084548 0.0019561 0.00075985 0.0097255 -0.0023539 0.0087373 -0.0067623 0.0049129 -0.0042373 0.0012584 0.0026252 -0.0069216 0.0067371 -0.0088099 -0.0020624 0.0047494 0.00035715 -0.002887 0.0086876 0.0062848 0.0036452 0.0034221 0.0020288 0.0087017 -0.00067692 -0.0029092 -0.0098607 0.0068565 0.0026717 0.0039167 -0.0095325 -0.00051791 -0.0024764 0.0020404 
buy -0.0064373 0.0076548 0.006047 -0.0047713 -0.0071194 -0.0077425 -0.0055984 -0.0083627 0.0011512 0.00027103 0.0041244 0.0072153 0.0016822 0.0087037 -0.0012422 -0.0039434 -0.0062994 0.004941 -0.00033629 -0.0094246 -0.0026171 -0.0097827 0.0032955 -0.0029522 -0.0086483 0.00080052 0.0043236 -0.0089898 0.0087188 0.0074187 -0.0073954 0.003798 -0.005533 0.0046524 0.0065661 0.0038172 0.0071845 -0.0064193 -0.0019166 -0.0046562 -0.006167 -0.003652 0.00077677 -0.003172 -0.0083457 0.00033825 -0.0054078 0.0097032 0.0037761 -0.0086457 -0.003287 0.00044046 -0.0083799 -0.0090978 0.0019809 0.0074871 0.0064012 0.0090264 0.0097626 0.0060679 -0.0075617 9.602e-05 -0.0067152 -0.0073068 0.0099079 -0.001143 -0.0004532 -0.0075981 0.0087323 -1.9468e-05 0.0054974 -0.0079408 0.0055846 0.0034387 0.00041563 0.0095233 -0.0025007 -0.0029724 -0.0074963 -0.0028121 -0.0068505 -0.00029171 0.0072175 -0.0077858 0.00039542 -0.0068921 0.003264 -0.007966 -1.9921e-06 0.0046312 0.0031943 0.0046599 -0.0074494 0.0030579 0.0088825 0.006816 0.0075683 0.0015029 0.0063221 0.0056452 
sense -0.0062222 0.009714 -0.0054366 0.005598 0.0056328 -0.0064298 0.0041044 -0.007191 -0.00068674 0.0030723 -0.0044141 -0.0030327 0.0054453 -0.0061919 -0.0051754 0.0037414 0.0015573 -0.0025556 -0.0037522 -0.0065551 -0.0088221 0.0038114 -0.0022335 -0.0022545 0.0062299 -0.0075161 0.0011152 0.0086234 -0.0025255 0.0081876 -0.0089841 -0.0061196 0.0026752 0.0011236 -0.0097958 -0.0073059 0.008798 -0.007259 0.0032411 0.001433 -0.003694 0.0043358 0.0064223 0.006321 0.0014747 0.0060137 0.0073063 -0.0055833 -0.0023642 -0.0043458 0.0021788 -0.0008002 0.0011446 -0.0070137 -0.0059541 0.0044201 -0.0070748 0.0062359 0.0086485 0.0066064 0.0015269 0.0040357 -0.0085334 -0.0095421 -0.0093371 0.0012362 -0.0074205 0.0062261 -0.0091238 -0.0079072 -0.0092451 -0.0082654 0.0038806 -0.007154 -0.0083827 0.0043766 -0.0096069 0.0014739 0.008961 0.0028439 -0.0053716 -0.0045717 -0.0046625 -0.00012927 -0.0088984 -0.002443 0.005998 0.0010165 0.0097683 0.009469 0.0071576 0.0031557 0.0027121 -0.0041411 0.0085206 0.0081233 0.0028574 -0.008379 -0.0020136 0.0032452 
na 0.0024238 -0.0050857 0.004708 -0.0011337 0.00057533 -0.0053013 -0.0034319 0.0087921 -0.00099993 -0.00044602 -0.0067296 -0.00064869 -0.003185 0.0014621 -0.0088024 0.0047746 -0.0028948 0.0066586 -0.0022499 -0.0072296 0.0047387 -0.0065843 0.0024195 0.0049323 -0.003592 -0.0062323 -0.0043737 0.009557 0.007808 -0.0037292 0.0074506 -0.0050997 -0.00042343 -0.0016272 0.0055327 0.0080352 0.0095571 -0.005033 -0.0011675 -0.0028715 0.0071762 0.0036335 -0.0034232 -0.0090054 -0.00051232 0.0020695 0.0079212 -0.00086973 0.0062866 -0.0048131 -0.0091224 -0.0065005 0.0033239 -0.0055053 0.00018729 0.00022499 0.0063678 -0.0068633 0.0093846 -0.0093946 0.0020773 -0.0022099 0.0077033 0.0099454 0.0019973 0.0064527 -0.005537 -0.0064461 0.0039457 0.006727 0.0036148 -0.0018223 -0.0074713 0.0038077 -0.0037334 0.0030454 -0.0073394 -0.0066434 -0.0095616 -0.0039673 0.0095048 0.0013222 0.0067269 0.0064351 -0.0090812 -0.005729 -0.0022735 0.0011362 0.0066563 0.0094874 -0.008161 0.0046703 0.0051613 0.0097573 0.0080054 -0.009652 -0.0037433 0.0004602 -0.0061302 -0.0064611 
ok 0.0014601 -0.006731 0.0038647 0.0072142 0.0051696 0.0065015 -0.0051547 -0.003868 0.0024806 0.0047946 0.0023968 -0.0047658 0.0056517 0.0027731 -0.0022809 -0.0043317 0.01004 0.0022338 -0.0054626 -0.010048 -0.003994 -0.0055897 0.0097778 -0.0058792 -0.0024875 0.0025712 -0.0076815 -0.0034736 0.0037651 0.0080745 0.0045963 -0.009313 0.0048874 0.003122 -0.0056868 0.0060184 -0.00076604 -0.008959 0.0084002 0.0019688 0.0036488 -0.0027373 0.0049091 0.0088958 0.0057775 -0.010094 -0.0095835 -0.00063412 -0.0063676 0.008058 0.0019453 -0.0085703 -0.0021042 0.0086106 -0.0072184 0.0090035 -0.0038333 -0.0088343 -0.0012135 0.0073909 0.0097332 -0.0064032 -0.0068245 0.0018307 0.0016502 -0.0024935 -0.0097309 0.0019972 -0.0074942 -0.0093527 -0.00085732 0.0021844 -0.0051719 0.0056241 -0.0053144 0.0087565 0.0037173 -0.0069681 -0.0015375 -0.0080444 -0.00069543 -0.00020751 0.0035465 -0.0092098 -0.0097575 -0.0046134 -0.0078311 0.0059435 -0.001935 0.00034229 -0.0029686 -0.00082946 -0.0066576 -0.0053346 0.0017703 0.0008285 -0.0049775 -0.0070067 0.01008 -0.0008134 
read -0.0033522 0.0050118 0.0014851 -0.0082707 -0.0096707 0.007744 0.0045543 0.0079187 0.0055444 -0.0050628 0.0066832 -0.0038561 -0.00093015 -0.0023684 0.0087605 -0.0048057 -0.0079878 -0.0078788 0.0016493 0.0035531 -0.0076933 -0.0082623 0.0058765 0.0096532 0.0049034 -0.0051026 -0.0066495 0.0085576 0.0084418 0.0019914 -0.0037439 -0.0031129 0.00015224 0.0086138 -0.0049696 0.0018918 0.0041485 0.0057119 0.0081316 -0.0072716 0.0026442 0.00892 -0.0054665 -0.0018215 0.0025602 -0.0077252 -0.0049129 0.0029884 0.0057197 0.0074545 -0.0020807 0.0020071 0.0023033 0.0029745 0.0043395 0.0057634 -0.0088507 -0.0075827 -0.0069936 -0.009783 0.0021405 -0.0078281 0.0089225 -0.0079958 -0.0032439 -0.0017373 -0.0053037 0.0040877 -0.0046632 -0.0075309 0.0054612 0.0080728 0.0071967 0.0067446 -0.0091243 0.0095755 -0.00019727 0.0052574 -0.0011513 -0.0079764 -0.0019148 -0.0018715 0.0025835 0.0051294 -0.0051824 0.0079679 0.0090367 -0.0024342 -0.001566 0.0093614 -0.0059262 -0.0043636 -0.0018797 0.008463 0.00068334 0.0056353 -0.002082 0.0092092 -0.0063186 0.0077288 
also 0.0022214 0.003611 -0.0067371 -0.004434 0.0010339 -0.00053691 0.0062619 0.0060407 0.0026177 -0.00010935 -0.006414 -0.00081476 0.0063469 0.0059626 0.007897 0.00041505 -0.0020037 -0.009889 -0.0046207 0.00075835 -0.0034499 0.0010718 0.0074725 0.0038644 0.0016383 0.0044065 0.00098104 0.0088318 -0.002868 -0.0077025 0.004045 -0.0043896 0.004371 0.009976 -0.0076429 -0.0013167 0.0081847 0.0086044 -0.0061275 -0.0026202 0.00096911 -0.0077682 0.0066457 -0.0074794 0.0094988 -0.0067056 -0.006346 0.0070281 -0.0064382 -0.0060245 0.00082578 -0.0055487 0.0070976 0.0040482 0.0094096 -0.0074285 0.0029406 -0.0066829 -0.0056261 0.0044757 0.0095158 -0.0047049 0.0041587 -0.00775 0.0024955 0.00082285 -0.0055679 0.005668 0.008117 -0.0067835 0.0056682 -0.0084635 0.0015618 -0.0094829 -0.0092284 -0.00084609 0.005911 -0.0038539 0.0065494 -0.0031752 3.8114e-05 -0.0026739 -0.00047058 -0.0061362 -0.0032715 0.0067744 -0.0045849 -0.004813 -0.0079175 -0.002265 -0.0021899 -0.0035721 0.0012101 0.0017275 -0.0058223 -0.009875 -0.0024275 0.0060571 -0.0039781 0.00066382 
yaz -0.0037352 0.0089768 0.0005422 -0.0025915 -0.0091634 -0.0080023 -0.0024441 0.0057335 0.0052812 -0.0012833 0.0043758 0.0059199 0.0023354 0.0018217 0.007118 -0.0064326 0.0099124 -0.00052825 -0.010012 0.0016757 -0.0040794 -0.0017957 -0.0036998 0.0062563 -0.0013489 0.0036518 0.0047862 0.0044246 -0.0012125 0.0026686 -0.002125 0.0080392 -0.0059947 -0.0087599 -0.0054518 -0.0080577 0.0055082 -0.0007802 0.0076138 0.0048153 -0.0078676 -0.0028504 -0.0020891 -0.0090948 -0.00010813 0.0081481 0.0075114 -0.009956 -0.0069688 -0.0037109 -3.6769e-05 -0.0025068 0.0085377 -0.0066144 0.0076855 -0.0046943 0.00602 -0.0030918 0.0084699 -0.0097343 0.0080937 0.0045408 0.0054286 -0.00062745 0.0044055 0.0088199 -0.0093508 0.010026 0.0089184 0.00026995 -0.0031943 0.0089337 0.0095543 0.00069758 0.0085965 0.0037106 0.00043558 -0.0053599 -0.0053747 -0.0083068 -0.0085889 0.0027971 -0.0072402 0.0095393 -0.0087341 -0.0028959 -0.00071389 -0.0056782 0.0036513 0.0060557 0.0063807 -0.0039587 -0.005531 -0.00078669 0.004768 0.0078843 -0.0013976 -0.0093189 -0.0016984 0.0022383 
true -0.00081116 -0.0016188 -0.0015956 -0.0011552 0.0025184 0.0024432 -0.0091349 -0.0040582 0.0024802 0.0053835 0.0073485 0.0065724 0.0071034 -0.0054661 -0.0051717 -0.0077507 0.0092226 0.0044027 -0.0077433 -0.0069173 -0.00092283 -0.0027433 -0.0099484 -0.00715 0.0095001 -0.0084362 0.0087122 0.00053558 0.0065808 0.00056517 0.0001835 0.0070577 0.0056193 0.0037658 0.0078813 0.00079065 0.0071775 0.0037402 0.009327 0.0091777 0.0029052 0.0093035 0.0068848 -0.0076914 0.001243 -0.0011946 -0.0030927 -0.0017846 0.0098277 0.0098039 0.0043054 -0.003239 -0.0012658 0.0034311 0.0066285 0.0099156 7.9572e-05 -0.0093492 0.0090119 0.008565 0.0045627 0.0034176 0.0030946 0.0079612 0.00011316 -0.0015485 0.0061135 -0.0023571 0.0076408 -0.0029866 0.0079631 -0.00752 -0.0091581 0.0061348 -0.0088575 0.00057901 -0.00546 -0.010146 -0.0087857 0.0019248 0.0028754 -0.0021782 0.009522 0.0090699 -0.007162 -0.00029393 0.00060897 0.0079282 -0.0093672 0.0069057 0.0050261 -0.0082012 -0.007465 -0.0025278 -0.0044482 -0.0057731 0.00058812 0.0011658 0.004228 -0.006199 
agree -0.0071248 0.0033749 -0.00045626 0.0073081 -0.0013141 -0.0088471 -0.0088591 0.0060126 -0.0035395 -0.0086935 0.0096794 0.0084448 -0.0052191 0.0089642 -0.0098548 -0.0074696 0.00069219 0.0044272 -0.000605 0.0077608 -0.0050702 -0.0090632 -0.001728 0.0077296 -0.0008258 -0.0092362 -0.00036286 -0.007166 -0.0029943 -0.00063786 -0.00048689 -0.009772 0.0071149 0.00097581 -0.0034965 0.0079902 -0.0053683 0.0074677 0.00048434 0.0043704 -0.0098535 0.0049266 0.0063296 -0.0065505 0.0017607 -0.0085514 0.0067202 -0.005626 -0.0080695 0.0085494 0.0015288 -0.0042748 0.0032981 0.0028257 0.0025218 0.0058636 -0.0097484 0.0089047 -0.0010942 -0.0012394 0.001586 -0.0017947 -0.00022086 -0.00043571 0.002312 0.003986 0.0031346 0.0035798 0.0058407 -0.0015115 0.0068633 0.0054817 0.008933 -0.0011086 0.0039813 0.0018849 0.0043184 -0.0072602 0.001598 -0.005382 0.0015824 0.0062837 0.0080802 0.0076588 0.0073508 -0.00046228 -0.0069991 -0.0015135 0.0058268 -0.0039573 0.0091685 -0.006307 0.0087919 0.00025915 -0.0081274 0.0050905 0.0020224 0.0028975 -0.0060661 -0.0093323 
do 0.005288 0.0019908 -0.0045668 -0.0070432 -0.0054537 0.0043101 -0.00076859 -0.00030843 -0.0067214 -0.0016393 0.0024369 0.0078545 0.002642 0.0027124 0.0018774 -0.0063658 -0.0011384 0.0020164 0.0095622 -0.003186 -0.0025705 -0.0095477 0.0069993 -0.0028736 -0.0030389 -0.0099259 -0.0019123 -0.0030627 0.0088093 0.0066804 0.0052943 0.004364 -0.0006581 0.00076535 0.004661 0.0054909 0.0048239 0.0081228 -0.0099719 -0.0081808 0.0027412 0.0091764 -0.0088028 0.0056334 0.0030487 0.0057931 0.0060899 0.0033639 0.0066196 0.0090071 -0.0039589 -0.0065199 0.0005382 0.0093756 -0.0015951 0.0031691 0.0050939 0.0082616 0.0064673 0.0035029 0.0062053 0.0066008 0.0066429 -0.0012497 0.0021117 0.0024871 7.1526e-05 0.00051803 -0.0079849 -0.0073086 0.0020908 -0.0039267 -0.0022661 -0.0052977 -0.0070137 -0.00036069 0.0072463 -0.0020675 -0.0096383 -0.0085895 0.0034857 0.0010602 0.0017964 -0.007488 -0.0090963 -0.0012249 0.0051502 0.0064322 0.0081892 0.00076889 -0.002881 -8.2245e-05 0.0089589 -0.0084377 -0.0032466 -0.0080947 0.0043668 -0.0054358 0.0042653 0.0046761 
real 0.0096753 -0.0050275 0.0047026 0.008199 0.0054609 -0.0038127 0.0042918 0.0072148 0.0011403 0.0018328 -0.0042168 0.0097461 0.0055316 -0.006 0.008765 0.0014966 -0.0058371 0.0080532 -0.0014899 0.0028074 0.0072892 -0.0086753 0.0066012 0.00028671 0.0032982 -0.0051864 0.005023 0.0050447 0.0043491 -0.0071875 0.00031661 -0.00058316 0.0054444 0.0096829 0.004695 0.0062399 0.0014508 -0.0031684 -0.0064209 -0.0060397 -0.00012828 0.0081984 0.0029163 -0.0084424 0.0070824 -0.0055067 0.0086474 0.006687 0.0047787 0.0015361 -0.00079805 0.0038865 0.002235 0.005587 0.0056146 -0.0082537 0.0091087 -0.0040068 -0.0023891 -0.0067667 -0.0015019 -0.0082405 0.0075215 0.00061626 -0.0040567 0.0081725 -0.0064836 0.00064588 0.0014949 -0.0089724 0.0055344 -0.0046545 -0.00042613 -0.0083044 0.0059086 -0.0031094 0.0012355 0.0026395 0.0021061 -0.0072786 0.0080784 -0.0091975 0.0025766 -0.0055787 0.0072468 -0.0070942 0.0012024 -0.0028125 -0.0036007 -0.0062365 -0.0018788 -0.0072687 0.0055144 0.0038304 0.0099247 0.0054049 -0.0062865 -0.00548 0.0013718 -0.00043 
get -0.0020955 0.0087403 -0.0044236 -0.002346 -0.0051796 0.0056454 -0.0060115 0.0095097 0.0041103 -0.0085403 0.0035991 -0.0051104 -0.0084481 0.00099249 -0.0028092 -0.0063511 0.0089532 -0.0083586 0.0030206 0.0087888 -0.0031628 -0.0067751 -0.0080587 0.0071079 0.0065273 0.0073357 0.0029005 -0.0097265 0.0049306 -0.0036726 0.0085907 -0.0073049 -0.0099257 -0.0019931 -0.0068444 -0.00033344 -0.0021249 0.0031019 -0.0062598 0.0076789 0.0059892 -0.008494 -0.0079631 -0.0077546 0.0074456 0.0096674 0.0074046 -0.0055502 -0.0042792 -0.0034652 -0.0080098 0.00012651 -0.0043691 0.0098581 -0.0056077 -0.0012624 0.0069091 0.0028372 -0.0049671 -0.0085646 0.0067042 -0.0048637 -0.0079071 0.0013426 6.7412e-06 -0.0073975 0.001517 -0.0039899 0.0027295 -0.0028102 -0.0054829 -0.0072322 0.0048045 -0.007225 -0.009138 0.00032409 0.008441 -0.005132 -0.0093281 0.0050731 0.0087902 -0.0097332 -0.0017432 0.00032541 0.0039233 0.0049318 0.007897 0.0015157 -0.0067822 -0.00019507 0.0050492 0.0095565 -0.0019452 -0.0027945 0.0048134 0.00050242 -0.0010546 0.0098111 -0.0076066 -0.0017863 
book 0.002335 0.0087386 0.0083032 0.0067278 0.0079428 -0.0088377 -9.9058e-07 -0.0054085 0.0066385 0.00023899 -0.0033534 0.0056381 -0.0095538 0.0098942 -0.0025417 0.0044713 -0.0022241 0.001894 0.0089498 -0.00091127 -0.0083243 -0.0095452 0.00073211 -0.0089277 -0.004807 0.0065431 -0.005095 0.0089301 0.0045638 -0.0063567 -0.0087956 0.0091325 -0.0050699 0.0085506 0.0022657 0.00059565 -0.0034724 -0.008414 -0.0083168 0.0064748 -1.3351e-06 0.0063374 -0.0070948 -0.0047731 -0.0058263 -0.00095501 -0.00023181 0.0048478 0.0097564 0.0017321 -0.0012521 -0.0028559 3.2966e-05 0.0092475 0.0074177 0.0010579 -0.002774 0.0057098 -0.0099916 0.0047132 0.0052354 0.0098397 -0.0063129 0.0020232 -0.0033078 0.0095117 -0.0032991 -0.0037783 0.0083644 -0.00019006 0.0081522 -0.0026364 -0.0014226 0.0062378 0.0040941 0.0088714 0.0086309 -0.0049923 -0.0017025 2.2406e-05 -0.00010012 -0.007449 -0.0027457 0.001426 0.0001097 0.0093389 -0.001433 0.0022383 -0.0099284 -0.00063369 -0.0084981 0.0085351 0.00029848 0.0091375 0.0014781 0.0022244 0.0036535 -0.0098399 0.0074646 -0.0082212 
I 0.0029545 -0.0062372 0.0028692 -0.0064254 -0.0096076 0.0081985 0.0076017 0.0045059 0.0075234 -0.0023331 -0.0098638 -0.006029 -0.00074959 -0.001336 -0.0011953 -0.0054282 0.0086285 -0.0023315 0.003887 0.0045282 -0.0097224 0.0023749 0.0099118 -0.0047516 -0.0026677 -0.0065195 -0.0070705 0.0040466 -0.0037662 0.0058222 0.0064221 0.0048629 0.0062075 0.0039094 -0.0059609 0.0088276 -0.0031251 0.0082221 -0.0018941 -0.0081224 0.0064354 0.0030885 -0.00096798 0.0095685 0.0062495 -0.0027478 -0.00096384 -0.0056316 0.0059192 -0.0087659 -0.0038438 0.0087653 0.007857 -0.0091051 0.0083536 0.0068781 -0.00028458 -0.0012888 0.00096496 0.0036473 -0.0012388 -0.0084261 -0.0091304 -0.0030893 -0.001689 -0.0011721 4.3259e-05 -0.0030446 0.0080024 -0.0060263 -0.0080745 0.0039014 -0.0084027 0.0032771 0.0092165 0.0063526 0.0027876 -0.0027198 0.0024762 -0.0017329 -0.0043989 -0.0022609 -0.0045849 0.0073895 0.0090231 -0.0024553 -0.0046103 0.0050765 0.0031901 0.0087588 0.0062165 0.0068316 0.003158 -0.0072218 -0.0057171 0.0060563 -0.0042839 -0.0086482 -0.00029381 0.0054353 
same 0.0069835 -0.0067076 -0.00010734 -0.0015982 0.00026128 -0.001353 -0.0058072 -0.00053574 -0.0011547 0.0070443 0.0065143 0.0060794 0.0049173 -0.0040971 -0.0076926 -0.008165 0.0097022 0.0037009 -0.0075501 -0.0038906 0.0064105 -0.0099582 -0.0069778 0.0052415 0.0011056 0.0068238 -0.0049258 -0.00041717 -0.0036712 0.00078271 -0.0092916 -0.0061406 -0.004311 -0.0077104 0.0081261 -0.00039966 -0.0036293 -0.0098735 -0.0062816 0.0012786 -0.0069872 0.0087014 -0.00016123 -0.0089132 0.0026007 0.0064325 -0.0075842 0.0065704 0.0012239 -0.0079326 0.0021639 0.0079247 -0.0035037 4.3371e-05 0.0040547 0.0096416 -0.0098355 0.0077238 0.006805 0.0052682 -0.004688 -0.0061928 0.0087597 0.0026222 -0.0074939 -0.0089216 0.0013599 0.0032456 0.0046149 -0.0079012 0.0030248 -0.0030566 -0.0067035 0.0011989 0.0071647 -0.0021159 0.0060768 0.0014694 0.0023378 -0.0012767 -0.00029265 0.0097593 0.0058409 -0.0035039 -0.0066827 0.0028017 -0.0032301 0.0065147 0.0075595 -0.0022268 0.0054031 0.0081406 0.0063098 -0.0068513 0.0067967 -0.0048104 0.0060403 0.0099145 -0.0025756 0.0047015 
speech 0.0040598 0.0074497 -0.0097047 0.0047942 0.0088451 -0.00041788 0.0054086 -0.0038108 -0.0020457 -0.0053423 0.0093112 0.0054443 0.00084373 0.0016181 0.0093211 0.0038087 0.0040234 0.0060489 0.0055899 0.00078536 0.0028823 0.0019175 -0.0018269 0.0091835 -0.0081686 0.0049759 -0.0029475 0.0011002 -0.0070461 0.0010915 -0.0025144 -0.0041604 0.0060043 -0.0069512 0.0077791 0.0066553 -0.00042366 0.0096191 0.00072458 0.0021803 -0.0072024 0.0036242 -0.001665 0.0075979 -0.0046971 -6.962e-05 -0.0072743 0.0042142 -0.0035325 -0.0062086 -0.0022368 0.0034895 -0.0046685 0.0097673 0.00067407 -0.0047441 0.0092715 -0.0051108 -0.0059537 0.0081958 -0.0046146 0.0029241 0.0051421 -0.0068895 0.0052051 0.0093747 -0.0086618 0.0060669 0.0029068 0.0078499 -0.00048228 -0.0063192 0.0097533 0.0039451 -0.0093482 0.0044318 -0.0056045 0.0042477 -0.00012014 0.0045105 0.0022255 0.0023625 0.0019902 -0.007963 -0.0078885 0.0050783 0.00057449 -0.009216 -0.005704 -0.0088791 -0.0077415 -0.00038745 -0.0080358 0.0088474 -0.0054885 -0.0086908 0.0092117 -0.002603 -0.0099902 -0.0042137 
morning -0.0081931 0.0086547 -0.0040006 -0.0096128 0.008771 -0.00896 -0.0022382 0.0043724 0.0037146 0.0059025 -0.003871 0.0034008 -0.0012251 -0.0095156 -0.0067679 -0.00059671 -0.0055466 0.005285 0.00040082 -0.0052772 0.00070395 -0.0070832 0.0035305 -0.0099496 -0.0063325 0.0016978 0.0040001 0.0044619 -0.0021055 -0.0012307 -0.0065296 -0.0060082 -0.0080862 0.0026797 0.0015044 0.0019391 0.0045101 0.0056533 -0.0040506 -0.00018323 -0.0019389 0.0047395 0.0042954 0.0034764 0.0042964 0.0038741 -0.0053891 0.0089902 -0.0085312 0.0039809 0.0045584 -0.0027857 -0.0051513 -0.0063859 -0.007003 -0.0036436 -0.0075465 -0.0035335 0.0034437 0.0080665 0.0010385 0.0012991 -0.0055998 0.0010361 0.0092217 -0.002911 -0.0040963 0.0098802 -0.0077661 -0.0043612 -0.007044 -0.0013275 0.0021537 -0.0060436 0.00095497 0.0033138 -0.00075842 0.010213 -0.0087603 -0.003492 -0.0066806 -0.0022393 0.009653 -0.0098911 -0.0050165 -0.0068028 -0.0037081 -0.0033861 -0.0061979 0.00841 -0.00015384 0.0050493 0.0045013 0.0088329 -0.0062895 -0.002542 0.0041383 0.0066177 0.0022331 0.0077621 
as 0.0012026 -0.0072044 -0.0012037 -0.0092613 -0.007196 -0.0051166 0.0077774 -0.0054159 0.009718 -0.0099531 0.0022482 0.0060749 0.0030252 -0.0069761 -0.00099548 -0.0030867 -0.0092218 0.0068263 -0.0048514 0.0023393 -0.0033841 -0.006841 0.0082765 0.0098692 -0.00055822 0.006715 0.0077089 -0.0024309 0.0085254 0.0094988 0.0070953 -0.0012174 0.0054312 -0.0087195 0.009364 -0.0055573 -0.0095135 0.0071131 -0.00011503 -0.0044369 0.0089776 0.0092719 -0.0047965 0.0046806 -0.008412 -0.0054849 0.0045427 -0.0066897 0.0042605 0.0062329 -0.0030735 -0.0005633 -0.0020738 0.0071874 -0.0088032 0.0033624 -0.0099843 0.0013293 0.0013367 0.0092983 0.0071172 0.0092124 -0.0071831 -0.0082111 0.0026385 0.0097642 0.0089207 -0.0077859 0.0095322 -0.0079727 0.00043035 0.0064053 0.0010047 0.0010269 0.0037639 -0.0065631 0.0030547 0.0079304 -0.0020007 0.0098592 0.006334 -0.0021947 -0.0088048 -0.0062844 -0.0083859 -1.4636e-05 -0.00089869 -0.00050745 0.0034901 0.0042637 0.0078853 0.0041013 -0.0034466 -0.0035845 -0.0037124 -0.0055083 -0.0033596 -0.0089574 0.0092155 -0.0082014 
Read -0.0044661 0.00060713 -0.0056852 -0.0070143 -0.0051531 0.0040738 0.00011294 -0.0046401 0.0040797 0.00067527 0.003022 0.0098511 0.0098418 0.0027277 0.0087089 0.0055801 0.0082345 -0.0094203 -0.0037135 -0.0012166 0.0096713 0.0064653 -1.4636e-05 0.0031417 -0.0038907 0.0097821 -0.0064082 0.0084153 0.0024981 0.0028347 -0.0052897 -0.008264 -0.0029093 0.00030594 -0.0010089 -0.0023935 -0.0067887 0.00080501 0.0046285 0.009659 -0.0040822 0.0083784 -0.0077786 0.0083068 0.0027847 -0.0021678 -0.0045631 -0.0047839 0.0017609 0.005186 -0.0037555 -0.00077638 -9.3021e-06 0.001457 -0.0089001 0.0066955 -0.001285 -0.0031485 -0.0099664 -0.0070446 0.0033811 0.0026741 0.0015719 0.006993 0.0079531 0.0076506 0.0064058 0.0073218 -0.00784 -0.00086039 0.0084671 -4.7232e-05 0.0038933 -0.008815 -0.0063358 0.0081316 -0.0012568 0.0010287 -0.00070265 -0.0095479 0.0048106 0.00062654 0.0059683 -0.0036858 -0.00033074 0.0058846 0.004529 0.0099049 -0.0080772 0.0084635 -0.005376 0.0096533 -0.0031258 -0.00081718 -0.0063109 0.0016729 0.0093457 -0.0019325 0.0045725 -0.0039002 
No -0.0011003 0.00060596 0.0018262 0.0071188 -0.0052512 0.0038491 0.0043215 -0.00041908 -0.0018847 -0.0052831 0.0031204 0.0031672 -0.0055147 0.0048019 -0.00064115 0.0098962 -0.00523 -0.008014 0.0069285 -0.0012243 -0.0011925 -0.0049281 -0.001396 -6.5182e-05 0.0054966 0.0026427 0.0043692 0.0071913 -0.00344 -0.0059157 -0.0019074 -0.0024892 0.0031523 -0.0017563 0.0072711 -0.002096 -0.0045219 0.0033426 0.0040506 0.0011375 0.0091321 0.009352 0.0093558 0.0096104 -0.0068045 -0.0011141 -0.0022267 0.00064008 0.0023604 0.0071535 -0.0061599 0.0062184 -0.0038819 0.0061885 -0.0057433 -0.0093464 -0.00066246 -0.0015916 0.0080477 0.0096771 -0.0021512 -0.0097371 0.0024106 -0.0071653 -0.0070469 -0.0049992 -0.006405 -0.0021797 -0.0021586 0.0058822 -0.0011232 0.0059247 -0.0035313 -0.0071905 0.0077481 0.005983 0.0096207 -0.0042445 0.0060943 -0.0065855 -0.0046931 0.0090585 0.0040556 -0.0067931 -0.0062127 0.0069099 0.0099049 0.0071901 -0.0072824 0.0028648 -0.00015532 0.0081276 0.0051832 -0.0059608 -0.0081552 0.00071994 -0.0066077 -0.0013333 0.0081418 0.0055398 
present -0.0035309 -0.007441 -0.0019993 0.0066431 0.0019512 0.0060561 -0.0098404 0.0041654 0.0010662 -0.0089069 -0.0080687 -0.0049423 0.00055408 0.0028406 0.0080207 0.0091362 0.0059319 0.0085783 -0.0082306 -0.0066779 -0.002749 -0.004864 -0.00088158 -0.010078 -0.0010574 -0.0071221 0.0018066 -0.0018542 -0.0085122 -0.0065076 0.0055286 -0.0010369 0.0044322 0.0077729 0.002374 0.0046723 -0.0063169 -0.0022431 0.0057682 -0.0011113 -0.0028394 -0.0055881 -0.00073436 0.008813 0.00031637 0.0080825 0.0091594 -0.0048649 0.0019134 -0.0015242 -0.006875 -0.001756 -0.010039 0.0069301 -0.0015574 -0.0051151 0.0075069 0.0052988 -0.0051858 0.0045232 0.0067778 -0.0063305 -0.0038933 -0.0035712 -0.0062726 -0.0014559 -0.0075179 -0.0052948 0.00019444 0.0053008 0.0028709 -0.0014399 -0.0045453 0.00043956 0.00081414 -0.0072021 0.00031182 0.0071811 0.0053302 -0.0016175 -0.0023028 -0.0069217 -0.0005218 0.009053 -0.0062746 -0.0048111 0.0024321 -0.0024587 0.0014265 0.006374 0.00394 0.01021 -0.003054 -0.0037746 -0.0042666 0.0097694 -0.0064468 -0.005538 0.0027229 -0.0071118 
does 0.0031456 0.0062578 0.0095917 -0.0037463 -0.0068441 0.004266 0.0062166 -0.0017113 -0.0097836 -0.0045905 0.0075139 0.0089621 0.0061966 0.0029729 -0.0021097 -0.0073503 0.0016259 -0.0060379 0.0069454 0.0022477 -0.0042058 0.0041657 -0.0025492 -0.0035596 7.0253e-05 -0.0071816 -0.0053225 -0.0074546 -0.0046026 -0.0022395 -0.0039479 0.0012398 -0.0050494 -0.0017197 0.0049467 -0.0084089 -0.0057149 -0.0076809 0.0095802 0.0066549 -0.0096391 -6.1113e-05 0.006575 0.00022142 0.0010692 -0.0042975 0.00099967 -0.0015901 -0.0094135 -0.0080842 -0.0082964 0.0092026 0.00023419 0.0050444 -0.0085208 0.00052166 -0.0047697 -0.0065854 0.0026615 0.0018432 0.0093519 0.0040415 0.00086643 -0.0087624 -0.0034435 0.0091412 0.0041 -0.0018864 0.0037056 0.008714 0.0083141 0.0092514 0.0083842 0.0018112 0.0078017 -0.0045584 0.0091069 0.0018376 -0.0056168 -0.004477 0.0098964 -0.0023489 0.00075499 0.0012047 0.0099707 -0.0043391 0.0089291 -0.006475 -0.0077082 0.0022341 -0.0064839 -0.0013472 0.0062726 0.0044 -0.0022776 -0.0076889 -0.0080719 0.0053722 -0.0039492 0.0074685 
interesting -0.0050487 0.0026303 -0.0028561 0.0064255 0.0077712 0.0063604 0.0044245 -0.0058514 0.0027037 0.0012028 -0.0013762 -0.0023548 -0.0051076 -0.0090968 -0.0022483 0.0091533 0.00017316 -0.00047756 0.0084216 -0.0060147 -0.0023511 -0.0081982 -0.0012733 -0.0093258 -0.0052415 0.0036921 -0.0041799 0.00088263 0.0041372 0.0095409 0.0036139 0.00058363 0.0030216 -0.0011227 0.0089792 -0.0024511 0.00081136 -0.0088579 0.0015855 -0.0089987 -0.0088512 0.00068699 -0.00062413 0.0076588 0.0075641 0.00087882 0.0051191 -0.0054879 -0.0052474 -0.006255 -0.0088356 -0.0081011 -0.0065405 -0.001891 0.0022204 -0.003916 -0.0015463 0.003306 -0.0023936 0.009852 -0.0012308 0.0042288 -0.0001608 0.00034721 -0.0078442 0.0026344 -0.0063287 0.0056843 0.00017077 0.0073125 -0.0094146 0.0060909 0.0071282 -0.0056971 -0.0095544 -0.0017368 -0.0074334 0.0042741 0.0047207 -0.0039574 -0.0077938 0.0075656 0.0063348 0.004352 0.0028241 -0.001735 0.0099529 0.0022714 0.0055428 -0.0087442 -0.009932 -0.0028017 8.0783e-05 0.0038035 0.0037848 -0.00046879 0.0065562 -0.002271 -0.006681 0.0015354 
with 0.0048736 -0.00099212 -0.0097554 -0.0051585 0.0070742 -0.0018789 -0.0069893 -0.0064087 0.0011095 -0.0049197 0.0098938 0.0056849 -0.0067755 -0.0073727 -0.007768 -0.0068013 0.0010785 -0.00028738 -0.0072605 0.001987 -0.0027744 -0.0011867 -0.0039745 0.0034971 0.0023841 -0.0086445 -0.0040555 -0.0030854 0.0027136 -0.00083713 0.0083174 -0.0074995 -0.002129 0.0049366 -0.0026175 0.00034372 -0.0045574 -0.004461 -0.0085097 -0.0049431 0.0033701 0.0075297 -0.0014441 0.0042831 0.0092606 0.0045233 -0.0020885 0.0036679 0.0085448 -0.0073939 -0.0041612 -0.0088543 0.0095328 0.0063763 0.0017075 0.00048275 -0.0055075 0.0034161 0.0020833 0.0032036 0.00057439 0.00341 0.0069639 0.0067675 -0.0029349 -0.0083825 -0.0034831 -0.0044206 -0.0092768 0.0049082 0.0015877 -1.7986e-05 0.0016903 0.0020596 0.0067107 -0.0048009 -0.0074475 0.0036197 0.0053731 0.0076348 0.0055159 -0.0021036 0.0031186 -0.0040195 -0.0072599 -0.0042558 -0.0044333 0.0075552 -0.0060567 0.0010025 0.0068902 -0.001326 -0.0032464 -0.0095084 -0.0040369 -0.0078339 -0.0094458 -0.0038588 -0.0039208 -0.002241 
yourself -0.005338 -0.0015148 -0.0070786 0.00084155 0.0058921 0.0091489 -0.001768 -0.0036237 -0.0016068 -0.0088987 -0.0042088 -0.0087356 0.0093518 0.0025188 -0.0016138 -0.0046709 -0.0029311 -0.0069876 0.0030521 0.006533 0.0012735 0.0099847 -0.00072751 0.0028602 0.0031725 -0.0013355 -0.0049085 -0.0010595 0.0061908 0.007948 -0.0056979 0.0052072 0.0031458 -0.0052504 -0.0010309 0.0091987 0.0070562 -0.0079335 -0.009074 0.0083976 0.0011579 -0.0040877 -0.0077982 0.0078895 -0.0069322 0.00056877 -0.0037349 0.0029098 -0.0082668 -0.0084743 0.005895 0.0011335 -0.005334 0.00021216 0.0048986 0.00071787 0.0059755 0.0019866 -0.0051821 -0.0076197 -0.0096707 0.0087586 9.2813e-05 0.009381 -0.0077668 0.0090631 0.0065804 0.007047 -0.00031388 -0.0098663 0.00024663 -0.00021792 0.0033206 0.0061277 -0.0070929 -0.0065708 0.0074753 -0.0016601 -0.0085337 0.0084097 0.0042572 -0.0029178 0.00057071 0.0031691 0.0092278 0.0049643 0.0035437 -0.0066623 -0.002761 -0.0018524 -0.0048589 -0.0018246 0.003215 -0.00016904 -0.0039906 0.0043308 0.0068932 -0.0069814 0.0043095 0.0016009 
play -0.0057889 -0.0091367 0.00143 0.0043564 0.0057884 0.0021205 0.00058233 0.0086587 -0.0067663 -0.0062982 0.0030267 -0.0046469 -0.0096344 0.0054841 -0.005951 0.0019188 0.0055839 -0.0076158 -0.0082775 0.0021532 0.0046878 0.0095302 -0.0063971 0.0078162 -0.0015283 -0.006142 0.009689 0.0077305 0.0087506 -0.0037113 -0.0032217 -0.0059277 0.001732 -0.0066761 -0.0084448 0.0076246 0.0021303 -0.0080431 0.0045505 -0.0068541 0.0096896 0.0088492 -0.0043983 -0.0030173 -0.0053181 -0.0067226 -0.0037124 0.0038642 0.0051059 0.0079087 -0.009173 0.0017343 -0.0034924 -0.0085759 0.0075249 -0.0060186 -0.0066578 0.0020122 0.0021691 0.0017603 0.0077588 0.0095205 0.0054411 -0.0056186 -0.00015498 0.0027818 -0.0069693 0.0030597 -0.0020878 -0.00077691 0.0044513 -0.005943 -0.0028233 0.0023813 -0.0033846 0.0081662 0.006665 0.0041615 -0.0021318 0.00075065 0.0026855 0.0082468 0.0066432 -0.0063171 0.0082432 -0.0029007 0.0045152 0.00012957 -0.0015364 -0.00014689 -0.0066175 0.0069841 0.0094953 -0.0093678 0.0015671 -0.0052794 -0.0039874 0.0077229 0.0072842 -0.001367 
mathematics 0.0040863 0.003618 -0.0047471 -0.0078072 -0.00019117 -0.0086631 0.0075469 0.006432 -0.00024402 0.0051517 -0.0040581 -0.0071669 -0.0081983 -0.0056304 0.0025857 0.0040939 -0.007822 0.0089598 0.0081355 0.0008702 0.0072174 -0.0039141 0.0072582 0.0059041 -0.0044911 0.0020649 0.0082043 0.0023487 0.0068 -0.0053487 0.00067379 0.00027978 -0.0087483 -0.0055467 0.006693 -0.0016633 0.0087877 0.0043085 0.0039632 -0.0064183 -0.0060678 -0.0085582 -0.00034764 -0.0038116 -0.006051 -0.0039525 -0.007555 0.0066842 0.007012 0.0042387 -0.0077063 0.00035024 -0.0078706 -0.0095456 0.0034525 -0.004895 0.00047481 0.0098276 0.0038661 -0.0045219 -0.0017443 0.0067556 0.0055004 -0.0045543 0.009771 0.0098985 -0.0023171 0.0081999 -0.010023 0.0037527 0.0092444 -0.0022194 -0.0063164 0.0089311 -0.0091812 0.0062221 0.006798 0.0081801 0.0032607 -0.0032437 0.0091504 -0.0036487 -0.0096166 -0.0020823 0.0041098 -0.0023491 -0.0053279 0.0069803 -0.0021536 -0.00086492 0.0070633 -0.0021682 -0.0067002 -0.0012239 -0.00089192 -0.0017275 0.0059115 0.0081282 0.00072518 -0.0094741 
news -0.0047154 0.00091771 -0.0052961 -0.0057647 -0.0069154 0.0049621 -0.0034256 -0.0049258 0.0073138 0.0036482 -0.004726 0.0081326 0.0036283 0.0086692 -0.00051543 0.0015459 0.0049479 -0.0079729 0.0082893 -0.0081115 -0.0069475 0.005632 0.0046876 0.0069884 -0.00484 0.0089581 -0.0010753 0.0051155 -0.0022968 0.004237 0.0079481 -0.0025642 0.0081424 0.0073686 0.0036624 0.0046867 0.0021848 0.0089943 -0.0030956 0.0011132 -0.003903 -0.0062483 -0.0089495 0.0088995 -0.0050742 -0.0049703 0.0079585 0.008474 -0.0041933 -0.0017423 -0.0080458 -0.0080096 -0.0085594 0.003494 -0.0056111 0.0032009 0.0092674 -0.0076026 -0.0048344 -0.0020288 0.0024332 -0.0057862 -0.0061247 0.0033704 0.0092591 -0.0041565 -0.0052272 0.0028266 -0.004242 0.0090883 0.0022904 -0.0075837 0.0055861 -0.0038244 -0.0011176 -0.0018722 0.0089168 0.0051278 -0.00020627 0.0066313 0.0086628 -0.0046633 -0.0087212 0.00046243 0.0016775 0.0010955 -0.0090131 0.00034086 -0.0065997 0.00013417 0.0090429 0.00011473 0.0038881 0.0011448 -0.0038127 0.0062782 -0.00012537 -0.004982 -0.0027661 0.00654 
some 0.0042532 -0.0010933 0.0072853 0.0098675 0.002626 -0.0089515 -0.0062485 0.0069406 0.0060153 0.0042367 -0.0034049 -0.0075686 -0.0075673 -0.0025771 -0.0089407 0.001911 -0.0038935 0.0098743 0.0066386 0.0088397 -0.0014269 -0.0024629 0.0073766 0.009672 0.0025625 0.0025818 0.0020462 0.0015727 -0.0031676 -0.006722 -0.0024076 0.00086264 -0.0080508 0.0041774 -0.0073965 -0.0051225 -0.00301 0.0054469 -0.0055437 -0.0016571 -0.009487 -0.0093896 -0.0097222 0.0010523 0.0047951 0.0065573 0.0095645 -0.0032098 0.0017033 -0.0091141 0.0062341 0.00080397 0.0068971 0.0040273 -0.0034229 0.0058342 -0.0060083 0.0082913 -0.0090638 0.0040471 0.0043894 0.0092108 -0.0056676 0.0049756 0.0058037 -0.0010728 0.0011353 0.0090992 -0.0055897 0.001696 0.002096 -0.004953 -0.0052298 0.0079352 -0.0011705 0.0027252 0.00078418 -0.0069328 -0.0073541 -0.0096175 -0.0061248 -0.0033585 0.0066039 -0.0051725 0.0071064 -0.0048808 -0.0045319 -0.0010461 -0.00099657 -0.0064185 0.0083462 -0.0073157 0.0042903 -0.0050119 -0.0094967 0.008592 0.0075085 0.002167 0.003382 -0.00010773 
was 0.00073579 -0.0067039 -0.0060168 -0.0098345 -0.0038331 -0.0084837 -0.0058965 0.0063952 -0.0035416 -0.0072148 0.0096719 0.0070524 -0.0077576 -0.0079158 -0.0089038 0.0035001 -0.0041952 -0.00011339 0.0074681 -0.00077138 0.0029896 0.0049276 -0.00023007 -0.0066472 0.0036682 0.0082215 0.0072978 0.0055692 0.0097513 -0.00050931 0.0021565 -0.0065052 -0.00098226 -0.00062105 0.002157 0.00052466 -0.0017073 0.0014366 0.003281 0.0049433 0.0029858 -0.0051889 -0.0075724 0.0037206 0.0029932 0.0088324 0.0014883 0.0071047 0.0096749 0.0094774 -0.0065455 0.0096292 -0.0088142 0.0045215 -0.0078507 0.0047068 -0.0023948 -0.0079032 0.0067396 -0.0032847 0.0081841 0.0016331 0.0083214 -0.0084389 -0.0072997 0.0099967 -0.0038056 0.0051298 -0.0089237 0.0017096 -0.0088999 -0.0083745 -0.0088874 -0.0055168 -0.005069 0.0031714 -0.0049762 -0.0015387 -0.00024146 -0.0088432 -0.0094796 0.0086767 -0.0068951 -0.00024089 0.0081549 -0.0088479 -0.0039358 -0.0032348 0.0054254 -0.0030275 -0.0073692 0.0013048 0.0020665 -0.008674 0.0043168 0.0047988 0.0090255 -0.00025475 -0.0064065 0.007329 
near -0.00026283 0.0064908 -0.0059411 0.00074528 -0.0064483 0.0061275 -0.006798 -0.0054129 -0.0022668 0.0093004 -0.0037823 -0.0033035 -0.0087789 -0.005605 -0.0031233 0.0035502 0.0039716 -0.0034727 -0.0049811 -0.0057089 -0.0061803 0.00090678 0.006053 0.0076137 0.0069853 -0.0027667 -0.0021952 0.0042189 -0.0061873 -0.0043216 -0.0022068 0.0032515 -0.0036555 -0.0046339 -0.0054978 0.0087874 0.0017666 0.0038287 -0.0058312 0.0072668 0.0052521 0.0083968 0.0061363 0.0093694 0.0028731 0.0053618 -0.0055094 0.0066668 -0.0073016 -0.0005317 0.0015949 0.0034799 0.0013457 -0.0055905 -0.0098257 0.00027212 -0.0014435 0.00058264 -0.0056599 0.0096724 0.00098629 -0.0096359 -0.0023142 -0.0044955 -0.0020232 0.0049528 0.00032255 0.0097095 -0.0025363 0.0030493 -0.0061343 -0.0037248 0.0019946 0.0082966 -0.0028832 -0.0026628 -0.001169 0.00052026 -0.0047998 0.0036335 0.0051455 0.007623 -0.0023788 -0.0022039 -0.0063499 0.0036383 -0.0078411 0.00042557 0.0031179 0.00036947 0.0014666 0.0047135 0.0093324 0.0039281 0.0047315 0.00085227 0.0087379 0.0081625 0.0049045 0.0025674 
Real -0.0013342 0.0061621 -0.0055167 0.0029677 -0.004513 0.0044383 -0.0071538 0.0044072 -0.0043619 0.0017845 -0.0035434 0.0070918 0.0055792 0.0045294 -0.0064901 0.0033771 0.0042653 -0.0028084 0.0084591 -0.0013468 0.0057589 0.0027491 0.002437 -0.0096966 -0.0091968 0.0049874 -0.0089594 -0.0039792 0.0076236 -0.0059087 -0.0035776 -0.0021455 0.0095461 0.0021601 -0.0029045 -0.0022936 0.0076974 -0.0094018 0.0033624 -0.0076699 0.0082152 -0.00056516 0.0050227 0.0044625 0.0080779 0.0040667 0.0059894 0.0089778 0.0035003 0.0074964 -0.00038236 -0.0099766 0.0048087 0.0070122 0.0051056 -0.00092989 -0.005866 -0.0016446 0.0012914 0.005473 0.0099559 2.6122e-05 0.0043782 -0.0048379 0.0035748 0.007461 0.0035893 0.00027684 -0.0099804 0.0071769 0.003662 0.0021336 -0.00029173 0.0079955 0.0061446 0.0021221 0.0095249 -0.0040472 -0.0098481 -0.009194 -0.0038132 0.0012381 -0.00058191 -0.0075739 -0.0027255 -0.00030359 -0.00065738 -0.0021266 0.0071871 -0.005644 -0.00031218 -0.00041268 -0.0013667 -0.0087492 -0.0097786 -0.0089322 -0.0081461 0.0034442 0.0020223 -0.0034399 
end -0.0028506 0.0019868 0.0056138 0.0079125 0.0073009 -0.0041165 -0.0081935 -0.0035866 0.0091012 -0.0050466 0.0061587 0.0097179 -0.0068569 -0.004476 0.0065396 0.0065413 0.0092231 0.008129 0.0051404 0.0017582 -0.0065235 -0.0084533 0.0032924 0.0023579 0.0060807 0.003524 -0.0076064 0.0083334 -0.0019179 0.001009 0.0013788 0.0096258 0.0067491 -0.00091581 0.010162 -0.0012247 -0.00031848 -0.00016345 8.7566e-05 0.0079536 -0.0094265 -0.0044132 -0.0049557 -0.0082957 -0.0018135 -0.0057048 0.0043184 0.0073816 -0.0034211 -0.0041257 0.0067941 0.0034276 0.0041656 -0.0031318 -0.0084815 -0.002669 0.0041802 -0.0059296 -0.0048037 0.0080252 0.0099052 0.0011444 -0.0039449 0.0059106 -0.00613 0.0018135 0.0046255 0.0030878 0.0093979 0.0066422 -0.0056238 -0.0025167 0.0077535 -0.0003349 -0.0026429 -0.0040964 -0.000638 -0.0061206 -0.0012507 0.003837 -0.0042553 -0.0091451 0.0055481 -0.0011873 -0.0086587 -0.0087679 0.006309 0.0043476 -0.0067049 -0.0081044 0.0080243 -0.010044 0.0027086 0.0031193 0.0070058 0.0076543 0.0045126 0.0062467 0.0076491 -0.0013844 
current 0.0021405 0.0094804 -0.0081911 0.0064833 -0.0096555 -0.0030005 -0.0079429 0.0031997 -0.0030511 -0.0043622 -0.0089255 0.0091702 -0.00046882 0.0064887 0.0042637 -0.007789 -0.0057152 0.0012196 0.0017455 0.0084476 -0.00080558 0.0039607 0.0039652 0.0057419 -0.006199 3.0345e-05 0.0012434 -0.0040772 3.4881e-05 0.0089496 -0.0011318 0.0065882 0.0095794 -0.0066309 0.0057074 0.0073722 -0.0058145 -0.0031683 -0.0041787 0.006769 0.0017553 -0.00099256 0.0041988 -0.0069813 0.0059757 -0.0052923 -0.0063229 -0.0031261 0.00024982 0.00526 0.0097139 0.0067737 0.0012344 -0.0097368 -0.0032061 -0.0095908 0.0057817 -0.0084583 -0.0031929 -0.00020916 9.5801e-05 -0.0011761 -0.0084096 0.0005211 -0.0058461 -0.0031215 -0.0053346 -0.0016244 -0.0032571 -0.00071142 0.00082789 -0.0019802 -0.0055912 -0.0079912 0.0032867 -0.0091964 -0.0096741 0.0042473 -0.0083303 0.0043182 -0.00042893 -0.00033405 0.00020509 0.01031 0.0026573 0.0057784 -0.0047089 -0.0035636 0.0086039 0.0094862 0.0065498 0.00036698 0.001869 0.0085967 -0.00098391 -0.0043149 -0.0047027 -0.0055776 -0.0077252 0.0040655 
my 0.00025343 -0.0060753 -0.0035983 0.0074121 -0.0012915 0.0036147 0.0051899 -0.0096437 -0.0075972 -0.0011343 0.0030948 -0.0023908 -0.0029965 -0.0075559 0.0079666 -0.0041178 0.0040428 0.0056659 0.0058051 0.0075296 0.0090458 -0.009167 0.00068433 -0.0017054 -0.004836 0.0048301 -0.0028253 -0.0083234 -0.0026723 -0.0011173 -0.0068067 0.0094914 0.0094779 -0.0047894 -0.0047896 -0.0095299 -0.00015231 -0.0059859 0.00018959 0.0089039 -0.0038123 -0.0013116 -0.0029462 -0.00029709 -0.0027432 0.0060337 -0.0071076 -0.0087891 0.0027463 -0.0024453 0.0066737 -0.0017563 -0.0041545 0.0029779 0.003747 -0.0072467 0.0017467 -0.008667 -0.0010283 -0.0071703 -0.00066977 -0.004134 0.0049167 0.00088982 -0.0077233 0.0073478 0.010008 0.0083464 0.006915 0.0069949 -0.0080027 -0.0035036 0.0064299 0.0063276 -0.00624 -0.0027052 -0.0091707 -0.0059242 0.0046438 0.0079524 0.0038061 -0.00043576 0.0085439 -0.0062889 -0.0013996 0.002501 0.0094169 -0.0075025 -0.0014875 -0.0051425 0.0062631 0.0057456 0.00029918 -0.00097058 0.0082482 -0.0031918 -0.0054919 0.00079387 -0.0041152 -0.0036053 
name 0.0073082 0.00020033 0.0091588 0.0068167 -0.0058504 0.0039582 -0.0062108 0.0027195 -0.0064371 0.0062839 -0.0097188 -0.0062959 0.0043087 -0.00055254 -0.0044404 0.0021131 0.0055627 0.0017787 0.0059978 -0.0079102 -0.0084303 0.0059378 -0.0075941 0.0049733 0.00039251 0.0079013 -0.0027456 0.0036422 -0.009096 -0.0027751 -0.008984 -0.003373 0.0020476 -0.0081519 -0.0071854 -0.0035098 -0.0028734 -0.0027786 -0.0009874 0.0082156 -0.0054064 -0.0073354 0.0074545 0.0039253 0.0060696 0.0053086 0.0057393 -0.0088236 0.0010273 0.0065735 0.0070188 0.0082263 -0.0091797 0.0016726 -0.0026673 0.00096957 -0.00053936 -0.010008 0.00020276 0.00054771 0.0094629 0.0051147 -0.010031 -0.0046851 0.00872 -0.00030064 -0.0069739 -0.0053995 -0.00085909 0.0050163 -0.0092282 -0.008426 0.0059495 0.0042404 -0.0048587 -0.003898 0.0083951 -0.0061801 0.0082919 -0.0094721 0.004763 -0.0040737 0.00079288 0.0074975 -0.0010135 0.0057015 0.00051025 -0.004636 0.0049549 -0.0096582 -0.0099672 0.0039219 -0.0016857 -0.0010198 0.0070661 0.0011019 0.0064005 -0.0039257 -0.0088841 -0.0059619 
call 0.0087251 -0.0017292 -0.0077065 0.0060064 -0.0035028 -0.0051769 -0.0031157 -0.0042815 0.007303 -0.0093665 -0.00073914 -0.0058351 0.0077969 0.0020413 -0.0012972 -0.0041233 0.0087469 0.003418 -0.0074702 0.0036068 -0.00095151 -0.0035478 0.0014707 -0.0079789 -0.0059579 -0.00024232 0.0032547 0.0032537 0.0073982 -0.0071545 0.0047788 0.0079984 0.0097903 -0.0081757 -0.0093385 -0.0043271 -0.0061187 0.0069416 -0.0080499 -0.0058398 0.0081001 -0.0093414 0.0087749 -0.00078476 0.0017842 -0.0066219 0.0035671 0.0086558 -0.0089466 -0.0007465 0.00013011 0.00018897 0.00080687 0.00082445 -0.00114 -0.0084064 -0.0060055 -0.0067779 -0.0062017 1.8634e-05 -0.0049378 -0.0024396 0.0034923 -0.0010678 -0.0063555 -0.0037997 -9.5862e-05 -0.0077983 0.001967 -0.008618 -0.0073617 -0.0076859 0.0078573 -0.0061034 0.0027093 -0.0039425 -0.003209 -0.0065407 -0.0082096 0.0032258 0.0085371 0.006296 0.0076238 -0.0036224 -0.0034897 -0.0083291 -0.0055976 0.0033565 -0.0073929 0.0086824 -0.0046312 0.0086692 0.004715 -0.0011076 -0.0053512 0.0064954 0.005839 0.0060055 -0.0013135 -0.0058759 
im -0.0084017 -0.0085489 -0.0096843 0.0055814 -0.0092447 0.0074726 -0.0012089 0.0051609 -0.0091358 0.003848 0.0021442 -0.0067324 -0.0098066 -0.0088162 -0.00065607 -0.0042594 0.0093194 0.0025764 0.0074432 -0.008028 -0.0091754 -0.0061321 0.00098661 0.0014414 -0.0015745 -0.009969 0.0005607 0.005625 -0.0059934 -0.00075707 0.0070113 -0.0018768 0.0079261 -0.0016471 -0.00059097 0.0013479 0.0099671 -0.00081578 0.00050531 -0.0068856 -0.0037914 0.0085494 -0.0052924 -0.0046301 -0.0049155 0.0026247 0.0059055 0.0058717 -0.0069456 -0.0063869 -0.0077294 -0.0082807 0.007381 0.0059482 0.0081204 0.0066358 0.00039971 -0.0015725 -0.0019413 0.0026825 -0.0019129 0.0069996 0.0020368 0.0059807 -0.0047341 -0.0070261 0.0079614 -0.00090153 -0.0059536 -0.0050665 0.0051122 0.0067197 -0.0028985 -0.0083192 -0.0070496 0.0085969 0.0099793 0.0046569 -0.0067079 0.0052115 0.004252 -0.008759 -0.0047508 0.0094605 0.0088577 -0.0027869 -0.0097306 0.00022826 0.0026735 -0.0088918 -0.0093408 0.0022273 -0.00090801 -0.0025352 0.0032102 0.005322 0.0002437 -0.007067 -0.0055809 0.0017606 
here -0.008319 -0.0026273 -0.0073354 -0.0086572 0.0063236 -0.0065066 0.0051872 0.0046878 -0.005654 -0.0059773 0.0002628 -0.0065998 0.0020687 0.00053951 -0.0062879 -0.0085453 0.0032369 -0.0080285 0.0013592 0.006587 0.0051274 0.0056728 0.0030568 -0.0034506 0.0089146 0.001277 -0.0080812 -0.008606 0.00096116 0.0076517 -0.00091017 0.006931 -0.0086807 0.0011351 -0.00075235 -0.0047833 -0.0092993 -0.0016728 0.0065184 0.009126 -0.0032159 -0.0028579 0.00050418 -0.0025149 -0.0099518 -0.0082762 -0.0022531 0.0022854 -0.0071112 0.0024549 0.0052157 -0.0015326 -0.00082929 -0.003252 0.0098968 -0.0038861 0.0011805 -0.0003177 0.0014567 0.0060111 0.0089308 0.0041536 -0.0082821 -0.00075666 -0.0042382 -0.0037948 0.005887 -0.0076 -0.0062705 -0.002872 -0.0073093 0.0039775 -0.0004852 0.0010389 -0.0016371 0.0069866 -0.0054985 -0.0048576 0.00041223 0.00080694 -0.0052936 -0.0017666 -0.0036527 -0.0093015 -0.0051536 -0.0033565 0.0056231 -0.0098545 0.0021073 6.6013e-05 0.00084503 0.0068866 0.0096676 0.008775 0.00032463 0.0011665 0.00054691 -0.0031222 -0.00032908 -0.002083 
goodafternoon 0.0022076 0.0082366 0.0085995 -0.0078338 -0.0080775 0.0088765 0.0038263 0.0096141 -0.0026929 -0.0011442 0.0066328 -0.0036401 0.0029761 -0.0093311 -0.0065859 0.0085476 -0.0058212 0.0058561 -0.00095821 0.0067524 -0.0028368 -0.0092049 0.0092165 0.0047684 0.007986 0.0053141 -0.0089258 0.0012132 -0.0077153 0.0039925 -0.0075101 -0.0012387 -0.0081871 -0.001697 0.0023143 0.0092362 0.0086542 -0.0050033 0.0095203 0.0089221 -0.0045398 0.0016532 0.0020302 0.0089757 0.0031026 0.0072136 -0.0028955 0.0018525 0.0033578 0.0056952 0.0037129 0.004565 0.009673 0.0071497 0.0092694 -0.0048692 -0.0044468 0.006298 0.00066393 0.0048044 0.0023372 -0.0098806 0.0005624 -0.0088817 0.00018981 -0.0053295 -0.0061147 0.0062634 -0.0034099 -0.0077611 0.0016501 -0.0093922 -0.0046899 -0.0005087 -0.0099246 -0.0046295 -0.006694 -0.00010912 0.0062132 0.0062343 0.0020063 0.00063209 0.0061905 0.0082399 0.0067533 0.0042712 0.0054077 0.0053065 0.0077587 0.003335 0.0035142 0.0090602 0.0031834 -0.0096976 -0.0061998 -0.00058803 -0.0052497 -0.0048099 0.004789 -0.0027703 
nice -0.0063252 -0.0010218 0.0036064 0.00039667 0.0080522 0.00076536 -0.0096266 0.0064837 0.0069505 -0.002219 -0.00035747 0.0012269 0.0057303 0.0094004 -0.0074127 -0.0071973 -6.8978e-05 -0.0034893 0.00033674 -0.0096997 -0.0074358 -0.00086192 -0.0024505 0.0080209 -0.0091827 -0.0021574 -0.0092965 0.00099187 -0.008158 0.0088904 0.0018969 0.0026292 0.0093224 -0.0040631 -0.00035383 -0.0037499 0.00063063 -0.0060604 -0.0086389 0.009826 -0.0055417 -0.0044836 0.0084082 0.0014616 0.0015522 0.00020068 -0.0052474 -0.0027974 -0.00124 -0.0083695 -0.00088847 0.0012644 -0.0079108 -0.0067768 0.009154 -0.0047486 0.002996 0.0063623 0.0050986 -0.0060779 0.0078839 0.0011056 0.0070242 0.0040865 0.0076986 0.0038046 -0.00264 -0.0021312 -0.0082822 -0.0083674 0.0072346 0.0096225 0.0015983 0.0098773 0.003076 -0.0032924 -0.0051824 -0.0010433 0.0028791 -0.008893 -0.0033307 0.0075009 -0.0082788 0.0040321 -0.005689 -0.0020773 -0.0033352 0.0060055 -0.005473 0.00085726 0.0052027 -0.0062649 0.0048761 0.002993 -0.0079044 -0.0098945 0.0055107 -0.0066406 0.0055858 0.00097989 
day! -0.0079514 0.0067552 -0.00047754 -0.0030784 -0.0096374 0.0070472 -0.00085109 0.0037043 0.0033398 0.0097735 -0.0099431 -0.0065871 0.0026649 -0.0098808 0.0090703 0.0073623 0.0096757 -0.0077335 -0.0013358 0.0063061 0.0081967 -0.0096356 -0.00045647 -0.0033138 -0.0092445 -0.0035248 0.0091858 -0.0029411 0.00092663 -0.00021125 0.009213 0.0027623 -0.0063961 0.0015976 0.0027288 -0.0099488 0.0062502 0.0073028 -0.0014295 -0.0055745 -0.0041108 -0.0092631 -0.0026774 -0.005991 -0.0071621 0.0080148 -0.0023599 -0.0055391 -0.0068621 0.0068388 -0.0095033 -0.00089436 0.0013645 0.00672 -0.0065371 -0.0074767 -0.0029489 0.00080618 -0.0061463 0.0043185 -0.0070544 -0.003634 0.0038934 -0.0088162 -0.00085577 0.0024782 0.004919 -0.007207 -0.0086291 -0.0017233 0.00035627 0.0093836 0.0059946 -0.0026719 0.0035666 0.0029432 0.0059196 -0.0037597 -0.00049491 -0.0084493 0.00018287 0.0048878 -0.0047858 -0.0062442 0.0044244 0.0005094 0.0023473 -0.0096501 -0.0083742 0.0061008 -0.0096426 0.005406 -0.0061489 0.0078685 0.0074401 0.0071399 0.00038042 0.0015473 -0.0044571 0.0069521 
hi -0.0091998 0.0027246 0.0018715 0.0099198 0.0075873 0.0037278 -0.0099098 0.0062553 -0.0019498 0.0044687 -0.0083463 -0.0068005 0.009955 0.0018466 -0.0092119 -0.0098608 0.0031517 0.0069222 -0.0051125 0.0022448 -0.0087894 -0.0066735 0.0094347 -0.0066761 -0.0021565 0.0045161 0.0030726 -0.0073813 -0.0066064 0.0093276 -2.3402e-05 -0.004028 0.0088214 -0.0081899 0.0050063 0.0023156 -0.0018819 -0.0017113 -0.0025004 -0.0051354 0.0042184 0.003199 -0.0064244 -0.0020176 0.0042584 -0.00053188 0.0042602 0.00010674 0.0006046 -0.0067227 -0.0062837 -4.3735e-05 -0.0081467 0.0051626 -0.0071587 -0.00059793 0.0031798 0.0071326 -0.0072846 -0.0043671 -0.0063622 -0.0041036 0.0051063 0.0014764 0.0088273 0.0038052 0.0030672 -0.0078344 0.0046435 -0.0016931 0.0073807 0.0011555 -0.003964 -0.0064232 -0.0047154 0.009861 -0.0029677 -0.003407 -0.0071328 0.0021789 -0.0094129 0.0064873 0.0084186 0.0065509 0.0085424 -0.010109 0.0073287 0.0026014 -0.00015948 -0.0050815 0.0048816 0.0095038 0.0029821 -0.0033568 -0.0041532 -0.00094528 0.009866 -0.0075456 -0.001112 0.0092851 
hey -0.0087155 -0.0090178 -0.0086841 0.0054665 0.0065701 0.0079656 -0.0071791 0.0077682 -0.0019147 0.0011072 -0.00064287 0.0075538 -0.0050809 -0.0030099 -0.0010354 0.0016015 0.0060398 0.0067318 -0.0012304 -0.0097668 -0.0095829 -0.00054617 0.0072838 0.0056201 -0.0080975 -0.009725 -0.0035054 0.0080785 -0.0038229 0.0014348 -0.0030885 0.0067154 -0.0036267 -0.00066717 -0.0030051 0.0069041 0.0038684 -0.001585 -0.0013748 0.0072527 0.0041886 0.0010815 -0.00049457 -0.0035162 0.004529 -0.0058777 0.0030608 -0.0068813 0.004372 0.0097876 0.0063705 0.0097097 -0.0040286 0.0073057 -0.002851 -0.010029 -0.0022314 -0.0088061 -0.0041844 -0.0052511 -0.0037376 -0.0021449 0.0028232 -0.0040812 0.0037881 -0.0069157 0.0063609 0.0021952 -0.0071286 -0.0042023 0.0075071 -0.0023519 -0.0041008 0.0050809 0.0058685 -0.006098 0.0048428 -0.0067361 0.0036924 0.0063311 -0.0087232 0.0062228 -0.0041269 0.0024267 -0.00039121 -0.0047008 -0.0099475 -0.0072381 -0.0033503 0.0029194 0.0037553 -0.0089507 0.006753 0.0081934 0.0095587 -0.0010623 -0.0074207 -0.008678 0.0063918 0.0085585 
mornin 0.0072393 -0.0038834 0.0081988 0.0046297 -0.0048285 -0.0051033 -0.008823 0.0052295 -0.0025402 -0.0038866 0.0073972 0.0027969 -0.0084746 -0.0090706 0.0062936 0.0059691 -0.0030076 -0.0051338 0.0061033 -0.0081963 0.0072572 0.0039946 0.0018554 -0.00045824 -0.0020619 -0.0035554 0.0093239 -0.0026115 -0.0094134 0.0075916 -0.0098305 0.00091212 -0.010275 -0.010188 -0.0094611 -0.0090771 -0.0065958 0.0019363 0.00074356 0.0048651 0.00054806 -0.00020347 0.0054879 -0.0075899 -0.0046919 0.00038956 0.0034458 0.0027039 0.0060739 3.0707e-05 -0.0050928 -0.00077648 -0.0022359 0.0082481 -0.00085048 -0.0058889 -0.0018956 -0.0095235 -0.0042256 -0.002663 0.0093207 -0.0034103 0.0044512 0.0021712 -0.0090224 0.0058226 0.0051207 -0.003695 0.0044097 -0.0013105 0.0074534 0.0084699 0.0041125 -0.0041176 -0.0053651 -0.002525 -0.0088678 -0.0058396 0.0050812 -0.0081969 -0.0081929 -0.0066783 -0.0070451 0.0069274 0.0046201 -0.0055724 -0.0048157 0.0079359 0.0079979 -0.0033953 -0.0056541 0.0036498 -0.0091501 0.0025182 0.0045888 -0.0070346 -9.3657e-05 0.0028049 -0.0088461 -0.0015243 
afternoon -0.00053862 0.0046936 0.0048628 -0.003269 -0.00034796 -0.0035818 -0.0074085 0.0096185 -0.0030228 -0.0030895 -0.0077571 0.00278 0.0016777 -0.001851 -0.0085161 0.00020828 0.009741 -0.0058303 -0.003945 -0.0023298 0.0079248 -0.0082216 -0.0071479 -0.00072894 0.0083557 -0.0039513 -0.0037359 -0.0067161 0.0079242 0.0091694 -0.0050997 -0.00028591 0.0035301 -0.0032696 0.0049325 -0.0032282 -0.0040947 -0.0010356 -0.00049446 -0.0087809 -0.0018331 -0.006742 0.00061672 -0.0022868 0.0094516 0.0033995 0.0093135 -0.00012653 0.007918 -0.0061795 0.0054259 0.0025174 -0.009463 -0.0028531 -0.0013983 0.0040269 0.0046907 0.0030443 -0.0044717 -0.0030434 -0.001403 -0.0027515 0.006599 0.0041553 0.0070643 0.0027798 0.001654 -0.006552 0.0008522 0.0067342 0.00037298 0.0069668 -0.00066063 -0.00029976 -0.0014461 0.0083834 0.0005975 0.0072884 -0.0047072 -0.0014399 0.0030255 -0.0051836 0.0040993 0.0038413 -0.0060679 0.0094345 0.0019805 0.0030545 -0.0069104 0.0030232 0.0059339 -0.0024779 0.0080873 -0.0098572 0.0074526 0.0079398 0.0085938 -0.0064194 0.00046443 0.0054635 
greetings 0.0024956 0.0020575 -0.004523 0.0048948 0.00020508 0.0087683 -0.0092462 0.00074135 -0.0089655 0.0078158 -0.0074403 -0.0066394 -0.0038266 0.0028339 0.0036507 -0.0023454 0.0013389 0.0020151 -0.0094061 0.0068167 -0.0063038 -0.0033515 -0.0065218 -0.0038969 0.00067673 -0.0064374 0.010242 -0.0081973 -0.0099665 -0.00037776 0.0024516 -0.0019567 -0.0045022 -0.0012973 0.003877 0.006529 0.00067855 -0.0055293 0.0089361 -0.0046055 0.0021387 0.0083674 -0.0030781 -0.0077795 -0.00036992 0.0055016 -0.0038521 0.008339 0.0064771 0.0019264 0.0082827 -0.0072699 0.00020748 0.01024 0.0052575 -0.0029119 0.00018998 -0.0016708 0.0050593 0.00074316 0.0030217 -0.0016477 -0.0086743 -0.005638 0.0019484 -0.0093453 -0.0067743 0.0093965 0.0030859 0.0053611 0.0020439 0.0099996 0.00082288 -0.004054 -0.010178 -0.0017675 -0.0036116 -0.0052446 0.0074402 0.0050268 0.0051291 0.0059862 -0.004751 -0.0040238 -0.0037976 0.0072353 -0.0095108 0.0056496 -0.0023568 -0.0049728 -0.00080937 0.008581 0.004055 -0.0091 -0.0058564 -0.0022472 0.0039379 -0.0064394 -0.0082521 -0.00062629 
see -0.0016482 -0.0060823 -0.0031156 0.0032481 -0.0013901 7.3024e-05 0.0090694 -0.00075632 -0.0095762 0.0021807 -0.0022898 0.0044785 0.0018395 -0.0079288 0.0053395 -0.0079598 0.0013199 -0.0020284 -0.0082949 -0.0088698 -0.0063484 -0.0054084 -0.0017859 0.0037232 -0.0073323 -0.0029454 -8.3735e-05 -0.0079827 -0.006142 -0.00271 -0.0063736 -0.0056966 -0.0060732 -0.0052357 0.0098384 -0.0040173 -0.0086004 0.0011445 0.0021742 -0.00028704 -0.00066831 0.0068606 -0.0071487 -0.00073137 -0.009068 0.0089482 -0.00067342 0.0015956 0.0048504 0.00065818 -0.0015345 -9.7914e-05 -0.00070298 0.0038447 -0.0048451 -0.00061473 -0.0015471 0.0018655 -0.0024734 0.0098717 -0.0089898 0.0047527 -0.0057558 -0.0060774 -0.0037905 0.0018435 0.0057147 -0.00055732 0.005161 -0.0046263 0.0089438 -0.0037858 0.007843 -0.0012219 -0.0054422 0.0014383 -0.0057815 -0.0018439 0.0071087 0.0090475 -0.0029428 0.010202 -0.0086489 0.009823 0.0059523 -0.0056697 -0.0031976 0.005026 -0.0065809 -0.0033428 0.0078352 1.8852e-05 0.0082553 -0.0077454 0.001375 -0.0028781 -0.0026536 -0.0043406 -0.0010963 -0.0028124 
